nep3 3 Ga O Au 
cutoff 8 4 157 28
n_max 4 4
basis_size 12 12
l_max 4 2 0
ANN 50 0
  1.8637445e-02
 -1.0399845e-01
 -1.1053183e-02
  1.3258144e-01
 -4.2374741e-02
  1.9730322e-02
 -2.2023753e-03
 -3.5042733e-02
  1.4567966e-02
  4.3029465e-02
  1.2167197e-02
 -3.0190971e-02
 -1.4185912e-02
  3.3597991e-02
  1.5930888e-01
  6.3122503e-02
 -7.5342543e-02
 -1.1392267e-03
  5.7244610e-02
 -7.4966282e-02
 -2.2825650e-03
  7.4729443e-02
  1.4459488e-01
  3.6512151e-02
  1.5594548e-01
 -2.5368972e-02
  3.0199531e-02
  2.2246029e-02
 -6.4207083e-03
  3.9562518e-03
 -1.0743752e-01
  3.1770635e-03
 -4.6416640e-02
  2.5639785e-02
  8.6000841e-03
 -3.6932629e-02
  9.0921484e-03
 -3.1653140e-02
  7.9268374e-02
 -1.3915057e-01
 -4.3624613e-02
 -4.7177833e-02
  6.8704602e-03
  3.0498605e-02
 -1.0324185e-02
 -4.3082070e-02
  2.7546546e-01
  1.4388926e-01
 -5.8056600e-02
  3.7711009e-02
 -9.2992559e-03
  4.8438273e-02
 -2.9411597e-02
  8.4849410e-03
 -1.0811224e-01
 -3.1888615e-02
  1.3183178e-01
 -1.2334675e-04
 -4.9937222e-02
 -1.0633722e-01
  4.4212043e-02
  1.2098647e-03
  3.7015043e-02
 -2.1122660e-02
 -1.7692618e-02
  2.0976396e-02
  3.5223320e-02
  1.1959586e-03
  7.1701698e-02
 -7.2468766e-03
 -1.5119792e-02
 -4.0087171e-02
  6.5550610e-02
 -4.4426210e-03
  5.8038789e-03
  1.2217809e-02
 -3.6880687e-02
 -1.0819231e-03
 -2.6804382e-02
  1.2918308e-02
 -2.9025633e-02
 -1.0312551e-01
  9.0137467e-02
  2.8536607e-02
  5.9772745e-02
  7.7778781e-03
 -2.0175561e-02
 -2.7698399e-02
  9.0696037e-02
  2.3854900e-02
  8.4765419e-02
  1.3426456e-02
 -1.0140948e-02
 -2.1699406e-03
 -7.8029506e-02
 -1.0137308e-02
  8.9508351e-03
 -3.4830451e-02
 -4.1433191e-03
  6.8668969e-02
 -2.9790378e-04
 -9.8425597e-02
  1.2416478e-01
  6.0859751e-03
 -2.8081730e-02
 -6.8777531e-02
 -1.2527300e-01
 -1.5253419e-01
 -2.4103850e-02
  1.8599432e-02
 -6.9891647e-02
  3.0968053e-02
 -2.2161121e-03
  3.7803086e-03
  6.3207783e-03
 -1.3950098e-03
  2.8609090e-02
  1.0596219e-01
 -4.1513372e-02
 -1.0780191e-01
 -5.6103434e-02
 -2.7425909e-01
 -1.6884395e-01
 -3.1797454e-02
 -4.2438928e-02
  1.9880028e-02
 -5.2857742e-02
 -4.5699197e-01
 -1.9792696e-02
  3.3233300e-02
 -1.0201403e-02
 -1.3422447e-01
  2.6000552e-02
  1.0456698e-01
 -1.1776121e-01
  6.4404955e-04
  7.3666647e-03
 -9.1433257e-01
  5.0253319e-03
 -1.0551078e-02
  8.1066675e-02
 -2.6227358e-01
  1.0503437e-01
  2.8884316e-02
 -8.3617112e-03
  2.6542293e-02
  5.6603923e-03
 -2.8033899e-02
 -5.6925155e-02
 -7.1356371e-02
 -5.6581859e-02
  1.3506306e-02
 -2.6223895e-03
  1.5782548e-01
 -2.3846434e-02
  1.5373325e-02
  7.5002462e-02
  1.9568801e-02
 -8.2665324e-02
  1.3982062e-01
  6.1061598e-02
 -1.1747599e-02
  5.2822359e-02
  3.8166777e-03
  5.3031002e-03
 -9.8348642e-03
 -3.7387516e-02
 -3.3285901e-02
  7.8207180e-03
  1.5660239e-02
  7.7706136e-02
  1.1092965e-02
 -1.9428348e-02
  1.4138000e-02
 -1.9423923e-02
 -7.1418500e-03
  8.2858108e-02
 -1.0577056e-01
  4.0533297e-02
 -1.3468436e-02
  2.0395099e-01
 -3.0918023e-02
  5.6800945e-03
 -1.2985326e-01
 -2.1133641e-02
  3.7545264e-02
 -6.4855531e-02
 -6.3142367e-02
 -4.3745305e-02
  3.5203189e-02
 -2.2090601e-02
  9.9602960e-02
  1.0867699e-01
  2.1654353e-01
  3.1297412e-02
  8.1232972e-02
 -9.7767875e-02
 -4.1912630e-02
  3.4186625e-01
  3.0266047e-02
  2.4862999e-02
 -3.1464204e-02
  2.7853347e-02
 -4.7333349e-02
  9.1907877e-04
 -4.4693546e-03
 -1.3398634e-02
  1.4071967e-01
 -1.5728654e-01
 -6.2388487e-02
  2.4888156e-02
 -6.6981830e-02
  6.5691844e-02
  9.3040377e-02
 -5.8531079e-02
  4.1949708e-02
  3.9290428e-02
  8.5962135e-03
 -1.0012926e-01
 -7.8034423e-02
 -1.1465213e-01
  7.9026259e-02
 -2.8784383e-02
 -2.5555706e-02
  7.5457424e-02
 -6.5606688e-03
  4.6644085e-03
  2.3809927e-02
 -9.6870229e-02
  7.3575340e-03
 -9.0078488e-03
 -4.4184723e-03
  1.2749608e-01
  2.4360152e-02
  3.5137843e-02
  3.1664629e-02
 -7.5842910e-02
 -3.8120113e-02
  3.8912043e-02
  1.4611089e-02
 -8.5542895e-02
  1.7583925e-02
  5.3252775e-02
 -2.1076579e-02
  8.0749346e-03
 -4.0388014e-02
 -7.5716212e-02
 -8.9662550e-03
 -6.8413168e-02
  1.9131713e-02
 -3.3219155e-02
 -6.0691275e-02
  5.1662840e-02
  3.5289843e-02
  1.1628940e-01
 -9.5697343e-02
  5.9819102e-02
 -2.5455575e-02
  6.9258730e-03
 -5.9277886e-03
  4.1540535e-03
 -5.9369123e-03
 -2.8813628e-02
 -6.0028948e-02
  3.4156125e-02
 -7.2988741e-02
  1.8996393e-02
  3.9317567e-02
  9.3005551e-03
  1.4498310e-02
  3.8120613e-02
  6.4299025e-02
 -1.7915799e-01
  5.4726852e-03
  3.2610744e-03
  2.6140289e-02
 -3.5557706e-02
 -2.0383803e-02
  7.2926119e-02
  2.3008566e-02
 -1.4550921e-01
  3.8317345e-02
  1.6321313e-02
 -3.0261267e-02
 -3.2418814e-02
  3.0988019e-03
  9.1854027e-03
 -3.2160841e-02
 -3.7714418e-02
 -7.0507780e-02
 -9.5277287e-02
 -1.4566379e-02
  3.6504071e-02
 -4.8800364e-02
 -3.5603691e-02
  6.5220552e-03
 -2.3147823e-02
  6.6714756e-02
  4.1870929e-02
  1.0510195e-02
 -7.6038577e-02
 -1.3145068e-01
  5.6836020e-02
 -1.0450692e-01
 -1.9311751e-01
  5.2784625e-03
  1.5694197e-02
  3.8003802e-02
 -3.6000032e-02
  1.0455377e-01
 -7.0989989e-02
 -1.1398898e-01
 -9.0531692e-02
 -1.8589679e-02
  1.3017701e-02
  6.4384870e-02
  8.0642954e-02
  1.5665948e-02
  2.8959291e-02
 -2.0993380e-02
  1.5948020e-01
  1.9693537e-01
 -1.5961532e-02
 -1.0645693e-02
 -6.9869757e-02
  4.9878601e-02
  8.6030483e-02
  2.0118168e-01
 -9.8873982e-03
  1.9817354e-02
  1.6448176e-02
  2.3274874e-02
 -2.1838211e-02
 -2.9458387e-02
 -4.6173823e-03
  1.5669528e-01
  1.5576589e-02
 -3.8938255e-03
 -1.3513352e-01
 -7.0942873e-03
  1.6628673e-02
  7.6460522e-03
  2.2583483e-01
 -5.8241360e-02
 -1.0209186e-01
  1.2797408e-01
 -1.0869413e-02
  5.2188691e-02
 -1.9310908e-01
 -9.3850903e-03
 -1.2947384e-01
  3.9589126e-02
 -3.4149423e-02
  2.0078572e-02
 -4.3642349e-03
  7.3010577e-03
  2.3476521e-02
 -3.3325128e-02
 -1.6957045e-01
 -5.7833683e-02
 -2.2323841e-02
  1.7435645e-01
  7.8236209e-03
 -4.3994333e-03
  3.8880367e-02
  1.9881434e-03
  1.1409386e-01
  6.5390095e-03
 -9.9275485e-03
  2.6538179e-03
 -6.4362615e-02
  6.8627465e-01
 -6.9215125e-03
  4.9066506e-02
  1.2512583e-01
  8.9029633e-03
 -1.1051046e-02
 -2.4619963e-02
  2.6780179e-02
 -2.4137525e-02
 -1.3091663e-01
 -4.7188506e-02
 -1.8228588e-03
  1.2026338e-01
 -4.4468218e-03
 -2.8739333e-02
 -3.5583157e-02
 -5.4766584e-02
  1.7305629e-01
 -6.1415426e-02
  1.0599223e-02
  1.4135221e-01
 -1.4997542e-02
  1.7427158e-02
 -7.7180959e-02
 -3.9478955e-03
  3.5713740e-02
 -5.1221768e-03
  3.7860546e-02
  4.5016550e-02
 -2.2454131e-03
  9.9881195e-02
  3.6559009e-03
 -2.9891843e-02
 -4.6850707e-02
 -4.8219364e-02
 -9.1350123e-02
  6.0632966e-02
  1.3219482e-02
 -6.3424431e-02
 -9.8781725e-03
  3.3498429e-02
 -3.1263568e-02
  3.9598733e-02
  1.2672232e-02
  4.3254074e-02
 -5.4157715e-02
 -4.9139228e-02
  5.4429974e-02
  2.3498313e-01
  2.0080645e-02
 -9.3464423e-03
  8.3567649e-03
  1.0618538e-01
  2.0256925e-02
  8.4546342e-02
 -4.0536888e-02
 -1.8079808e-01
 -3.5304632e-03
 -8.3975770e-02
  3.0768629e-02
  2.6258397e-01
 -4.4956930e-02
 -9.3758859e-02
 -9.7662937e-03
 -4.3037508e-02
 -1.8008478e-02
  1.0113218e-01
 -2.6417284e-03
  2.4258010e-03
  2.5158431e-03
  1.7261177e-02
 -9.8384619e-02
 -6.6733055e-02
  6.8487609e-03
 -1.2077747e-01
 -4.7105003e-02
 -1.0024440e-01
  9.7845934e-02
 -1.2371736e-02
 -1.7964938e-01
  2.4831161e+00
 -5.4830194e+00
 -6.7411232e-01
 -4.3565693e+00
  8.8792332e-02
  2.1250432e+00
 -1.7791451e+00
 -1.5654809e+00
  1.4197513e+00
 -1.1105180e+00
  6.8976986e-01
 -1.1935414e+00
 -3.1717386e-02
 -3.2920565e-02
 -1.7688997e+00
  2.0107946e-01
 -1.5780108e+00
  7.1431446e-01
 -8.0091882e-01
 -5.7045692e-01
 -9.6105993e-01
 -1.4399360e+00
  1.1934408e+00
 -8.7613296e-03
  2.4505848e-01
 -8.5632914e-01
 -1.2178351e-01
  4.7919426e-02
  5.9429914e-02
 -4.2120535e-02
 -2.8060958e-01
  1.5295088e-01
 -4.9861878e-01
 -3.4374562e-01
 -3.4882784e-02
 -1.6060309e-01
  8.2793474e-02
  7.6391287e-03
  2.6426104e-01
 -1.5107626e-01
 -1.3964118e-01
 -8.1927277e-02
  2.6065752e-01
  2.8423525e-02
  2.7778286e-01
  1.6112417e-02
  2.9347429e-01
  1.4603156e-02
 -5.0208740e-02
  1.5443502e-01
  6.0922438e-03
  3.2685563e-01
 -2.8006564e-04
 -1.0585194e-03
  2.3777890e-01
  1.0306396e-01
 -7.4941218e-02
 -3.3462685e-02
  7.8678831e-02
 -1.4767247e-01
  1.6293329e-01
 -4.4780124e-02
  6.2451035e-02
  1.6963579e-01
  9.0390235e-02
  1.1942268e-01
  1.2023890e-02
  2.0749730e-01
  8.6474895e-02
  1.1724319e-01
  1.1783557e+00
  5.4792005e-01
  2.0773534e-02
 -1.5757695e-02
  7.5369023e-02
 -3.6124337e-01
 -3.5179459e-02
  1.9513978e-02
  2.1813599e-02
 -1.0014155e-02
 -3.5487550e-01
  1.4433824e-01
  2.6586130e-02
 -1.7554708e-01
  8.5419819e-02
 -1.9669908e-01
 -4.3557709e-01
 -7.8238346e-02
  6.2217377e-02
  2.2191076e-02
  3.2505941e-02
 -2.3795774e-02
 -9.6261479e-02
  1.2939528e-01
 -1.0277635e-02
  8.1364274e-01
  4.7169863e-03
 -3.5540804e-02
 -1.7071324e-03
  1.8242113e-02
  3.6445767e-02
  2.8602008e-02
 -5.8459230e-03
 -1.6980523e-01
 -4.6805933e-02
  9.3961461e-03
 -1.0280469e-01
  1.3931836e-01
 -3.1875849e-02
 -1.6586347e-03
  1.9064121e-02
 -5.7500422e-02
 -7.7547602e-02
  1.7353514e-02
 -9.1166571e-02
  8.2269832e-02
  3.5584424e-02
 -1.7806074e-02
 -3.8994920e-02
 -2.0330932e-02
  3.6464751e-02
  8.9171261e-02
  1.3606168e-01
  1.4758407e-02
  5.8852397e-02
 -3.3317838e-02
 -1.2930588e-02
 -1.1520908e-03
 -1.0773326e-01
 -4.3575291e-02
 -5.1389311e-02
 -5.2456968e-03
 -1.2884791e-01
  8.8773044e-03
 -2.5561509e-01
  2.6492783e-01
  8.4697036e-03
  8.5662818e-03
 -1.5222996e-01
 -2.8841391e-02
 -3.6304761e-02
  2.8498676e-02
  2.1127187e-02
  1.5995877e-02
 -2.2704590e-02
 -3.5176959e-02
 -3.6665812e-02
 -4.1922245e-02
 -9.0603195e-02
 -5.0779819e-02
 -6.4226910e-02
 -7.6685630e-02
 -5.2619591e-02
 -2.3194415e-02
  1.9482004e-02
 -1.0745718e+00
 -4.0265944e-02
  6.8277799e-02
  3.1624347e-02
 -6.9986336e-02
 -1.4078815e-01
  3.3484626e-01
 -2.9361199e-03
  6.1280236e-02
 -8.4250784e-03
 -4.6442002e-02
  3.6268360e-03
  1.6974621e-02
 -1.0690969e-02
 -4.1136246e-02
  2.8980678e-02
  4.2319211e-01
  2.6805425e-02
 -8.7101348e-03
  1.6325217e-01
  5.5004377e-02
 -3.3172503e-02
  2.0941491e-03
 -4.1625246e-02
 -2.6091393e-02
  2.7516058e-02
  1.1767034e-01
 -3.7888054e-02
  4.9182322e-02
 -8.1511587e-02
 -7.5770773e-02
  9.1277950e-02
  3.4353722e-02
 -2.3073308e-02
  7.1335281e-03
 -1.1866062e-02
 -1.4425564e-01
  8.3642974e-02
  1.4513029e-02
 -7.7770561e-02
 -1.0803118e-02
  9.1256984e-02
  1.6227096e-01
  4.8463449e-02
 -1.0489010e-01
  3.0066054e-02
  5.8388244e-02
  9.1865718e-02
  9.4733797e-02
 -9.1440661e-04
  7.6310672e-03
  4.0545378e-02
  1.9854395e-02
  9.3135387e-03
 -1.4527020e-02
 -3.9045957e-01
  1.4128953e-01
  2.9680753e-01
 -6.3100103e-03
 -3.4040641e-02
  3.7661582e-02
 -1.4861554e-01
 -3.0275043e-02
  1.4927659e-02
 -7.2278537e-02
  1.1183915e-01
 -6.0363520e-02
  2.2616601e-02
 -6.5228373e-02
  7.8217477e-02
 -1.0522397e-01
 -5.1537502e-01
 -6.7797983e-03
  5.9498485e-02
  3.1754304e-02
 -1.4156198e-02
  7.0746213e-02
  1.4873663e-01
  3.4282631e-03
  1.2624513e-01
  1.1060125e-01
 -4.9363207e-02
 -1.2011775e-01
  1.2848553e-01
 -3.5891049e-02
 -3.6262137e-01
 -4.8835829e-02
 -2.6907617e-02
 -5.6619741e-02
 -1.7906306e-03
  4.5450810e-02
  9.5943891e-02
  1.6896212e-02
 -4.1319612e-02
 -7.6350525e-02
 -2.4170201e-01
 -9.0226196e-02
 -3.2197034e-03
 -1.3507181e-01
  1.3320538e-01
 -1.0744324e-01
 -3.6713141e-01
 -2.1342070e-01
  1.0520776e-02
  2.0761034e-02
  8.1403345e-02
 -3.2423395e-01
  2.2962704e-02
 -1.6233267e-02
  7.0694134e-02
  1.2925404e-01
  5.5724554e-02
 -2.6414081e-02
  5.6594290e-02
 -3.6155693e-02
  2.0421593e-02
 -3.9963517e-02
  7.1203681e-03
 -8.5784242e-02
  1.3142635e-01
  1.1454330e-01
 -1.4458141e-01
 -1.1985004e-02
 -1.2604411e-02
  9.3885642e-03
 -5.4785207e-02
 -4.5499019e-02
 -3.5426624e-02
 -5.2791677e-02
  5.6252934e-02
  2.4660818e-02
 -2.4531681e-02
 -3.4018077e-02
 -3.0337775e-02
 -1.9786265e-02
 -9.7777126e-03
 -9.4080763e-03
  7.2603959e-01
 -1.6714308e-02
 -9.9174879e-02
  1.1084061e-03
 -8.4202588e-03
  2.6385286e-01
 -2.5200920e-02
  3.3234933e-01
  7.1853358e-01
  8.3405775e-01
 -3.1929755e-01
  3.8995568e-02
  3.3196151e-02
  1.6753240e+00
  1.4730476e+00
  5.7479069e-03
  3.4876104e-02
 -2.6336676e-01
 -3.1690294e-01
 -5.5544833e-03
  7.8812659e-02
 -8.0468535e-02
 -1.1046209e-01
 -7.7026075e-01
 -8.6714262e-01
 -3.9271423e-01
  3.1806987e-02
 -2.1147681e-03
  2.9393354e-01
 -1.7371396e-02
  5.1112479e-01
  2.9549897e-03
 -2.3951863e-03
 -6.5683477e-02
 -5.0737661e-01
  6.5057371e-03
  2.4653258e-02
  1.8487645e+00
 -1.9461284e+00
  1.0978673e+00
  3.0163663e-02
 -1.1390667e+00
  2.5587553e-01
 -1.1585558e-02
  5.6165427e-01
  1.0259409e+00
  1.0437460e+00
  1.4632349e-01
  2.6854980e-01
 -1.9564559e-01
  9.7312975e-01
  9.2307836e-01
  1.1756018e+00
 -4.0809575e-01
  6.0471135e-01
  8.0385321e-01
  4.2036566e-01
  2.1129580e-01
  1.1848734e-01
  3.0961040e-01
  6.4423585e-01
  1.2131379e-01
 -4.4481888e-02
  6.7856377e-01
  2.4666156e-01
 -6.9979466e-02
 -1.4237419e-03
 -9.5688082e-02
 -4.8364371e-01
  1.0550017e-01
 -3.1136292e-01
 -2.4361290e-01
 -2.2434793e-02
 -1.8760920e-01
 -1.4962350e-02
 -8.9090038e-03
  1.7229703e-01
 -2.9242763e-02
 -2.1959345e-01
  2.0094831e-01
  1.0540760e-02
  2.5017073e-02
  5.8099204e-01
  3.1518474e-02
  6.7087537e-01
  2.0263876e-01
 -3.6267936e-02
 -3.1562123e-02
  1.0832476e-02
 -2.5163707e-01
  2.4707997e-02
  7.6665670e-02
  1.1103344e-01
  2.6381001e-01
  1.5858665e-02
 -3.0421639e-02
  1.6178784e-01
 -5.0312420e-04
 -1.0830001e-01
 -3.6016077e-02
 -5.1455013e-02
 -3.2945410e-03
  8.8947602e-03
  1.9497043e-01
  5.1438450e-03
 -1.9084657e-02
 -2.3782197e-03
 -8.0258906e-02
 -1.5661463e-02
  2.0347536e-02
  4.2610401e-03
 -2.5017143e-03
  1.9073781e-01
 -4.6751507e-02
  7.4862674e-02
  1.3340454e-01
 -2.0765626e-01
 -3.5194275e-03
  1.9560933e-01
  3.1801158e-01
 -2.2221414e-02
 -1.4555624e-02
  1.5561747e-02
 -2.5951801e-02
 -4.6394791e-02
  1.8506905e-02
  5.2017625e-02
 -1.3905662e-03
 -1.2864710e-02
 -7.2974921e-03
  3.5863698e-02
  1.1339413e-01
  5.8710467e-02
  2.8612785e-02
 -2.1677539e-02
  1.2213911e-01
 -3.1583089e-02
 -2.1679911e-03
  7.2771728e-02
 -2.5553781e-01
 -4.8366409e-02
  5.5383112e-02
 -1.6557877e-01
  2.4525508e-02
 -2.7068820e-02
 -3.3395145e-02
 -2.1102296e-02
 -2.4426259e-02
  8.5352629e-02
  2.6294773e-02
 -3.4322072e-02
  4.7888383e-02
 -4.1775377e-03
 -8.2784243e-02
  7.2588678e-03
 -1.8870652e-02
  4.5330703e-02
 -2.1993443e-02
 -2.9363217e-02
 -9.5558986e-02
 -5.8176413e-02
 -1.2287258e-02
  7.9679105e-04
 -3.3178978e-02
  1.4902003e-02
 -1.8145076e-03
  2.3886925e-02
 -8.4525861e-02
 -4.7936864e-02
  1.2449602e-02
  4.9995224e-04
  2.6011027e-02
  2.5550909e-02
  1.5180236e-02
 -1.5349206e-02
  4.0023783e-03
  7.5879142e-02
 -2.1589212e-03
 -2.0447478e-02
 -8.9673018e-03
  4.1501004e-02
 -1.0818006e-02
 -1.5774367e-02
  5.3599130e-02
  1.1379594e-01
 -3.1635594e-03
 -1.3660121e-01
  3.2344673e-02
 -6.2792492e-01
  1.6487426e-01
 -4.6615660e-01
 -4.1064265e-01
 -6.6515519e-03
 -1.2464415e-01
  2.3420964e-01
  8.4700044e-03
  2.2313766e-01
 -9.9778958e-02
  1.3339492e-02
  1.4361271e-01
  1.3717955e-01
  1.5875649e-02
  3.3530861e-01
  1.9896239e-02
 -7.1816812e-03
 -1.9206272e-02
 -5.1683865e-02
  1.4362143e-03
  3.6372665e-02
 -2.6143098e-02
  6.6857994e-02
 -7.4119866e-02
  4.1516215e-02
 -1.0057996e-02
  4.2196497e-02
  2.5493627e-02
  1.3947268e-02
  2.0597177e-02
  4.9212780e-02
  9.8366536e-02
 -1.6028585e-01
  1.0486309e-03
 -3.5790663e-02
 -5.0960002e-03
  1.6096767e-02
 -3.2166705e-02
  2.5406567e-02
 -3.5928842e-04
  3.2735877e-02
  2.5598474e-02
 -4.2137322e-03
  4.6989255e-02
  1.0875418e-03
  1.0794103e-01
  3.9493456e-02
  2.2397889e-01
  2.8068505e-02
 -1.9753546e-02
 -1.1416599e-01
  1.1951965e-01
 -4.3630611e-02
  2.0277727e-02
  2.8039142e-02
  4.9323443e-02
  8.8437214e-02
 -1.6836697e-02
 -1.5062862e-04
  1.1584730e-03
  4.9514659e-02
  3.0959887e-02
 -1.2102710e-02
 -3.1300047e-01
 -9.4016567e-02
  2.0584946e-02
  1.4417711e-01
 -2.7444111e-02
 -5.0039157e-02
 -4.4938248e-02
  8.3681922e-03
  1.7848389e-02
  1.7538453e-02
  1.1298709e-01
 -4.5650795e-02
  3.5389174e-02
 -3.1934969e-02
 -8.1564307e-02
  1.1419290e-02
  6.7140236e-02
 -1.1876497e-02
 -9.5514491e-02
  3.9968099e-02
 -7.6673470e-02
 -4.2193849e-03
 -1.0983064e-01
 -1.9233448e-02
  1.4240900e-01
 -9.0588257e-02
  5.2493840e-02
  8.1214167e-02
 -3.5423446e-02
  2.6776941e-02
  1.8490721e-02
 -2.7683720e-02
 -1.8239842e-01
  2.9653382e-02
  1.4539319e-01
  8.2397386e-02
 -1.0093237e-01
  8.9015223e-02
  8.7906010e-02
  4.8367996e-03
  2.1838317e-02
 -7.0452378e-03
  3.5539690e-02
 -6.9460543e-03
 -1.5001771e-01
  7.2816528e-02
 -2.6404541e-02
 -1.6968386e-02
  9.4397161e-03
  2.6201798e-02
  1.0578414e-01
 -7.7665120e-02
  1.0352280e-02
  7.1030501e-03
 -9.3343318e-02
  2.8822299e-02
  4.3556187e-02
  3.4229702e-01
  1.0155504e-01
  9.6897166e-03
  4.5573521e-02
  3.4451537e-02
  4.1214958e-02
  6.0492856e-03
  1.8304025e-03
  5.4759588e-03
  9.2447020e-02
 -4.6070538e-02
 -1.5261023e-01
 -5.2467365e-02
  1.9538312e-03
 -1.4158361e-01
  1.5660259e-01
  1.5582288e-02
  2.6975242e-02
 -2.6539902e-03
  3.9521430e-04
  5.4778885e-02
  3.6116514e-02
 -8.2894824e-02
 -3.9659373e-02
 -1.0592171e-02
 -4.7737281e-03
 -2.8994013e-02
  3.9684121e-03
  1.1921124e-01
 -6.5763950e-02
  7.1982555e-02
  2.2255456e-02
  1.2130046e-01
  3.2502256e-02
 -6.5585021e-03
 -2.0025954e-01
  6.2334589e-03
 -6.4771980e-02
  4.6820253e-02
 -8.5454173e-02
 -7.1457550e-02
  8.3413487e-03
 -4.4397809e-02
 -3.6093642e-03
 -6.2296622e-02
  4.3086089e-02
 -3.0921370e-02
 -2.0897774e-02
  9.5507756e-02
 -4.1881628e-02
  1.9901777e-03
 -2.7072523e-04
 -1.3923010e-01
 -2.7585253e-02
 -1.2050767e-02
 -2.9514080e-02
  5.2819725e-02
 -4.6095915e-02
  4.0109865e-02
 -4.7967546e-02
  4.0129793e-01
 -6.7000560e-02
  7.8081889e-03
  1.6420029e-01
  5.1227998e-02
  2.3668461e-02
  8.2406360e-01
 -9.6151404e-02
 -4.2480864e-02
  8.0650654e-03
  1.2390365e-02
 -7.0929624e-02
 -1.2449093e-01
 -1.7752698e-01
 -4.9189344e-02
 -2.9864949e-01
  5.7316089e-01
  1.2640106e-02
  1.6567999e-02
  2.9260707e-03
 -3.6326788e-02
  9.7538725e-02
 -4.9017187e-02
 -9.7968832e-02
  5.6655728e-03
  1.0189416e-01
  7.0299965e-01
  3.3101264e-02
  4.6653211e-02
  2.9976878e-01
 -1.3871183e-02
  1.4208600e-02
 -3.0986050e-01
 -1.0774989e+00
 -3.0847574e-02
  1.2003049e+00
 -1.7923320e-03
  4.1788463e-03
  4.3843970e-02
 -4.6123518e-03
 -2.1350822e-01
  1.0167240e-01
  6.4312911e-01
  3.8430202e-03
  1.6322248e-01
  9.7683573e-04
 -7.1829295e-01
  1.1781658e-02
 -7.7318259e-02
  5.9856173e-02
 -1.2273815e-02
 -5.5565380e-02
 -2.8428137e-03
 -5.6478165e-02
  2.4429366e-02
  8.0087312e-02
  2.5078319e-02
 -5.6869335e-02
  2.8962677e-02
  1.5153602e-01
 -5.4372644e-01
  7.6232588e-01
  1.1629717e+00
 -1.1051735e-02
  9.2112072e-02
  1.6401260e-01
  1.0698406e+00
  4.9505690e-01
 -4.6277720e-01
  1.6703083e-01
  3.7983719e-01
 -9.0141304e-02
 -1.7292656e-01
  2.3636998e-04
  7.7159099e-02
  2.4741869e-01
  9.0173221e-01
 -1.5530345e-01
  4.9557343e-02
 -5.3129267e-02
  4.0746804e-02
  5.6627071e-01
 -6.0339892e-01
 -5.2786235e-02
 -9.1922782e-02
 -4.5917019e-02
  4.9232906e-01
 -6.7544580e-02
 -1.8243989e-01
  1.1121009e-03
 -1.4155443e-01
 -1.0227738e-02
 -9.9802669e-03
 -1.1955154e-01
  3.6377922e-02
  9.4539955e-02
  8.3900047e-03
 -2.8522969e-03
 -2.1622095e-02
  2.1645829e-02
 -2.8297586e-02
 -9.3752585e-02
 -8.8171251e-02
  9.4486184e-02
  1.4376585e-01
  1.8618923e-02
 -5.2431639e-02
  1.1022880e-02
  1.7042987e-02
 -8.6736649e-02
  1.2066512e-01
  3.1772612e-03
 -6.0410881e-03
  2.0136554e-02
  2.6363837e-02
  1.2355825e-03
 -1.1111748e-02
 -7.8756802e-02
  1.6084127e-02
  2.2120129e-02
 -3.0189125e-02
 -2.6391590e-02
 -6.3292459e-02
  7.5563723e-03
 -9.6484832e-03
 -1.4051554e-01
  5.5553980e-02
 -1.6976063e-03
  1.4479358e-01
  3.5184182e-02
  6.0289044e-02
  1.4776208e-01
  1.2194569e-02
 -2.4091758e-02
 -1.3070571e-03
 -7.5110368e-02
  4.0058920e-04
  3.0774018e-01
  4.3487467e-02
  6.7912880e-03
  2.2768674e-02
 -6.0836904e-02
  1.7327607e-02
 -9.7320080e-03
  6.6547215e-02
  3.1198818e-02
  8.1602536e-02
 -1.0564024e-02
 -8.8723861e-02
 -1.1521705e-02
  3.2414239e-02
  3.1685904e-02
  1.3210974e-02
  1.0486907e-01
  1.5146792e-01
  1.2384092e-01
 -2.5746237e-02
 -4.9558408e-03
 -2.5675612e-02
  9.1426276e-02
 -4.1227031e-02
  4.0665641e-02
  1.0042449e-02
  5.6351437e-03
 -6.3171916e-02
  1.0271777e-01
  1.4533842e-01
  2.6947431e-02
 -8.4613236e-03
  3.8314849e-02
 -1.6464243e-02
 -1.0668764e-01
  4.1032658e-04
 -8.7919887e-03
 -3.3651289e-02
  1.1540066e-02
  4.4246834e-02
 -8.5669547e-02
 -6.4060129e-02
 -2.1104481e-02
  5.5018276e-02
  1.0134247e-02
  7.4693084e-02
 -4.0273950e-02
  4.2109422e-02
  4.7887284e-03
  1.1773080e-01
  2.0829899e-02
 -2.6055809e-02
  5.8707867e-02
  9.5873788e-02
  2.1733675e-02
 -1.0290162e-01
 -4.7362186e-02
 -1.7698271e-02
  1.2909364e-02
  9.2532031e-02
  7.2998315e-02
  6.4117178e-02
  4.0544074e-02
 -1.6194884e-02
 -5.4130327e-02
  8.3413841e-03
  5.7185758e-02
  8.5110078e-05
 -1.0880105e-01
 -1.7460031e-02
  1.9146433e-02
 -3.5853978e-02
  2.5249958e-01
 -6.8953401e-01
  7.1232589e-03
 -3.5132363e-01
 -7.4077022e-01
  1.7520886e-02
 -8.5360348e-01
 -1.6435441e-01
 -2.4810769e-02
  4.7408220e-01
 -1.2418369e-01
 -3.3633158e-02
 -2.8594026e-01
  4.2823663e-01
  2.5160680e-02
  3.7685123e-01
 -4.7541101e-02
 -1.3158682e-01
  9.3104646e-02
  1.8265725e-03
 -6.5031528e-02
  1.8712650e-01
 -1.2465130e-01
 -1.6107135e-01
  3.8643666e-02
  6.8270437e-02
  2.3374426e-01
  1.2632017e-01
  7.3555723e-02
  6.0229232e-03
 -2.3390728e-01
 -6.3718033e-01
 -1.3316953e+00
  1.5133964e+00
 -1.7795812e+00
  1.3768847e+00
  3.0559199e-02
 -9.6564221e-01
  1.5874306e+00
  1.4654205e+00
  3.5730466e-02
  5.1143599e-01
 -4.2758560e-01
  5.4268849e-01
 -9.5459700e-02
 -3.0853527e-02
 -4.1939676e-02
 -1.9159932e+00
 -2.7695188e-01
  3.8585059e-02
 -5.9385693e-01
  1.6583523e-02
 -7.2909701e-01
  3.6996326e-01
 -1.1483051e+00
  1.8308164e-01
 -1.6517583e-02
 -6.8527675e-01
  2.9020351e-01
  7.2695810e-04
 -4.3818064e-02
 -7.5974315e-01
 -2.7395822e-02
 -5.1238763e-01
 -1.4384881e-01
 -3.8102202e-02
 -3.8680583e-02
 -6.3337415e-02
  2.7615895e-02
  1.4199898e-01
 -1.1126997e-01
 -2.9063272e-01
 -2.0265853e-01
  1.8745455e-01
 -7.0395045e-02
  6.6783476e-01
  5.1113732e-02
  6.2311745e-01
  1.5610169e-01
 -1.2607682e-01
 -8.6714916e-02
  2.8531101e-01
  5.4029918e-01
  8.0992706e-02
 -4.6094492e-02
 -4.6777487e-02
 -7.9154400e-03
  2.6608491e-01
 -7.8061023e-03
  8.4808275e-02
 -6.4797285e-03
  8.6767767e-03
  2.1276392e-02
 -3.3506397e-02
  2.0096815e-01
 -1.8088831e-02
 -1.4466953e-02
  4.5577083e-02
 -5.4729313e-02
  9.1354772e-03
 -1.3363847e-02
  8.1498608e-02
  1.2480526e-01
  1.2336536e-01
  1.0307440e-01
 -1.2552828e-01
  2.6616959e-02
  4.9117705e-01
 -1.5255008e-02
 -8.0996798e-03
 -1.1439028e-01
 -1.4209914e-03
 -4.8938412e-02
 -1.2433897e-01
 -7.8434348e-02
 -3.8531348e-01
 -8.2195193e-02
 -6.9487914e-02
  1.3378350e-02
  8.4005795e-02
 -7.7117188e-04
 -1.1010114e-02
  7.4204692e-04
  3.1504761e-02
 -6.3558020e-02
 -1.9056028e-02
 -8.6125433e-03
  1.2978201e-01
  1.6588051e-02
 -2.1390663e-02
 -3.4107465e-02
 -1.0302740e-01
  1.8028745e-02
 -3.3908878e-02
 -3.6583140e-02
 -4.0898435e-02
 -1.5643574e-01
  3.3739999e-02
 -7.5429603e-03
  1.5114472e-03
 -4.5841124e-02
 -3.4985632e-02
 -1.2138522e-01
 -2.0005862e-01
 -7.5114757e-02
  1.3073550e-02
  1.2975483e-01
  5.3474540e-04
 -2.1761139e-03
  2.1249017e-02
  2.8666180e-02
 -1.1835474e-01
 -2.7269555e-02
 -1.0980649e-01
 -3.6018167e-02
  1.1379010e-01
 -5.2752294e-02
  3.5003140e-03
  1.3943810e-02
 -2.7096320e-03
  3.2838304e-03
 -8.6212322e-02
  2.2689532e-01
  1.7637818e-01
  6.6680588e-02
  7.7060588e-02
  3.2751851e-03
  2.2252236e-02
 -7.8106709e-03
 -3.5539549e-02
 -5.5962309e-02
  1.2938893e-01
  3.5816580e-02
 -6.7796614e-03
  1.8932877e-02
  9.3470395e-02
 -2.8938152e-02
  4.8069652e-02
 -2.5021393e-02
  2.3539586e-02
 -6.3063316e-02
 -5.8872338e-02
 -4.2004738e-02
  8.0276348e-02
 -4.2189162e-02
  2.1377644e-02
 -2.2754256e-02
  7.8774849e-03
 -1.0970514e-01
 -1.3356521e-02
  1.2438462e-04
  2.2405356e-02
  1.0647983e-03
  6.5564625e-03
  3.6729023e-02
 -2.0464921e-02
  2.0682890e-02
  4.2563251e-01
 -4.9003869e-02
  9.8064877e-03
 -2.9728422e-01
 -4.6323109e-02
  2.1306728e-03
 -1.0085327e-01
 -5.8427524e-02
  1.1316928e+00
  1.0406331e+00
  1.5513181e-02
  4.7001019e-02
  5.4067686e-02
 -8.2556731e-01
  8.2231443e-03
  5.7205237e-02
 -4.3996368e-03
 -7.2908670e-02
  2.5593996e-01
 -6.2800735e-02
  2.8436237e-03
 -4.4236818e-01
 -3.4033954e-01
 -3.7642606e-02
 -1.9394235e-01
 -6.6451210e-04
  3.2540791e-02
 -3.0579455e-02
 -1.1756720e-01
  5.5752613e-02
 -5.3271513e-02
 -3.4646645e-02
  4.0448058e-02
 -2.3502747e-02
 -3.3277299e-03
 -9.3872473e-03
  1.3765679e-01
  4.4719681e-01
  9.2211775e-02
  2.6739898e-01
 -1.4379683e-01
 -3.5496168e-03
  9.7207986e-02
  2.9080790e-01
  4.3471638e-02
 -4.5229030e-01
 -5.3863157e-02
 -2.0838636e-01
  4.2030869e+00
  8.1160337e-01
 -4.9730200e-01
  4.3861799e-02
 -3.6624530e-01
  5.5491120e-01
 -1.9552362e-01
  4.7179931e-01
  6.0616904e-01
  3.8706858e-02
 -1.2308656e+00
  1.9606109e+00
  5.8533978e-01
  1.9538791e-01
 -9.0823047e-02
 -1.1576225e-02
  1.3142071e+00
 -3.7020050e-02
 -1.4633782e-01
 -1.3837179e-02
 -6.3370198e-01
 -2.7784284e-02
 -5.3514260e-01
  4.8195389e-01
 -1.2606486e+00
  2.6094547e-01
  2.8425533e-01
 -4.6177819e-02
 -1.6988349e-01
  1.5071415e+00
  2.2445853e+00
  8.7664288e-01
 -4.1469961e-01
  2.9790336e-02
  1.6863948e-01
  9.4060600e-01
  1.0956439e-01
  8.0499023e-01
  4.8108563e-01
  4.2653272e-01
  1.6440037e-01
  2.3696819e-01
 -1.9019580e-01
  5.0763015e-02
  5.9985388e-02
 -1.3769673e-02
  6.7454606e-02
  1.5059523e-01
  1.4215365e-01
  1.0089070e-01
 -5.7466645e-03
  1.6464226e-02
  3.5199817e-02
  2.7277609e-02
 -1.8516233e-02
  8.4665073e-03
  3.0448297e-01
  1.7563254e-02
 -1.5195101e-01
  1.5727788e-02
 -6.0772587e-02
  5.9231300e-02
 -1.2576605e-01
  3.4094252e-02
  2.6281934e-02
  2.8792816e-01
 -6.5887803e-03
 -4.4289820e-02
  1.2783371e-01
  5.3232946e-02
 -6.8777151e-02
  5.0857745e-02
  7.6692300e-03
  1.8044330e-01
 -4.5637961e-02
  3.3422333e-01
  4.0446681e-01
  3.4376036e-02
  1.4550466e-02
  8.9690447e-02
 -1.5298445e-02
  4.7538765e-02
 -6.9584779e-02
  2.5945392e-02
  1.3086417e-01
  4.7823790e-01
  1.2665762e-01
  6.9755033e-02
  3.8297465e-03
 -8.7564450e-04
 -5.7459380e-02
  3.6069166e-02
  3.7526026e-02
  7.0313537e-01
 -3.3250639e-01
  1.8128559e-02
 -9.9886127e-02
  9.2857517e-03
 -4.6068034e-01
 -3.4392949e-02
 -6.7648359e-02
  3.7703328e-02
  7.8539535e-02
  8.2506007e-01
 -6.9595105e-03
 -6.7267485e-02
  1.5951362e-02
  1.7519078e-01
 -7.7635667e-04
  4.4254115e-01
  5.5068500e-02
 -8.4912196e-02
  2.4990299e-01
 -1.6130676e-02
  1.9779629e-01
  3.4886739e-01
  5.9112346e-01
  1.4920449e-01
 -8.6925656e-02
  5.7765219e-02
  2.4503903e-01
  7.4222594e-02
 -1.6566630e-02
  1.0100611e-01
  1.3642078e-02
 -2.0932701e-01
 -4.1140117e-02
 -4.7633968e-02
  8.5921297e-03
  4.9639809e-01
  6.9473483e-02
  1.1368284e-01
  1.0143493e-03
 -6.3088564e-03
 -4.2152102e-03
 -8.0993660e-02
  1.7716150e-01
  6.7485645e-02
 -1.5062796e-02
  7.4262160e-01
  1.3081272e-01
  1.8357284e-03
  8.9373328e-02
  2.4588051e-01
  1.5738370e-02
  2.5393865e-01
  2.4222016e-01
  3.5934401e-01
  8.0844842e-02
  1.1422107e-01
  2.1987142e-02
 -2.9331451e-02
  3.5053268e-02
  1.3489263e+00
 -5.9601355e-01
 -4.2053175e-01
 -7.9731899e-01
  1.9059070e+00
  5.8339152e-02
  5.8513060e-02
  3.0565966e-02
 -1.3316089e-01
  5.8586240e-01
  4.7105864e-01
 -2.6466805e-01
 -8.1102031e-01
  4.4139561e-01
  1.6974492e-03
  1.5789557e-02
 -8.8781212e-03
 -2.3022203e-01
  5.3499065e-02
  6.7456520e-01
 -2.5214579e-02
  5.4806691e-01
 -2.2073258e-02
  1.9505568e-01
  2.4003075e-02
  3.3856049e-02
 -2.2331940e-02
  4.8909533e-01
  6.4294197e-02
 -2.9433733e-01
 -6.3241318e-02
 -1.7464633e-01
 -2.0184562e-01
  8.6710975e-02
  3.0904844e-01
 -6.6758770e-01
  1.3641520e+00
 -1.7441297e+00
 -5.8344215e-01
 -1.8390571e+00
  1.3610474e+00
 -2.0665827e-01
 -7.0884198e-02
  1.3860127e-01
 -1.1702001e+00
 -4.5397869e-01
  6.6248216e-02
 -4.8448417e-02
 -5.8680367e-01
 -7.0186168e-01
 -4.5890045e-01
  3.5817683e-02
 -3.6926273e-02
 -2.6394507e-01
  4.2405823e-01
  9.6400499e-02
 -4.1749878e-03
  7.8843158e-01
  4.1379735e-01
 -1.3375464e-02
 -1.2806506e-01
  4.2577875e-01
  1.0755553e+00
  7.0013517e-01
 -3.5562804e-01
 -3.0487588e-01
  2.7368760e-01
  3.1819198e-01
 -9.4812326e-02
 -2.9923424e-02
 -2.3193676e-03
 -1.8364535e-01
  3.6673394e-01
 -4.6556562e-01
 -7.2131313e-02
 -7.7927697e-01
  5.6346071e-01
 -1.5113395e-01
  1.1025055e-01
 -1.6237822e-01
 -4.1007960e-01
  2.5157860e-01
 -7.7381635e-01
 -7.0747934e-02
 -8.1563312e-01
  2.7445865e-01
  1.8511595e-01
  3.8714815e-02
  3.6204055e-01
 -4.6597022e-01
  4.8454922e-01
 -8.9217395e-01
 -7.2692297e-02
 -8.0941215e-02
  7.0062745e-01
 -7.3882513e-02
 -1.0758409e-02
  2.6919998e-02
  4.3185067e-01
  4.9058482e-01
 -6.7386675e-01
 -4.5095500e-01
 -7.2890586e-01
  4.9887976e-01
  4.3186247e-02
  7.9987571e-03
 -1.0232696e-01
 -1.5679498e-01
  2.1032725e-01
 -4.3256661e-01
 -1.2940581e-02
  7.9537675e-02
  3.1770444e-01
 -2.0505425e-02
  7.3680818e-02
  1.5422785e-01
 -5.9605327e-02
 -1.6539814e+00
  3.1016666e-02
 -4.6156776e-01
  1.0873299e+00
 -2.0150814e+00
 -5.1083460e-02
  1.1696620e-01
 -4.1093460e-01
  6.2670656e-02
 -1.8836327e-01
  1.3290603e+00
  2.4099198e-01
  2.4351044e+00
 -2.3226056e+00
  4.4520646e-01
 -2.1628710e-02
 -2.1784576e-02
 -7.4197680e-02
  4.9089810e-01
 -2.3113782e+00
 -5.9574288e-01
 -1.8751806e+00
  1.0535039e+00
 -7.3693597e-01
  2.8583062e-01
  5.9180439e-02
  1.0643114e+00
  1.2595268e+00
 -3.0691223e-02
  5.6894045e-02
 -4.4131944e-01
  8.5566211e-01
 -9.8531526e-01
  2.3756218e-01
 -3.9738525e-02
 -4.7045571e-01
 -2.9307580e+00
  2.3859727e+00
  4.2484757e-01
  4.2686620e+00
 -1.8539598e+00
  8.3445174e-01
  4.8794739e-02
  5.5654484e-01
  1.3364848e+00
 -1.2790523e+00
  1.2536341e+00
 -6.5654986e-02
  7.3085386e-01
 -8.4815627e-01
  3.6366132e-01
 -2.0723924e-02
  8.4018745e-02
  4.4230300e-01
 -7.8037910e-02
 -8.2935148e-01
 -7.6432250e-02
 -9.0361118e-02
  1.1495271e+00
  3.0158174e-01
 -9.9089602e-03
  1.5506999e-01
 -5.4520768e-01
  3.8439256e-01
 -1.1583500e+00
  5.9233892e-01
  2.3282997e-02
 -3.8067412e-02
  2.3615442e-01
 -4.4075795e-03
 -2.7358365e-01
  1.3587021e+00
 -1.0177163e+00
  6.2572438e-01
  4.4307375e-01
  7.9792440e-01
 -1.6818942e+00
  1.1925375e+00
 -2.5323668e-02
 -3.1856829e-01
  4.5914060e-01
 -9.3280154e-01
  1.8534243e+00
 -4.5379415e-02
  7.3570603e-01
 -6.4279842e-01
 -8.6345365e-03
  4.1906616e-01
  5.5060279e-01
 -1.7633048e+00
 -1.7874779e-01
  7.2197306e-01
  4.0445078e-02
  1.2016776e+00
  1.0480577e-01
 -1.9822159e-01
  2.2798212e-01
  1.4095800e-01
 -1.0193893e+00
  4.2355415e-01
 -7.3901165e-01
  1.1976846e-01
  1.2188690e-01
  3.4337214e-01
  1.6159880e-01
  6.1058098e-01
 -2.2840229e-01
  5.2266991e-01
 -1.9607057e-01
 -4.4578350e-01
  1.5876904e-01
  7.0622958e-02
  4.8294932e-01
  5.1301003e-01
  3.7687126e-01
  2.8785801e-01
  9.5991957e-01
  5.3954534e-02
  1.0528351e-01
  2.2821132e-02
 -3.6878031e-01
 -2.6614141e-02
 -6.2396728e-02
  1.3022643e-01
 -8.5045919e-03
 -1.0446292e-01
  1.3486608e-02
  2.6656892e-02
 -9.2557383e-01
 -1.2321252e-01
 -3.0511069e-01
 -1.9409105e-02
  7.6166866e-03
  9.1049723e-02
  5.5988096e-02
  1.1832815e-02
 -7.5149641e-04
 -4.4110123e-02
 -7.4816726e-02
  3.9864245e-01
 -2.0071309e-02
 -1.0157065e-02
 -2.3327023e-02
 -5.0565721e-03
  4.2141773e-04
 -1.1552830e-01
  7.8030825e-02
 -4.2068371e-01
 -2.2705472e-01
 -2.8634197e-03
 -1.2502220e-01
 -5.0259614e-01
 -1.1534312e-01
 -6.3852876e-02
  2.5635413e-03
 -1.7730786e-02
 -6.9990742e-01
 -4.7774026e-01
  3.4175266e-03
  3.8506035e-02
  5.5142477e-02
 -8.9211483e-03
  1.6205965e-02
  8.6583689e-02
  1.2206451e-02
 -1.0611509e+00
  4.3295566e-02
  1.7219714e-03
 -7.4145213e-02
 -3.1619318e-02
 -1.4720065e-02
  7.5738676e-02
  4.4087961e-02
  4.1990966e-02
 -2.9617524e-01
 -5.2802850e-02
 -2.4033448e-02
  5.6976169e-02
 -8.4854476e-02
 -2.5181967e-01
 -3.3061404e-02
 -1.1407299e-02
 -7.9456884e-03
 -1.2195221e+00
 -4.9865097e-01
  1.1411449e-01
  2.1703264e-02
  5.5011582e-02
 -2.6088566e-05
  5.6598750e-03
  7.5929679e-02
  6.7425936e-02
 -1.2939639e-01
  1.6327257e-01
 -5.5990685e-02
  1.1561613e-01
  1.3559778e-02
 -1.2998682e-01
 -1.5315236e-01
 -8.9655101e-02
 -3.3156559e-02
  1.4204849e-01
 -1.3325007e+00
 -4.9599474e-03
  7.9541663e-03
 -2.6547706e-02
  1.8354043e-02
 -2.8416794e-02
 -1.2839034e-01
 -6.8373404e-02
 -2.2040044e-01
  3.3791728e-02
  1.7297427e-01
 -1.5003064e-01
  1.2075216e-01
 -9.4660427e-03
 -1.1225344e-02
  1.4114980e-01
  1.4692064e-01
 -7.5453991e-01
  1.2834642e+00
  7.4937932e-02
  8.8489890e-02
  6.1185054e-02
 -1.8433152e-01
 -4.0493850e-02
  2.0150389e-01
  4.0423982e-02
  4.4888011e-03
  4.8938237e-02
 -1.0589407e-01
  2.5665291e-02
  2.9812468e-02
  5.2224658e-03
  1.2519763e-01
 -1.3875419e-01
  1.2912719e-02
 -2.0956086e-01
 -1.6002694e-01
  2.0269282e-01
  6.4328867e-01
 -8.2915908e-01
 -6.3612592e-01
 -4.5751858e-01
  6.9187671e-01
 -1.4860691e-01
  2.2515419e+00
 -9.1314214e-01
  1.9753370e-01
 -4.8314206e-02
  1.4991440e-01
 -9.4822621e-01
  2.3996570e+00
 -1.2872025e+00
 -4.2604142e-01
 -2.5917981e+00
  2.2332146e+00
 -1.0342475e+00
 -3.6263871e-03
 -8.6081439e-01
  1.1801963e+00
 -4.8687860e-01
 -5.2363151e-01
 -1.1485820e-01
 -2.9708323e-01
  5.5575711e-01
  2.0923123e-01
  4.4587585e-01
  7.1826912e-02
  5.0182897e-01
 -1.6438242e+00
  1.5344038e+00
  3.0196461e-01
  1.3836386e+00
 -5.5118901e-01
  5.6927341e-01
 -5.8717094e-02
 -2.6293060e-01
  1.8050842e-01
 -3.5028660e-01
  1.9172738e+00
 -4.5758687e-02
  1.3215280e+00
 -1.7001414e-01
 -2.4617961e-01
  1.4326118e-01
  1.6855574e-03
 -8.5279143e-01
  1.6500305e-01
 -9.4569467e-02
 -1.0595867e-01
 -1.8841853e+00
  5.2808768e-01
 -7.8153767e-02
 -4.3585166e-02
 -2.7014753e-01
  1.4911078e+00
 -4.3796331e-01
  7.2530395e-01
  6.7471348e-02
 -1.8444921e+00
  9.9598020e-01
  2.9048112e-01
  4.1367796e-01
  7.4388427e-03
 -5.4049861e-01
 -6.9715357e-01
  6.1624426e-01
  5.1076621e-01
  1.7439023e+00
 -4.3006116e-01
  4.1679585e-01
  1.1486577e-01
  8.3051771e-03
 -5.8354461e-01
  8.6870864e-02
  3.6522666e-01
 -4.2080516e-01
  2.3370073e+00
 -1.0150646e+00
 -7.2602339e-02
  2.2554427e-02
  2.3375183e-01
 -2.8090873e-01
  1.0656628e-01
 -1.5743372e-01
 -6.8603581e-01
  4.9267158e-01
 -7.2934067e-01
  1.4612068e-01
  4.7375444e-01
  3.3451516e-02
  4.4307312e-01
 -9.7271010e-02
  3.2565197e-01
 -5.4717593e-02
  7.6580024e-03
 -2.8253192e-01
 -1.6142555e-02
 -6.6729933e-02
  1.1406573e-01
  1.6465196e-01
  1.8052562e-01
 -3.9741212e-01
  3.9221242e-01
  2.6837409e-01
 -1.9827040e-01
 -7.9534920e-03
 -4.4482121e-01
 -5.6787646e-01
  1.5954072e-02
 -1.1347474e+00
  5.3347152e-01
  5.3523397e-01
 -2.4697697e-01
  3.8204998e-02
 -2.6562461e-01
 -3.4628555e-01
 -6.9985501e-03
 -1.4527819e+00
  2.9439081e-02
  2.5305958e-02
  4.7943322e-03
 -2.0524590e-01
 -3.7980724e-02
  3.6713887e-02
  2.5935664e-03
  2.2659621e-03
 -4.5492113e-02
 -8.3841658e-01
  4.1515730e-02
  1.4791720e-01
  5.5772346e-02
 -2.2147514e-02
 -1.6699746e-02
  6.0718514e-02
  1.6028617e-01
 -6.7038196e-01
 -3.6345103e-01
  4.5490584e-01
  6.5874332e-01
 -6.3270885e-01
  9.9319547e-02
 -1.9071662e-01
 -5.8796895e-01
  4.6650663e-02
 -1.0715026e+00
 -6.0575271e-01
  7.9940879e-01
 -8.2945757e-02
 -3.4378195e-01
 -1.4848338e-01
 -8.1181712e-02
  4.4603691e-02
  2.3482451e-02
  4.2556185e-01
 -6.1309904e-01
 -2.4698015e-01
  6.5502608e-01
  6.3957947e-01
  1.1465831e-01
 -8.4365785e-02
 -3.6203000e-01
  2.4317646e-02
 -7.5223917e-01
 -3.4945902e-01
  8.2382023e-01
  6.1581444e-02
  2.5918946e-01
  1.3107805e-01
  3.7708310e-03
 -2.8584188e-01
 -1.8359924e-02
 -2.5490412e-01
 -1.5525417e-01
  8.6876012e-02
 -3.0954955e-03
 -9.6489388e-01
 -4.8929896e-02
  2.9284991e-02
 -3.9703380e-02
  3.9422035e-01
 -2.7278960e-02
 -5.3908366e-01
 -1.9429150e-01
  1.0247037e+00
 -2.0288174e-01
  8.0510163e-01
 -1.1492755e-01
 -7.8059882e-01
 -1.3171610e-01
 -5.4671293e-01
 -4.3589839e-01
 -1.2089059e-01
 -1.4262870e-02
  1.0033020e-01
 -2.2255819e-02
  9.0938911e-02
 -1.9899288e-02
 -1.1875905e-01
  1.2957563e-01
 -2.9704538e-01
  4.2842284e-01
  5.6269690e-02
 -1.4789200e-01
  1.7199589e-01
 -3.2990244e-01
  1.5230836e-02
  1.1703729e-01
 -9.1825448e-02
 -8.4888160e-01
  3.5915557e-01
  3.3893991e-01
 -5.7091284e-01
  8.5013554e-02
  1.6603572e-03
 -9.7265673e-01
 -2.0454690e-01
 -7.9874933e-01
 -4.4237238e-01
  1.9572990e-01
 -7.6318532e-02
  4.7168493e-01
  3.4871046e-02
  4.8516002e-03
  1.3546409e-01
  7.6127812e-02
 -3.9111984e-01
  6.0628839e-03
 -8.8065767e-01
 -9.8399073e-01
  1.8941694e+00
  5.2160025e-01
  9.7668535e-01
 -3.2346297e-02
  1.8296186e-02
  4.9606991e-01
  1.4403424e-01
 -4.3808412e-02
  3.1166835e-02
  1.0214645e-01
  1.4371349e-02
  3.2451585e-02
  4.4516385e-02
 -1.0484945e-02
  5.5078316e-02
  9.0213440e-02
 -3.9157665e-01
 -6.0119975e-02
 -2.6990199e-02
 -3.8882785e-02
  3.8156682e-01
  1.6230097e-02
 -7.6495811e-02
  3.6197382e-01
 -6.9841482e-02
 -5.2935612e-01
  4.0104343e-03
  4.2627141e-01
  3.4976114e-02
  5.2337348e-01
  2.5546432e-02
  8.7708615e-02
  1.6319473e-01
 -6.8932337e-01
  1.2626563e-01
  3.6464553e-02
  2.1178128e-01
 -5.9234265e-02
 -1.0734458e-02
 -8.6921923e-02
  1.0822798e-01
  7.5975426e-02
 -2.8935533e-02
 -4.5018831e-01
 -1.0968287e+00
 -4.8787710e-01
  5.5231877e-02
  3.0535087e-01
 -1.1511404e-02
 -8.1396371e-02
  1.6717661e-02
 -2.3319271e-01
 -9.5370603e-01
 -1.9276766e-02
  5.7829732e-01
  2.7983859e-02
  1.6035606e-01
  1.2170248e-03
 -2.7300598e-02
  2.8719169e-01
  1.7042629e-01
  1.8565796e-01
 -8.6207145e-01
 -2.0059681e-01
 -2.8020462e-01
  8.9533985e-02
  1.3777989e-02
  5.4605613e-03
  2.9694480e-01
 -1.8817680e-01
  7.6251803e-03
 -1.7498945e-01
 -9.9711768e-02
  6.1626408e-02
  8.7028855e-01
 -3.8639616e-02
  3.1623062e-02
  1.3009901e-01
 -4.6788249e-03
 -9.1109234e-01
 -1.4571325e-01
  7.7930951e-01
  2.1210182e-01
  1.2542664e-01
  2.0060429e-02
 -2.2829302e-02
  4.3277559e-01
  7.1775578e-02
 -6.0344869e-01
 -9.1718531e-01
  7.8537452e-01
  7.6405108e-02
  4.4375524e-01
  1.7175762e-02
  2.2469375e-02
 -3.4359150e-02
 -5.5343115e-01
  6.7283660e-01
 -1.2012442e-01
  5.6075767e-02
  7.3258913e-01
  1.1874366e+00
 -4.0310994e-02
  1.6891065e-01
  8.3200425e-01
  4.8749428e-02
  5.9807520e-02
 -5.6431621e-01
  9.8069586e-02
  1.6473646e-01
  3.5076106e-01
  2.5474280e-02
  8.9131489e-02
 -9.0963066e-02
  1.8194701e-01
  8.1923980e-01
 -1.1003766e+00
 -1.2515570e+00
 -1.8445235e-01
 -5.5469149e-01
 -7.4820036e-01
  5.2251101e-01
 -1.2264019e-01
 -2.2939447e-02
 -7.3138475e-02
 -3.1837445e-02
 -6.6662318e-01
 -2.5386459e-01
 -3.3194512e-02
  6.5158442e-02
  3.2899495e-02
 -1.1700296e-01
  2.5970307e-01
  2.6955575e-01
 -9.4343936e-01
  2.8625190e+00
  4.5888445e-01
  3.4336236e-01
 -3.9246473e-01
  4.1476819e-01
  1.4632513e-01
 -1.5308298e-01
  4.1377988e-02
 -6.5058446e-01
 -1.8020188e+00
  6.6472632e-01
 -1.4968115e+00
 -1.8669911e-01
 -6.2127979e-03
 -5.8377993e-01
  9.2441611e-02
  3.2594654e-01
 -1.5669319e-01
 -4.3354592e-01
  2.0150159e-02
  6.4871687e-01
 -4.8627518e-02
  3.1720075e-01
  4.2250472e-01
 -8.1587240e-02
 -8.0170140e-02
 -1.2596475e+00
 -8.9557789e-02
  8.4094411e-01
 -3.4744611e-01
 -5.6806636e-01
  5.6241101e-01
 -4.4886476e-01
  7.9010308e-02
 -1.9470109e+00
 -3.3498004e-01
 -5.3750569e-01
 -4.3638727e-01
 -1.2736609e+00
 -1.9373603e-01
  1.2875474e-02
  3.1740847e-03
  6.0105902e-01
 -2.8714010e-01
 -3.1609249e-01
 -1.4840356e-01
 -3.8098156e-01
  5.1108706e-01
 -3.8587236e-01
  4.4102117e-01
  1.9382806e-02
  4.0829676e-01
  6.4347565e-01
 -1.2628551e+00
 -3.0083552e-01
  9.1098380e-01
 -4.5185864e-01
 -5.8764379e-02
  3.5583869e-01
 -3.0073985e-01
  1.4360013e+00
  7.0661044e-01
  8.3814174e-02
 -1.2905816e+00
  5.6422740e-01
 -2.4383989e-01
 -7.0083328e-02
  8.8472374e-02
  3.0006044e-02
  2.6744649e-01
 -1.0457484e+00
 -1.0961028e+00
 -1.0021173e+00
 -3.2625416e-01
  4.8767421e-01
 -3.7213299e-01
  4.8451129e-01
 -5.6291807e-01
 -1.4400816e-02
 -8.5833079e-01
 -1.2702122e+00
 -3.1443128e-01
 -4.1303983e-01
 -7.9768223e-01
 -1.4769439e-01
  7.1593714e-01
 -3.3612981e-01
 -2.5334173e-01
 -4.6013892e-01
 -6.2312059e-02
  2.8465137e-01
 -6.5241463e-02
 -9.0991974e-01
 -3.4820929e-01
  6.6124871e-02
  2.3056860e-01
 -1.8141368e-01
  5.1896483e-01
 -7.1576375e-01
  6.7757839e-01
 -1.4126548e+00
 -1.4917472e-01
 -1.4476840e-01
 -1.0410933e+00
  9.0853304e-01
 -6.7469977e-02
  2.1184279e-01
 -2.6374934e-02
  2.4500073e-01
 -9.1600381e-02
 -7.6529668e-03
 -1.0654291e-02
 -1.3070287e-01
 -3.6610346e-02
 -1.2916967e-01
 -2.3630227e-01
 -1.7568326e-01
 -5.5478960e-02
  6.4728074e-02
 -1.7028102e-03
 -2.7191032e-02
  9.8039344e-02
  1.2645905e-01
 -9.0002817e-01
  9.2424172e-01
 -7.1162969e-01
  3.6780244e-01
 -4.2903531e-01
  3.7962906e-02
 -9.0590782e-02
 -9.3377149e-01
  4.8939592e-01
  1.0602613e-03
  4.9991745e-01
 -2.8839415e-02
  1.4918382e+00
  1.6693272e-01
  4.5000616e-02
 -1.9124882e-02
  3.6784369e-01
 -1.1759484e-01
 -1.0542010e+00
 -3.5916901e-01
 -5.7536900e-01
  4.8265231e-01
 -1.4005149e-02
 -3.1442314e-02
 -6.5477401e-02
 -6.3605756e-03
  2.1041058e-01
 -4.6547180e-01
  7.2084874e-01
 -1.3155584e-01
  6.7848176e-01
 -3.4871033e-01
 -5.4826204e-02
 -2.2160760e-01
 -6.2308431e-01
  1.3370771e+00
 -6.4236529e-02
  6.6341072e-01
 -2.7014511e-02
  4.9811649e-01
  5.2741402e-01
 -2.4777143e-01
 -6.3863225e-02
  9.0758383e-02
 -1.2126358e+00
 -4.9365896e-01
  4.3960503e-01
 -5.2380997e-01
  5.7708395e-01
 -1.4773616e+00
 -1.3292095e-03
 -1.8858482e-01
 -2.1602567e-01
  9.9284434e-01
 -9.9128705e-01
  1.2080819e-02
 -4.9358454e-02
 -2.5141078e-01
 -3.1635812e-01
 -3.3205405e-01
 -5.4837238e-02
 -2.5611299e-01
  3.2660761e-01
 -1.0289111e+00
 -1.4551215e-02
 -1.5662192e-01
 -2.3822455e-01
 -6.7251211e-04
  2.8632602e-02
  3.1580769e-02
 -7.0871506e-03
  5.9377098e-01
 -1.1965657e+00
 -1.7677747e-01
 -2.7866527e-01
  1.3610147e-01
 -6.6243929e-01
 -4.1849423e-02
 -2.1719147e-01
 -3.3495668e-01
  7.7988946e-01
  6.5526173e-02
 -1.0929941e-01
 -5.3219348e-02
 -1.6093381e-01
 -9.0335459e-01
  2.3683390e-02
 -3.2565456e-02
 -1.8263987e-01
  5.5594951e-01
 -2.2300068e-01
  2.7296761e-01
 -5.1870517e-02
 -1.2083110e-02
  4.7630362e-02
 -5.5531166e-02
  1.4419587e+00
  6.9693005e-01
  2.2145860e-02
 -3.7749767e-01
 -2.9327840e-01
  6.0721386e-02
 -2.9009935e-03
  3.3967417e-02
 -3.3677828e-03
  6.0916979e-02
  4.3823272e-02
  4.3813534e-02
 -7.9485001e-03
  1.3545012e+00
 -1.4351830e-01
 -5.7960546e-01
  2.1852890e-01
 -4.3766687e-04
  3.5133401e-01
 -7.1119086e-04
  3.7570888e-01
 -1.7199561e-01
 -4.6681452e-01
 -2.6015994e-01
  8.4376043e-01
 -2.1339357e-02
 -3.8588136e-02
  8.3493435e-01
  9.7901905e-01
  1.4603072e-01
 -5.5339713e-02
  5.7227444e-02
 -4.4680990e-02
  1.1782414e-01
  5.8872801e-01
  6.0943812e-02
 -4.7300835e-03
 -4.0807005e-02
  1.8371546e-01
 -8.8258636e-01
  1.9729631e-01
 -2.3356029e-01
 -1.2380253e+00
  4.1862357e-01
 -1.9917905e-01
  1.2230381e+00
  6.4387161e-01
 -1.7863931e-02
 -1.1939558e-01
 -1.2614438e-01
 -2.7758067e-02
  3.9802906e-01
  7.2151536e-01
  3.3897179e-01
  5.6209570e-01
  8.1113499e-01
 -1.6419826e-02
  3.4469703e-01
 -1.0009758e+00
 -3.5616748e-02
  1.5880604e-01
  5.4293595e-02
 -1.5855689e-01
  1.5712920e-01
  2.0735594e-02
  7.0059665e-02
 -1.8572952e-01
  3.5556307e-01
  7.5068045e-03
 -8.0318284e-01
  8.2951719e-01
  3.6318231e-02
  1.2543854e+00
  5.7357860e-01
  8.0508217e-03
 -5.8343858e-02
  4.2465219e-01
  5.1601594e-03
 -4.2557105e-01
  4.6451533e-01
  2.6555738e-01
  3.3557970e-02
  2.5244418e-01
 -1.2425351e-02
  3.2147868e-03
 -2.0652683e-01
 -3.9314193e-01
  3.2618093e-01
 -4.4360351e-02
 -5.1270735e-01
  3.8563392e-01
  1.9168116e-01
  9.6547883e-03
 -9.6147761e-02
 -6.9416112e-01
  3.2929061e-03
  1.9744425e-01
 -8.4641732e-02
  1.3682643e-01
  5.6404644e-01
  3.0715573e-01
  3.0439258e-01
 -2.0917630e-01
 -3.7935823e-02
 -4.1982409e-01
 -2.4614285e-01
  1.5507218e-01
  3.8213767e-02
  4.2661443e-02
  4.1839927e-01
  1.2533230e-01
  6.6908458e-03
  6.6908458e-03
  6.6908458e-03
  6.6908458e-03
  6.6908458e-03
  4.4584941e-02
  4.4584941e-02
  4.4584941e-02
  4.4584941e-02
  4.4584941e-02
  3.9796297e-02
  3.9796297e-02
  3.9796297e-02
  3.9796297e-02
  3.9796297e-02
  1.5568715e-02
  1.5568715e-02
  1.5568715e-02
  1.5568715e-02
  1.5568715e-02
  6.2528341e-03
  6.2528341e-03
  6.2528341e-03
  6.2528341e-03
  6.2528341e-03
  2.3872331e-02
  2.3872331e-02
  2.3872331e-02
  2.3872331e-02
  2.3872331e-02
