nep3 3 Ga O Au 
cutoff 8 4 157 28
n_max 4 4
basis_size 12 12
l_max 4 2 0
ANN 50 0
 -4.6023902e-02
  3.4290668e-02
  2.0637468e-02
  2.7747162e-02
  2.3975121e-03
  1.1733995e-02
 -7.7860588e-03
 -8.8382084e-03
 -1.4551427e-02
  3.1331640e-02
  8.4311990e-03
  1.2748986e-02
  7.6079741e-02
 -1.4855069e-02
  1.6631036e-01
  2.4501216e-02
  2.2955665e-02
  5.0082807e-03
  3.6645703e-02
  3.8850695e-02
  1.8594021e-02
 -5.9756350e-02
 -3.9783314e-02
  4.3788839e-02
  2.8619405e-02
  2.0934122e-02
  1.3171056e-02
 -6.5007076e-02
 -1.3513312e-01
  3.7900161e-02
 -1.2309203e-01
 -1.3971940e-01
 -6.5905899e-02
  2.6953233e-02
  1.0714902e-02
  2.3706598e-02
  7.2402515e-02
  4.0523667e-02
  7.3676258e-02
 -1.3795166e-01
 -1.9209709e-02
 -4.7150578e-02
 -3.4730148e-02
 -7.0904940e-03
  4.1992757e-02
  3.8056914e-02
  2.7583265e-01
  6.0811706e-02
  1.1046249e-02
 -8.7389380e-02
  3.5965107e-02
  4.8287950e-02
 -3.6859583e-02
 -1.0569904e-01
  1.2785927e-03
  6.8761401e-02
  1.2065691e-01
  3.1407573e-03
  2.1521192e-02
 -1.1605270e-01
  6.3989304e-02
 -5.5644298e-03
  4.1915938e-02
 -2.1682933e-02
 -1.9570764e-02
  2.0990644e-02
 -1.3298227e-02
 -1.4702223e-01
  3.2329611e-02
 -2.6336424e-02
 -4.9208343e-02
 -4.0003873e-02
 -1.7288089e-02
 -4.4481051e-03
  7.1451910e-02
  6.1482541e-02
  6.8325344e-03
  8.8668883e-02
  1.4644178e-02
  4.1514344e-04
 -9.6202036e-03
 -6.6565867e-03
  3.8658828e-02
  1.3013135e-01
 -2.7741576e-02
  5.7694674e-03
  4.3316904e-02
  1.5377072e-02
  8.9706823e-02
  1.8157484e-02
  4.2920154e-02
  1.6516313e-02
 -6.3775763e-02
  8.5390117e-03
 -7.7898070e-02
 -2.7101567e-02
 -1.5182745e-03
 -4.1660089e-02
 -3.6906253e-03
 -4.6584915e-02
  8.0035739e-02
 -5.0921164e-02
  1.1133480e-01
  2.5658745e-02
  7.3699869e-02
  1.4408021e-01
 -6.6038750e-02
 -5.4871231e-02
 -2.3482738e-02
 -4.3517489e-02
 -3.7862003e-02
  3.0889032e-02
 -5.8723871e-02
  1.6526200e-02
  2.0614572e-02
  2.7225798e-02
 -1.0566629e-02
  1.6970374e-01
 -2.7045924e-02
  6.6938382e-03
  2.1327581e-02
 -5.0835662e-02
 -1.2658255e-01
  5.2278512e-03
  3.8880628e-02
 -1.6036378e-03
 -3.5330320e-03
 -4.5320603e-01
 -2.0710157e-02
  6.0350120e-02
 -4.9832598e-03
 -1.3422792e-01
  2.9708426e-02
  8.8370088e-03
 -1.1671745e-01
  8.8089325e-02
  1.0592170e-03
 -9.1462493e-01
 -3.5248265e-02
 -5.1095785e-04
  5.3329747e-02
 -3.5904609e-02
  3.7856519e-02
 -2.0327009e-02
  1.6122222e-02
  2.3418894e-02
 -1.1398748e-02
 -1.1175697e-01
 -1.6820328e-02
 -7.9521537e-02
  8.9389957e-02
 -6.1878704e-02
  2.5641361e-02
  1.0031945e-01
 -3.0478872e-02
 -9.5129339e-03
  7.5153723e-02
  2.6977765e-03
 -2.4307553e-02
 -1.8224195e-02
  6.1670743e-02
  7.3951096e-03
 -1.0750413e-02
 -2.2926820e-02
 -3.5110611e-02
  7.0611881e-03
  1.4687824e-01
  2.3417670e-02
  2.4635337e-02
 -2.3377176e-02
  8.8466942e-02
  5.2864575e-03
 -1.7802594e-02
  1.4328560e-02
  5.3409189e-02
  1.9032445e-02
  3.1293193e-03
 -6.6971980e-02
 -1.0608178e-01
 -1.8575631e-02
  1.9932528e-01
  1.9671710e-02
  3.9961152e-02
  1.7512087e-02
  1.8439701e-02
 -3.4363056e-03
 -1.2359811e-01
 -3.6155609e-03
 -4.2314269e-02
 -3.8541052e-02
 -5.5506933e-02
 -1.1467244e-01
  6.4686067e-02
  2.1308216e-01
  2.7592521e-02
 -6.5775521e-02
 -5.9444230e-02
 -1.2958090e-01
  2.7100191e-01
 -2.6302231e-02
 -7.1333222e-02
  4.4338379e-02
  1.2566793e-01
 -1.6952602e-02
 -1.2021307e-02
  5.6494479e-03
  1.2996176e-01
 -1.0895640e-01
 -1.3667502e-01
 -1.0370179e-02
 -1.7305296e-02
  3.0215051e-02
 -3.5193302e-02
  2.8302759e-02
 -2.1845259e-02
  9.0581522e-04
  3.9233066e-02
  1.2235004e-02
 -8.9574523e-02
 -4.9595762e-02
  3.4887744e-03
  8.1099689e-02
 -1.0165926e-02
 -6.9042131e-02
  6.8840785e-03
  6.0214821e-02
 -1.3468685e-02
  2.5124222e-02
  4.3616660e-02
 -1.2945961e-03
 -5.6274217e-02
  4.9620938e-02
  1.2724946e-01
  9.8773330e-02
  4.1544829e-02
 -4.7352713e-02
  8.1084438e-02
  1.5764728e-01
 -7.7445194e-02
  9.6146921e-03
 -8.5482322e-02
 -3.0776482e-02
  5.9314806e-02
  3.5898279e-02
  7.9065282e-03
 -8.8994883e-02
 -4.6165776e-02
 -3.8399991e-02
 -4.2595416e-02
  2.2173274e-01
 -3.6476519e-02
 -6.0542986e-02
  5.1685214e-02
 -7.9959877e-02
  1.1982767e-01
  2.6203167e-02
 -4.8182923e-02
 -2.4502210e-02
 -4.2528296e-03
  1.6258979e-02
 -9.5550353e-03
 -2.5942535e-03
 -2.7154135e-02
 -5.0124701e-02
  1.2562403e-01
 -9.0875797e-02
 -2.7417799e-03
 -1.9833392e-02
  2.0089705e-02
  3.1903736e-02
  4.9140986e-02
 -6.7093089e-02
  1.2573174e-01
  4.4647522e-02
  2.3093976e-02
  5.4423064e-03
 -3.3259146e-02
  7.7654287e-02
  4.5179907e-02
  1.0231428e-01
  1.8871112e-02
 -1.4390065e-02
  1.6084945e-02
  3.5023154e-03
 -3.1832993e-02
 -1.4640511e-02
  1.8702215e-02
 -3.1792670e-02
 -4.5767713e-02
 -2.0913128e-02
 -6.6617350e-03
 -2.4307208e-02
  1.4882843e-02
 -7.8485832e-03
 -4.3727212e-02
  3.8969196e-02
 -1.4858157e-02
  3.2598484e-02
  4.3325827e-02
 -2.8279319e-02
 -7.5435244e-02
  9.6384331e-04
  1.0502059e-04
 -1.0561202e-01
 -1.9814403e-01
  4.9182484e-03
 -4.9585406e-02
  1.7711326e-02
 -3.7055217e-02
 -3.4949217e-02
  1.2894313e-02
  5.0927218e-02
 -9.0861849e-02
  2.0547003e-01
  1.2897396e-02
  5.1876899e-02
  1.0618068e-01
 -2.9416263e-02
 -6.0790037e-03
 -1.6310975e-02
 -6.4568900e-02
  1.9720367e-01
 -8.4074214e-03
  3.4922358e-02
 -1.6751265e-02
  1.3259821e-02
  8.6095832e-02
 -1.3202671e-02
 -2.7477281e-02
  1.9769611e-02
 -8.5274801e-03
  1.8796697e-03
  2.3767723e-02
  5.8432077e-03
  4.2017017e-02
  7.9820445e-03
 -5.5317387e-02
  3.3189621e-02
 -5.5191029e-02
  1.5956987e-01
 -2.8700836e-02
 -1.8966928e-02
  2.1337441e-01
 -1.7456431e-02
  4.6179365e-02
  1.2902515e-01
 -2.2085451e-02
  4.3322112e-02
 -4.1525732e-03
  4.7819879e-02
 -1.2189686e-01
  1.3598530e-02
  8.3753532e-03
 -3.0359607e-02
 -8.2097184e-03
  1.7657923e-02
 -1.1700168e-01
 -4.8508801e-02
  1.0720119e-01
  2.1890914e-02
 -1.0848285e-01
  1.7050886e-01
  8.0183884e-03
 -1.5141079e-02
  1.5802690e-01
  3.7668604e-02
  1.1411525e-01
 -1.1348657e-03
  2.0652693e-02
 -2.6304279e-02
 -5.1733591e-02
  6.8622041e-01
  5.1715963e-02
 -1.3921317e-01
  2.5532013e-02
  1.6680295e-02
  1.7868085e-02
  1.5339110e-02
  2.9692871e-02
 -2.4425279e-02
 -1.4760561e-01
 -3.7956852e-02
 -8.8667078e-03
 -2.3970513e-02
  2.3034548e-02
 -3.5025079e-02
  1.3200785e-02
 -3.4232263e-02
 -4.4617943e-02
 -2.4056032e-02
 -1.2411365e-01
 -1.7939429e-03
  3.4003214e-03
 -1.4074185e-01
 -7.9877086e-02
 -4.8494827e-02
 -9.7096451e-03
  5.6658603e-02
  9.8261121e-04
  4.4795144e-02
 -1.1238703e-02
  9.8225333e-02
  8.4293419e-03
 -5.1612027e-02
 -2.0702019e-02
 -4.3186709e-02
 -5.7291251e-02
 -2.1879004e-02
  9.0193457e-04
 -4.4252288e-02
 -8.5162502e-03
  4.3926660e-02
 -3.1712141e-02
 -3.9221374e-03
 -1.4033716e-03
  8.2053296e-02
  1.3135538e-01
 -4.1738480e-02
  3.5899445e-02
 -2.8710745e-02
  2.1382555e-02
  7.0799008e-02
  9.3053780e-02
  1.0341691e-01
  9.2787119e-03
 -6.3520178e-02
 -1.2319532e-01
  9.6007749e-02
  1.3543583e-02
 -8.1295557e-02
  3.0809132e-02
 -4.2132650e-02
 -3.3645492e-02
 -5.5243440e-02
 -1.0825961e-02
 -4.0476851e-02
 -1.7528074e-02
  6.2385213e-02
 -1.0396525e-03
 -1.4058976e-02
  4.7311220e-02
  7.0870988e-04
  4.5746636e-02
  6.7284335e-03
 -9.0873383e-02
 -8.2199194e-02
  2.3047050e-02
  1.1700620e-01
 -7.6405615e-02
  1.1727099e-02
 -1.7984112e-01
  2.4843433e+00
 -5.5017333e+00
 -6.7508811e-01
 -4.3590798e+00
  1.7719425e-02
  2.0623789e+00
 -1.7853364e+00
 -1.5450532e+00
  1.4118860e+00
 -1.1096123e+00
  6.8218690e-01
 -1.1517105e+00
 -5.6721702e-02
 -2.9321088e-02
 -1.7263905e+00
  2.0991734e-01
 -1.5678744e+00
  7.3227072e-01
 -8.3362955e-01
 -5.6533438e-01
 -9.6105790e-01
 -1.4285231e+00
  1.1996797e+00
 -3.8407139e-02
  1.6455479e-01
 -6.6398227e-01
 -1.2103267e-01
  1.2256793e-01
  6.4192414e-03
  1.2041216e-01
 -4.5117646e-01
  1.5213968e-01
 -5.0531250e-01
 -2.7005631e-01
 -6.6102006e-02
 -1.2185035e-03
  1.2237187e-03
 -2.4850309e-02
  1.8565218e-01
 -1.3490048e-01
 -5.5999078e-02
 -7.2620966e-02
  2.6024237e-01
 -9.6529035e-04
  2.7852187e-01
  3.4205142e-02
  2.9247057e-01
 -9.5355157e-03
  3.6216002e-02
  7.4536808e-02
  8.0696074e-03
  2.6821336e-01
 -5.9709698e-04
 -1.3984160e-02
  4.6633016e-02
  5.3156380e-02
 -3.9135434e-02
 -3.3451658e-02
  6.8349135e-03
 -1.3788222e-01
  1.6248897e-01
  3.7656154e-03
  5.0002348e-02
  1.6953091e-01
  1.2370636e-01
 -6.0797170e-02
  1.4996408e-02
  1.7647272e-01
  8.6649165e-02
  2.8588051e-02
  1.1783278e+00
  3.3889362e-01
  8.2495049e-02
 -1.7742032e-02
 -8.5396364e-02
 -3.4929177e-01
 -3.4699768e-02
  1.9249065e-02
  1.9090571e-02
 -1.8022518e-01
 -3.9180261e-01
  6.2411800e-02
  4.3714698e-02
  1.2648669e-01
 -6.5464810e-02
 -1.9667818e-01
 -4.3560573e-01
 -1.2001677e-02
 -3.1653017e-02
  2.3428384e-02
  2.3457613e-02
  3.2082826e-02
 -1.7244361e-02
 -2.0136255e-01
 -3.6674310e-02
  6.3911937e-02
 -6.4420864e-02
 -1.1264412e-02
 -2.1315601e-03
  2.4813639e-02
  3.4037683e-02
  2.8854014e-02
  2.5377551e-02
 -1.6886190e-01
 -4.5675482e-03
  7.1839890e-03
 -1.0201704e-01
  1.3619001e-01
  1.5748765e-02
  2.0140881e-02
  2.0762227e-02
 -4.5271400e-02
 -7.3416889e-02
 -1.1953078e-02
 -7.8797258e-02
  6.2353216e-02
 -1.1296974e-02
 -1.3707982e-02
 -1.1996010e-03
 -1.2357071e-02
  3.7437737e-02
 -1.2227991e-01
  3.2011282e-02
 -3.5053700e-02
 -1.3640019e-01
 -5.8717288e-02
 -1.1406283e-02
 -7.4667260e-02
 -1.3346025e-02
  4.2771757e-02
 -1.7293971e-02
  2.3480007e-02
 -1.2811963e-01
 -4.5832854e-02
 -3.0667351e-03
  2.6514739e-01
 -3.5043992e-02
  7.4326403e-02
 -1.4933860e-01
  8.2101952e-03
  5.5824827e-02
  2.9082935e-02
 -4.0951274e-02
  1.6877797e-02
 -2.1945441e-02
 -1.8806411e-03
 -6.8903685e-02
 -1.3091481e-01
 -3.6615282e-02
  1.5578780e-02
 -3.5944503e-02
  5.2151540e-03
 -5.5442084e-02
 -3.9574572e-01
 -5.8239982e-03
 -1.0802051e+00
  3.3724438e-02
  5.8636390e-02
  1.5207429e-01
 -2.2934841e-01
 -1.2049048e-01
  3.4804261e-01
 -7.9476610e-03
  7.1239234e-03
  1.4355848e-02
 -4.7343835e-02
 -5.4377843e-02
  4.6048486e-03
  3.9245747e-03
 -3.1905148e-02
  2.8631983e-02
  4.1153663e-01
  2.6776588e-02
 -5.4976251e-02
  3.9278932e-02
  7.3957779e-03
  3.2187466e-02
  4.6191022e-02
 -4.8033376e-03
 -8.1953987e-02
  3.0033717e-02
 -8.4912237e-03
 -3.8019620e-02
 -1.6215861e-02
 -5.1787242e-02
 -3.5078354e-02
  6.6626817e-02
 -5.8274373e-02
  1.3534531e-03
  7.3049972e-03
 -4.5661321e-03
 -3.2262266e-02
  8.3772115e-02
  2.2432263e-04
 -6.6479035e-03
 -2.6651893e-02
 -1.4457242e-01
  1.6076413e-01
 -1.3477801e-02
  1.2005705e-02
 -5.1497478e-02
 -3.1252660e-02
 -1.0104878e-01
  9.3096972e-02
 -1.7841905e-02
 -2.9485074e-03
  8.2605243e-02
  7.0184782e-02
  9.1674216e-03
 -4.3107878e-02
 -3.9060187e-01
  7.3507950e-02
  3.0079994e-01
 -2.3522904e-02
  8.6573409e-03
  1.8498402e-02
 -2.2183374e-02
 -3.8958158e-02
  1.4826572e-01
  1.0442343e-02
  1.1206061e-01
 -1.5420609e-03
  2.7470110e-02
 -7.0299037e-02
  4.4378616e-02
 -1.1037891e-02
 -5.1418298e-01
 -1.5082107e-02
  5.8667567e-02
  4.2723686e-02
 -1.1823762e-02
  6.8329014e-02
  1.0534355e-01
 -4.5382969e-02
  6.2064148e-02
  3.6259826e-02
 -4.4064924e-02
  2.3692099e-02
  9.4674125e-02
 -5.7555143e-02
 -5.7920810e-02
 -4.4015963e-02
 -9.8028727e-02
 -1.2122747e-01
 -3.7072826e-02
 -1.5663601e-02
  1.6515993e-01
 -2.1333350e-03
  2.5708345e-01
 -2.1776538e-02
 -1.3571176e-01
  1.4950268e-02
 -2.6910028e-03
 -1.3754255e-01
  8.8525802e-02
 -1.0709740e-01
 -2.7404347e-01
 -2.0739862e-01
 -1.1683680e-02
  1.5876604e-02
  4.0663473e-02
 -3.3190861e-01
  5.2971910e-03
  1.1694804e-03
  1.0363724e-02
  7.2183624e-02
  1.6488522e-02
  3.1335425e-02
  7.9881614e-03
  2.2445587e-02
  2.3714483e-02
 -3.0728947e-02
  3.6825046e-02
 -8.5932434e-02
  1.1005028e-01
  1.1125256e-01
 -4.7466964e-02
 -5.3713165e-02
 -3.8239740e-02
 -4.5598755e-03
  5.2847490e-02
 -4.5410380e-02
 -4.1760020e-02
 -5.3767543e-02
  5.5467449e-02
  1.1851666e-02
 -9.8387755e-02
 -1.1471217e-02
 -2.9619280e-02
  8.1839368e-02
 -2.2913186e-02
  3.1476144e-02
  7.2606885e-01
 -1.7316239e-01
 -7.1687349e-03
  4.2775618e-03
 -1.0020205e-02
 -5.4670777e-02
 -5.7647213e-02
  3.3224282e-01
  7.4357748e-01
  1.0207819e+00
 -3.2708484e-01
  3.9730635e-02
  3.4501009e-02
  1.6747756e+00
  1.4735305e+00
  4.7136713e-02
  3.3336470e-03
 -2.4486326e-01
 -1.8916567e-01
  7.4807055e-02
  1.4172473e-02
  1.0706450e-01
 -1.9600847e-01
 -7.6993144e-01
 -7.9418314e-01
 -5.1305956e-01
  3.3945028e-02
 -2.0630353e-03
  2.8934309e-01
 -2.4562957e-02
  3.9832264e-01
  2.8876977e-03
 -1.2742098e-01
 -9.2848307e-03
 -5.0440061e-01
 -2.3939313e-02
 -1.8347509e-02
  1.8487350e+00
 -1.9961029e+00
  1.0977991e+00
  3.0138180e-02
 -1.1387807e+00
  1.2830758e-01
 -4.4873655e-02
  6.8579173e-01
  1.0914207e+00
  9.2561209e-01
  1.4619634e-01
  2.6634255e-01
 -1.7486535e-01
  8.7720639e-01
  9.2276669e-01
  1.1758493e+00
 -4.1224635e-01
  6.9684333e-01
  8.3614081e-01
  4.2035741e-01
  3.0303296e-01
  1.1854097e-01
  2.4745867e-01
  6.8738729e-01
  1.4447564e-02
  1.4134234e-01
  5.3943020e-01
  2.4672039e-01
 -8.6258970e-02
 -2.2908527e-02
 -7.8417502e-02
 -4.8085982e-01
 -7.0914254e-02
 -2.9488009e-01
 -2.4520483e-02
  1.1033078e-01
 -1.7630623e-01
 -3.5994425e-02
 -6.4075585e-03
  1.3765998e-02
 -8.0522820e-02
 -8.1381425e-02
  1.3432802e-01
  1.0082643e-02
  1.8342059e-02
  3.2910031e-01
  3.1813987e-02
  6.7096156e-01
  2.0263335e-01
 -3.6334958e-02
 -2.7850647e-02
 -2.1797603e-02
 -2.5078213e-01
  2.4268622e-02
 -4.5507550e-02
 -2.9329678e-02
 -1.6628052e-03
  1.5851969e-02
 -3.2568548e-02
 -3.9388146e-02
 -1.1090183e-01
  2.2154916e-02
 -1.6693639e-02
 -6.0392451e-04
 -8.2273278e-03
  8.8845957e-03
  1.9541575e-01
  3.4617302e-03
 -1.4425132e-02
 -5.0819162e-03
 -1.5511954e-01
 -3.8479973e-02
  1.5600526e-02
  6.7865448e-03
 -6.6082262e-02
  2.0290461e-01
  3.8014796e-02
  7.5670019e-02
 -2.5596477e-02
  4.6405111e-02
  3.3774104e-02
  1.9568036e-01
  3.1802386e-01
 -1.4305512e-02
 -5.7538506e-02
  6.3698843e-02
  2.9722389e-02
 -4.5413170e-02
  2.5199153e-02
 -6.1969001e-02
 -1.4228254e-03
  4.6139485e-03
 -6.2496379e-02
 -1.6153537e-02
  1.1338829e-01
  5.5274501e-02
  3.4828734e-02
 -2.1552183e-02
 -3.1624053e-02
 -8.4980838e-02
  3.1495333e-02
  7.1499981e-02
 -4.5714714e-03
  1.8448124e-03
  7.9078831e-02
  3.3000108e-02
 -8.7399594e-02
 -4.5027185e-02
 -1.0908531e-01
 -1.9737815e-02
  1.0391188e-02
  8.9840092e-02
  2.6299708e-02
 -2.3955405e-02
  5.7584386e-02
 -3.2298025e-02
 -5.6466274e-02
  2.4372481e-02
  4.5023955e-02
  1.0715421e-01
 -6.4079799e-02
  5.0745672e-04
  1.0133082e-01
 -4.5182392e-02
 -9.1923717e-03
  5.4303496e-03
  1.0838272e-02
  1.9296564e-02
  1.6430855e-02
  1.0651004e-02
 -4.7267504e-02
 -2.2546042e-02
  1.2325946e-02
  9.8898746e-03
  2.1655105e-02
 -5.4935724e-02
 -8.8830162e-03
  1.4347927e-02
  4.9759403e-02
  2.8770220e-02
 -1.1963523e-01
  2.4718936e-03
  1.9632112e-02
  8.5569300e-02
 -1.0649176e-01
 -1.5472565e-02
  2.1938806e-02
 -3.8819533e-02
  5.9598465e-02
  1.1174042e-02
 -8.4992148e-02
 -8.7923735e-01
  1.6326052e-01
 -4.8515213e-01
 -4.0341216e-01
 -3.7921954e-02
 -1.3067532e-01
  1.1061360e-01
  2.8216086e-02
  2.3366867e-01
 -1.4486727e-01
 -3.8236335e-02
  1.3194515e-01
  6.6516735e-02
 -1.0050513e-02
  3.3525887e-01
  9.0111569e-03
 -2.3822257e-02
 -2.5017206e-02
 -5.4541852e-02
  1.8247762e-03
  3.6348224e-02
  3.9399967e-02
  7.9316080e-02
 -2.9473206e-02
 -2.5828391e-02
  1.2798481e-01
  2.0813161e-01
 -2.5873318e-01
 -1.9265182e-02
  9.0771921e-02
 -8.5160948e-02
  3.4135927e-03
 -4.5407783e-02
 -6.3259460e-02
 -2.5599137e-02
 -4.2643730e-02
  2.6372831e-02
 -4.9553949e-02
 -1.4170870e-02
  6.3345976e-02
  7.3948242e-02
 -1.6247854e-02
  6.1249193e-03
 -1.3528404e-02
 -1.9701179e-02
 -1.4667485e-03
  1.6036093e-02
  2.0667556e-01
 -8.0401422e-03
 -3.0143306e-02
 -6.9718167e-02
  9.9040255e-02
 -4.3917768e-02
  2.1502402e-02
  1.8687865e-02
  4.7927313e-02
  6.7103230e-03
 -9.4964020e-02
  6.1052665e-02
  2.0465902e-03
  3.9583672e-02
 -6.7459375e-02
  2.6552102e-02
  1.5081121e-02
 -1.1203036e-01
  2.0524811e-02
  6.8716833e-04
 -7.8918062e-02
  3.0532666e-03
 -5.0084077e-02
 -3.5683427e-02
  2.2120317e-02
 -2.4307040e-03
  2.4717180e-03
  8.4604509e-02
 -8.9453176e-02
  2.8871171e-02
 -8.1077404e-02
  1.3948431e-03
  6.9624186e-02
 -2.0254580e-02
 -5.4668758e-02
  1.1820561e-02
 -7.6693110e-02
 -5.5593285e-03
 -1.2492609e-01
  8.1170374e-04
  8.3857374e-03
  1.0156867e-02
  5.2506201e-02
  1.2428132e-02
 -3.3466923e-03
 -4.4717137e-03
 -9.5058413e-04
 -4.1878484e-02
  4.7936637e-02
  2.2128360e-02
  9.3806282e-02
  8.7167352e-02
 -6.9546632e-02
  8.9012153e-02
  8.7125272e-02
 -2.5953315e-03
  8.6454619e-03
  6.5042160e-02
  2.8218597e-02
 -1.9818293e-02
 -1.4973477e-01
 -1.9882949e-02
 -1.3648308e-02
 -1.9888882e-02
 -3.2513559e-02
  8.1147067e-02
  1.0683807e-01
  6.0593504e-02
 -2.2624627e-02
  1.8061582e-03
 -2.8683274e-04
  2.5735617e-02
  4.3947782e-02
  3.4730139e-01
  9.8278716e-02
 -1.5794044e-02
  7.9504766e-02
 -1.0349101e-01
  6.8990320e-02
  5.4382016e-03
 -4.5167352e-03
 -5.9726194e-02
  8.5565895e-03
 -4.8017688e-02
 -1.6355398e-01
 -6.1376855e-02
 -1.5479274e-01
 -1.4488328e-01
  2.0452429e-01
  1.5287078e-02
  2.6962204e-02
  1.7138874e-02
 -8.5303211e-04
  5.4705143e-02
 -3.8542382e-03
  8.1425468e-03
  2.4391066e-02
 -1.0287906e-02
  8.5103447e-03
 -2.0886652e-02
 -1.5377629e-02
  2.8807482e-02
  3.4512233e-02
 -2.5523216e-02
  1.0118381e-01
 -1.5151982e-01
  3.6825098e-02
  3.7386930e-03
 -4.8182432e-02
  1.8483665e-02
  4.8323907e-02
 -5.6368701e-02
  6.2894657e-02
 -9.0962060e-02
 -4.2258608e-03
 -5.6251632e-03
 -3.3201040e-03
 -3.4290508e-03
  1.3581826e-02
  4.7340047e-02
 -2.0616762e-02
 -6.6480376e-02
 -4.2230725e-02
 -6.7104623e-03
 -4.1187191e-03
 -1.4100020e-01
 -3.5982363e-02
 -3.2835264e-02
 -5.2726842e-02
  1.9390199e-02
 -1.5830792e-01
 -8.3180055e-02
 -1.0239623e-02
  2.6523012e-01
  7.1982029e-03
  7.2392620e-02
  2.1869536e-01
  4.3916844e-02
  1.7772425e-02
  2.6847601e-01
 -9.9334821e-02
  3.6065141e-03
  5.0444413e-02
  1.2981132e-01
 -1.7255310e-02
 -7.1480222e-02
 -1.6792895e-01
 -4.9000788e-02
 -1.6962393e-01
  5.2370960e-01
 -9.1981702e-02
  2.3132212e-02
 -4.0636752e-02
 -6.5567575e-02
  5.5743728e-02
 -5.1277466e-02
  2.2639517e-02
  1.4247540e-03
  6.6048056e-02
  7.0113534e-01
  2.1432539e-02
 -2.6607057e-02
  2.3628436e-01
 -1.3880964e-01
  7.5352654e-02
 -2.6835659e-01
 -1.0494757e+00
 -1.4589338e-01
  1.1941882e+00
  6.8550542e-02
 -9.9984668e-03
 -2.3580421e-02
 -1.0098369e-01
 -2.3567699e-01
  1.1863088e-01
  4.8705000e-01
  8.2006771e-04
 -4.5701792e-04
 -8.9504816e-02
 -6.9033778e-01
  1.7074402e-02
 -9.1417372e-02
  5.6578148e-02
  1.1969981e-03
 -1.2038449e-02
  3.3321632e-03
 -5.6550879e-02
  7.3670529e-02
  8.0748558e-02
 -6.7225419e-02
 -3.1926792e-02
 -2.8248757e-02
  9.5530085e-02
 -5.4378569e-01
  5.6280792e-01
  1.1629928e+00
  2.3656662e-01
  1.5114782e-02
  1.6770853e-01
  1.2987756e+00
  4.3466234e-01
 -4.6065775e-01
  1.0114588e-01
  3.8158375e-01
 -9.0351269e-02
 -3.9694327e-01
  2.2760680e-02
  7.7159107e-02
  2.4737288e-01
  9.5165080e-01
 -1.5627021e-01
 -4.0944233e-03
 -4.0892730e-04
  5.7049724e-03
  4.7463590e-01
 -6.0369086e-01
 -4.3162748e-02
 -7.7343807e-02
 -4.5880161e-02
  3.3679512e-01
  6.3540414e-02
 -1.8091904e-01
 -3.7954799e-03
 -2.2898544e-01
 -4.2387228e-03
  2.1631971e-02
  2.8762093e-02
  3.5720594e-02
  8.6700045e-02
 -9.4098523e-03
 -1.0709887e-03
 -2.1228738e-02
 -8.7842889e-02
 -2.6366679e-02
 -2.5247281e-02
 -1.1575817e-02
 -7.3445752e-02
  2.3148982e-01
  1.4872974e-01
 -2.8665129e-02
  3.1908511e-03
 -1.8149011e-02
 -1.3816817e-02
  9.1954544e-03
  6.3557471e-03
  9.9104224e-04
 -4.2436376e-02
 -5.9889379e-04
 -6.2810466e-02
 -1.1254289e-02
  2.2515021e-03
 -2.7995581e-02
 -9.5323220e-02
 -1.3920327e-02
 -1.4842527e-01
  7.1166322e-02
 -1.7185859e-02
  3.4982845e-02
 -1.4619553e-01
  4.9678519e-02
 -5.3777122e-03
 -1.7367056e-02
 -4.2705882e-02
  6.3022278e-02
  1.4811839e-01
  3.9712828e-02
 -9.2224814e-03
  7.6613717e-02
 -2.5378676e-02
 -4.6376558e-03
  1.1800669e-01
 -1.3788550e-02
 -3.8825800e-03
  4.5898124e-03
 -7.4609742e-02
 -1.3130714e-01
 -9.9208457e-03
  2.4452254e-02
  1.0918971e-02
  8.1110157e-02
 -7.1309442e-03
 -4.9483545e-02
  4.8576418e-02
  6.1620106e-03
  4.7004901e-02
  1.4114904e-02
  3.9296824e-02
 -6.8697074e-05
  1.2348969e-01
 -1.2462877e-02
  1.1104675e-01
 -3.5949301e-02
 -4.7735866e-02
 -1.1672312e-01
  3.6106635e-02
 -3.5230719e-02
  9.0322606e-03
 -3.6502458e-02
 -2.9819014e-02
  8.0500413e-03
  2.7448738e-02
 -3.7128595e-04
 -1.4141740e-03
 -1.3938434e-02
 -1.0778041e-01
 -4.5980257e-03
 -1.4575159e-03
 -2.6091188e-02
  7.1716486e-03
 -1.8019973e-01
 -8.9920968e-02
 -6.4224221e-02
 -8.5390761e-02
  3.6551054e-03
  7.8413226e-02
  3.5469003e-03
  2.3419359e-01
  4.2892758e-02
  4.9418509e-03
  7.8271165e-02
  2.6659835e-02
 -2.2001175e-02
  1.1529351e-02
  1.2164029e-02
  1.0617077e-04
 -1.0275169e-01
 -5.8529801e-03
 -1.8460376e-02
 -1.0078211e-02
  6.6341721e-02
 -1.7712882e-03
  1.1345834e-01
  4.0568519e-02
 -3.8187116e-02
  4.7136143e-02
  1.0549915e-03
  1.1865823e-01
 -2.5575118e-02
 -2.2538446e-03
 -7.2047184e-03
  2.4584243e-02
  3.3049388e-03
  1.5740205e-01
 -6.8955684e-01
  3.1144056e-02
 -3.4961390e-01
 -6.7949808e-01
 -5.6023891e-03
 -8.3706796e-01
 -1.7216124e-01
 -2.5669768e-02
  4.7417870e-01
 -1.2353782e-01
 -2.0460583e-02
 -2.6277107e-01
  4.3041927e-01
 -5.5697959e-02
  3.6823612e-01
 -3.3327330e-02
 -1.3317247e-01
  1.4937168e-01
 -7.9242961e-04
 -8.7329105e-02
  1.8547451e-01
 -5.3375289e-02
 -1.6112004e-01
  1.2016990e-02
  1.8736820e-01
  2.1656454e-01
  1.2514271e-01
  4.9502429e-02
  5.5990275e-03
 -2.3114014e-01
 -6.3056505e-01
 -1.3235853e+00
  1.5133321e+00
 -1.7278498e+00
  1.3820838e+00
 -3.7310787e-03
 -7.9796308e-01
  1.5855793e+00
  1.4665182e+00
  3.2225665e-02
  4.6517676e-01
 -4.1025198e-01
  5.4270190e-01
 -9.7805008e-02
 -3.1275410e-02
 -4.8423070e-02
 -1.8828077e+00
 -2.7767056e-01
  8.0443509e-02
 -5.9385818e-01
 -1.5386338e-02
 -7.0234537e-01
  3.8486871e-01
 -1.1477060e+00
  1.7331220e-01
 -2.0570014e-02
 -6.8525606e-01
  3.5203171e-01
  4.7623329e-02
  3.8850583e-02
 -4.5808271e-01
 -6.5239482e-02
 -1.1362097e-01
 -1.4672862e-01
  4.0731829e-02
 -1.0117225e-01
 -6.0413215e-02
  8.9486763e-03
  1.4218453e-01
 -1.0362548e-01
 -2.9059100e-01
 -2.0141511e-01
  1.6729695e-01
 -7.0520878e-02
  6.3842744e-01
  4.7660761e-02
  5.0757521e-01
  1.9188799e-01
 -9.1174468e-02
 -9.0345182e-02
  2.8573206e-01
  2.1325813e-01
 -4.3640111e-02
 -6.6197433e-02
  1.4814156e-01
 -3.0065668e-04
  8.7203301e-02
  1.0458626e-02
 -6.2261097e-02
 -5.5175284e-03
  6.6147014e-02
  2.2360937e-04
 -1.0224109e-02
  2.2551283e-01
 -2.5652848e-02
  1.0659533e-02
  3.6650725e-02
  1.4558017e-01
  1.1614321e-02
 -1.5324763e-02
  1.0587998e-01
  1.2648067e-01
  3.0627713e-02
 -2.9412511e-01
 -1.1504018e-01
  2.0210162e-02
  5.5692339e-01
 -4.3149176e-04
  5.0039358e-02
 -3.9478168e-02
 -3.7449569e-02
 -4.8963737e-02
 -1.0063985e-01
 -4.3732304e-02
 -3.8505569e-01
 -6.7540564e-02
 -3.2434665e-02
 -9.5472094e-03
 -2.9797453e-02
  2.3855193e-02
 -1.0992080e-02
 -6.2752955e-02
  4.5748588e-02
 -5.4031692e-02
 -5.4496661e-02
 -8.6499229e-03
  2.0119978e-02
  1.4571288e-01
 -9.8739907e-02
 -3.3932433e-02
 -1.0296270e-01
  2.4899278e-02
 -5.4449249e-02
  2.1933533e-02
 -1.9672685e-03
  1.9689845e-01
 -2.8355079e-02
  5.8678687e-02
  9.1143642e-03
 -3.9209727e-02
  8.3856303e-03
  7.4794884e-03
 -6.5031320e-02
 -4.7097091e-02
  1.7108681e-02
  1.4524961e-01
  1.1017835e-02
  1.8609831e-02
  3.6463611e-02
 -2.5463358e-02
  1.4217088e-02
 -4.6161388e-04
  2.4066132e-02
 -3.0181151e-02
  6.2395055e-03
 -7.5967968e-02
  6.8364911e-02
  1.7173924e-02
  6.3841548e-03
 -4.9297769e-02
 -2.1940963e-02
  1.6441269e-01
  2.1353842e-01
 -7.3842265e-02
 -3.9196029e-02
  4.3167964e-02
  6.0877029e-02
  2.5821991e-02
 -2.5516979e-02
  2.7768912e-02
  1.2885533e-01
  8.2925968e-03
 -4.8777577e-02
 -2.3978734e-02
  9.3856983e-02
  1.5968892e-03
  5.2064046e-02
  4.9694411e-02
  2.3719994e-02
 -7.6357462e-02
 -5.9084665e-02
 -5.2398626e-02
  2.5742982e-02
  4.4656806e-02
  2.1390464e-02
  3.3388633e-02
  7.3536993e-03
  1.5431854e-02
 -7.5201076e-03
 -2.5305771e-03
  1.5804060e-02
  3.9026804e-02
 -4.7097802e-02
  3.6024474e-02
 -2.0425128e-02
  2.7624380e-02
  4.2508805e-01
  4.7993593e-02
  2.3948526e-02
 -2.9682666e-01
  7.1400113e-02
 -5.5383542e-03
 -1.0666881e-01
  5.1305562e-02
  1.1317213e+00
  1.0413091e+00
  1.5534473e-02
  1.2668811e-02
 -1.0896337e-02
 -8.2517290e-01
 -1.1530958e-01
  7.0632808e-02
 -2.1746103e-04
 -6.1353739e-02
  2.5558618e-01
  3.7479874e-02
 -6.7001674e-03
 -3.7730542e-01
 -3.2113409e-01
 -2.8897725e-02
 -1.9284901e-01
 -3.6995970e-02
  4.6394993e-02
  2.2583123e-02
 -1.1040144e-01
  5.5748060e-02
 -1.7055931e-02
 -6.5948926e-03
 -1.8702392e-02
  9.4106533e-03
  1.0326172e-02
 -2.4892917e-02
 -1.7404960e-02
  4.4736323e-01
  9.4386645e-02
  2.6278400e-01
  8.2949027e-02
 -2.2877699e-03
  8.8078022e-02
  2.0370544e-01
 -7.0987304e-04
 -5.5203921e-01
  5.5311289e-02
 -2.0840700e-01
  4.2197151e+00
  6.7332047e-01
 -4.9297810e-01
  6.5181203e-02
 -8.1498414e-02
  5.1112825e-01
  6.9647200e-02
  4.6729228e-01
  6.6114062e-01
  7.3934704e-02
 -1.2719001e+00
  2.1040123e+00
  5.7885796e-01
  8.1615768e-02
 -2.5424641e-02
 -1.0918181e-02
  1.3137418e+00
 -3.7159726e-02
  4.0653691e-02
  2.5165295e-02
 -5.4189050e-01
 -1.5993493e-02
 -5.2673221e-01
  6.1183989e-01
 -1.3018210e+00
  3.2890025e-01
 -1.7509602e-02
  3.3025015e-02
 -1.7041060e-01
  1.8694836e+00
  2.2453270e+00
  9.0421623e-01
 -3.5920089e-01
  6.7711817e-03
  1.7695880e-01
  8.8778996e-01
  1.1147097e-01
  8.1177455e-01
  5.0046790e-01
  4.5097810e-01
  1.6960314e-01
  1.4801383e-01
  1.8368831e-02
  1.9594944e-01
  1.3444315e-01
 -5.9827328e-02
  6.5302961e-02
 -7.5826161e-02
  1.9437875e-01
  9.5086679e-02
  6.9871143e-04
 -2.5378456e-03
 -1.6055951e-02
 -2.6601594e-02
 -9.5822856e-02
  9.3045505e-03
  1.5954429e-02
 -4.7100760e-02
  6.1063174e-02
  1.5246217e-02
 -1.6803030e-02
  4.1932125e-02
 -1.0861632e-01
 -1.0984418e-01
  2.6272386e-02
  2.5451208e-02
 -5.6994194e-03
  1.0750055e-02
  1.5417665e-02
  6.8142891e-02
  2.5068340e-04
 -1.0979236e-02
  4.2530173e-03
  1.8044923e-01
  1.8444400e-02
  3.3398601e-01
  4.0427005e-01
  2.9338600e-02
  1.7967122e-03
  3.6458127e-02
  1.4428058e-01
  5.3832263e-02
 -1.2315573e-01
  2.3961032e-02
  4.5935940e-02
  4.7795543e-01
  1.2700427e-01
 -7.1390402e-03
  9.7862128e-03
 -1.2996092e-02
 -1.6663785e-01
 -1.1582666e-01
  9.4122127e-02
  5.5512512e-01
 -3.4138581e-01
 -3.4501813e-02
 -6.9420822e-02
 -9.1005981e-02
 -4.6049091e-01
 -5.9018835e-02
  4.8838090e-02
  6.0554434e-02
  7.8464508e-02
  8.2527578e-01
 -6.1231501e-02
 -4.8448667e-03
  1.7387586e-02
  1.0774495e-01
 -4.0411942e-02
  4.5128295e-01
  1.1274887e-02
  7.8876190e-02
  3.2926193e-01
  3.7368763e-02
  2.0126247e-01
  1.8805861e-01
  4.3926007e-01
  5.2170534e-02
 -9.1959685e-02
  8.1697375e-02
  1.7686951e-01
  4.2883184e-02
 -5.7252467e-02
  5.0541032e-02
  6.8023810e-03
 -2.0877717e-01
 -4.1003849e-02
 -3.1356037e-02
  1.4511099e-02
  4.7556081e-01
  7.6201960e-02
 -1.0591504e-02
  1.5757818e-02
  6.9007367e-02
  5.8149975e-02
 -7.9716645e-02
  2.6157904e-01
  3.4608278e-01
 -7.9048224e-02
  7.4366379e-01
  1.2436281e-01
  9.3506932e-02
  6.7311324e-02
  3.8586676e-01
  1.5730629e-02
  2.5396723e-01
  2.4163984e-01
  3.4814715e-01
  3.3525966e-02
  1.1504239e-01
  1.0255653e-01
 -2.1450419e-02
  4.5511048e-02
  1.4101861e+00
 -6.3956249e-01
 -4.2459670e-01
 -7.6940447e-01
  1.8634257e+00
  6.6107832e-02
  7.1741089e-02
  2.7642358e-02
 -7.3944435e-02
  5.8570921e-01
  4.7101516e-01
 -1.0563989e-01
 -8.2097083e-01
  3.2261971e-02
 -1.0199362e-01
 -4.1284043e-02
  1.6035654e-01
 -1.9872369e-01
  1.8242523e-02
  4.0798301e-01
 -2.0022871e-02
  5.7235789e-01
  1.3945444e-01
  4.2085725e-01
  1.0882493e-02
  1.2355640e-01
 -2.2331974e-02
  5.7263017e-01
  6.4094082e-02
 -3.1646338e-01
 -6.2131669e-02
 -1.6418035e-01
 -2.0273729e-01
  3.5687014e-02
  2.3192412e-01
 -6.6633600e-01
  1.1435667e+00
 -1.6063815e+00
 -3.4714389e-01
 -1.8342148e+00
  1.3527492e+00
 -3.1732741e-01
 -1.1254638e-01
  6.5553367e-02
 -1.1623056e+00
 -4.1649640e-01
  1.0774282e-01
  5.4887874e-04
 -5.8905804e-01
 -6.1976701e-01
 -4.5557514e-01
  1.5213700e-02
 -1.0240910e-01
 -2.6293981e-01
  4.2403802e-01
  1.5912641e-02
 -4.1961879e-03
  5.1651609e-01
  4.1259342e-01
 -1.3271034e-02
 -2.4689864e-02
  5.0898194e-01
  1.1571980e+00
  9.2442447e-01
 -3.7745675e-01
 -2.9530001e-01
  2.7765873e-01
  1.8776013e-01
  3.5407074e-02
  7.7692168e-03
 -9.1975844e-03
 -1.0005810e-01
  1.0762852e-01
 -4.6570310e-01
 -9.0482518e-02
 -7.5818837e-01
  5.6362826e-01
 -1.7852156e-01
  5.1489588e-02
 -2.3389021e-01
 -4.2642564e-01
 -7.9899738e-03
 -7.7380735e-01
 -2.2129739e-02
 -7.0267075e-01
  2.4976662e-01
  1.8452233e-01
  6.1485711e-02
  3.6939448e-01
 -4.6523318e-01
  4.4583222e-01
 -8.9234793e-01
 -9.9272868e-03
 -2.7516931e-02
  7.3450661e-01
 -7.3660702e-02
 -1.0738691e-02
 -9.5775031e-02
  1.9572806e-01
  4.9059653e-01
 -8.2275468e-01
 -2.2571792e-01
 -7.3946583e-01
  4.9686730e-01
  1.0489611e-02
 -8.6819055e-03
 -8.3218347e-03
 -8.5204534e-02
  2.9075173e-01
 -4.0591270e-01
  6.5535428e-03
  1.3671178e-01
  2.7474159e-01
  2.3462431e-01
  7.9073481e-02
  1.3442412e-01
 -5.9710309e-02
 -1.6485331e+00
  3.1055951e-02
 -2.2217363e-01
  1.0888669e+00
 -2.0144186e+00
 -5.1082950e-02
  1.1907952e-01
 -4.1490999e-01
  6.1682925e-02
 -1.8556000e-01
  1.3289599e+00
  1.8554199e-01
  2.3951209e+00
 -2.3132715e+00
  4.1792318e-01
 -4.9088784e-02
 -2.9236989e-02
 -1.0916933e-01
  4.8575115e-01
 -2.3151491e+00
 -5.9451210e-01
 -1.8761227e+00
  1.0603454e+00
 -4.1367677e-01
  2.9361337e-01
 -7.1947359e-02
  1.1084299e+00
  1.2438796e+00
 -3.0392705e-02
  1.8582898e-01
 -4.4212693e-01
  8.5402083e-01
 -4.7331902e-01
  1.9846624e-01
 -3.9615225e-02
 -4.6020135e-01
 -2.8710771e+00
  2.3185945e+00
  3.3413774e-01
  4.2561502e+00
 -1.8709350e+00
  8.2105368e-01
  7.1597740e-02
  5.2284348e-01
  1.3337061e+00
 -1.2791317e+00
  1.1520926e+00
 -7.9485863e-02
  7.3440427e-01
 -8.1841308e-01
  3.6873877e-01
 -1.2613604e-02
  8.3615594e-02
  4.6866569e-01
 -7.3256023e-02
 -8.3069724e-01
 -4.1118022e-02
 -8.9990966e-02
  1.1392969e+00
  2.8684932e-01
 -6.9749087e-02
  1.4434001e-01
 -5.4421252e-01
  3.1602672e-01
 -1.0948263e+00
  4.2435801e-01
 -1.3273904e-03
 -3.8065881e-02
  2.3941664e-01
  2.3201169e-02
 -4.9452722e-02
  1.3375980e+00
 -1.0114590e+00
  5.9094691e-01
  2.8953376e-01
  7.5267261e-01
 -1.6819060e+00
  1.1926988e+00
 -2.4863787e-02
 -1.4592728e-01
  4.5827150e-01
 -1.0130789e+00
  1.8519320e+00
 -7.6516457e-02
  7.5092185e-01
 -6.5964669e-01
  9.2088222e-04
  3.3415848e-01
  5.5906379e-01
 -1.8386558e+00
 -1.8366988e-01
  7.3385209e-01
  4.2510144e-02
  1.2131349e+00
  1.0206883e-01
 -2.9165766e-01
  7.0235193e-02
  1.3506548e-01
 -1.0193833e+00
  4.0384343e-01
 -7.3902279e-01
  8.0581404e-02
  1.1379852e-01
  3.6684027e-01
  4.4199411e-02
  6.0713553e-01
 -2.2873859e-01
  5.1027620e-01
 -1.9436185e-01
 -4.2574984e-01
  1.4001307e-01
  4.0059693e-02
  4.8119605e-01
  5.1331091e-01
  3.7748107e-01
  1.4360911e-01
  9.5991802e-01
  5.5373218e-02
 -8.2866371e-02
  4.4461479e-03
 -4.4355369e-01
  3.6272988e-02
 -5.9087932e-02
  1.3743724e-01
 -1.4903589e-02
 -3.9082263e-02
  7.6621519e-03
 -2.7420659e-02
 -8.9979237e-01
 -1.2325206e-01
 -1.9774655e-01
 -4.7677802e-03
 -3.4589930e-03
  1.0047096e-01
  5.5833571e-02
  6.3230060e-02
 -1.6114010e-02
 -2.7531374e-03
 -7.1964920e-02
  2.7076468e-01
 -1.8579919e-02
  8.8753336e-04
 -5.2470073e-02
 -5.4105730e-03
  2.1286616e-02
 -1.1543085e-01
 -9.0425685e-03
 -3.7471244e-01
 -1.3204429e-01
 -3.2442880e-03
 -7.1705692e-02
 -5.0094169e-01
 -1.3472907e-01
 -9.2485309e-02
  1.3734478e-01
 -2.1077259e-02
 -6.6183090e-01
 -4.7963667e-01
  1.5603304e-01
 -9.1570094e-02
  5.4030925e-02
 -3.0515280e-02
 -1.1547951e-02
 -4.3843687e-02
  2.4349634e-03
 -1.0600517e+00
 -9.0344407e-02
  3.7050114e-03
  1.2739751e-01
 -2.4911184e-02
  2.3467170e-02
  8.0800898e-02
  4.4068046e-02
  9.4639221e-03
 -2.9616901e-01
 -3.2476496e-02
 -7.0795514e-02
  5.7091273e-02
 -1.1815652e-01
 -1.6949141e-02
 -1.7067557e-02
  7.5654261e-02
  2.1703210e-02
 -1.2166489e+00
 -4.9857348e-01
 -4.4427693e-02
  5.9238687e-02
  5.5125527e-02
  1.8526606e-02
  2.7917119e-02
  3.3009890e-02
 -5.7555985e-02
 -1.4933899e-01
  1.7708480e-01
 -5.5934556e-02
  6.5894328e-02
 -2.9875966e-02
 -1.0366983e-01
 -5.4265440e-02
  2.8949462e-02
 -3.3046860e-02
  5.3378232e-03
 -1.3327248e+00
 -2.0285113e-02
  2.8384820e-02
 -6.5019340e-03
  1.7585481e-02
 -4.6437723e-03
  4.6838813e-02
 -9.0734430e-02
 -2.2042105e-01
 -7.4857838e-02
  1.7164290e-01
 -4.1311279e-02
 -2.6775058e-02
 -1.5266496e-02
  1.6783262e-02
  4.3691095e-02
  1.6573633e-01
 -7.6143569e-01
  1.2853788e+00
  7.4941516e-02
  1.5599812e-02
  6.1548524e-02
 -1.9621229e-01
 -3.9555281e-02
  2.9288656e-01
  1.1367989e-01
 -1.0522617e-01
 -1.2603681e-01
 -2.2177175e-03
 -1.2966334e-02
 -1.6350184e-01
 -6.2617332e-02
  1.1680515e-01
 -1.5035860e-01
 -2.2385411e-02
 -2.0905507e-01
 -1.5702191e-01
  1.4011068e-02
  6.4701670e-01
 -7.8616226e-01
 -2.3184970e-01
 -4.3503317e-01
  6.9069999e-01
 -1.4897612e-01
  2.2514386e+00
 -1.0179545e+00
  9.7210228e-02
 -8.9483215e-03
 -1.8278573e-02
 -9.4772136e-01
  2.3996334e+00
 -1.2385714e+00
 -4.6091565e-01
 -2.5918708e+00
  2.3692174e+00
 -1.0347543e+00
 -1.8037045e-02
 -8.5264438e-01
  7.2504747e-01
 -4.6796277e-01
 -5.2327865e-01
 -1.0837015e-02
 -2.9075587e-01
  5.6419134e-01
  1.3644224e-01
  4.2161912e-01
  7.5929880e-02
  9.3026146e-02
 -1.6381693e+00
  1.5346999e+00
  2.9613322e-01
  1.3413786e+00
 -5.4778969e-01
  5.6926650e-01
 -1.7187135e-02
 -3.4002036e-01
  2.0191520e-01
 -4.6256912e-01
  1.9134519e+00
 -4.1927326e-02
  1.2877836e+00
 -1.0942828e-01
 -1.3742292e-01
  1.4674968e-01
  1.8761505e-03
 -7.0372885e-01
  1.6500302e-01
 -1.0194275e-01
 -1.0552769e-01
 -1.8841587e+00
  5.2821416e-01
 -2.8769186e-01
 -7.4487776e-02
 -7.8213684e-02
  1.4911950e+00
 -4.5057166e-01
  7.2492719e-01
  1.8454601e-01
 -1.8461214e+00
  9.7569764e-01
  2.2709790e-01
  4.0619922e-01
  3.7316948e-02
 -5.4046434e-01
 -6.5494525e-01
  6.1408263e-01
  5.0107050e-01
  1.6968187e+00
 -4.3012476e-01
  2.0826416e-01
  1.1460227e-01
  9.3202544e-03
 -5.7552236e-01
  8.6038291e-02
  3.6267889e-01
 -4.1951567e-01
  2.3263447e+00
 -1.0183476e+00
 -1.2245090e-01
 -2.0767117e-02
  1.6670384e-01
 -2.3261772e-01
  1.1993691e-01
 -1.4027198e-01
 -6.8603748e-01
  4.9720037e-01
 -7.3455083e-01
  1.4610274e-01
  4.5127416e-01
  1.2363483e-03
  4.4339812e-01
 -5.9273694e-02
  3.5827911e-01
 -6.4789519e-02
  3.9269716e-02
 -2.8796700e-01
 -5.7135629e-03
 -2.9508036e-02
  1.0731810e-01
  1.6042380e-01
  1.9477677e-01
 -3.9085624e-01
  3.9284366e-01
  2.6833349e-01
 -1.7538925e-01
  4.0020477e-02
 -4.4211993e-01
 -5.4503351e-01
  1.3260777e-02
 -1.0870532e+00
  5.3229141e-01
  3.0022183e-01
 -2.0546128e-01
  4.4381928e-02
 -1.5394203e-01
 -3.6385670e-01
  5.1707875e-02
 -1.4814564e+00
 -5.9664361e-02
 -2.7235409e-02
 -5.6284375e-02
 -2.0524582e-01
  2.1387834e-02
 -1.0536413e-01
 -6.8882197e-02
 -9.5575517e-03
 -2.9587084e-02
 -8.1872213e-01
  1.0285885e-01
  1.1048306e-01
 -7.9398751e-03
 -9.5434487e-02
 -2.0565175e-02
 -2.2691529e-02
  2.7926692e-01
 -6.9758475e-01
 -2.2137038e-01
  4.4303745e-01
  8.0870074e-01
 -6.3660824e-01
  5.2311324e-02
 -1.9144836e-01
 -5.8690071e-01
 -2.0729121e-02
 -1.0490463e+00
 -2.8825131e-01
  7.7486730e-01
 -5.8117799e-02
 -3.5903072e-01
 -1.4810948e-01
 -5.1932018e-03
  9.1649806e-03
  2.0494035e-02
  4.2620087e-01
 -6.1979997e-01
 -3.0333313e-01
  4.9860972e-01
  6.3938868e-01
  3.1653154e-01
 -2.9343886e-02
 -1.2766188e-01
 -1.8479850e-02
 -7.5221992e-01
 -4.5803088e-01
  8.5423529e-01
  4.6405755e-02
  1.8222471e-01
  1.9608898e-02
 -3.8681328e-03
 -3.5415027e-01
 -1.1063457e-02
 -2.5379744e-01
 -3.3112460e-01
  8.9920700e-02
 -1.1599109e-01
 -9.6180379e-01
 -2.1752556e-01
 -4.9970470e-02
  1.2601799e-01
  9.0423927e-02
 -2.1066786e-01
 -4.6912917e-01
 -1.1372616e-01
  1.0123026e+00
 -1.2720542e-01
  7.4592400e-01
 -1.6542158e-01
 -7.5698209e-01
  5.9266561e-03
 -5.0528014e-01
 -3.1140232e-01
 -1.2077819e-01
  3.2635827e-02
  1.0021318e-01
 -8.0340933e-03
 -1.5658718e-02
  7.1759224e-03
 -8.5830670e-03
  1.3160373e-01
 -3.9666009e-01
  4.2606634e-01
  2.0481071e-01
 -1.1781438e-01
  1.2171881e-01
 -5.3107388e-02
  4.5472123e-02
  1.7206760e-01
 -1.9545020e-01
 -1.0541037e+00
  3.5889363e-01
  3.3798438e-01
 -5.7053643e-01
  4.6699103e-02
 -1.3206057e-02
 -9.7273874e-01
 -5.7277912e-03
 -7.9841197e-01
 -4.4236463e-01
  1.9489491e-01
 -7.4384861e-02
  4.8463002e-01
 -2.9064566e-02
  2.4994439e-02
  1.3467428e-01
  2.2202660e-01
 -2.5285321e-01
 -1.1052668e-01
 -9.0179223e-01
 -9.8503214e-01
  1.8923544e+00
  3.6647731e-01
  9.9830908e-01
 -4.5292549e-02
 -6.2738382e-03
  6.5712106e-01
 -1.7658014e-02
 -1.3031971e-01
 -1.3281073e-01
  1.5294978e-01
  1.0265138e-02
  2.6268892e-02
  3.0627171e-02
  3.8136948e-02
  4.9672361e-02
 -1.5312603e-02
 -1.7039162e-01
 -6.4587981e-02
  1.9434912e-02
  2.8913267e-02
  6.6641837e-01
 -6.4807571e-02
 -2.6400615e-02
  4.2742860e-01
 -7.0218474e-02
 -6.6960907e-01
  3.4975617e-03
  4.5625737e-01
  3.0684245e-01
  5.2266353e-01
 -9.7840257e-02
 -9.9970470e-04
  1.6284126e-01
 -6.1462414e-01
  4.3739956e-02
 -1.0127885e-01
  2.1898587e-01
 -4.9478292e-02
  2.1981683e-01
 -5.4436754e-02
 -4.3816239e-02
  1.3737100e-01
  1.9679984e-02
 -4.5435226e-01
 -1.0708568e+00
 -4.4664729e-01
  1.9827966e-02
  2.6915488e-01
  3.7531104e-02
 -8.1229158e-02
 -1.8547803e-02
 -2.5578365e-01
 -8.7961864e-01
 -4.7233673e-03
  7.3657519e-01
  2.1957248e-02
  2.0370461e-01
 -7.7721991e-02
 -6.1795015e-02
  3.1233805e-01
  1.4750159e-01
  1.8550862e-01
 -5.3354627e-01
 -2.0200087e-01
  1.6950324e-02
  6.8571247e-02
  1.2375484e-02
 -4.2746119e-02
  2.3337086e-01
 -9.3330130e-02
 -1.8236050e-02
 -1.7254497e-01
 -1.6311786e-01
  4.7290038e-02
  8.3104104e-01
 -6.0166489e-02
  5.6067102e-02
  1.2752524e-01
  9.9851221e-02
 -8.6630243e-01
 -2.4184577e-02
  7.7926850e-01
  4.6758655e-02
  2.0605522e-01
  4.6505265e-02
 -1.9901009e-02
  3.4356800e-01
 -4.4542453e-03
 -5.9113860e-01
 -7.6660097e-01
  7.3176438e-01
 -1.9966064e-02
  2.7179193e-01
 -2.5786474e-02
  4.8533771e-02
 -3.4124143e-02
 -4.7009841e-01
  6.7349076e-01
 -1.0132174e-01
  4.3027945e-02
  5.9834373e-01
  1.0529407e+00
 -1.9925194e-02
 -1.5748188e-01
  7.8857762e-01
  4.8867185e-02
  6.3491695e-02
 -7.4965751e-01
  5.3362183e-02
  1.4468997e-02
  3.3095548e-01
  3.6861185e-02
  7.0391104e-02
  1.6647892e-02
  1.8530951e-01
  8.0458951e-01
 -1.3012767e+00
 -1.2121369e+00
 -1.5559596e-01
 -6.1171401e-01
 -5.4207265e-01
  6.5847456e-01
 -1.3199762e-01
 -2.4548531e-02
 -7.4041076e-02
 -3.1248892e-02
 -6.5550095e-01
 -8.4029607e-02
 -1.4907426e-01
  4.8730429e-02
  4.8701443e-02
 -1.7157434e-02
  2.6046324e-01
  3.2020900e-01
 -5.6060523e-01
  2.8590696e+00
  3.5669908e-01
  2.0916766e-01
 -3.8760722e-01
  3.6032683e-01
  8.1016444e-02
 -1.4957085e-01
  4.1369662e-02
 -5.1978505e-01
 -1.8270267e+00
  6.2949008e-01
 -1.6521388e+00
 -1.3075083e-01
  1.3765585e-01
 -5.6552380e-01
  9.3259551e-02
  1.7318505e-01
 -8.5376510e-03
 -4.3384218e-01
  2.3376768e-02
  6.6313118e-01
 -5.0874334e-02
  3.1971473e-01
  4.2250443e-01
  7.5898501e-03
 -7.6128460e-02
 -1.2451894e+00
 -9.7151048e-02
  8.4498334e-01
 -2.9174131e-01
 -5.6979746e-01
  6.4157313e-01
 -4.4850996e-01
  1.0351909e-02
 -1.9471666e+00
 -3.4427881e-01
 -5.1411796e-01
 -3.4462464e-01
 -1.2822819e+00
 -1.9599430e-01
  1.0789442e-02
  2.9725239e-03
  4.8211843e-01
 -2.8784245e-01
 -5.6734926e-01
 -1.4923219e-01
 -3.5670793e-01
  4.5180041e-01
 -3.6647561e-01
  3.3931407e-01
  1.7699175e-02
  4.0969786e-01
  5.5001462e-01
 -1.2788459e+00
 -3.1554413e-01
  9.1097474e-01
 -4.6128181e-01
 -3.7763283e-01
  2.3978496e-01
 -4.8968780e-01
  1.2342550e+00
  7.0965749e-01
  7.5972276e-03
 -1.2916310e+00
  5.4520631e-01
 -1.6732717e-01
 -6.7241177e-02
  6.3966595e-02
  1.0238075e-01
  1.7942154e-01
 -1.0051317e+00
 -1.1416149e+00
 -1.0017234e+00
 -2.8387389e-01
  4.7825590e-01
 -3.8028130e-01
  4.4103813e-01
 -4.8554814e-01
  1.1688478e-01
 -8.5902351e-01
 -1.2706014e+00
 -2.9966438e-01
 -3.2761180e-01
 -7.4774921e-01
 -4.3555465e-02
  4.9064288e-01
 -2.8678825e-01
 -1.7856614e-01
 -4.6006262e-01
 -2.0397011e-02
  2.8450313e-01
  8.1211673e-03
 -8.9321053e-01
 -3.3460519e-01
 -1.2389899e-02
  2.3572768e-01
 -1.8084748e-01
  5.2102691e-01
 -7.0850223e-01
  6.7793620e-01
 -1.3677770e+00
 -2.7279538e-01
 -2.3555871e-02
 -1.0422211e+00
  9.0898454e-01
  4.8327562e-03
  2.4856825e-01
  5.0744515e-02
  2.1537520e-01
 -1.0372424e-01
 -1.5719534e-01
 -3.3462059e-03
 -1.2970597e-01
  8.7386310e-02
 -1.7105284e-01
 -2.3430051e-01
 -8.5159078e-02
 -5.5343881e-02
  6.4189412e-02
 -1.2421907e-01
 -1.1451460e-02
  2.7259508e-01
  1.2337809e-01
 -9.4176847e-01
  9.5130795e-01
 -7.1336216e-01
  3.7872061e-01
 -3.9831263e-01
 -1.8007146e-02
 -7.1817160e-02
 -1.0287685e+00
  6.0158813e-01
  5.1034458e-02
  4.7919324e-01
  6.7865059e-02
  1.4913011e+00
  1.8189149e-02
 -3.8141422e-02
 -1.3061613e-01
  1.5625519e-01
 -1.2234728e-01
 -1.0907854e+00
 -3.5703632e-01
 -7.7315986e-01
  4.8718342e-01
 -4.3373358e-02
 -5.5173159e-02
 -3.4041367e-02
 -4.2716824e-02
  3.1411967e-01
 -4.4149452e-01
  7.2323370e-01
 -1.1921120e-01
  6.7717212e-01
 -3.4578583e-01
 -1.4027279e-02
 -1.9461812e-02
 -6.1268479e-01
  1.1038152e+00
 -4.3673377e-02
  6.0393399e-01
 -9.0746164e-02
  5.0521457e-01
  5.2432394e-01
 -2.5094777e-01
 -7.2744071e-02
  1.9641031e-01
 -9.3760067e-01
 -4.5631981e-01
  4.3614176e-01
 -6.5429318e-01
  5.8685613e-01
 -1.4754800e+00
  6.2344000e-03
 -1.8989199e-01
 -2.2797483e-01
  9.9328470e-01
 -8.9795250e-01
  1.5628079e-02
 -2.6025309e-03
 -1.7535402e-01
 -3.1581590e-01
 -3.3737082e-02
 -2.4914692e-01
 -1.7436475e-01
  3.5115993e-01
 -8.8840652e-01
  6.7014871e-03
 -1.8495522e-01
 -2.3282002e-01
  4.2100544e-03
 -1.2626871e-01
  2.8670898e-02
  2.3493683e-02
  5.9336269e-01
 -1.1956954e+00
 -1.7683764e-01
 -3.6518490e-01
  1.3452016e-01
 -6.6118526e-01
 -4.4491872e-02
 -1.9946271e-01
 -2.0224383e-01
  7.8105533e-01
  6.5997727e-02
 -1.1052993e-01
 -3.7843741e-02
 -1.6094886e-01
 -8.7574875e-01
 -9.0373993e-02
 -2.1584347e-02
 -1.8263380e-01
  4.0121803e-01
 -2.2819164e-01
  2.8119090e-01
 -9.5262043e-02
 -2.9839629e-02
  5.1734027e-02
 -5.8914423e-02
  1.4000371e+00
  6.9707936e-01
  2.2833016e-02
  2.1058300e-03
 -4.0309197e-01
  4.4112444e-02
  3.8763888e-02
  2.0090895e-02
  1.4807229e-03
 -1.0018148e-02
  4.3477379e-02
 -2.7060937e-02
 -1.2335447e-02
  1.3998164e+00
 -4.8746441e-02
 -3.8584372e-01
  2.2406819e-01
 -5.0578792e-02
  3.0016890e-01
  5.7243259e-04
  3.7568426e-01
 -1.5311249e-01
 -4.1940075e-01
 -3.0501798e-01
  7.6309067e-01
 -2.1512730e-02
 -1.1648849e-02
  9.5586091e-01
  9.6767771e-01
  6.3568063e-02
 -5.5462077e-02
  3.6132723e-02
 -1.0513814e-01
  2.3050992e-01
  8.5488433e-01
  2.3333732e-02
 -1.3057111e-03
  7.9228796e-02
  1.8371432e-01
 -8.8259310e-01
  1.4580096e-01
 -1.9774072e-01
 -1.2356079e+00
  4.0335557e-01
 -1.8469369e-01
  1.0960004e+00
  6.1656016e-01
  4.2058520e-02
 -4.5191445e-03
 -1.5305524e-01
 -2.7327936e-02
  3.6995608e-01
  6.9270945e-01
  3.3808631e-01
  3.5982442e-01
  8.0425829e-01
 -1.6393226e-02
  3.4638625e-01
 -1.0027180e+00
  4.4623006e-02
  1.5079807e-01
 -1.6436059e-02
 -5.4436456e-02
  2.3500389e-01
 -8.8810720e-02
  7.7932052e-02
 -1.6194646e-01
  3.5314813e-01
  1.1600907e-02
 -8.0363989e-01
  7.8584349e-01
 -2.0738244e-02
  1.0652491e+00
  7.5678825e-01
  1.1503977e-01
 -5.8440670e-02
  4.2465439e-01
  1.2137727e-01
 -5.2562958e-01
  3.4328681e-01
  4.0336363e-02
  8.5442029e-03
  4.1091517e-01
  6.0966022e-02
  3.2334346e-03
 -2.0660822e-01
 -2.1934983e-01
  3.2614392e-01
 -3.0427627e-02
 -5.1865143e-01
  3.8446417e-01
  1.4666253e-01
  4.7114015e-02
 -1.2277390e-03
 -6.8907064e-01
 -1.8025845e-02
  2.5582358e-01
 -4.6955582e-02
  2.7355868e-01
  5.9382910e-01
  1.9991612e-01
  2.5672245e-01
 -1.4364687e-01
 -3.7628822e-02
 -3.9932743e-01
 -1.7334312e-01
  1.5511200e-01
  8.0662884e-02
  6.9507696e-02
  4.1838381e-01
  1.1662413e-01
  6.6908458e-03
  6.6908458e-03
  6.6908458e-03
  6.6908458e-03
  6.6908458e-03
  4.4584941e-02
  4.4584941e-02
  4.4584941e-02
  4.4584941e-02
  4.4584941e-02
  3.9796297e-02
  3.9796297e-02
  3.9796297e-02
  3.9796297e-02
  3.9796297e-02
  1.5568715e-02
  1.5568715e-02
  1.5568715e-02
  1.5568715e-02
  1.5568715e-02
  6.2528341e-03
  6.2528341e-03
  6.2528341e-03
  6.2528341e-03
  6.2528341e-03
  2.3872331e-02
  2.3872331e-02
  2.3872331e-02
  2.3872331e-02
  2.3872331e-02
