nep3 3 Ga O Au 
cutoff 8 4 157 28
n_max 4 4
basis_size 12 12
l_max 4 2 0
ANN 50 0
  1.0589458e-02
  1.4154312e-02
 -7.5003970e-03
 -4.8448979e-03
  4.1310385e-02
 -6.5837889e-03
  9.3349285e-02
 -7.5946480e-01
  4.8821736e-02
  2.4360025e-03
  4.2549502e-02
  6.3235909e-02
  1.3475335e-01
  1.5351197e-01
  1.3940193e-01
 -1.3405329e-01
 -3.3786464e-02
 -2.9934002e-02
  6.0214367e-02
  1.7350253e-02
 -5.5928654e-03
  7.4329600e-02
 -2.7258456e-02
  2.8708274e-02
  1.4256464e-01
  1.8932009e-02
 -8.6746067e-03
 -1.6785417e-02
 -1.1382799e-01
 -8.3863558e-03
 -1.0646940e-01
  6.2195048e-02
 -8.1487969e-02
 -2.4755998e-02
  8.1355299e-04
  4.2745867e-03
 -2.1700151e-03
 -9.8513700e-02
  6.7084983e-02
 -1.3997582e-01
 -6.6521816e-02
 -4.7049675e-02
  3.4625297e-03
 -1.1163181e-02
 -1.7294867e-02
 -1.1027873e-02
  2.7513787e-01
  1.3888614e-01
 -1.8291840e-01
  2.0017274e-02
  9.9721248e-04
  4.9211398e-02
 -2.9824434e-02
  1.2981851e-01
 -1.1221421e-01
 -3.3113770e-02
 -1.1667435e-02
 -2.2614872e-02
 -3.2466020e-02
 -9.7625844e-02
  2.1327332e-02
 -5.0047105e-03
  1.5853505e-01
 -2.1556763e-02
 -1.0020733e-03
  2.9478299e-02
 -2.2604298e-02
  2.9933484e-02
 -8.4241681e-02
 -7.5952332e-03
 -2.3492086e-03
 -3.9922666e-02
  1.0836728e-01
 -4.4987630e-03
 -1.3413807e-02
 -6.1321985e-03
 -4.9431443e-02
 -3.0286893e-02
 -1.0627693e-02
  6.4522759e-03
 -1.2078425e-01
 -4.5659408e-02
 -6.8578683e-02
 -6.8336040e-02
  6.1781015e-02
  8.1011420e-03
 -5.7128621e-03
 -9.8854207e-02
 -1.0697450e-01
  7.0920866e-03
  3.2978568e-02
  1.4326937e-02
  4.9799833e-02
 -4.6860144e-02
 -7.7906132e-02
 -3.8210422e-02
 -9.1049746e-02
  6.8652496e-02
 -4.0195063e-03
  8.0729216e-02
  4.7788820e-03
 -1.0773105e-01
  1.5936528e-01
  5.6252265e-03
 -1.6854439e-02
 -7.4380063e-02
 -1.3155448e-01
 -1.3488978e-01
 -2.4407819e-02
 -3.5848856e-02
 -1.0548277e-02
  3.1027762e-02
 -7.6134107e-03
 -1.0812850e-02
 -1.8851543e-02
  4.6354430e-03
  5.9767128e-03
  7.1422659e-02
 -4.5646809e-02
 -1.8956827e-01
 -7.2708853e-02
 -3.8040143e-01
 -2.5131190e-02
  6.5921545e-02
 -4.0950596e-02
  3.2609623e-02
 -5.3281829e-02
 -4.5191103e-01
 -1.3624151e-02
  4.2428270e-02
 -3.7007660e-02
 -1.3421917e-01
 -2.6948371e-03
  3.0748110e-02
 -1.1260466e-01
 -2.0580213e-03
 -1.3566990e-03
 -9.1546947e-01
  1.5920810e-02
 -4.5244657e-02
  8.6702049e-02
 -2.6293305e-01
 -2.2303769e-03
 -8.9203954e-02
  1.2273519e-02
  2.9380040e-02
  2.9251296e-03
  9.9956738e-03
  1.1774664e-01
 -4.1997223e-03
 -4.2158872e-02
 -1.7463694e-03
  5.6101512e-02
  2.2305615e-01
 -3.3185586e-02
  4.4685975e-02
  7.5267337e-02
  1.7467177e-02
  3.1697497e-02
  5.6261569e-03
  6.1486118e-02
 -2.7757827e-03
 -2.4141436e-02
  4.5362576e-03
  6.5639308e-03
 -1.1278473e-02
  3.5114035e-02
  3.9352095e-03
 -8.4135421e-02
  1.4527575e-02
  4.6141978e-02
  5.9207636e-03
 -2.4631279e-02
  8.7227710e-03
  1.3965098e-03
  2.6671907e-03
  3.7279338e-02
  1.7589090e-02
 -1.0032292e-02
 -6.5766480e-03
  1.4317740e-01
  3.4788656e-03
  1.2652442e-02
 -1.4846250e-01
 -5.9801959e-02
 -1.4294720e-01
  2.7043223e-02
  7.0977267e-03
 -4.6017740e-02
  4.4141009e-02
 -4.3339800e-02
  3.3598710e-02
  7.2316833e-02
  2.1322435e-01
  3.1868499e-02
 -2.4537742e-03
 -2.0178775e-01
 -4.2523306e-02
  2.8325170e-01
  2.5442543e-02
  1.9048233e-02
 -7.4317507e-02
  2.1710312e-02
 -6.9749892e-02
 -9.3174316e-03
 -5.3153258e-02
 -4.9642641e-02
  8.3121531e-02
  5.4587871e-03
 -6.0271841e-02
  1.7559353e-02
  5.3656936e-02
  6.3052431e-02
  2.2119437e-03
  1.5044656e-02
 -9.2001790e-03
  3.8277239e-02
  9.3419231e-02
 -9.8901987e-02
 -1.7040396e-02
 -1.1797544e-01
  9.2041634e-02
 -5.6895763e-03
  2.6389996e-02
  9.2290305e-02
 -6.9981135e-02
 -1.0816298e-01
  1.6721537e-02
  1.1045294e-02
  3.3366833e-02
 -1.0459975e-02
  1.9916557e-02
  1.3449466e-01
  5.2593341e-03
  3.1776007e-02
  3.1786066e-02
 -7.9245321e-02
  5.0650407e-03
  3.6547951e-02
  2.2693763e-02
 -8.5738465e-02
 -3.9126255e-02
  5.6347404e-02
 -2.3348063e-02
  9.2268689e-03
  4.7231887e-02
 -7.5391397e-02
 -1.8911352e-03
 -8.9106388e-02
  7.3549412e-03
 -3.1548742e-02
 -5.8743291e-02
 -7.4229557e-03
 -1.2568110e-02
  1.1323995e-01
  3.0645425e-02
  2.9354978e-02
 -2.7081467e-02
 -7.5198337e-03
 -1.1208820e-02
  4.0194891e-02
 -3.7777880e-03
 -2.8402278e-02
 -7.2443679e-02
  3.7595175e-02
  7.1297325e-02
 -7.5402819e-02
 -5.0759427e-02
  5.0593652e-03
 -7.5190164e-02
  4.4519458e-02
  4.0625498e-02
 -1.5889814e-01
  5.4331101e-03
 -1.2937480e-02
  2.9520512e-02
  3.2048997e-02
 -7.5149275e-02
  8.7553352e-02
  5.6738243e-03
  1.4273610e-02
 -6.8482600e-02
  1.6814198e-02
 -3.2648776e-02
 -3.5384461e-02
  1.4797820e-01
  4.6668584e-03
 -3.1416349e-02
 -3.5807345e-02
 -6.9872484e-02
 -8.9031190e-02
 -7.9261577e-03
 -3.6581073e-02
 -9.3584564e-03
 -2.9042747e-03
  6.4741224e-03
  2.3289278e-02
  7.2855368e-02
 -2.4155566e-02
 -1.7835968e-03
 -8.7905914e-02
 -1.7134061e-01
  7.8834042e-02
 -1.0534103e-01
 -3.6887258e-02
  1.8143378e-01
  1.3370953e-02
  5.8759239e-02
 -4.0643871e-02
  9.4985396e-02
 -3.7098475e-02
 -1.2821047e-01
 -9.0907149e-02
  4.0489793e-02
  1.3016418e-02
  6.0744375e-02
  7.9044998e-02
 -3.4622897e-03
 -2.8011631e-02
  1.1786791e-01
  3.2442961e-02
  1.9684429e-01
  3.0320343e-02
 -3.2278989e-02
  3.2255720e-02
  2.4951559e-02
  8.6317368e-02
  2.0096725e-01
 -6.9141164e-03
  2.1904541e-02
 -8.7768361e-03
 -3.2190152e-02
 -4.3884452e-02
 -3.5262506e-02
 -4.6988867e-02
  4.8186067e-02
  5.0626565e-03
 -3.2844845e-02
 -6.4254515e-02
  2.3506975e-02
  3.9779447e-02
 -2.1364054e-02
  2.2715217e-01
  2.8757121e-02
 -1.0921694e-01
  1.2820184e-01
  1.9536681e-02
  4.9625605e-02
 -2.9959232e-02
 -9.6685953e-02
 -1.3140292e-01
  1.2839149e-02
 -1.9715287e-02
 -6.1610054e-02
 -2.8849021e-02
 -1.1573863e-03
  3.0817525e-02
 -3.6633905e-02
  4.8480973e-02
  8.1170402e-02
  1.3445464e-02
  2.0455250e-01
  6.3260188e-03
  7.4463658e-02
  5.1480882e-02
 -5.4695252e-02
  1.1410388e-01
  1.7425083e-02
 -3.6289271e-02
  2.2465264e-02
 -6.7192419e-03
  6.8599826e-01
  1.1000643e-02
 -7.1355902e-02
  1.4136612e-01
 -4.5077082e-02
 -3.7633911e-02
 -2.3403840e-02
  1.7359566e-02
 -2.4799988e-02
 -1.5595081e-01
 -2.4738317e-04
 -3.6623587e-03
 -5.8528233e-02
 -4.2946795e-03
 -5.4644458e-03
 -4.7342852e-02
 -8.1623904e-03
 -3.5071876e-02
 -6.9482222e-02
  4.0566903e-02
  1.7939742e-01
 -7.1345299e-02
 -6.1351317e-03
 -2.7576096e-02
  1.6133564e-02
  1.7263383e-02
 -7.4074194e-03
 -3.2278035e-02
  1.6394576e-01
  7.2270766e-02
  9.8144308e-02
  1.5251820e-03
 -1.5689556e-03
  8.5639492e-02
  1.6732624e-02
 -8.5426182e-02
  7.8786843e-02
 -2.3362305e-02
 -7.3885173e-02
 -1.2483897e-02
  1.5085997e-01
 -4.1160524e-02
  9.5686041e-02
  8.7917559e-03
  2.9791048e-02
 -2.2372644e-02
 -7.8063235e-02
 -2.4203906e-02
 -2.5811993e-02
 -2.7074916e-03
  6.8962619e-02
 -2.1073645e-01
  9.4542533e-02
  3.1752180e-02
 -2.4517238e-02
 -5.9309518e-03
 -2.0081925e-01
  7.5714573e-02
 -8.3633170e-02
  3.8750321e-02
  2.5054654e-01
 -1.1496774e-01
 -2.4764095e-02
 -5.6004945e-02
 -3.0881828e-02
 -1.8123943e-02
  8.9654870e-02
 -2.7146716e-02
  2.8545860e-02
 -1.0459529e-02
 -2.8255493e-03
 -3.7103884e-02
  4.0904209e-02
 -8.9779980e-03
  7.8615332e-03
 -4.2018291e-02
 -3.6192469e-02
  3.0942518e-02
 -9.6410792e-03
 -1.7965701e-01
  2.4832177e+00
 -5.4003973e+00
 -6.7329806e-01
 -4.3722005e+00
  7.8492157e-02
  2.0922134e+00
 -1.7881401e+00
 -1.5667514e+00
  1.4309410e+00
 -1.1277043e+00
  6.8970865e-01
 -1.1932189e+00
 -5.1156152e-02
 -3.4986440e-02
 -1.7867013e+00
  2.0124182e-01
 -1.5744346e+00
  7.1171796e-01
 -8.2589686e-01
 -5.7038450e-01
 -9.6212596e-01
 -1.4335020e+00
  1.1941133e+00
  4.7819042e-03
  1.3615113e-01
 -8.3837783e-01
 -1.2240744e-01
  2.5317136e-02
  2.0531302e-02
 -4.2081241e-02
 -3.0795804e-01
  1.5297456e-01
 -4.9349764e-01
 -1.6377920e-01
  4.9383778e-02
 -1.3212948e-01
 -1.7203489e-02
 -5.4027971e-02
  2.2523683e-02
 -1.8438947e-01
 -2.2982974e-01
 -8.7145500e-02
  2.6994517e-01
  4.6301972e-02
  2.7802783e-01
 -2.5516693e-03
  4.0065041e-01
  1.4304180e-02
 -3.6483590e-02
  1.3546534e-01
  3.9361145e-02
  3.2689637e-01
  1.4511043e-03
 -2.3933198e-02
  4.8379093e-02
  1.2774538e-01
  1.8146105e-02
 -3.3467870e-02
  1.8563684e-02
 -1.5056683e-01
  1.9870675e-01
  2.3379955e-02
  7.5160936e-02
  1.6417125e-01
  5.7340976e-02
  1.6321565e-01
 -5.0842658e-02
  2.0826410e-01
  8.1737719e-02
  1.2293014e-01
  1.1784881e+00
  5.5963016e-01
  3.4907006e-02
 -7.2575480e-02
  6.0850121e-02
 -3.8866386e-01
 -3.6027864e-02
  1.9422023e-02
  2.1256296e-02
 -3.4590468e-02
 -3.8441125e-01
  1.3884154e-01
  3.8034203e-03
  7.5058997e-02
  8.6478598e-02
 -1.9563854e-01
 -4.3536314e-01
 -6.0525466e-02
  5.6383863e-02
  1.0095125e-02
  7.9305798e-02
 -5.4936420e-02
 -1.9151708e-02
  6.6752844e-03
  1.9335549e-02
  8.0884159e-01
 -6.8177268e-02
  9.4469875e-04
  1.6076786e-02
  1.4301129e-03
 -5.6755949e-02
  1.2181485e-01
 -3.6892731e-02
 -1.6976872e-01
 -1.6982896e-02
 -4.8268888e-02
  5.2876864e-03
  1.2218203e-01
 -6.2530316e-02
  6.5313809e-02
  5.6186028e-02
  4.9029138e-02
 -2.8436195e-02
  1.5395963e-02
 -8.5340932e-02
 -8.6496890e-02
 -5.1579077e-02
  7.2909400e-02
 -3.4143202e-02
  4.5533483e-03
  3.4692604e-02
  1.8008603e-02
 -2.6364382e-03
  6.2138502e-02
  5.9896022e-02
  7.4510509e-03
 -1.6747424e-02
  4.3613978e-02
  7.5002275e-03
  3.6031790e-02
  2.6927536e-02
 -6.8935789e-02
 -1.2620118e-01
 -2.3025027e-02
 -2.4617699e-01
  2.5962299e-01
  4.5752963e-03
 -1.3963750e-02
 -1.6282660e-01
 -3.1178558e-02
 -3.2436483e-02
  1.7309245e-02
 -4.7887755e-03
  1.8210795e-02
 -4.5089271e-02
 -1.4023293e-02
 -7.2192304e-02
  7.3424712e-02
 -2.1863127e-02
 -1.5605457e-01
 -1.9590372e-01
 -7.7855766e-02
 -8.7566048e-02
  2.1742708e-03
 -1.1847330e-02
 -1.0751725e+00
  9.2756972e-02
  5.9346344e-02
  4.5090791e-02
 -9.6577898e-02
  3.6955774e-02
  3.6921695e-01
  9.1232710e-02
 -2.1990195e-03
  5.1646583e-02
 -4.1514006e-02
  4.9767103e-02
  1.7690049e-02
 -4.4979285e-02
 -2.9072005e-02
  2.8084625e-02
  4.2334285e-01
  2.6822273e-02
  3.1261209e-02
 -8.7091504e-03
  3.3360146e-02
 -3.3938441e-02
 -1.8964021e-02
  1.5006225e-02
 -4.7008693e-02
  2.6668271e-02
  1.7596842e-03
 -3.8043350e-02
  6.1181560e-02
  1.1152601e-02
  1.1795127e-01
  6.2458940e-02
 -1.9904939e-02
  5.4501742e-02
  7.0486586e-03
 -5.7105821e-02
 -1.4402415e-02
  7.4205801e-02
  2.5590643e-02
  9.4721885e-03
  1.7630840e-02
  8.1506781e-03
  1.6179839e-01
  4.6569087e-02
 -1.1245116e-01
  3.8557932e-02
  8.0724386e-03
  1.2168483e-01
 -6.5156519e-02
 -1.3554158e-02
  8.6165154e-03
  5.4884534e-03
 -4.7371123e-02
  5.5773845e-03
  7.9639561e-02
 -3.9001226e-01
  2.0469073e-02
  3.0014086e-01
 -9.4299093e-03
 -4.5719109e-02
 -4.4189561e-02
 -1.5419106e-01
  2.0760139e-02
  3.2340633e-03
 -7.0818275e-02
  1.1236998e-01
 -4.9351074e-02
  7.2202615e-02
 -2.6799899e-02
  1.5372838e-03
 -9.2279188e-02
 -5.1533163e-01
  3.6625527e-02
  5.6644198e-02
 -2.2889212e-02
  3.8912729e-04
  9.1380447e-02
  8.7449290e-02
  5.9080711e-03
  5.1159423e-02
  2.1187182e-01
 -5.1098980e-02
 -1.2128808e-01
  1.4612961e-01
 -7.7808229e-03
 -1.6506726e-01
  6.5328144e-02
 -1.1605649e-01
 -5.6858432e-02
 -1.0967735e-02
  2.4337076e-02
 -8.5446514e-02
  3.2716535e-03
 -1.6187930e-02
 -7.6340169e-02
 -2.4126345e-01
 -8.9988433e-02
 -3.1947549e-03
 -1.4765647e-01
  1.5794891e-01
 -1.0800529e-01
 -3.7968165e-01
 -2.2592086e-01
  5.3945542e-03
 -5.2623075e-02
  8.2333326e-02
 -3.7955838e-01
  7.9295328e-03
 -2.3244906e-02
  6.7662463e-02
  7.9587080e-02
  9.2301250e-02
 -6.7819819e-02
  7.0468143e-02
 -5.1322877e-02
  2.2473453e-02
 -4.0705223e-02
 -9.6134260e-02
 -7.7111967e-02
  5.1593408e-02
  1.1317529e-01
  1.2555073e-01
 -9.4204396e-02
 -6.8209194e-02
 -3.4876015e-02
  4.2099424e-02
  6.8406826e-03
  8.8787057e-02
 -5.3208660e-02
  5.8753084e-02
 -8.8478858e-03
  2.7730033e-02
 -3.6221400e-02
 -3.0326439e-02
  8.1490301e-02
 -2.1877796e-03
  9.6850675e-03
  7.2602677e-01
  4.2525329e-02
  8.5091770e-02
  8.8300034e-03
  1.6959848e-02
  2.6393992e-01
  9.7426903e-03
  3.3234417e-01
  7.5375509e-01
  8.2590985e-01
 -3.5606372e-01
  4.2100143e-02
  1.1596591e-02
  1.6754082e+00
  1.4727708e+00
 -1.9315436e-02
  1.3488291e-03
 -2.6253641e-01
 -3.2160956e-01
  1.2461365e-02
  6.4301178e-02
  1.8120339e-02
 -9.4699524e-02
 -7.7136666e-01
 -9.1076714e-01
 -2.5204331e-01
  2.9782638e-02
 -2.0855146e-03
  2.9367471e-01
 -2.7758271e-02
  5.2421170e-01
  3.0495850e-03
 -8.8462280e-03
 -8.7560818e-02
 -5.0428039e-01
 -9.2925783e-04
  2.5897793e-02
  1.8488023e+00
 -1.9449729e+00
  1.0979743e+00
  3.0237071e-02
 -1.1397020e+00
  2.5935492e-01
 -1.5380209e-02
  4.9419105e-01
  1.1054568e+00
  1.0206616e+00
  1.7349954e-01
  2.7188149e-01
 -1.9260471e-01
  9.9879199e-01
  9.2614508e-01
  1.1753553e+00
 -4.0830016e-01
  6.1099142e-01
  8.1377751e-01
  4.2036828e-01
  1.6776060e-01
  1.1836908e-01
  3.8910875e-01
  6.1247522e-01
  2.1605338e-01
 -2.8672406e-02
  6.7918050e-01
  2.4662971e-01
 -3.3128746e-02
 -1.4306556e-02
 -7.0524059e-02
 -4.0841541e-01
 -5.1190369e-03
 -3.1139454e-01
 -3.9603466e-01
 -2.0666523e-02
 -1.8894021e-01
 -7.8236749e-03
 -2.1750091e-02
 -1.6066477e-02
 -2.8919410e-02
 -2.2161116e-01
  2.4301217e-01
 -4.8730768e-02
  2.3527395e-02
  4.3446901e-01
  3.1513739e-02
  6.7970002e-01
  2.0265715e-01
 -2.5128553e-02
  1.4057665e-03
  1.0395003e-02
 -2.3916319e-01
  2.5975579e-02
 -1.3247725e-01
  1.4207385e-01
  7.3092535e-02
  1.5855692e-02
  1.1952963e-03
 -3.3282753e-02
 -3.9090794e-02
 -3.2670315e-02
 -2.9884834e-02
 -1.3680202e-02
 -6.4690299e-02
  9.2710759e-03
  1.9525513e-01
  3.1134339e-02
 -2.0436989e-02
 -1.8558195e-02
 -3.1488229e-02
 -1.4712377e-02
 -3.3235699e-02
  6.0365312e-02
  4.8719295e-03
  1.3087715e-01
 -4.4284932e-02
  7.2390966e-02
  3.9436325e-02
  3.2391235e-02
  2.7157051e-02
  1.9561477e-01
  3.1801158e-01
 -2.3444423e-02
 -1.9278173e-01
 -3.9100023e-03
  5.5585154e-03
 -4.9032547e-02
  8.2776599e-02
  9.3507707e-02
 -1.4087661e-02
  1.7293926e-02
 -2.7856611e-02
 -8.8586532e-02
  1.0762066e-01
  4.0819943e-02
  2.6737522e-02
 -1.9956680e-02
  3.9923999e-02
 -2.2248864e-02
 -1.9865124e-02
  6.4439103e-02
 -4.1063268e-02
 -6.6852547e-02
  5.7353653e-02
 -1.6353074e-01
 -5.2369229e-02
  3.3862326e-02
 -1.0948440e-01
 -1.9605907e-02
  8.3650336e-02
  8.5606083e-02
  2.6424630e-02
 -5.0382689e-02
 -2.7663261e-02
 -5.3925971e-03
  9.3404092e-02
 -2.7364081e-02
  3.3429835e-03
  5.7907756e-02
  6.0027182e-02
 -7.4149162e-02
 -1.1806063e-01
 -5.4369099e-02
 -2.2964068e-02
 -9.7085879e-04
 -3.6494855e-02
  1.6963776e-02
  3.1150406e-02
  4.2881649e-02
  1.4232462e-02
 -9.6758492e-03
  7.2405343e-03
 -2.3170917e-03
 -1.2514338e-01
  1.1923541e-02
 -7.8557774e-02
 -9.9246934e-02
  7.4891530e-02
  7.9132296e-02
  4.1926514e-02
  6.3187897e-02
  2.0208319e-03
 -7.3498011e-02
  2.2142341e-03
 -4.2337659e-03
  5.2831616e-02
 -1.2695384e-01
 -4.9953125e-02
  5.7031788e-02
  5.2540954e-02
 -6.3145947e-01
  1.1574357e-01
 -5.0846773e-01
 -1.9486707e-01
 -3.5032637e-02
 -1.3178052e-01
  2.2915551e-01
 -1.4144593e-02
  2.2270621e-01
 -4.9023643e-02
  1.8789165e-02
  1.3840953e-01
  1.0915694e-01
 -3.5183250e-03
  3.3530027e-01
  1.9414831e-02
  1.1223204e-02
 -3.5338953e-02
 -3.9825935e-02
  4.6680747e-03
  3.6440060e-02
 -2.8697813e-02
  6.8900831e-02
 -7.4088126e-02
  4.0040547e-01
 -6.2592681e-03
  2.5495054e-02
 -5.6610904e-03
  3.2093927e-02
 -2.6145197e-02
 -4.1618375e-03
  1.6281481e-01
  1.1383602e-01
  3.6770247e-02
 -2.2743549e-04
  1.1186654e-02
 -8.1713647e-02
 -2.5650129e-02
 -7.4683223e-05
 -7.0893265e-02
  4.2583536e-02
  2.6754953e-02
  2.6976682e-02
  4.7332246e-02
 -2.4809221e-02
 -1.4840212e-01
  2.5631633e-02
  2.0789705e-01
 -2.8580202e-02
 -2.1643050e-02
 -1.4648914e-01
 -9.5496565e-02
 -4.3597963e-02
 -2.5560314e-02
  8.6947717e-02
  4.8872191e-02
  7.4297063e-02
  9.3491413e-03
  6.5708095e-03
 -1.6196474e-02
  1.6953689e-01
 -4.5352701e-02
 -3.7889108e-03
 -8.1008794e-03
 -9.0971455e-02
  2.0615179e-02
 -2.6045524e-02
 -8.4306374e-03
 -7.7075660e-02
 -4.0584493e-02
 -8.2811108e-03
  4.0010613e-04
 -1.4058344e-01
  1.2841898e-01
 -3.4793254e-02
  5.8888897e-02
 -9.6643224e-02
 -9.0478301e-02
 -2.2769168e-02
  6.7272045e-02
 -1.6313924e-02
 -5.5438429e-03
  4.1769497e-02
 -7.6575786e-02
 -4.2553018e-03
 -1.1118915e-01
 -5.1790643e-03
  8.2343130e-04
 -4.7832523e-02
  5.2531198e-02
  2.9633274e-02
 -3.5652328e-02
 -3.2135367e-02
 -4.4397734e-02
  3.5591669e-02
 -5.8866083e-03
  1.1735104e-02
  1.4608788e-01
  8.1579380e-02
  1.6050123e-01
  8.9214616e-02
  8.7904863e-02
 -1.6087431e-02
  2.0834776e-02
 -2.3278447e-02
 -2.4142625e-02
  2.2181904e-02
 -1.5103783e-01
  4.3490037e-02
 -3.8947027e-02
 -8.5899960e-03
  2.3629734e-02
  1.9401923e-02
  1.0592023e-01
 -5.5725567e-02
  6.1197598e-03
  6.5795988e-02
 -8.2488157e-02
  2.9634051e-02
  6.2607452e-02
  3.4156510e-01
  1.0133401e-01
  1.2192068e-01
  3.3001953e-01
  3.6223583e-02
  2.3028020e-02
  7.9244637e-07
  5.7411860e-03
  1.9202868e-02
 -2.5405020e-02
 -5.0068919e-02
 -1.7189738e-01
 -4.0337440e-02
  2.4690542e-02
 -1.4124738e-01
  1.6216569e-01
  1.3611061e-02
  2.7896024e-02
 -2.8467555e-02
  7.1192898e-02
  5.4736588e-02
 -2.9351443e-02
 -8.4330104e-02
 -3.9899308e-02
  8.0464624e-02
 -2.8429817e-02
 -2.9758798e-02
 -4.5682542e-02
  1.3178857e-01
  1.3424289e-01
  8.1654005e-02
 -8.9579262e-03
  3.5387315e-02
  3.7132159e-02
 -5.4928727e-02
 -1.9966996e-01
 -4.6594828e-02
 -2.3022532e-02
  9.4148777e-03
 -4.9274176e-02
  3.6449309e-02
  9.3428399e-03
 -1.5395163e-03
 -5.2920086e-03
 -7.5878459e-03
 -4.2111226e-03
 -3.1840254e-02
 -2.0776289e-02
  6.6406364e-03
 -4.0501323e-02
  2.5444974e-03
  1.1138642e-02
 -1.3923214e-01
  3.6466997e-02
 -1.2996956e-02
 -5.3374734e-02
  5.0028000e-02
 -1.3587224e-02
  4.0239319e-02
  2.0017782e-02
  4.2070156e-01
 -8.1767462e-02
  4.0476233e-02
  3.3824265e-02
  1.0450975e-01
  8.8149533e-02
  8.2494962e-01
  3.2971967e-03
 -3.6791816e-02
  9.0536244e-02
 -9.4041020e-02
 -7.0759669e-02
 -1.3178189e-03
 -1.4934444e-01
 -4.9351074e-02
 -2.8487083e-01
  5.7042432e-01
 -8.9847006e-02
  1.2654989e-02
 -1.6664138e-02
 -4.4521581e-02
 -4.1567259e-02
  4.2228363e-02
 -5.3435758e-02
  1.8990500e-03
 -1.7595261e-01
  6.9855016e-01
 -3.3449207e-02
 -6.0797244e-02
  2.9977751e-01
 -1.7845888e-02
 -1.3414922e-02
 -3.1087312e-01
 -1.0774368e+00
 -1.0574934e-02
  1.2061199e+00
  2.8735870e-02
 -1.3439624e-02
 -2.7531352e-02
 -1.5638447e-01
 -2.0996810e-01
  7.6869652e-02
  6.5170503e-01
 -4.8011202e-02
  1.7228562e-01
 -8.3128351e-04
 -8.5447115e-01
  5.0344098e-02
 -7.8984275e-02
  6.3954547e-02
  2.3778366e-02
 -3.9583743e-02
  2.2731939e-02
 -5.6833766e-02
 -2.9876171e-02
  7.6568082e-02
  4.3257470e-03
 -4.4996846e-02
  2.9458711e-02
  1.6340545e-01
 -5.4371119e-01
  8.4283096e-01
  1.1648494e+00
 -6.4018313e-03
  1.2071068e-02
  1.6444878e-01
  1.0009553e+00
  5.8861065e-01
 -4.6066239e-01
  1.8742704e-01
  3.7978557e-01
 -9.0048239e-02
 -1.7321225e-01
 -7.7560339e-03
  7.7166744e-02
  2.4766824e-01
  9.0324938e-01
 -1.5546952e-01
  6.3254826e-02
 -9.3373572e-03
  4.0793858e-02
  5.7398558e-01
 -5.9974080e-01
 -8.5830361e-02
 -8.5713819e-02
 -4.5646917e-02
  4.8908249e-01
  8.9537399e-03
 -1.9348010e-01
 -6.0939003e-02
 -1.3783769e-01
  7.9110198e-02
  1.1535559e-02
 -2.1207659e-03
  5.4316096e-02
  1.2633333e-01
 -1.9203102e-02
 -9.1732219e-03
 -2.5618009e-02
 -3.3093471e-02
 -3.5668030e-02
 -6.0888566e-02
 -7.1488388e-02
  1.5246703e-01
 -5.4735158e-02
  1.4284660e-02
 -5.2409648e-04
 -1.4991941e-02
 -1.4549143e-02
 -1.4599835e-02
 -3.3112738e-02
  2.3889875e-02
 -1.2283565e-02
 -1.7436925e-02
  5.7691399e-02
 -3.0606972e-02
  6.9680959e-03
 -8.4642723e-02
  1.2226902e-02
  1.8218812e-02
 -2.8337920e-02
 -2.3648215e-02
  2.6386146e-02
  1.5439396e-02
  2.0368148e-02
  2.1226628e-02
 -3.9740589e-02
  1.7961007e-04
  6.9943883e-02
  3.9115895e-02
  5.8764953e-02
  1.4793868e-01
  7.2420537e-02
 -2.5065910e-02
  1.3619574e-02
 -7.2431080e-02
 -4.3285672e-02
  2.3232232e-01
 -8.3103098e-02
  9.5087299e-03
  8.2747461e-03
 -3.2566074e-02
  5.6585260e-02
 -9.6305897e-03
  9.8031476e-02
  6.8964794e-02
  8.4101453e-02
  2.5979893e-02
 -1.2028669e-01
  5.9148941e-02
  4.8353795e-02
 -1.0933948e-02
  4.4875614e-02
 -8.0547780e-03
 -1.1976317e-02
  1.2430398e-01
  7.3220646e-03
  2.8294172e-02
 -1.7413996e-02
  6.6727616e-02
  4.8245024e-02
  3.9083451e-02
  9.1623599e-03
 -6.8442528e-03
 -5.9691921e-02
  1.0436918e-01
  1.2810594e-01
  2.7400345e-02
  2.0068049e-02
  1.8881476e-03
 -6.6147512e-04
 -1.1039963e-01
  1.6172245e-03
 -6.4352779e-03
  5.9072948e-03
 -6.1016802e-02
  3.2232769e-02
 -7.8759342e-02
 -6.4440280e-02
 -2.1625733e-02
  7.0632878e-03
  1.6377468e-02
  1.9079771e-02
 -1.8461475e-02
  6.4862020e-02
 -1.3514137e-02
  1.1450730e-01
  2.0757867e-02
 -1.6977634e-02
 -4.6936840e-02
  7.9187497e-02
 -8.9989536e-02
 -8.6714052e-02
  1.3977683e-02
 -2.3239691e-02
  9.1906138e-02
  8.6996652e-02
  4.5857701e-02
  4.7498632e-02
  3.8883146e-02
 -1.2331463e-02
  1.4951646e-02
  2.4655782e-02
 -4.9552593e-02
 -2.3236148e-02
  1.3685544e-02
 -1.3845008e-02
  1.5422498e-01
  1.2937753e-01
  2.0915101e-01
 -6.8910432e-01
  1.3192046e-02
 -3.3542281e-01
 -7.2081912e-01
  3.2192864e-02
 -8.5251898e-01
 -1.6310193e-01
 -2.4751429e-02
  4.7452492e-01
 -1.1750271e-01
 -4.8856467e-02
 -2.7963454e-01
  4.2673731e-01
 -7.9616252e-03
  3.7847099e-01
 -4.7550358e-02
 -1.3192876e-01
  5.8896244e-02
  2.9161278e-02
 -7.5364791e-02
  1.8347840e-01
 -1.2748569e-01
 -1.6105419e-01
 -1.5339432e-03
  2.6298809e-01
  2.0910175e-01
  1.0658548e-01
  8.5089402e-03
  8.8518352e-04
 -2.3378582e-01
 -1.9687825e-01
 -1.3271153e+00
  1.5133944e+00
 -1.8025583e+00
  1.3133677e+00
  6.2550597e-02
 -9.6447480e-01
  1.6681640e+00
  1.4677000e+00
  3.4878395e-02
  5.0133491e-01
 -3.9699283e-01
  5.4268432e-01
 -9.5560864e-02
 -2.3417965e-02
 -4.4612441e-02
 -2.0040441e+00
 -2.7635178e-01
  3.8292754e-02
 -5.9384477e-01
  1.8735958e-02
 -9.2264497e-01
  4.9647185e-01
 -1.1484884e+00
  8.7121405e-02
 -1.3468086e-02
 -6.8535417e-01
  3.2115522e-01
  8.1599452e-02
  3.2306705e-02
 -8.3350027e-01
 -1.8771620e-02
 -4.2862064e-01
 -1.0956910e-01
 -9.2548355e-02
  2.5411494e-02
  6.4695645e-03
 -1.3671492e-02
  1.4066637e-01
 -1.2678702e-01
 -2.9504058e-01
 -2.0065905e-01
  2.1937223e-01
 -7.0337899e-02
  6.5973002e-01
  5.0124016e-02
  6.2211764e-01
  2.2146177e-01
 -3.4912652e-04
 -8.6740777e-02
  2.8908825e-01
  5.4355717e-01
  5.8703873e-02
 -7.9178829e-03
  1.0197964e-02
 -1.2141312e-02
  2.6711127e-01
 -2.1780532e-02
  1.2042309e-01
  9.6397856e-03
  9.3155928e-02
  1.7497124e-02
 -3.5898931e-02
  8.4908277e-02
 -1.0034235e-02
  2.1427189e-01
  4.3309413e-02
 -8.5535541e-02
 -1.1390310e-02
 -1.4753642e-02
  6.7778103e-02
  1.2554508e-01
  1.6071235e-01
 -4.2156558e-02
 -1.3224238e-01
  2.6166653e-02
  4.8651910e-01
 -7.9458766e-03
 -4.6952374e-02
 -1.4784092e-01
 -3.5468037e-03
 -4.8522204e-02
 -1.2510811e-01
  3.3827308e-03
 -3.8524908e-01
 -6.4714827e-02
 -7.5742699e-02
  1.8769456e-02
 -5.2369349e-02
 -5.3011715e-02
 -1.1020703e-02
 -7.8636138e-03
  7.1692124e-02
 -5.6722198e-02
 -1.0375996e-03
 -8.4267026e-03
  8.7386243e-02
  6.1581060e-02
  6.6707786e-03
 -3.6748879e-02
 -1.0343318e-01
  2.3707516e-02
 -3.5304846e-03
 -1.3960027e-02
  5.4027811e-03
  9.8475851e-03
  2.1840913e-02
 -3.7624411e-02
  1.2452709e-02
 -3.7824888e-02
 -5.3170498e-04
 -2.8991353e-02
 -2.4393721e-01
 -4.0014993e-02
  1.1757164e-02
  1.2160115e-01
  1.9477834e-01
 -4.9732130e-02
  1.7582921e-02
 -2.5497030e-02
 -1.1112151e-01
  1.5450767e-02
 -1.0508868e-01
 -1.0173590e-02
  4.8036210e-02
  8.4540918e-02
 -2.1588231e-02
  3.1981930e-02
 -4.0748566e-02
 -9.3009863e-03
 -7.7848457e-02
  9.2632242e-02
  3.2140343e-03
 -3.9846632e-03
  8.8763103e-02
 -3.1373452e-03
  2.6468825e-02
  1.0640745e-02
 -1.8907126e-02
  1.5293938e-02
 -1.4390239e-02
  3.2737177e-02
  3.1131061e-02
  3.4802619e-02
  9.3952954e-02
 -3.0841343e-02
  5.2124400e-02
  1.9961663e-02
 -2.9581547e-02
 -8.4116384e-02
 -2.5740370e-02
 -4.0042348e-02
  3.9181184e-02
 -4.9600583e-02
  2.1369759e-02
 -2.7790103e-02
  5.2069109e-03
 -1.0222314e-01
  6.7097070e-03
 -2.3755787e-02
 -4.5428962e-02
  8.7388657e-02
 -8.6231055e-03
 -1.3591602e-02
 -2.0038627e-02
  2.5810370e-02
  4.2584676e-01
 -6.9573499e-02
  3.8592122e-04
 -2.8534690e-01
 -8.4404111e-02
  2.2154483e-03
 -1.0085668e-01
 -1.8687371e-02
  1.1315958e+00
  1.0489520e+00
  4.2141192e-02
  5.0514709e-02
  7.3519833e-02
 -8.2570297e-01
  1.1962351e-02
 -1.8396374e-02
 -2.1928517e-02
  1.1874779e-01
  2.9631799e-01
  2.0292498e-02
 -5.6605533e-02
 -4.4848940e-01
 -3.3165053e-01
 -1.3657945e-01
 -1.9556700e-01
 -7.7700773e-03
  3.8768943e-02
 -3.8312010e-02
 -1.1794710e-01
  5.5629767e-02
 -8.5749514e-02
 -8.5098622e-03
  3.2767020e-02
 -2.2820484e-02
 -1.2079953e-02
  6.7316815e-02
  1.4174867e-01
  4.4719949e-01
  9.0525173e-02
  2.6772338e-01
 -1.7069104e-01
 -3.5494596e-03
  1.0409947e-01
  3.0793160e-01
  1.0244633e-01
 -4.6130526e-01
 -5.1557302e-02
 -2.0839903e-01
  4.1885405e+00
  7.9421103e-01
 -4.8755312e-01
  4.1746486e-02
 -3.9441130e-01
  5.4624879e-01
 -1.5462174e-01
  4.7183546e-01
  5.4738420e-01
 -1.6352037e-02
 -1.2138883e+00
  1.9600880e+00
  5.8536077e-01
  1.9776723e-01
 -1.7143410e-01
 -1.1133558e-02
  1.3626509e+00
 -3.6667470e-02
 -6.7407005e-02
 -1.2874101e-01
 -6.0463750e-01
 -9.8128885e-02
 -5.4586768e-01
  4.7877306e-01
 -1.2547077e+00
  1.4366846e-01
  2.8857955e-01
 -1.9022693e-01
 -1.6967359e-01
  1.4420850e+00
  2.2483311e+00
  8.7488759e-01
 -4.1375941e-01
  1.3867180e-01
  1.6816975e-01
  9.6472782e-01
  1.2277807e-01
  8.0542219e-01
  4.7851631e-01
  5.1103729e-01
  1.6899419e-01
  2.8881529e-01
 -7.9582691e-02
  3.4562703e-02
  6.2780499e-02
 -9.0885989e-02
  6.7774013e-02
  9.7436100e-02
  5.3984307e-02
  1.0235590e-01
  1.7002005e-02
  8.9257117e-03
  3.4958620e-02
  2.3081701e-02
 -1.8783905e-02
  2.1112852e-02
  3.1963053e-01
  9.7495774e-03
 -1.4038865e-01
 -5.1677157e-03
 -2.1102771e-02
  1.3927498e-01
 -1.2619393e-01
  3.4146026e-02
  1.6126378e-02
  2.1287291e-01
 -6.5814429e-03
  6.6103395e-03
  5.4684192e-02
  5.7983126e-02
 -2.7778950e-02
 -5.1682465e-02
  5.9410245e-03
  1.7929789e-01
 -6.1645057e-02
  2.9913783e-01
  3.4871984e-01
  3.4334023e-02
 -5.6642843e-03
  7.0483546e-04
  4.7094062e-01
 -4.4481091e-02
 -5.0695937e-02
  3.2746688e-02
  4.5230356e-03
  4.7922301e-01
  4.7393236e-02
  5.9671484e-02
 -1.9692328e-02
  1.0121641e-01
 -1.0637403e-01
  5.9997857e-02
 -3.3786770e-02
  7.1143562e-01
 -3.3232361e-01
  1.7991342e-02
 -6.8846725e-02
  2.3480929e-02
 -4.6121752e-01
  6.2315855e-03
  9.4349962e-03
 -3.1305905e-02
  8.0494814e-02
  8.2491612e-01
 -6.1197891e-03
  1.4792235e-01
 -1.6363740e-02
  1.4852668e-01
  7.6688260e-02
  4.7219738e-01
  5.3691339e-02
 -1.4413896e-01
  2.3941410e-01
  1.6392453e-01
  1.9729806e-01
  3.4929386e-01
  6.4038700e-01
  9.6487291e-02
 -1.0802407e-01
  5.7708085e-02
  2.6956847e-01
  4.5134880e-02
  4.7437288e-02
 -1.2334744e-02
 -5.1043019e-02
 -2.0921406e-01
 -4.1430905e-02
 -6.4313540e-04
  5.4231297e-02
  4.5607993e-01
  7.2079450e-02
 -1.4433876e-02
  6.2340189e-04
 -1.1710033e-02
  1.3315217e-02
 -8.1581689e-02
  2.5013524e-01
  8.4599435e-02
  4.3951515e-02
  7.4254715e-01
  1.2967542e-01
  3.3352364e-02
  8.9313760e-02
  2.7868897e-01
  1.5724529e-02
  2.5399491e-01
  2.1682870e-01
  3.5829875e-01
  1.0945109e-01
  1.5535848e-01
 -7.6535776e-02
 -2.6786203e-02
  3.7102971e-02
  1.4292818e+00
 -6.0222262e-01
 -4.2062759e-01
 -8.2899058e-01
  1.9528004e+00
  5.8279090e-02
 -8.6215595e-03
  5.4171290e-02
 -1.1913895e-01
  5.8682364e-01
  4.7103754e-01
 -2.6820475e-01
 -8.1571633e-01
  5.7728928e-01
  5.0867307e-03
 -1.0834810e-02
 -6.6299587e-02
 -2.2435994e-01
  3.9970938e-02
  6.3326359e-01
 -1.5722360e-02
  4.2234862e-01
 -3.1661052e-01
  1.2964244e-01
  1.2231493e-02
 -1.4847432e-02
 -2.1600999e-02
  5.7919627e-01
  6.4293966e-02
 -2.9889935e-01
 -5.7213299e-02
 -1.7451319e-01
 -2.1560812e-01
 -1.6581424e-02
  3.0745733e-01
 -6.6813892e-01
  1.3313748e+00
 -1.7450418e+00
 -5.8240527e-01
 -1.8496958e+00
  1.3653017e+00
 -2.4999747e-01
 -6.5772437e-02
 -2.0473450e-02
 -1.1716131e+00
 -4.5405093e-01
  3.9115574e-02
  2.0696804e-02
 -5.8486372e-01
 -6.9904190e-01
 -4.5986769e-01
  1.0725125e-01
 -9.2690982e-02
 -2.6691580e-01
  4.2349559e-01
  9.4243452e-02
 -4.1305325e-03
  7.9929012e-01
  3.9974090e-01
 -1.4931911e-02
  3.2266047e-02
  4.3431494e-01
  9.0114069e-01
  6.8825531e-01
 -3.3338550e-01
 -2.8720155e-01
  2.7359933e-01
  3.7450179e-01
 -1.8817641e-01
 -3.4028235e-01
  4.1175410e-02
 -1.1194751e-01
  3.0304435e-01
 -4.6559587e-01
 -9.0241924e-02
 -7.7847409e-01
  5.5939984e-01
 -3.2225394e-01
  1.1466102e-01
 -1.7162004e-01
 -4.5056525e-01
  2.4119903e-01
 -7.7381593e-01
 -1.1933714e-01
 -8.4350544e-01
  2.1146680e-01
  1.8448840e-01
  1.1519080e-03
  3.6710891e-01
 -4.6605593e-01
  5.1641130e-01
 -8.9226609e-01
 -7.7512980e-02
 -1.8203568e-01
  7.0101368e-01
 -7.7728122e-02
 -2.1373020e-02
  2.7427545e-02
  4.3074760e-01
  4.9004745e-01
 -5.6192404e-01
 -4.6809730e-01
 -7.2737616e-01
  4.9893486e-01
  1.6551886e-02
  8.9517776e-03
  7.6857604e-02
 -1.7043230e-01
  3.0504677e-01
 -4.1942576e-01
 -1.5002823e-02
  6.6842362e-02
  3.7436205e-01
  8.9342661e-02
  6.2758975e-02
  1.4342020e-01
 -6.1032023e-02
 -1.6583251e+00
  3.0352062e-02
 -4.8100039e-01
  1.0875858e+00
 -2.0156329e+00
 -5.1094484e-02
  7.0526905e-02
 -4.1073146e-01
  6.2213946e-02
 -1.8400601e-01
  1.3280642e+00
  3.5050544e-01
  2.4257133e+00
 -2.3187385e+00
  9.7926658e-01
  5.4668523e-02
 -1.5096891e-02
 -7.4182004e-02
  4.8635155e-01
 -2.3481786e+00
 -5.9663147e-01
 -1.8752073e+00
  1.0542731e+00
 -5.9513974e-01
  2.8608114e-01
  1.1659209e-02
  1.0574275e+00
  1.2683343e+00
 -3.0721068e-02
 -2.6663542e-02
 -4.4131994e-01
  8.5370761e-01
 -1.4110602e+00
  2.2012122e-01
 -4.0162567e-02
 -4.2386097e-01
 -2.9417462e+00
  2.3881626e+00
  4.0328828e-01
  4.2691126e+00
 -1.8538396e+00
  8.1388837e-01
 -1.2733612e-02
  5.5271393e-01
  1.3366997e+00
 -1.2789059e+00
  1.3645419e+00
 -3.7713584e-02
  7.3172003e-01
 -8.4822184e-01
  3.6438891e-01
 -2.0842392e-02
  8.4074043e-02
  3.2978219e-01
 -6.3710704e-02
 -8.1964535e-01
 -1.8686216e-01
 -8.3334170e-02
  1.1491760e+00
  3.0881080e-01
 -1.1336452e-02
  1.5744101e-01
 -5.4520696e-01
  4.1848448e-01
 -1.1580440e+00
  7.8317767e-01
  2.0078640e-02
 -3.7607335e-02
  2.3556739e-01
 -1.9433552e-01
 -3.1774816e-01
  1.3094558e+00
 -1.0253348e+00
  6.2339848e-01
  3.9802465e-01
  8.4457695e-01
 -1.6819068e+00
  1.1923913e+00
 -2.3353167e-02
 -3.1411126e-01
  4.5536378e-01
 -9.2635697e-01
  1.8530447e+00
 -2.1497155e-02
  7.1845627e-01
 -6.3158131e-01
 -5.0378806e-04
  4.1907096e-01
  5.5154806e-01
 -1.7634319e+00
 -1.7875713e-01
  7.2422612e-01
  2.8174598e-02
  1.1998317e+00
  1.0760342e-01
 -2.0416537e-01
  2.2685954e-01
  1.4022844e-01
 -1.0193039e+00
  4.2389783e-01
 -7.3934776e-01
  1.2611878e-01
  1.1708131e-01
  3.3442461e-01
  7.2117969e-02
  6.1203367e-01
 -2.2792900e-01
  5.1177692e-01
 -1.8925886e-01
 -4.7666419e-01
  1.5682283e-01
  6.7108810e-02
  4.8258039e-01
  5.0832957e-01
  3.7598869e-01
  2.8741166e-01
  9.5995378e-01
  1.2870456e-02
 -4.3838844e-03
  2.3844946e-02
 -3.6901659e-01
 -6.4112648e-02
  2.9198634e-02
  1.2732770e-01
  1.0495191e-02
 -7.5295798e-02
  1.7562838e-02
 -1.6981326e-02
 -9.2967749e-01
 -1.2529552e-01
 -2.9276782e-01
 -3.1624172e-02
  7.1662515e-02
  9.0727180e-02
  7.0081614e-02
 -3.8661912e-02
  6.5187976e-02
 -3.8469248e-02
 -6.0803972e-02
  4.0109119e-01
 -1.8168146e-02
 -1.8006861e-02
 -4.9302675e-02
  9.0059487e-04
 -5.3915150e-02
 -1.2317746e-01
  5.1735260e-02
 -4.4140872e-01
 -2.2565964e-01
 -9.8683871e-03
 -8.7202758e-02
 -4.8772275e-01
 -1.6779950e-01
 -5.9233297e-02
 -7.2638795e-02
  2.7146861e-03
 -7.1449667e-01
 -4.8385900e-01
 -9.8465905e-03
  1.3351575e-02
  5.2491494e-02
  1.3705976e-02
  3.1970698e-02
  1.2043913e-01
  4.5101918e-02
 -1.0611072e+00
  2.9704031e-02
  2.0824452e-03
  1.1671136e-01
  8.0092192e-02
 -1.3489999e-02
  8.0677748e-02
  4.4162787e-02
  1.9149058e-02
 -2.9619241e-01
 -7.0046879e-02
  8.9525476e-02
  5.6183163e-02
 -7.9314940e-02
 -1.9887477e-01
 -2.2768809e-02
 -1.0942315e-01
 -6.4856540e-03
 -1.3081565e+00
 -4.9872556e-01
  7.4480318e-02
  4.7059629e-02
  5.5054121e-02
 -6.2693516e-04
 -4.5258537e-02
 -8.5999081e-03
  1.0250602e-01
 -2.1975878e-01
  1.6423941e-01
 -5.6324698e-02
 -3.3379138e-02
 -9.8582767e-02
 -7.7391048e-03
 -1.6645023e-01
  9.0764895e-02
 -4.1439310e-02
  2.4827465e-01
 -1.3637596e+00
 -9.7746337e-03
  1.4892119e-02
  1.0428050e-02
 -1.3916889e-02
  6.0195312e-02
  5.1637415e-02
 -8.5416310e-02
 -2.2038230e-01
  1.2555869e-03
  1.7329796e-01
  7.0199803e-02
 -2.0931210e-02
 -2.3860629e-03
 -1.1571996e-02
  1.4391565e-01
  1.4498466e-01
 -7.5389457e-01
  1.3019407e+00
  7.5325295e-02
  9.6390419e-02
  6.2365092e-02
 -7.1982056e-02
 -4.0464580e-02
  3.2847354e-01
 -1.9754767e-03
  1.3991190e-02
  5.7623662e-02
 -1.1642145e-01
  1.2162061e-01
  2.1984044e-02
  2.5012800e-03
  1.2734383e-01
 -1.4071776e-01
  1.6302270e-01
 -2.1004102e-01
 -1.6036364e-01
  1.7063217e-01
  6.5015739e-01
 -7.9907578e-01
 -6.4783204e-01
 -4.8131058e-01
  6.8937063e-01
 -1.4876615e-01
  2.2908907e+00
 -9.3193305e-01
  1.4705111e-01
 -3.0821098e-02
  1.6389842e-01
 -9.4945830e-01
  2.3997982e+00
 -1.2946570e+00
 -4.2686623e-01
 -2.5917864e+00
  2.2388749e+00
 -1.0344157e+00
  1.0584349e-01
 -8.7358594e-01
  1.4129416e+00
 -4.9437705e-01
 -5.2511024e-01
 -2.0719159e-01
 -2.8356028e-01
  5.3120726e-01
  4.7381511e-01
  4.4388598e-01
  8.2269304e-02
  5.2516979e-01
 -1.6456069e+00
  1.5207114e+00
  3.3767775e-01
  1.3834172e+00
 -5.5154938e-01
  5.5825025e-01
 -6.3296072e-02
 -2.6215264e-01
  1.8067379e-01
 -3.6481816e-01
  1.9175664e+00
 -5.6392007e-02
  1.2900683e+00
 -2.2039343e-01
 -2.4401046e-01
  1.5288435e-01
 -2.0122721e-03
 -8.5719764e-01
  1.6499467e-01
 -9.3872167e-02
 -1.1533955e-01
 -1.8844303e+00
  5.2804506e-01
 -2.2703232e-02
 -1.5116251e-02
 -3.3200049e-01
  1.4907763e+00
 -4.3134397e-01
  7.2529846e-01
  4.6142384e-02
 -1.8446506e+00
  9.9606723e-01
  2.9684949e-01
  3.8093436e-01
 -6.1857942e-03
 -5.4097766e-01
 -6.9706249e-01
  6.2589008e-01
  5.1227504e-01
  1.7400076e+00
 -4.2908430e-01
  4.0881550e-01
  1.1560696e-01
  5.4742638e-03
 -5.9607255e-01
  8.7936841e-02
  3.6125201e-01
 -4.2066699e-01
  2.3370671e+00
 -1.0083044e+00
 -7.4853264e-02
  2.7839702e-02
  2.4912994e-01
 -3.5653010e-01
  1.0511691e-01
 -1.5986173e-01
 -6.8603522e-01
  4.9265835e-01
 -7.2146845e-01
  1.4710827e-01
  4.7441602e-01
  4.4548437e-02
  4.4046986e-01
 -6.9840945e-02
  3.2585672e-01
 -9.1038071e-02
  1.9281577e-02
 -2.8274351e-01
  7.6656593e-03
 -4.9161848e-02
  1.2474738e-01
  1.6517183e-01
  1.7676003e-01
 -3.9377069e-01
  3.9249566e-01
  2.6834023e-01
 -2.1107139e-01
 -7.3871771e-03
 -4.4327721e-01
 -5.7163799e-01
  3.0068099e-02
 -1.1240163e+00
  5.3877234e-01
  5.7295078e-01
 -2.4605730e-01
  3.5127822e-02
 -4.0597115e-02
 -5.2477646e-01
  2.7555627e-01
 -1.4528031e+00
 -9.4402786e-03
  2.5177009e-03
  4.6477087e-02
 -2.0524506e-01
  1.8923214e-02
  2.8771777e-02
  5.3717289e-02
  3.8070004e-03
 -5.2562673e-02
 -8.3846223e-01
  7.1546562e-02
  4.3877717e-02
  5.5767320e-02
  6.1419982e-02
 -1.3463028e-02
 -2.1081910e-01
 -3.7847247e-02
 -6.2984604e-01
 -4.1173226e-01
  4.3808773e-01
  6.8462992e-01
 -6.2992549e-01
  9.9513188e-02
 -1.8984058e-01
 -5.8954018e-01
 -1.3103084e-02
 -1.0685878e+00
 -6.9977576e-01
  7.8752714e-01
 -6.9930904e-02
 -4.1238457e-01
 -1.4848377e-01
 -7.3342137e-02
 -2.8180644e-02
  1.0087461e-01
  4.2549253e-01
 -6.1381006e-01
 -2.5620183e-01
  5.7077456e-01
  6.3940781e-01
  1.9059189e-01
  2.3235923e-02
 -2.7780488e-01
  1.3473652e-02
 -7.5226545e-01
 -3.2320777e-01
  8.1810576e-01
  5.7588138e-02
  2.9786825e-01
  1.1723345e-01
  4.7192603e-02
 -3.3325266e-02
 -3.6541432e-02
 -2.5472355e-01
 -1.4406091e-01
  8.6097367e-02
 -9.9189039e-03
 -9.6024847e-01
 -4.0715378e-02
  2.3765914e-02
  4.4662893e-02
  2.7584443e-02
 -6.6447459e-02
 -5.7706773e-01
 -1.9309221e-01
  1.1952275e+00
 -1.3676503e-01
  7.8637993e-01
  9.2702419e-02
 -7.8079957e-01
 -1.3149381e-01
 -3.7161943e-01
 -4.5920956e-01
 -1.2527300e-01
  6.6179819e-03
  1.0052009e-01
 -2.2228699e-02
  6.9680937e-02
  1.5751885e-02
  1.9526854e-04
  1.5125918e-01
 -2.8991348e-01
  4.4945166e-01
  1.2712929e-01
 -1.5107791e-01
  1.4486434e-01
  3.5818111e-02
 -3.2419077e-05
  1.5248559e-01
 -2.3618360e-01
 -8.3640856e-01
  3.5847631e-01
  3.3940899e-01
 -5.6387454e-01
  8.5802048e-02
 -1.6032360e-02
 -9.7540486e-01
 -2.2925471e-01
 -8.0180430e-01
 -4.4236922e-01
  1.9286449e-01
 -7.5686045e-02
  4.7936127e-01
  2.1850427e-03
 -4.5019994e-03
  1.3572349e-01
  2.2221361e-01
 -2.9967871e-01
 -1.0442843e-01
 -8.9129090e-01
 -1.0215738e+00
  1.9033040e+00
  5.8818656e-01
  1.0055246e+00
  4.9491458e-02
  1.4894946e-02
  5.3870451e-01
 -1.3132912e-02
 -4.7132835e-02
  3.0520658e-03
  2.7350681e-02
  7.0118406e-03
  1.1398677e-01
  4.4152573e-02
 -9.3527902e-03
 -4.3068450e-02
  4.0243580e-03
 -3.2134569e-01
 -6.1923262e-02
 -4.9852967e-02
  2.6485023e-01
  5.6637043e-01
  2.0342210e-02
 -2.9919993e-02
  2.5034860e-01
 -6.6188969e-02
 -5.1929486e-01
  1.0031566e-02
  4.3759552e-01
 -3.3275384e-02
  5.3099096e-01
  3.0658619e-02
  2.6005711e-03
  1.6367693e-01
 -7.2219765e-01
  3.2917503e-02
  3.2806791e-02
  2.0747848e-01
  1.1292525e-02
 -1.0706186e-02
 -7.4010938e-02
 -2.3973143e-02
  1.5769681e-01
  1.9295882e-02
 -4.6613333e-01
 -1.0676219e+00
 -3.8260072e-01
  3.5014354e-02
  3.1848818e-01
  1.3778346e-02
 -3.7012819e-02
  1.1003442e-02
 -2.4712788e-01
 -9.5196933e-01
  1.6599323e-01
  5.7772547e-01
  2.8058568e-02
  6.7083158e-02
 -3.1302401e-03
 -1.8044823e-01
  3.5970929e-01
  3.3966523e-01
  1.8615820e-01
 -6.2581205e-01
 -2.1201882e-01
 -6.6401976e-01
  1.3612758e-02
  9.0958318e-03
  2.4802491e-02
  1.8883349e-01
 -8.1031621e-02
 -1.7962754e-02
 -1.7162535e-01
 -1.1015252e-01
 -1.5225995e-02
  6.4569098e-01
  1.5616711e-03
  3.0402390e-02
  1.2749448e-01
 -4.7177956e-02
 -8.7352502e-01
 -1.6142340e-01
  7.7948153e-01
  2.1110258e-01
  4.7924206e-02
 -3.9390277e-02
 -5.0853128e-03
  4.7075057e-01
  4.0549260e-02
 -6.3130587e-01
 -8.7268138e-01
  7.9384571e-01
  9.6002892e-02
  5.1976508e-01
 -3.1450629e-02
 -1.2211712e-02
 -3.0962039e-02
 -3.4934849e-01
  6.7291981e-01
  1.7385591e-02
  2.1148697e-02
  7.4406058e-01
  1.1862382e+00
 -1.0614264e-02
 -7.5158074e-02
  8.3656651e-01
  4.8699003e-02
  5.8382951e-02
 -6.0389757e-01
  1.0342082e-01
  2.3293039e-01
  7.5788401e-02
  3.0216208e-02
  8.2248971e-02
  1.4327593e-01
  1.8818192e-01
  8.2086623e-01
 -1.1006998e+00
 -1.2496573e+00
 -1.8880460e-01
 -5.6454527e-01
 -7.4284822e-01
  2.5173914e-01
 -9.9414282e-02
  7.8564785e-02
 -7.9497725e-02
 -4.9987044e-02
 -6.3795322e-01
 -2.1610387e-01
 -1.1976050e-01
 -1.1818326e-02
 -2.7156798e-02
 -1.1923528e-01
  2.5836924e-01
  2.6806358e-01
 -9.4838560e-01
  2.8710220e+00
  4.4752768e-01
  3.7462479e-01
 -4.0912333e-01
  6.3380104e-01
  5.0862134e-02
 -1.4663368e-01
  4.0314950e-02
 -6.5221697e-01
 -1.7824262e+00
  6.2526584e-01
 -1.4965287e+00
 -1.9342464e-01
  5.7328023e-02
 -5.9004796e-01
  9.1567099e-02
  3.2717609e-01
 -1.6401215e-01
 -4.3350714e-01
  2.0749025e-02
  6.4332962e-01
 -2.2129647e-02
  3.0682817e-01
  4.2252168e-01
 -1.5421125e-01
 -1.1046454e-01
 -1.2583934e+00
 -8.6677954e-02
  8.4078813e-01
 -1.5386954e-01
 -5.6736219e-01
  5.6766397e-01
 -4.4838306e-01
  7.9560354e-02
 -1.9471318e+00
 -3.0222785e-01
 -5.3448170e-01
 -4.3802941e-01
 -1.2716779e+00
 -1.9438335e-01
  1.4849468e-01
  6.0227453e-03
  6.0190070e-01
 -2.8826061e-01
 -4.8478886e-01
 -1.4761414e-01
 -3.8654187e-01
  7.4507487e-01
 -4.7509882e-01
  3.1933245e-01
  2.2430155e-02
  4.0878880e-01
  6.4227694e-01
 -1.2356442e+00
 -2.9856923e-01
  9.0961975e-01
 -4.5040473e-01
 -1.3990308e-01
  5.9646595e-01
 -2.8413177e-01
  1.4382811e+00
  7.0661062e-01
  7.3051952e-02
 -1.2921970e+00
  5.7404774e-01
 -3.2389805e-01
 -8.3588004e-02
  6.2961265e-02
  7.6755360e-02
  2.6209459e-01
 -1.0517501e+00
 -9.6051186e-01
 -1.0027534e+00
 -3.0426422e-01
  4.7718072e-01
 -3.7213171e-01
  4.9575442e-01
 -5.6068873e-01
  6.9111539e-03
 -8.5803443e-01
 -1.2701777e+00
 -3.1585079e-01
 -4.1808060e-01
 -7.6315153e-01
 -3.6135066e-02
  7.5342160e-01
 -3.4931445e-01
 -2.4272855e-01
 -4.6015257e-01
 -7.0048325e-02
  2.8472912e-01
 -6.4935304e-02
 -9.1618204e-01
 -3.2754108e-01
  4.0719565e-02
  2.7973089e-01
 -1.8210922e-01
  5.1728398e-01
 -7.2247493e-01
  6.7954743e-01
 -1.4418925e+00
 -1.3192724e-01
 -1.3264687e-01
 -1.0410490e+00
  9.1660607e-01
 -8.6718224e-02
  4.6309367e-01
 -1.2453255e-01
  2.1983014e-01
 -6.9632500e-02
 -6.6920286e-03
  2.4471221e-02
 -1.3005957e-01
 -2.5955662e-02
 -1.4366417e-01
 -2.1246624e-01
 -3.3288192e-02
 -5.5501953e-02
  6.8518765e-02
 -5.7980467e-02
 -5.1457118e-03
  7.8041747e-02
  1.2102659e-01
 -8.9988816e-01
  8.7079781e-01
 -7.1050858e-01
  3.4975898e-01
 -4.9723536e-01
 -1.2782305e-01
  2.4267154e-02
 -9.0907156e-01
  4.8657000e-01
 -1.0900877e-02
  5.2675259e-01
  1.5026270e-02
  1.4918686e+00
  1.2048122e-01
  4.0527076e-02
 -2.1189764e-02
  4.0634388e-01
 -1.0069448e-01
 -1.1175508e+00
 -3.6171660e-01
 -5.7678401e-01
  4.8509279e-01
 -1.5861014e-02
 -1.0999759e-01
 -4.8501641e-02
  1.8445818e-02
  2.2891928e-01
 -5.4330248e-01
  7.1825010e-01
 -1.7131966e-01
  6.7939615e-01
 -3.2159397e-01
  1.4081995e-01
 -1.8393205e-01
 -6.8214381e-01
  1.3259411e+00
 -5.5045854e-02
  6.8413490e-01
 -1.6479380e-02
  5.1149714e-01
  5.2626193e-01
 -1.7128070e-01
 -5.3457983e-02
  9.1291189e-02
 -1.2670085e+00
 -4.9261531e-01
  4.4127738e-01
 -6.0104436e-01
  5.6439209e-01
 -1.4600236e+00
 -9.8303594e-02
 -1.9011402e-01
 -2.1523021e-01
  9.9341065e-01
 -9.8720562e-01
  1.5172158e-02
 -5.0665680e-03
 -3.1317240e-01
 -3.1471556e-01
 -3.3597523e-01
 -4.0640917e-02
 -1.8979003e-01
  3.1502542e-01
 -9.9877477e-01
 -7.1991146e-02
 -2.5905924e-02
 -2.3783679e-01
 -4.3605561e-03
 -1.5370631e-01
  2.4729710e-02
 -3.1252101e-02
  5.9305263e-01
 -1.1959869e+00
 -1.7648561e-01
 -1.5849569e-01
  1.2014164e-01
 -6.6222626e-01
 -6.6913694e-02
 -6.7142375e-02
 -3.0379981e-01
  7.6290387e-01
  6.6687755e-02
 -1.0883182e-01
 -6.1785500e-02
 -1.6092169e-01
 -9.0333080e-01
  8.4965676e-02
 -2.7389986e-02
 -1.8264027e-01
  5.5479014e-01
 -1.9686617e-01
  3.3105221e-01
 -2.9286766e-01
 -6.3037206e-03
  4.5164455e-02
 -5.2329682e-02
  1.5373805e+00
  6.9712508e-01
  2.4126278e-02
 -8.8962919e-01
 -3.1413612e-01
  6.9477282e-02
 -1.7604568e-03
  2.6092868e-02
  2.3582466e-03
  6.0740568e-02
  3.0622322e-02
  4.9007810e-03
 -1.3006218e-02
  1.2967186e+00
 -4.0252350e-02
 -6.4475936e-01
  2.0642015e-01
 -4.8261210e-02
  4.2300051e-01
 -1.0556318e-02
  3.7564424e-01
 -1.7172357e-01
 -4.6429053e-01
 -1.6401151e-01
  1.0614542e+00
 -1.6681610e-02
 -6.0310438e-02
  9.2122096e-01
  9.8065311e-01
  2.2326764e-02
 -1.2824290e-02
 -5.7697874e-03
 -1.6463262e-03
  2.0307449e-01
  6.1723107e-01
  3.0396957e-02
 -1.0047976e-02
  5.6506726e-03
  1.8376859e-01
 -8.8258553e-01
  2.4738900e-01
 -1.6184528e-01
 -1.2440960e+00
  4.1923213e-01
 -9.5169596e-02
  1.1765783e+00
  6.8378532e-01
  6.6705994e-02
 -5.1185947e-02
 -1.5756367e-01
 -8.8292817e-03
  3.6577892e-01
  7.2519428e-01
  3.4732923e-01
  5.6254268e-01
  8.1264299e-01
 -1.6225820e-02
  3.4474513e-01
 -1.0028533e+00
  3.1618156e-02
  1.9116431e-01
  3.2374237e-02
 -1.3934329e-01
  1.7123015e-01
 -1.1821230e-02
  7.1252234e-02
 -2.1301858e-01
  3.5550708e-01
 -9.4009221e-02
 -8.7219137e-01
  8.1976932e-01
 -1.6574833e-03
  1.3153348e+00
  6.0134977e-01
  2.9202437e-02
 -5.8476862e-02
  4.2471904e-01
 -9.2686377e-03
 -4.0633941e-01
  4.5212507e-01
  1.2903810e-01
  3.8560282e-02
  2.5008309e-01
  8.5115712e-03
  3.2718142e-03
 -2.0433453e-01
 -4.0450853e-01
  3.1415710e-01
 -1.2230695e-02
 -4.9220687e-01
  3.3710083e-01
  2.2296783e-01
 -7.6458626e-03
 -1.3036637e-01
 -6.9452262e-01
  5.4956358e-03
  2.2983590e-01
 -8.5594475e-02
  1.2096977e-02
  4.8129895e-01
  3.8319159e-01
  3.1249183e-01
 -2.1705841e-01
 -3.9252724e-02
 -4.1977200e-01
 -2.5005561e-01
  1.5478311e-01
  9.0102211e-02
  1.2295844e-01
  4.1840419e-01
  1.3453455e-01
  6.6908458e-03
  6.6908458e-03
  6.6908458e-03
  6.6908458e-03
  6.6908458e-03
  4.4584941e-02
  4.4584941e-02
  4.4584941e-02
  4.4584941e-02
  4.4584941e-02
  3.9796297e-02
  3.9796297e-02
  3.9796297e-02
  3.9796297e-02
  3.9796297e-02
  1.5568715e-02
  1.5568715e-02
  1.5568715e-02
  1.5568715e-02
  1.5568715e-02
  6.2528341e-03
  6.2528341e-03
  6.2528341e-03
  6.2528341e-03
  6.2528341e-03
  2.3872331e-02
  2.3872331e-02
  2.3872331e-02
  2.3872331e-02
  2.3872331e-02
