nep3 3 Ga O Au 
cutoff 8 4 157 28
n_max 4 4
basis_size 12 12
l_max 4 2 0
ANN 50 0
 -6.6421083e-03
 -3.9183013e-03
  3.8847815e-02
  1.3880731e-01
  3.5184305e-02
 -4.5645732e-02
 -7.2978525e-03
 -2.4263196e-02
 -1.5008288e-02
 -1.3782474e-02
 -1.3874938e-03
 -6.1392102e-02
  2.4173409e-02
 -8.9247845e-02
  1.7298301e-01
  3.9320406e-02
 -5.0671920e-03
  7.2209775e-03
  3.9857972e-02
  1.0849097e-01
 -2.3173844e-03
  7.4793540e-02
  2.7336577e-02
  2.2877479e-02
  1.4059976e-01
 -2.5139606e-02
  1.4522589e-02
 -4.4767447e-03
  1.1308704e-02
  2.8595580e-02
 -3.0429585e-02
 -1.0684200e-01
 -3.5810100e-03
  2.6394513e-02
  1.0854492e-02
 -3.8873151e-02
  7.2128683e-02
 -8.8936603e-03
  7.4871428e-02
 -1.3781987e-01
 -5.6868974e-02
 -4.7156688e-02
 -4.2460607e-03
  1.2141892e-01
 -3.9073923e-03
  3.8716394e-02
  2.7593276e-01
  9.7546577e-02
  1.1794036e-02
 -1.0641398e-01
  2.2374097e-02
  4.8483007e-02
 -3.7651699e-02
 -3.0277364e-02
 -1.0829010e-01
 -4.7134861e-02
  1.7718453e-02
  4.2631906e-05
  2.3998283e-03
 -1.1054685e-01
  2.6429329e-02
 -2.3691156e-03
  1.7314276e-02
 -2.0903271e-02
  2.6263488e-03
  2.0889407e-02
  3.0262966e-02
  6.3768809e-04
 -1.1756200e-01
  2.2724869e-02
 -3.8613278e-02
 -4.0029734e-02
 -2.6930299e-02
 -4.4251410e-03
 -1.5330070e-03
 -9.0110570e-02
 -3.6780380e-02
  4.0828590e-03
 -2.4949141e-02
 -2.4820790e-03
  5.6832731e-03
  1.3300349e-02
 -4.3746826e-05
  5.6357902e-02
  8.4115438e-02
  7.7981311e-03
 -1.9099070e-02
  4.5695389e-03
  8.6972684e-02
  4.0671483e-02
  3.8604707e-02
  1.6127730e-02
 -1.3225201e-02
 -9.3308650e-02
 -7.8028806e-02
 -5.5630516e-02
 -1.1443502e-03
 -4.5279630e-02
 -3.8567234e-03
  1.3335112e-02
  1.6379689e-01
 -7.1393721e-02
  1.2072893e-01
  5.6279125e-03
 -7.6203965e-02
 -2.6822392e-02
 -1.2035308e-01
 -5.7771262e-02
 -2.4178769e-02
 -4.2857252e-02
 -5.1417056e-02
  3.0974813e-02
 -1.5833576e-03
  1.2918349e-02
 -2.0785064e-02
 -1.4532186e-02
 -3.2984708e-02
  1.1421465e-01
 -2.8113158e-02
 -1.6052883e-02
 -2.0638054e-02
 -4.2998874e-01
 -1.5597053e-01
 -1.6805954e-02
 -4.1788105e-02
 -1.9444142e-02
 -5.6589987e-02
 -4.5367989e-01
 -1.9508446e-02
  6.0736194e-02
 -4.0274147e-02
 -1.3422604e-01
  2.6753329e-02
  8.8307522e-02
 -1.1791133e-01
 -3.1953350e-02
 -8.3492789e-03
 -9.1261655e-01
  3.5601154e-02
 -2.6419926e-03
  8.5198991e-02
 -2.5824758e-01
  1.0864899e-01
  2.4297310e-03
  1.5547093e-03
  2.5862398e-02
  5.4149581e-03
 -8.2273791e-03
  5.3128544e-03
 -8.9908950e-02
 -3.5070352e-02
 -1.4622337e-03
  2.5259124e-02
  1.1757668e-01
 -2.3757016e-02
 -3.0822158e-03
  7.5139098e-02
 -1.0445937e-01
 -6.0605220e-02
 -4.6051271e-02
  6.0496502e-02
 -2.5308831e-03
  4.3257624e-02
  4.8406688e-03
 -6.7328308e-03
 -1.0499118e-02
  2.4319217e-02
 -1.8930640e-02
  1.1145643e-02
  2.5700403e-02
  8.9442521e-02
  1.1535583e-01
 -1.8207572e-02
  1.4531619e-02
  5.8206461e-02
 -6.9648614e-03
  1.3155194e-01
 -4.0772211e-02
  6.1152093e-02
  5.9140127e-02
  1.9435966e-01
 -1.2452374e-01
 -1.9803988e-02
 -1.2890030e-01
  9.2493244e-02
  8.0075607e-02
 -1.3302246e-01
 -7.4929059e-02
 -5.3455099e-02
  2.8641585e-02
 -3.0570611e-02
 -5.7833758e-04
  1.2577559e-01
  2.1520992e-01
  3.1335440e-02
 -8.1940055e-02
 -5.8730505e-02
 -3.7398566e-02
  3.3699641e-01
 -7.0691301e-04
  2.5020277e-02
  9.0110861e-02
  1.4703315e-02
  1.1583036e-02
 -1.0518905e-02
  6.0320396e-02
  1.5012356e-02
 -7.5451587e-03
 -1.3609947e-01
 -6.9029421e-02
  1.4717330e-02
 -3.3921357e-02
  8.7811835e-02
 -5.6550480e-02
 -8.7397695e-02
 -2.7590733e-02
  3.9322682e-02
  5.7273570e-02
 -9.4631061e-02
 -7.9798087e-02
 -1.1856345e-01
  7.9790831e-02
 -1.0394366e-02
 -2.2130549e-02
  7.4254118e-02
  5.4184701e-02
 -1.3976271e-02
  2.4681922e-02
 -6.5327121e-04
 -2.5477806e-02
  1.4154581e-02
  5.6259360e-02
  1.2712775e-01
  2.8039031e-02
 -4.2777345e-02
  3.1640459e-02
  6.8295226e-02
  1.1644803e-02
  3.6125023e-02
  1.4671250e-02
 -8.5514359e-02
  1.2072373e-02
  5.8622651e-02
 -4.8435226e-02
  8.0025615e-03
 -6.8520054e-02
 -4.6188690e-02
 -5.5744373e-03
 -4.3349061e-02
 -5.0204996e-02
 -7.5530231e-02
 -5.9891015e-02
  5.1589850e-02
 -4.8272222e-02
  1.1811247e-01
 -1.2456191e-01
 -9.3479436e-03
  7.1310392e-03
  7.4807800e-02
  1.7322503e-02
  7.5133361e-02
 -5.1932675e-03
 -2.8761256e-02
 -1.0246053e-02
  1.6786201e-01
 -8.7959699e-02
  8.1409235e-03
  2.6789121e-02
 -2.3636932e-02
 -5.7525899e-02
  4.5361377e-02
  3.5107601e-02
  3.0225476e-03
  6.9295117e-03
  1.1504925e-02
  2.7115561e-02
 -4.4329997e-02
  7.7000141e-02
  9.1997862e-02
 -4.5505092e-02
 -5.4906946e-02
  1.4699671e-02
  1.6308645e-02
 -1.3203399e-03
 -3.2307018e-02
 -4.7871917e-02
  8.6513441e-03
 -3.1796537e-02
 -4.6668153e-02
  1.2612877e-03
 -2.0386141e-02
  1.5057610e-01
 -6.2746570e-02
 -4.5652933e-02
 -4.7078501e-02
  2.8188262e-02
  1.8611412e-02
  5.2331574e-03
  4.0775798e-02
  7.4849660e-03
 -7.8110769e-02
 -6.7663118e-02
  8.7813497e-02
 -1.0545737e-01
 -1.9237320e-01
  5.9024626e-03
  2.5321532e-02
  2.7313614e-02
  7.0474878e-02
  1.0313200e-01
  2.6125489e-02
  4.1479018e-02
 -9.0488255e-02
 -6.6461943e-02
  1.3043060e-02
  5.3399380e-02
  8.1443779e-02
  2.9016715e-02
  1.5165286e-01
 -4.3393474e-02
  5.6909569e-02
  1.9735259e-01
  2.5777180e-02
 -3.6331635e-02
  7.4802853e-02
  5.5385925e-02
  8.6101204e-02
  1.9852541e-01
  1.2096623e-03
  1.9779975e-02
 -4.4647355e-02
 -5.3665359e-03
  2.9056991e-02
  7.2850445e-03
 -3.5289794e-02
  8.5090408e-03
 -5.8994025e-02
 -1.9916235e-02
  1.0339055e-02
 -6.8142347e-02
  1.8666955e-02
  1.2517288e-01
  2.2550809e-01
 -1.5884452e-02
 -1.3053805e-01
  1.2871836e-01
 -2.5875436e-02
  5.1244605e-02
 -1.0744320e-02
 -3.0827323e-02
 -1.1977536e-01
  5.7539571e-02
 -3.0025585e-02
 -9.2698652e-03
 -5.3436412e-03
  6.2955422e-03
  2.8271530e-02
  1.6108842e-01
 -3.9480161e-02
  1.1786408e-01
 -4.6703614e-02
  1.7256109e-01
  8.5406424e-03
 -6.8541415e-02
  7.5382523e-02
 -9.5948391e-03
  1.1411858e-01
  1.1424553e-02
 -1.5357134e-03
  2.9623192e-03
 -5.6251168e-02
  6.8623304e-01
 -1.5169729e-02
 -3.9530392e-03
  1.2831879e-01
 -1.1335859e-02
  8.5348904e-05
 -2.4748839e-02
  2.8955724e-02
 -2.4129719e-02
 -1.3877718e-01
 -2.8182345e-02
  2.2201279e-02
  3.8350038e-03
 -4.4386070e-03
 -3.4657937e-02
  4.8468973e-02
  2.3882817e-02
  3.7074298e-02
 -4.2275045e-02
 -1.6662960e-01
  1.4519064e-01
  9.6424311e-02
 -3.5515711e-02
 -3.1850267e-02
 -2.5195353e-02
 -3.3968673e-03
  8.9642163e-03
  4.4757638e-02
  4.3814424e-02
 -1.2818363e-02
  9.5490709e-02
 -3.9609071e-02
  1.7345447e-02
 -7.8383289e-02
  5.3538680e-02
 -1.2095255e-01
  5.4753106e-02
 -1.3793146e-02
 -6.8314284e-02
  7.7672303e-03
  3.3554815e-02
 -3.1224413e-02
  5.8763310e-02
  8.7127797e-03
 -1.0821031e-01
 -4.6432088e-03
  4.8066802e-02
  6.4553820e-02
 -1.0087276e-02
  2.1082658e-02
 -3.0968163e-02
  3.9540399e-03
  1.0398878e-01
  2.3852019e-02
  1.9119009e-01
  5.4992102e-02
  8.4124003e-03
 -3.1411134e-02
 -8.3601803e-02
  3.0771032e-02
  2.6315981e-01
 -3.1962305e-02
 -6.5992348e-02
 -1.0560759e-02
 -3.1315189e-02
 -1.7838797e-02
  1.2120447e-01
 -3.0576210e-03
  3.5002530e-02
  3.6766559e-03
  6.9043394e-03
  3.6442354e-02
 -2.4426576e-02
  1.2228712e-02
 -8.6043596e-02
 -5.1898088e-02
 -3.7806313e-02
 -2.6553297e-02
 -3.7192244e-02
 -1.7983036e-01
  2.4831715e+00
 -5.5113101e+00
 -6.7406476e-01
 -4.3581958e+00
  7.2427265e-02
  2.1227157e+00
 -1.8020478e+00
 -1.5647213e+00
  1.4261930e+00
 -1.1097577e+00
  6.8975931e-01
 -1.1939913e+00
 -5.7418700e-02
 -3.1548690e-02
 -1.7547612e+00
  2.1022445e-01
 -1.5670267e+00
  7.2032511e-01
 -8.0246538e-01
 -5.8048648e-01
 -9.6106791e-01
 -1.4373327e+00
  1.1953989e+00
 -4.2372703e-04
  1.2526268e-01
 -7.5221133e-01
 -1.2242987e-01
  1.9202189e-01
  3.7191980e-02
 -3.3101052e-02
 -3.6539379e-01
  1.5284467e-01
 -5.0530875e-01
 -2.7429438e-01
 -5.1894110e-02
 -1.3660564e-01
  9.8996982e-02
 -7.6870576e-02
  6.7070378e-03
 -1.3424523e-01
 -7.2101355e-02
 -7.3463999e-02
  2.6140305e-01
  3.6978800e-02
  2.7753386e-01
  1.5621981e-02
  2.9252812e-01
  1.4771884e-02
 -3.2683045e-02
  1.0062875e-01
  8.0673993e-03
  3.2685164e-01
 -3.9641251e-04
  3.5540089e-02
  1.5721658e-01
 -2.5112098e-03
 -1.3323313e-01
 -3.3459581e-02
  2.7465584e-02
 -1.3423668e-01
  1.6344957e-01
  1.1315643e-02
  5.9940476e-02
  1.6997381e-01
  9.0501525e-02
 -4.3873265e-03
  3.4112772e-03
  1.8908121e-01
  8.6642295e-02
  1.3413681e-01
  1.1783506e+00
  3.8303220e-01
 -7.5082364e-03
 -4.2629406e-02
  8.3168536e-02
 -3.4865791e-01
 -3.5129476e-02
  1.8811565e-02
  2.0859022e-02
  1.5457777e-02
 -3.6759698e-01
  1.3717128e-01
  3.3305377e-02
 -9.9880863e-03
  8.5537940e-02
 -1.9667174e-01
 -4.3559560e-01
 -4.9067374e-02
 -4.3591354e-02
  1.8090090e-02
 -4.7016077e-02
 -4.5336302e-02
 -1.0683436e-01
 -1.8299103e-02
  1.4045545e-02
  8.0216151e-01
  5.8690952e-03
 -7.1578190e-02
 -2.2856987e-03
  2.6372364e-02
  3.6063958e-02
  3.9318312e-02
 -2.3809103e-02
 -1.6966212e-01
 -1.0336840e-01
  1.5966747e-02
 -5.7705186e-02
  1.4761344e-01
 -3.1689342e-02
  1.1022136e-02
  2.3724895e-02
  5.7442371e-02
 -4.6506643e-02
 -2.7979033e-03
 -9.0939008e-02
  6.8367273e-02
 -2.2679683e-02
  1.7981222e-02
 -2.2419792e-02
 -9.9063776e-03
  3.7215542e-02
  5.0322752e-02
 -4.0255189e-02
  7.1663447e-02
  5.0460476e-02
 -5.6653835e-02
 -8.4839398e-03
 -6.0441174e-02
 -1.3179469e-01
 -7.7975571e-02
 -1.3459858e-01
 -4.7926218e-03
 -1.2739803e-01
  8.9152241e-03
 -1.0538738e-01
  2.6517794e-01
  1.0755374e-02
  6.4747240e-03
 -1.4990942e-01
 -3.0824088e-02
 -3.2965466e-02
  2.9302770e-02
  1.5923098e-02
  1.6454579e-02
 -7.1198910e-02
  4.8591811e-02
 -6.0731481e-04
 -1.3802245e-01
 -1.2932949e-01
 -4.2739920e-02
 -1.8180241e-01
 -7.7327676e-02
 -5.2599214e-02
 -1.1775397e-02
  2.3766665e-02
 -1.0749962e+00
  6.3091423e-03
  6.7886561e-02
  3.1022685e-02
 -2.1970015e-02
 -1.2118846e-01
  3.3402741e-01
 -1.4821514e-02
 -1.1887774e-03
  1.5652305e-02
 -4.7791198e-02
 -3.0403603e-03
  1.3999287e-02
  1.2386768e-03
 -2.0829136e-02
  2.8966805e-02
  4.2253968e-01
  2.6778653e-02
 -1.8006995e-02
 -2.9572323e-02
  6.0628075e-02
 -2.8226288e-02
  2.4150390e-02
 -1.6461819e-01
  5.2769866e-02
  3.2767471e-02
 -3.2573588e-02
 -3.7882544e-02
  3.7289467e-02
 -5.2154697e-02
 -3.8136978e-02
  6.7554571e-02
 -5.6873463e-02
 -6.7257591e-02
  7.2559132e-03
  5.7133805e-02
  1.8827625e-02
  8.3430745e-02
  8.1967907e-03
 -7.2596115e-03
 -4.1102987e-02
  7.0569880e-02
  1.6207430e-01
  4.2255297e-02
 -9.5010765e-02
  4.3611649e-02
 -4.1595541e-02
 -3.1920660e-02
  9.3217701e-02
  4.1782465e-03
  7.6611410e-03
  1.1516043e-02
  4.1999254e-02
  8.4421569e-03
  2.8353151e-02
 -3.9047599e-01
  8.8363193e-02
  2.9776800e-01
 -2.1811506e-02
 -6.5379128e-02
  2.2595659e-02
  2.8608458e-02
 -1.4179996e-01
  2.1422198e-02
 -7.1747892e-02
  1.1169730e-01
 -3.9967421e-02
  1.1666417e-01
 -6.4249814e-02
  2.5935883e-02
 -1.0286956e-01
 -5.1536274e-01
  2.0880511e-02
  5.9321605e-02
  4.3277573e-02
 -1.2435323e-02
  6.5359384e-02
  1.1694458e-01
  3.5232408e-03
  5.1400620e-02
  5.7898560e-03
 -4.3399338e-02
 -1.4643900e-01
  1.1677670e-01
 -2.4850069e-02
 -1.1094438e-01
 -3.4304082e-02
 -1.4488870e-01
 -4.1799311e-02
 -6.6930950e-02
 -3.2799955e-02
  1.8468910e-01
 -2.8112049e-03
  6.0552962e-02
 -7.9436205e-02
 -2.9368728e-01
 -5.7405811e-02
 -3.2091658e-03
 -1.3747133e-01
  1.1071750e-01
 -1.1284413e-01
 -3.6158621e-01
 -2.1040142e-01
 -8.1963633e-04
  4.0986024e-02
  8.2262747e-02
 -3.2719216e-01
  1.8114004e-02
 -1.9626746e-02
  8.3574876e-02
  1.0059668e-01
  5.3557426e-02
 -1.9013898e-02
  1.0959814e-01
  4.7629769e-04
  1.8938163e-02
 -3.6450680e-02
 -1.4902860e-02
 -8.5691385e-02
  1.2530646e-01
  1.1381537e-01
 -5.6769360e-02
  2.8338101e-02
 -3.6120214e-02
 -8.1587713e-03
 -5.1778436e-02
 -4.4062618e-02
 -4.4624161e-02
 -5.2702900e-02
  5.6701478e-02
 -4.6492267e-02
 -6.7214305e-03
 -6.2156811e-02
 -3.0328523e-02
 -1.1750299e-02
 -1.0464063e-02
 -3.4816783e-02
  7.2603768e-01
 -1.8463876e-02
 -8.9777494e-04
  5.4767981e-02
  8.3355621e-02
  2.6972052e-01
 -9.7914347e-03
  3.3232257e-01
  4.8784748e-01
  8.2262689e-01
 -3.2627237e-01
  3.9997950e-02
  5.6976238e-03
  1.6752506e+00
  1.4730418e+00
 -1.6219785e-02
  4.8675671e-02
 -2.6072773e-01
 -3.1120712e-01
  8.7639112e-03
  6.5732427e-02
 -3.7197534e-02
 -1.2202166e-01
 -7.6989454e-01
 -8.2129002e-01
 -3.4990063e-01
  2.8716004e-02
 -2.1109208e-03
  2.8685847e-01
 -1.9079115e-02
  5.0628626e-01
  2.9536989e-03
 -2.9536905e-02
  8.7540388e-02
 -5.0243175e-01
  6.4284303e-03
  2.3469219e-02
  1.8487642e+00
 -1.9472910e+00
  1.0978477e+00
  3.0142438e-02
 -1.1386013e+00
  2.5024498e-01
 -3.7092980e-02
  5.7161731e-01
  1.0439421e+00
  1.0451581e+00
  1.4692931e-01
  2.6662627e-01
 -1.6848570e-01
  9.6383864e-01
  9.2283505e-01
  1.1757990e+00
 -4.0789953e-01
  6.3844901e-01
  8.5422236e-01
  4.2035773e-01
  2.0163496e-01
  1.1858299e-01
  2.5661790e-01
  6.8339545e-01
  2.9803120e-02
 -4.5913514e-02
  6.7861241e-01
  2.4668846e-01
 -2.3601123e-03
  6.3181593e-04
 -1.1180256e-01
 -4.8030445e-01
  9.0207174e-02
 -3.4570640e-01
 -1.3132975e-01
 -9.3424596e-02
 -1.8524829e-01
 -2.6292255e-02
  1.9894433e-04
  1.9118571e-01
 -7.2739705e-02
 -2.5420538e-01
  1.3653541e-01
  4.9306706e-02
  2.0789750e-02
  5.6597501e-01
  3.1612527e-02
  6.7106944e-01
  2.0263335e-01
 -3.1709071e-02
  6.7943437e-03
  9.5904712e-03
 -2.5086045e-01
  2.4596421e-02
 -1.9431937e-02
  1.1848990e-01
  3.0804151e-01
  1.5851904e-02
 -3.2284208e-02
 -1.3792411e-02
  9.3046846e-03
 -2.7745171e-02
 -1.7727854e-02
 -1.8789603e-03
 -1.0594234e-01
  9.0777650e-03
  1.9355656e-01
  7.4450229e-04
 -1.4222005e-02
  9.9030370e-04
 -1.6738062e-01
 -2.4182180e-02
  1.2496522e-02
  2.1840804e-03
  1.0856305e-01
  2.0230883e-01
 -1.8820193e-02
  7.5092904e-02
 -5.2632384e-02
 -1.6952071e-02
  2.6127389e-02
  1.9564280e-01
  3.1801158e-01
 -2.2189088e-02
 -2.4714733e-03
  1.5368613e-02
 -2.2797536e-02
 -3.1974200e-02
 -5.5973488e-03
 -1.0501720e-02
 -1.0691683e-03
  1.9109868e-03
  3.9364021e-02
  7.8566723e-02
  1.0744826e-01
 -1.2552989e-01
  3.4840718e-02
 -2.4448492e-02
  1.7767677e-02
 -6.1575562e-02
 -2.2565968e-02
  7.2315186e-02
  2.2230150e-02
 -8.8029830e-03
  5.7587020e-02
 -1.7014897e-01
 -3.7393175e-02
  5.4791305e-02
 -4.0346935e-02
 -2.0279920e-02
  3.3457674e-02
  8.4771767e-02
  2.6299536e-02
 -1.9079790e-02
 -5.2885924e-02
  1.3821570e-02
  2.5511200e-02
  2.5303556e-02
 -1.6101500e-02
  3.9812379e-02
  5.3640474e-02
  3.8258430e-02
  5.7680871e-02
 -5.8731012e-02
 -6.0185757e-03
  1.2054510e-03
 -2.8037770e-02
  1.3769365e-02
 -1.4204979e-01
  2.1681936e-02
 -1.1078931e-02
  9.9570103e-02
  1.2067110e-02
  1.0273477e-02
  1.3138810e-02
  2.1279501e-02
  3.9834168e-02
  2.1727418e-03
 -5.8705244e-02
  3.5710130e-02
  2.1887023e-02
  2.1676326e-02
 -1.0794793e-02
  9.5151663e-02
 -9.4058570e-03
  1.1195198e-01
  3.2490376e-02
 -4.3368824e-02
 -3.0469999e-02
 -5.7680622e-02
 -8.1300817e-02
 -6.2405330e-01
  1.6460605e-01
 -4.7547594e-01
 -5.5414522e-01
 -7.3432834e-03
 -1.3005145e-01
  1.5736106e-01
  2.8555976e-02
  2.2506987e-01
 -1.3036098e-01
  2.9851893e-02
  1.2386204e-01
  9.7944260e-02
  1.5085426e-02
  3.3529153e-01
  2.0016203e-02
 -2.0758918e-02
 -1.8443938e-02
 -5.8361996e-02
  1.6496207e-03
  3.6328569e-02
 -2.9080236e-02
  6.8174787e-02
 -6.3272797e-02
  4.4418871e-02
  6.9686718e-02
  7.4691840e-02
 -1.3431832e-01
  6.5946385e-02
  3.1096805e-03
  2.5153944e-02
 -9.5281057e-02
 -5.2217480e-02
  7.0517421e-02
 -3.1127393e-02
 -3.6133200e-02
  2.4514044e-02
  8.4236659e-02
 -5.1406503e-02
  7.3631190e-02
  6.9609545e-02
  2.5405409e-02
 -2.0275535e-02
  3.9597109e-02
 -9.3420688e-03
 -1.0167585e-02
 -1.0248942e-02
  2.2328539e-01
 -2.4089064e-02
 -1.9639621e-02
 -6.7468435e-02
  1.8936831e-03
 -4.3630242e-02
 -2.1526609e-03
  2.5570098e-02
  4.9150027e-02
 -2.8155521e-02
 -1.2142512e-01
 -2.5021074e-02
  1.3711716e-02
  3.9883241e-02
  6.3600196e-03
  3.2086216e-02
 -1.3956289e-01
 -1.0109505e-01
  2.0548567e-02
  4.3808118e-02
 -8.0671750e-02
 -6.2440610e-03
 -5.0505646e-02
 -3.1063198e-03
  1.7671771e-02
  1.8676464e-02
  9.7278662e-02
  8.6104013e-03
  2.4712279e-02
  2.8737284e-02
 -8.5202239e-02
 -5.8556691e-02
  6.7569941e-02
 -1.0827300e-03
 -5.4564700e-02
  3.9673876e-02
 -7.6696008e-02
 -4.1087596e-03
 -1.0976192e-01
 -1.3638636e-03
  1.1314064e-01
 -1.0247303e-01
  5.2507728e-02
  2.0002754e-02
 -3.5475459e-02
 -4.6482184e-03
  7.5038709e-02
 -3.6561515e-02
  1.1571719e-02
  2.1645157e-02
  1.4611980e-01
  8.2254529e-02
  3.3488568e-02
  8.9017682e-02
  8.8122249e-02
  7.0084748e-03
  1.9271625e-02
 -1.4941804e-01
  3.6133032e-02
 -5.1654201e-02
 -1.4797087e-01
 -5.9085265e-02
 -1.3321249e-02
 -5.1609285e-02
  5.4583950e-03
  4.6995524e-02
  1.0591641e-01
 -1.4851584e-02
  1.2526704e-02
  3.4344827e-03
  1.6991147e-01
  2.9012047e-02
  4.1932862e-02
  3.4276673e-01
  1.0157248e-01
  1.3125691e-03
  3.1338543e-01
 -8.8136323e-02
  4.0217426e-02
  5.4258746e-03
  1.5949765e-03
 -1.9017993e-01
  1.2877105e-01
 -4.4572353e-02
 -1.6242310e-01
 -5.9260707e-02
  1.5380414e-02
 -1.4628971e-01
  2.0127833e-01
  1.5145978e-02
  2.6970508e-02
  8.2617868e-03
 -9.4677787e-04
  5.4694582e-02
  3.9552194e-03
 -6.6960402e-02
 -4.0064823e-02
 -5.7768621e-03
  5.3407983e-03
 -2.5414942e-02
 -4.5108605e-02
  1.1949861e-01
  3.8553886e-02
  7.5432867e-02
  6.5639265e-02
 -3.9415136e-02
  4.2010929e-02
  1.5005242e-02
  2.6813230e-02
 -6.9571263e-03
 -6.7001112e-02
 -9.7178956e-03
 -5.8513299e-02
 -2.6057592e-02
  8.8533454e-02
  3.6151629e-02
 -3.5040595e-03
  8.0205232e-04
 -1.3208452e-02
  2.3576895e-02
 -2.0901527e-02
  1.4929287e-01
 -4.2175576e-02
  4.0743644e-03
 -5.1918249e-03
 -1.3923338e-01
  7.6077819e-02
 -1.5860710e-02
 -3.6774155e-02
  5.2217498e-02
  1.5643267e-01
  4.1472156e-02
  8.7420098e-02
  4.0249130e-01
 -5.9692427e-03
  1.3612530e-01
  1.1326667e-01
  4.3581780e-02
  1.9950209e-02
  4.2508784e-01
 -1.0406944e-01
 -4.1462876e-02
 -5.6161610e-03
  2.3257340e-01
 -2.3736346e-03
 -8.8331468e-02
 -1.6734524e-01
 -4.9123421e-02
 -2.9483372e-01
  5.6592911e-01
  3.2204129e-02
  5.8189265e-02
 -2.3103323e-02
 -3.7378091e-02
  6.9430202e-02
 -7.2208464e-02
  1.8779196e-02
  1.5387590e-02
  6.3767329e-02
  7.0263916e-01
  2.2820851e-02
 -2.7078016e-02
  2.9886121e-01
 -1.5507632e-02
  4.2047918e-02
 -3.0915779e-01
 -1.0645874e+00
  2.6869416e-02
  1.1976161e+00
  6.2348843e-02
 -6.9059022e-03
  1.7428696e-02
 -1.9592870e-02
 -2.1981519e-01
  1.1826295e-01
  6.2901753e-01
  2.7046362e-02
  2.1490203e-01
 -4.2694769e-04
 -6.9177657e-01
  5.9270661e-04
 -7.8303628e-02
  5.8221232e-02
  4.9466048e-03
 -1.5355347e-02
  1.5456000e-04
 -5.6369741e-02
  8.4666563e-03
  8.0738835e-02
 -4.5178831e-03
 -5.6620236e-02
  2.8205827e-02
  1.8703291e-01
 -5.4375297e-01
  8.1623107e-01
  1.1629977e+00
 -1.2636693e-03
  4.1480646e-02
  1.6374213e-01
  1.1912471e+00
  3.5931826e-01
 -4.6274087e-01
  1.7376544e-01
  3.8118523e-01
 -9.0367913e-02
 -2.5596493e-01
 -2.5959002e-02
  7.7159107e-02
  2.4733740e-01
  9.1833806e-01
 -1.5513737e-01
  4.1698334e-03
 -4.3090535e-03
  4.3000203e-02
  5.6979764e-01
 -6.0819858e-01
 -3.0578880e-02
 -1.0176656e-01
 -4.5878593e-02
  3.9556465e-01
  1.1481296e-01
 -1.8182826e-01
  1.6360044e-01
 -1.4021046e-01
 -2.2074968e-02
 -4.8232102e-04
 -4.8293028e-02
  2.8198617e-02
  9.0956382e-02
 -6.5023758e-02
 -1.3589603e-03
 -2.0970605e-02
 -6.9170959e-02
 -2.0960018e-02
  1.2760435e-02
 -5.4623760e-02
  2.6550642e-03
  2.2614393e-01
 -2.4311697e-02
 -4.8050374e-02
  9.0859532e-02
  4.2821553e-02
 -3.1524278e-02
  1.3513681e-01
 -7.2375964e-03
  4.0356750e-03
 -1.5043430e-03
 -3.1587679e-02
 -4.3394007e-02
 -1.0768254e-02
 -6.6591144e-02
  5.3411942e-02
 -3.4991469e-02
 -3.0373191e-02
  3.3652615e-02
  3.9475679e-02
 -1.5287840e-02
  5.1783856e-02
 -1.5265112e-01
  1.3908294e-01
 -1.0035977e-02
  3.2616165e-02
  5.0014868e-02
  6.2211506e-02
  1.4791596e-01
 -6.3580498e-02
 -6.1662458e-03
  9.4322599e-03
 -7.4627608e-02
 -8.0997664e-03
  3.0856526e-01
  9.9511910e-03
  2.7561052e-02
  2.4812385e-02
 -3.6350388e-02
 -6.9967717e-02
 -9.7318487e-03
  4.3847915e-02
 -2.1891971e-03
  8.1598982e-02
 -7.4334322e-03
 -5.2168049e-02
 -8.7298108e-03
 -3.5424296e-02
  1.1769797e-02
 -1.7060239e-02
  4.8805553e-02
 -4.9152844e-02
  1.2348872e-01
 -1.2461794e-02
  5.6467436e-02
 -1.4536640e-02
  1.1303809e-01
 -9.2508439e-03
  4.1974854e-02
  6.1417180e-03
  5.8342777e-03
 -4.4474702e-02
 -4.8646941e-03
 -2.1804472e-02
  2.7375259e-02
 -7.6710535e-03
 -1.6305018e-02
 -1.3028258e-02
 -1.3218650e-01
 -2.8340460e-03
  2.9528037e-02
 -3.8380042e-02
 -1.7730815e-02
 -7.2072484e-03
 -8.9955471e-02
 -6.3801274e-02
 -2.3969902e-02
 -2.9388794e-03
 -2.0515127e-02
 -3.2324821e-02
 -5.0711129e-02
  4.3965783e-02
  1.2774397e-01
  1.1549365e-01
  2.0983782e-02
 -7.6528668e-02
  1.3770516e-01
 -5.0195850e-02
  4.3647610e-02
 -1.0464291e-01
 -3.8036801e-02
 -1.7839402e-02
 -2.6761027e-02
  6.2748827e-02
 -2.0484811e-02
 -2.2195734e-02
  4.0555865e-02
 -1.8361939e-02
  1.7693415e-02
 -4.3469023e-02
  6.3139804e-02
 -2.7488535e-02
 -2.8056294e-02
 -6.2141097e-03
  1.3049848e-01
  2.4347570e-02
  2.0456275e-01
 -6.8955874e-01
  1.4055301e-02
 -3.5290051e-01
 -7.5016659e-01
  1.5696486e-02
 -8.5001367e-01
 -1.6466524e-01
 -2.5375677e-02
  4.7417140e-01
 -1.2008522e-01
 -1.6225880e-02
 -2.7449620e-01
  4.3048817e-01
  1.1766772e-03
  3.7943459e-01
 -4.7878943e-02
 -1.3149859e-01
  1.3973162e-01
 -4.3794844e-02
 -6.4205468e-02
  1.8844783e-01
 -1.1484257e-01
 -1.6100180e-01
  2.6226783e-02
  2.4344136e-01
  2.2882380e-01
  1.2514667e-01
  5.1537391e-02
  6.9041010e-03
 -2.3388742e-01
 -6.1471182e-01
 -1.3106163e+00
  1.5134016e+00
 -1.7440264e+00
  1.3844146e+00
 -5.4038875e-04
 -9.7285283e-01
  1.5884554e+00
  1.4653503e+00
  3.6580123e-02
  5.0918144e-01
 -4.1123492e-01
  5.4268920e-01
 -9.5315389e-02
 -3.0629272e-02
 -2.4877690e-02
 -1.8182989e+00
 -2.7838296e-01
  3.8802717e-02
 -5.9385693e-01
  2.0372411e-02
 -7.2622234e-01
  3.7746197e-01
 -1.1481767e+00
  1.7315079e-01
 -1.6541297e-02
 -6.8526930e-01
  2.1128862e-01
  4.5698751e-03
  2.1242706e-02
 -7.2540557e-01
 -3.8664088e-02
 -3.4609431e-01
 -1.4691715e-01
 -4.9853407e-02
  1.6066154e-02
 -6.3156977e-02
 -3.8739491e-02
  1.4216872e-01
 -1.1638468e-01
 -2.9061323e-01
 -2.0275624e-01
  2.2025827e-01
 -7.0445128e-02
  6.5516031e-01
  4.9627539e-02
  5.7491004e-01
  1.6865352e-01
 -1.2438391e-01
 -9.7472690e-02
  2.8943282e-01
  5.4696476e-01
  4.1925211e-02
 -5.1038612e-02
  1.4810880e-01
  3.8559228e-02
  2.6665336e-01
 -2.1922154e-02
 -3.1676732e-02
 -5.7743238e-03
  1.5520997e-01
  2.0790424e-02
 -4.2645294e-02
  1.0575742e-01
  5.8565043e-02
  7.2616145e-02
  4.1086212e-02
  6.4076975e-02
  1.3812657e-02
 -1.4646497e-02
 -4.2735143e-03
  1.2136513e-01
 -2.3617638e-02
 -9.5588341e-03
 -1.1609932e-01
  1.9080153e-02
  4.8471841e-01
 -1.7886602e-03
  8.0564514e-02
 -1.3501348e-01
  1.7931784e-02
 -4.9124196e-02
 -1.1962407e-01
  5.9710119e-02
 -3.8538149e-01
 -7.4377112e-02
 -8.9226395e-02
  5.0309222e-02
 -2.3506902e-02
  6.9321711e-03
 -1.1011289e-02
 -8.7866662e-03
  3.2894786e-02
 -6.2163144e-02
 -1.9499412e-02
 -8.6861923e-03
  1.7198740e-01
  4.1023042e-02
 -1.1719044e-01
 -3.4107726e-02
 -1.0297838e-01
  3.7088990e-02
  1.5748833e-01
  3.1877223e-02
  2.9038537e-02
 -1.6685061e-02
 -8.1786690e-03
  1.1620579e-01
  6.3477848e-03
 -4.5666888e-02
 -4.0966462e-02
 -7.7835150e-02
 -4.6451885e-02
  2.7076356e-02
  1.0786401e-02
  1.2538370e-01
  7.5187339e-03
 -2.9674230e-02
  2.0250544e-02
  2.8675204e-02
 -6.8567574e-02
  2.5651397e-02
 -9.0104185e-02
 -3.1405941e-02
 -8.0835102e-03
 -7.3494203e-02
 -3.0104011e-02
 -5.3003680e-02
 -2.2914136e-02
 -5.6153641e-04
 -2.4723317e-02
  1.6148257e-01
  1.5974124e-01
  3.7409436e-02
  5.2328665e-02
  7.9416763e-03
  6.1620012e-02
 -2.9269261e-02
 -4.0319376e-02
 -2.6075342e-03
  1.2944598e-01
  3.5825565e-02
 -2.5316438e-02
 -2.6339933e-02
  9.3850270e-02
 -2.9393621e-02
  4.3282889e-02
  6.2065050e-03
  2.1991421e-02
 -5.1501982e-02
 -5.9078526e-02
 -4.5445208e-02
 -1.0251251e-02
 -2.0929227e-02
  2.1379313e-02
  2.1037007e-02
  7.4352250e-03
  8.2528673e-02
 -2.1658849e-02
 -8.5546011e-03
  1.8656356e-02
  1.8041618e-01
  1.8645116e-03
  4.0863842e-02
 -2.0446116e-02
  3.4451090e-02
  4.2538920e-01
  2.7267153e-03
  1.8676300e-02
 -2.9683000e-01
  1.8972484e-02
  1.8078409e-02
 -1.0077635e-01
  7.1419470e-02
  1.1317213e+00
  1.0411460e+00
  1.5245096e-02
  7.0439003e-02
  4.3336894e-02
 -8.2550216e-01
  1.5186912e-02
 -1.1862642e-02
  6.9780671e-03
 -7.0855387e-02
  2.5864419e-01
  7.6107174e-02
 -4.2123728e-02
 -4.4835743e-01
 -3.2023358e-01
 -9.4656810e-02
 -1.9416749e-01
 -7.2026672e-03
  2.5997765e-02
 -2.9176096e-02
 -1.0778756e-01
  5.5750478e-02
  1.4026673e-02
 -4.2449299e-02
  5.0508082e-03
 -3.5687253e-02
 -1.0195178e-03
  1.3383357e-01
  1.7427862e-01
  4.4719070e-01
  9.2632301e-02
  2.6824877e-01
  7.0428066e-02
 -3.5333084e-03
  9.3827695e-02
  2.2758305e-01
  1.8548897e-02
 -4.5327309e-01
 -5.0515741e-02
 -2.0839861e-01
  4.2215905e+00
  7.0025003e-01
 -4.8997977e-01
  3.7878092e-02
 -2.5803739e-01
  5.3205514e-01
 -2.2269471e-01
  4.7201121e-01
  6.5797007e-01
  1.1767801e-01
 -1.2323358e+00
  1.9671565e+00
  5.8531362e-01
  1.6989227e-01
 -2.4314784e-01
 -1.0111791e-02
  1.3143047e+00
 -3.7026767e-02
 -4.3204237e-02
 -1.1880238e-01
 -5.6792402e-01
  1.6260730e-02
 -5.2348697e-01
  4.8648039e-01
 -1.2820656e+00
  2.2483046e-01
  2.3648249e-01
 -2.1726072e-02
 -1.7053394e-01
  1.5394024e+00
  2.2439606e+00
  8.7461311e-01
 -4.1494820e-01
  6.1048452e-02
  1.6631439e-01
  9.8000741e-01
  1.1032183e-01
  8.0392963e-01
  4.8049638e-01
  4.7716090e-01
  1.6443999e-01
  2.2545710e-01
 -6.2506393e-02
  7.2063737e-02
  1.4479604e-01
  7.6630972e-03
  6.5567799e-02
 -3.3055402e-02
 -3.7478530e-03
  9.6412614e-02
  5.2104550e-03
 -1.7030548e-02
  3.5275597e-02
  1.4095643e-01
 -1.8578837e-02
 -2.6625557e-02
  3.2094288e-01
  1.6296452e-02
 -1.4906822e-01
  1.3562878e-02
 -1.0768174e-01
  6.9796532e-02
 -1.0197287e-01
 -3.8855270e-02
  3.8670920e-02
  2.1255206e-01
 -6.5892399e-03
 -2.8665408e-02
 -3.3747517e-02
  5.6131866e-02
 -7.8118734e-02
 -7.2009824e-03
  9.1369655e-03
  1.8008499e-01
  7.5306095e-02
  3.3328947e-01
  4.0426612e-01
  3.5332289e-02
  6.5537304e-02
  3.3726771e-03
  4.5141965e-02
  2.4476551e-02
 -5.8252256e-02
  2.9269617e-02
  9.2408128e-02
  4.7849068e-01
  1.2691186e-01
 -3.0318331e-02
 -9.5445116e-04
 -1.1935270e-03
 -1.8157382e-01
 -6.2982668e-04
  1.2256648e-01
  6.9272137e-01
 -3.3286390e-01
  1.7749710e-02
 -6.7893900e-02
 -9.5293730e-02
 -4.6087414e-01
 -3.1356537e-03
 -5.7059139e-02
 -3.2242886e-03
  7.8281879e-02
  8.2532364e-01
 -8.5069630e-03
  3.9844982e-02
  1.7090108e-02
  2.1838512e-01
 -1.0145927e-01
  2.9450977e-01
  1.0352407e-01
  1.9508891e-02
  2.5491986e-01
  4.1426741e-02
  2.0021693e-01
  3.2538211e-01
  6.0506612e-01
  5.0913885e-02
 -8.5368074e-02
  5.7966772e-02
  2.4367546e-01
  7.5964212e-02
 -3.4452107e-02
  4.6877295e-02
 -9.7400874e-02
 -2.0939574e-01
 -4.1227501e-02
 -1.0625005e-02
  7.7215848e-03
  4.8912466e-01
  6.9440655e-02
  1.0067923e-01
 -1.6431518e-02
  6.6984214e-02
  5.7421014e-02
 -8.0808803e-02
  1.9918284e-01
  6.1847087e-02
  5.7605967e-02
  7.4281096e-01
  1.2912010e-01
  1.5878567e-03
  7.6943204e-02
  3.3644032e-01
  1.5737947e-02
  2.5297236e-01
  2.4193300e-01
  3.5115615e-01
  6.2588066e-02
  1.1413448e-01
  8.0765858e-02
 -2.7322255e-02
  4.2651199e-02
  1.3647908e+00
 -6.1788899e-01
 -4.2164478e-01
 -7.9405332e-01
  1.8665164e+00
  6.5045342e-02
  7.1241753e-04
  3.1285584e-02
 -1.0493610e-01
  5.8572292e-01
  4.7105244e-01
 -2.6802859e-01
 -8.1236273e-01
  3.8493380e-01
 -1.6836959e-01
 -6.0621272e-03
  6.2863164e-02
 -2.2883841e-01
  1.2123773e-02
  6.3120246e-01
 -3.5040911e-02
  4.4337207e-01
 -1.0885802e-02
  1.9393773e-01
 -3.7717085e-02
  1.2239586e-01
 -2.2114076e-02
  4.9305496e-01
  6.4295359e-02
 -2.6726043e-01
 -5.6716941e-02
 -1.7441455e-01
 -2.0273298e-01
  1.0513111e-01
  3.0148908e-01
 -6.6751802e-01
  1.2857460e+00
 -1.7784976e+00
 -5.9795856e-01
 -1.8344307e+00
  1.3554056e+00
 -1.6399026e-01
 -5.3726055e-02
  1.0658283e-01
 -1.1670439e+00
 -4.5339677e-01
  1.9881591e-02
  2.1095930e-02
 -5.8695018e-01
 -6.4798814e-01
 -4.5538494e-01
 -5.1522418e-04
 -1.2890775e-02
 -2.6330519e-01
  4.2403430e-01
  9.5750012e-02
 -4.1878875e-03
  7.4512184e-01
  4.1340867e-01
 -1.3507684e-02
  5.8656834e-02
  3.0441117e-01
  1.0900760e+00
  7.3226964e-01
 -3.5975355e-01
 -2.7460703e-01
  2.7378967e-01
  3.6689559e-01
 -5.7569936e-02
 -8.1270598e-02
  1.0112214e-02
 -1.7169601e-01
  1.5397738e-01
 -4.6560434e-01
 -1.1490723e-01
 -7.7924585e-01
  5.6348485e-01
 -6.2087841e-02
  1.0662007e-01
 -1.5900138e-01
 -4.0977755e-01
  1.0433025e-01
 -7.7382541e-01
 -1.0738793e-01
 -7.7727491e-01
  2.6303115e-01
  1.8510792e-01
  1.0842020e-02
  3.6462140e-01
 -4.6433502e-01
  4.7496885e-01
 -8.9213520e-01
 -1.6609243e-01
 -4.3075673e-02
  7.0207703e-01
 -7.4241839e-02
  1.7886087e-03
  2.7124191e-02
  4.2921013e-01
  4.9289799e-01
 -7.4222142e-01
 -3.2229123e-01
 -7.3482412e-01
  4.9893370e-01
  1.6644994e-02
 -1.4937893e-02
  3.8990051e-02
 -9.0218849e-02
  2.5724012e-01
 -4.0384823e-01
  3.6107623e-03
  1.2844428e-01
  2.6932481e-01
  6.7099079e-02
  5.4426204e-02
  1.4238593e-01
 -5.9707228e-02
 -1.6526196e+00
  3.1056071e-02
 -4.6520364e-01
  1.0887742e+00
 -2.0145302e+00
 -5.1083092e-02
  8.5868984e-02
 -4.1506103e-01
  6.1750442e-02
 -1.8197803e-01
  1.3289679e+00
  1.3949563e-01
  2.4334533e+00
 -2.3125794e+00
  4.6888962e-01
 -2.8118286e-02
 -5.7835851e-02
 -7.4103765e-02
  4.5097557e-01
 -2.3143454e+00
 -5.9446770e-01
 -1.8751934e+00
  1.0562865e+00
 -5.6085545e-01
  2.8623483e-01
 -9.3362749e-02
  1.0647119e+00
  1.2444047e+00
 -3.0415529e-02
  1.2354302e-01
 -4.4132948e-01
  8.5244125e-01
 -8.5440838e-01
  2.4892828e-01
 -2.2488322e-02
 -4.4865152e-01
 -2.9068635e+00
  2.3560226e+00
  3.5989994e-01
  4.2688441e+00
 -1.8518589e+00
  9.0076369e-01
  7.7846050e-02
  4.9545246e-01
  1.3369867e+00
 -1.2640697e+00
  1.2330765e+00
 -8.5573442e-02
  7.3468864e-01
 -8.4352106e-01
  3.6437064e-01
 -2.0058041e-02
  8.4079757e-02
  4.4861534e-01
 -7.6043069e-02
 -8.2979560e-01
 -8.2438074e-02
 -9.0023339e-02
  1.1706669e+00
  3.1140935e-01
 -8.9626564e-03
  1.5582000e-01
 -5.4522824e-01
  3.5439005e-01
 -1.1616497e+00
  5.8176446e-01
  4.6491092e-03
 -3.8109235e-02
  2.4067473e-01
 -1.4522970e-03
 -1.9585842e-01
  1.3811419e+00
 -1.0173870e+00
  5.9031111e-01
  3.8856858e-01
  8.0081546e-01
 -1.6818938e+00
  1.1925646e+00
 -2.5071081e-02
 -1.5711439e-01
  4.5822689e-01
 -1.0087905e+00
  1.8537422e+00
 -5.3071741e-02
  7.3807263e-01
 -6.6985542e-01
 -2.1083258e-02
  4.1907215e-01
  5.5078441e-01
 -1.7630306e+00
 -1.7883840e-01
  7.2399622e-01
  4.2745899e-02
  1.2206210e+00
  1.0488704e-01
 -2.0080979e-01
  2.2879624e-01
  1.3588266e-01
 -1.0193896e+00
  4.2281663e-01
 -7.3903549e-01
  1.4831625e-01
  1.2324689e-01
  3.4271792e-01
  1.7361511e-01
  6.0819912e-01
 -2.2819114e-01
  5.0991499e-01
 -1.9579494e-01
 -4.4703928e-01
  1.8409342e-01
  7.1086161e-02
  4.8301905e-01
  5.1332921e-01
  3.7745532e-01
  2.9654840e-01
  9.5991957e-01
  8.3710656e-02
  2.7565563e-02
  1.2131608e-02
 -4.2788437e-01
 -7.4502837e-04
  5.9095852e-02
  1.3407704e-01
 -1.5401850e-02
 -2.7552005e-02
 -8.4006697e-02
  2.0932076e-02
 -9.2437714e-01
 -1.2311283e-01
 -2.5328493e-01
  1.9391762e-02
  2.6512113e-03
  9.6344672e-02
  5.5576507e-02
 -8.8187149e-03
 -2.4112005e-02
 -2.2202754e-02
 -7.2309516e-02
  3.4163010e-01
 -2.4683801e-02
  9.9434387e-03
  7.4953921e-03
 -5.5691116e-03
 -2.4141153e-02
 -1.1561394e-01
  3.0125212e-02
 -4.3347728e-01
 -2.3831835e-01
 -3.7394972e-03
 -1.7479983e-01
 -5.0107163e-01
 -5.7956755e-02
 -1.0006838e-01
 -1.9064974e-02
  9.2207955e-04
 -7.2455788e-01
 -4.7671810e-01
  1.7477408e-04
 -4.7720239e-02
  5.4169036e-02
 -3.6157377e-02
  4.4679873e-02
  8.2239546e-02
 -4.9483381e-02
 -1.0611608e+00
  3.8438644e-02
 -2.7401843e-03
 -4.1384716e-02
 -2.3957497e-02
 -1.4776197e-02
  1.8424485e-03
  4.4082295e-02
  9.5979422e-03
 -2.9616901e-01
 -4.3188922e-02
 -1.2330537e-01
  5.7178296e-02
 -2.0575389e-01
 -1.0919214e-02
  4.1833669e-02
  2.1730401e-02
 -1.4905704e-02
 -1.2141814e+00
 -4.9868011e-01
  9.6283890e-03
 -8.0079824e-02
  5.5007976e-02
 -5.7997054e-04
  1.3112003e-02
  6.7674387e-03
  1.8034769e-02
 -7.0579305e-02
  1.6403644e-01
 -5.6076199e-02
  4.4663679e-02
 -1.0412791e-01
 -1.2087233e-01
 -1.4762978e-01
  3.1967568e-03
 -3.3336513e-02
  1.1501964e-01
 -1.3310171e+00
 -8.1123728e-03
  3.3644377e-03
  4.8332632e-04
 -4.6724629e-02
  7.9550974e-02
  2.3512542e-02
 -6.9800399e-02
 -2.2043206e-01
 -1.6969020e-02
  1.7283732e-01
  8.9248247e-04
  1.2982340e-01
 -1.0742442e-02
 -2.2528306e-02
  1.4684550e-01
  1.3850825e-01
 -7.6220328e-01
  1.2853774e+00
  7.4934766e-02
  3.4384876e-02
  6.1539657e-02
 -1.8991132e-01
 -4.0139403e-02
  1.9298747e-02
  8.5968837e-02
 -8.0899142e-02
 -2.6269159e-03
 -8.9545995e-02
  5.0151773e-02
 -1.0428596e-01
 -6.4472556e-02
  1.2413520e-01
 -1.3896930e-01
  8.5562253e-03
 -2.0892970e-01
 -1.5997024e-01
  2.5745445e-01
  6.4399076e-01
 -8.0967253e-01
 -4.5847005e-01
 -4.3755320e-01
  6.9341755e-01
 -1.4859957e-01
  2.2523839e+00
 -9.5921767e-01
  1.5093978e-01
 -3.0934554e-02
  1.5126939e-01
 -9.4743359e-01
  2.3996439e+00
 -1.2867266e+00
 -4.2718279e-01
 -2.5918770e+00
  2.2330155e+00
 -1.0337913e+00
 -1.7962517e-02
 -8.5037750e-01
  1.0668575e+00
 -4.9933338e-01
 -5.2329361e-01
 -8.0205202e-02
 -2.9023528e-01
  5.5295926e-01
  3.6527924e-02
  4.2017630e-01
  7.5956210e-02
  2.4744880e-01
 -1.6438085e+00
  1.5346817e+00
  3.0287129e-01
  1.3679287e+00
 -5.5173564e-01
  5.6942713e-01
 -8.4701339e-03
 -2.5735298e-01
  1.8279353e-01
 -3.6251751e-01
  1.9134508e+00
 -4.7617409e-02
  1.3182071e+00
 -1.5635569e-01
 -2.2462197e-01
  1.4680310e-01
  1.9683109e-03
 -8.0052674e-01
  1.6500349e-01
 -9.1379561e-02
 -1.0508157e-01
 -1.8841181e+00
  5.2723557e-01
 -1.9209155e-01
 -7.0126995e-02
 -2.0284510e-01
  1.4911911e+00
 -4.3943882e-01
  7.2525269e-01
  1.0603483e-01
 -1.8466743e+00
  9.9617946e-01
  2.9043770e-01
  4.0803134e-01
 -3.0718097e-02
 -5.4046661e-01
 -6.9790918e-01
  6.0513830e-01
  5.1144403e-01
  1.7191389e+00
 -4.3012476e-01
  2.3619357e-01
  1.1455996e-01
  8.7537821e-03
 -5.8338594e-01
  8.6643204e-02
  3.6379924e-01
 -4.1993639e-01
  2.3366222e+00
 -1.0172287e+00
 -1.1094799e-01
  2.1551007e-02
  2.2271447e-01
 -2.7794856e-01
  9.8404162e-02
 -1.5713492e-01
 -6.8603575e-01
  4.9343818e-01
 -7.2770923e-01
  1.4610237e-01
  4.7366592e-01
  1.7744981e-02
  4.4266295e-01
 -7.8172959e-02
  3.4256199e-01
 -4.2668242e-02
  2.5566885e-02
 -2.8226712e-01
 -6.0210894e-03
 -7.3538542e-02
  1.0785287e-01
  1.6095629e-01
  2.0374405e-01
 -3.7511963e-01
  3.9171109e-01
  2.6837441e-01
 -1.8660331e-01
 -1.4532109e-02
 -4.7458255e-01
 -5.5217546e-01
  1.5183366e-02
 -1.1032832e+00
  5.3391564e-01
  4.9607512e-01
 -2.3551933e-01
  3.3764232e-02
 -1.1024973e-02
 -3.4624290e-01
  3.1241974e-02
 -1.4527525e+00
 -3.2688961e-03
  3.6954690e-02
  9.2957027e-02
 -2.0524581e-01
  7.5947065e-03
  4.4963833e-02
 -2.6245762e-02
 -8.0080934e-02
 -7.0654601e-02
 -8.3837485e-01
  7.1876362e-02
  1.1973896e-01
  1.2031173e-01
 -1.2305985e-01
 -1.5792992e-02
  5.6466367e-03
  1.7788939e-01
 -6.9512796e-01
 -3.6584806e-01
  4.4966772e-01
  6.5013123e-01
 -6.3596010e-01
  1.1081664e-01
 -1.9173717e-01
 -5.7913029e-01
  3.4582376e-02
 -1.0731671e+00
 -4.2902252e-01
  7.9281038e-01
 -6.7777582e-02
 -3.4903732e-01
 -1.4849544e-01
 -8.3168127e-02
  5.0250307e-02
  1.2880324e-01
  4.2557997e-01
 -6.1226285e-01
 -2.3548260e-01
  4.3209341e-01
  6.3949603e-01
  1.6095862e-01
 -1.2130474e-01
 -2.7545711e-01
 -1.7704571e-02
 -7.5220668e-01
 -3.3431524e-01
  8.3462912e-01
  1.1677363e-01
  2.1819700e-01
  1.2613896e-01
 -4.5424369e-03
 -3.6057320e-01
  1.7008562e-02
 -2.5488567e-01
 -1.6014034e-01
  8.9574054e-02
  1.4808120e-02
 -9.6248543e-01
  7.4338755e-03
 -1.5517254e-01
 -6.7789063e-02
  2.2942859e-01
 -8.0974512e-02
 -5.3491288e-01
 -1.8938009e-01
  9.3436295e-01
 -1.9301000e-01
  7.5058258e-01
 -1.2208329e-03
 -7.8070968e-01
 -1.3263632e-01
 -5.0792092e-01
 -3.8603565e-01
 -1.2087394e-01
 -1.8540183e-01
  1.0013595e-01
 -2.2906674e-02
  1.5282056e-01
  2.2814376e-02
 -6.2388077e-04
  1.2352545e-01
 -3.1882554e-01
  4.3344352e-01
  1.4530066e-01
 -1.5888470e-01
  1.3159002e-01
 -6.6304654e-02
 -4.4598663e-04
  1.3600902e-01
 -1.3601767e-01
 -9.5381284e-01
  3.5890043e-01
  3.3722666e-01
 -5.6950080e-01
  8.0027975e-02
  1.8291056e-02
 -9.7264743e-01
 -2.1294968e-01
 -7.9765713e-01
 -4.4237277e-01
  1.9488807e-01
 -7.5929314e-02
  4.7104177e-01
 -2.6651163e-02
  3.7113618e-02
  1.3482282e-01
  2.4021713e-01
 -3.9915702e-01
 -9.2151970e-02
 -8.6264801e-01
 -1.0405452e+00
  1.8972577e+00
  4.6113190e-01
  9.5518506e-01
 -4.1372363e-02
  3.8325486e-03
  5.1428288e-01
 -2.1601344e-02
 -8.8651098e-02
 -3.5807461e-02
  1.1882676e-01
 -3.6851451e-02
 -8.3429180e-02
  4.3984599e-02
  7.0569001e-02
 -6.3761853e-02
 -4.2183115e-03
 -3.8014647e-01
 -5.7264410e-02
  2.0238807e-02
  2.2017945e-02
  3.3158961e-01
  1.6493442e-02
  1.1569087e-02
  4.1560659e-01
 -7.0233725e-02
 -5.2320987e-01
  3.6338647e-03
  4.2895535e-01
  2.5437820e-01
  5.2375025e-01
 -5.1296299e-04
  9.4392516e-02
  1.6301687e-01
 -6.8597293e-01
 -3.1335343e-02
 -1.6383139e-02
  2.1169199e-01
 -8.0120802e-02
 -5.9177377e-04
 -5.9309840e-02
 -2.7299596e-02
  6.3565314e-02
 -3.4059081e-02
 -4.5130521e-01
 -1.2252400e+00
 -4.5935452e-01
  4.6076559e-02
  3.7811434e-01
  3.5440385e-02
 -8.2416788e-02
  4.0874429e-02
 -1.5412813e-01
 -9.5626181e-01
 -3.8589485e-02
  6.3235277e-01
  2.7888471e-02
  2.1416713e-01
 -4.5322023e-02
 -4.2600837e-02
  3.3794749e-01
  1.6378981e-01
  1.8490998e-01
 -5.3003001e-01
 -2.0237699e-01
 -3.4205341e-01
  9.3521103e-02
  1.2433715e-02
 -5.4646847e-03
  4.0068832e-01
 -7.4890427e-02
 -2.6802926e-03
 -1.7253283e-01
 -1.5223208e-01
  2.4076877e-02
  8.8065267e-01
 -5.9789442e-02
  1.5210706e-01
  1.3153154e-01
  1.1587556e-02
 -9.1000533e-01
  4.2272776e-02
  7.7932644e-01
  2.1328051e-01
  4.1073516e-02
  4.6763536e-02
 -2.0211017e-02
  4.7566324e-01
  3.8734101e-02
 -6.0399878e-01
 -1.2659023e+00
  7.6669055e-01
  6.2587215e-03
  4.4182047e-01
 -3.6685072e-02
  8.6256593e-02
 -3.4396481e-02
 -5.1322097e-01
  6.7321223e-01
 -1.9843474e-01
  4.4603985e-02
  5.6698197e-01
  1.1976036e+00
 -4.0971607e-02
 -6.5584883e-02
  7.9862136e-01
  4.8837066e-02
  5.8390200e-02
 -5.8705449e-01
  9.9004194e-02
  1.0723601e-01
  2.0213284e-01
  1.1737046e-02
  9.2016757e-02
 -1.9665373e-02
  1.8395256e-01
  8.0692297e-01
 -1.0711353e+00
 -1.2465923e+00
 -1.2861516e-01
 -5.4586303e-01
 -7.0251745e-01
  7.6396656e-01
 -1.2417287e-01
 -9.8864287e-03
 -7.1913764e-02
 -3.1046385e-02
 -6.5812606e-01
 -1.2066804e-01
 -3.7283650e-01
  1.6047712e-02
  3.2685637e-03
 -9.9316977e-02
  2.5957343e-01
  2.9407158e-01
 -8.7378305e-01
  2.8603935e+00
  3.3760500e-01
  3.3752415e-01
 -3.9202669e-01
  3.5122642e-01
  1.3241323e-02
 -1.5536143e-01
  4.1370917e-02
 -6.5178764e-01
 -1.8322458e+00
  6.5371066e-01
 -1.4968097e+00
 -1.9027953e-01
 -2.9128937e-03
 -6.1721885e-01
  9.2130356e-02
  3.2562792e-01
  9.3493946e-02
 -4.3332756e-01
  2.0622818e-02
  6.6469264e-01
 -5.4168083e-02
  3.1817418e-01
  4.2250443e-01
 -8.9744389e-02
 -7.9024702e-02
 -1.2591444e+00
 -9.5925525e-02
  8.4113336e-01
 -4.9288693e-01
 -2.5000679e-01
  5.5209070e-01
 -4.4853064e-01
  8.7085903e-02
 -1.9471451e+00
 -3.2508928e-01
 -5.3821069e-01
 -4.1547972e-01
 -1.2732203e+00
 -1.9344810e-01
  1.4641221e-02
  3.2968957e-03
  6.0773575e-01
 -2.8753242e-01
 -3.0302653e-01
 -1.4925279e-01
 -3.9684647e-01
  4.9064919e-01
 -3.9329177e-01
  3.3392173e-01
 -7.5983047e-03
  4.0755755e-01
  5.9390283e-01
 -1.2700585e+00
 -3.0370522e-01
  9.1131741e-01
 -4.5636418e-01
 -1.6956607e-01
  1.5510756e-01
 -2.6249775e-01
  1.3664755e+00
  7.0657146e-01
  1.0719953e-01
 -1.2906102e+00
  5.4685861e-01
 -2.7899420e-01
 -7.0535548e-02
  3.6074597e-02
  1.8310921e-01
  2.4777910e-01
 -1.0402483e+00
 -1.0691787e+00
 -1.0010581e+00
 -3.0695137e-01
  4.9083084e-01
 -3.7215823e-01
  4.5451257e-01
 -5.2878606e-01
 -3.5763040e-02
 -8.5840517e-01
 -1.2705843e+00
 -3.0875793e-01
 -3.4416234e-01
 -7.9726386e-01
 -1.3005646e-01
  6.7271113e-01
 -2.9797444e-01
 -2.5999302e-01
 -4.6013665e-01
 -6.0808454e-02
  2.8459594e-01
 -1.2639562e-02
 -8.9900440e-01
 -3.6961028e-01
  6.7730837e-02
  2.3237830e-01
 -1.8130344e-01
  5.2056456e-01
 -7.0869750e-01
  6.7766213e-01
 -1.3717990e+00
 -4.6475649e-01
 -1.5943538e-01
 -1.0411217e+00
  9.0571851e-01
 -3.7680645e-02
  2.4718720e-01
 -6.0660824e-02
  2.2868817e-01
 -7.5300425e-02
 -1.3123720e-02
 -3.4671899e-02
 -1.3030848e-01
  6.4007640e-02
 -1.7514803e-01
 -2.3429294e-01
  7.7870116e-04
 -5.5563420e-02
  6.4103700e-02
  3.1907998e-02
 -3.0841639e-02
  2.9854117e-02
  1.2713444e-01
 -8.9645183e-01
  9.8445356e-01
 -7.1189272e-01
  3.7237325e-01
 -4.2343676e-01
 -1.2226732e-01
  3.4061135e-03
 -9.3848240e-01
  4.9374938e-01
  2.3796362e-01
  4.5256627e-01
 -7.3144436e-02
  1.4918282e+00
  1.8068628e-01
  5.3055689e-02
 -4.4448774e-02
  4.2449322e-01
 -1.4370719e-01
 -1.0608119e+00
 -3.5908180e-01
 -7.5567955e-01
  4.8725790e-01
 -1.4752751e-02
 -4.1351948e-02
  9.5620044e-03
 -9.2010453e-02
  3.0014810e-01
 -4.5677537e-01
  7.2173452e-01
 -1.3861351e-01
  6.7828608e-01
 -3.3858570e-01
 -1.7743818e-02
 -1.8219140e-01
 -6.1832243e-01
  1.1421007e+00
 -6.5354943e-02
  6.4913398e-01
 -2.0536555e-02
  5.1598549e-01
  5.2794087e-01
 -1.4290585e-01
 -7.8233920e-02
  9.9802345e-02
 -1.0914760e+00
 -4.9391258e-01
  4.3574387e-01
 -5.2373129e-01
  5.7726806e-01
 -1.4820367e+00
 -1.6611408e-02
 -1.9067641e-01
 -2.1573228e-01
  9.9342698e-01
 -9.9243116e-01
  5.3825863e-03
 -5.3599022e-02
 -2.0997864e-01
 -3.1582892e-01
 -3.3314171e-01
 -1.4198501e-01
 -2.7857506e-01
  3.5653383e-01
 -9.7382110e-01
 -1.7705696e-02
 -2.4411276e-01
 -2.4441898e-01
 -1.4285659e-03
  3.0211160e-02
  3.9775658e-02
 -1.7091096e-04
  5.9242749e-01
 -1.1965017e+00
 -1.7674518e-01
 -3.2242975e-01
  1.3463372e-01
 -6.6254896e-01
 -3.9560579e-02
 -1.9823034e-01
 -3.1016341e-01
  7.7737325e-01
  6.6143148e-02
 -1.1017940e-01
  4.2149504e-03
 -1.6091271e-01
 -9.0309620e-01
  5.8102835e-02
 -4.9371514e-02
 -1.8264039e-01
  5.4148740e-01
 -2.0884944e-01
  3.0131933e-01
 -1.2579698e-02
 -2.2827610e-02
  4.2916115e-02
 -5.7441689e-02
  1.4590288e+00
  6.9707936e-01
  2.2458604e-02
  4.1779548e-02
 -2.9446152e-01
  4.5470979e-02
 -1.3716089e-02
  1.9884447e-02
  1.9112887e-03
  3.0475045e-02
  4.3140408e-02
  2.7475808e-02
 -1.3106317e-02
  1.3335510e+00
 -4.1880094e-02
 -4.6036839e-01
  1.9631585e-01
  3.9344057e-03
  4.1985866e-01
  7.5742329e-04
  3.7568834e-01
 -1.7145401e-01
 -5.0211173e-01
 -3.0700055e-01
  7.6683873e-01
 -2.1404065e-02
 -4.2897094e-02
  6.5524125e-01
  9.7664845e-01
  5.0205649e-03
 -5.9289463e-02
  4.1543014e-02
 -1.0966446e-01
  2.3676862e-01
  8.2507348e-01
  5.5108316e-02
 -7.7779242e-03
  1.3205792e-01
  1.8371443e-01
 -8.8258594e-01
  1.9230852e-01
 -1.5146014e-01
 -1.2394831e+00
  4.2938057e-01
 -2.4037281e-01
  1.2419978e+00
  6.4553207e-01
  7.2430626e-02
 -1.8853400e-02
 -1.3934761e-01
 -2.7383558e-02
  3.6825296e-01
  6.8578804e-01
  3.3880460e-01
  5.6303650e-01
  8.0411756e-01
 -1.6407290e-02
  3.4621540e-01
 -9.9967414e-01
 -2.9333159e-02
  1.3761908e-01
  2.5619483e-02
 -1.4142045e-01
  4.6498273e-02
  2.8300786e-02
  6.9636747e-02
 -1.4567624e-01
  3.5577577e-01
 -3.9175682e-02
 -7.9966986e-01
  8.2458484e-01
  3.1389259e-02
  1.0461556e+00
  5.9885842e-01
  4.5455478e-02
 -5.8393277e-02
  4.2464876e-01
  6.2664784e-04
 -4.4437310e-01
  4.2803657e-01
  2.2094430e-01
  3.8104642e-02
  2.7372652e-01
  6.1516486e-02
  3.2268511e-03
 -2.0660134e-01
 -4.8182401e-01
  3.2653153e-01
 -2.7141707e-02
 -5.1798010e-01
  3.8498786e-01
  2.0946161e-01
  3.1359703e-03
  1.9949848e-02
 -6.9415420e-01
  7.6908227e-03
  2.4952951e-01
 -4.5465879e-02
  2.4608845e-01
  6.8182415e-01
  2.7250218e-01
  3.0915082e-01
 -2.0373791e-01
 -3.8131449e-02
 -4.1768846e-01
 -2.3675147e-01
  1.5501678e-01
 -7.1103829e-03
  6.9395304e-02
  4.1837588e-01
  1.1434328e-01
  6.6908458e-03
  6.6908458e-03
  6.6908458e-03
  6.6908458e-03
  6.6908458e-03
  4.4584941e-02
  4.4584941e-02
  4.4584941e-02
  4.4584941e-02
  4.4584941e-02
  3.9796297e-02
  3.9796297e-02
  3.9796297e-02
  3.9796297e-02
  3.9796297e-02
  1.5568715e-02
  1.5568715e-02
  1.5568715e-02
  1.5568715e-02
  1.5568715e-02
  6.2528341e-03
  6.2528341e-03
  6.2528341e-03
  6.2528341e-03
  6.2528341e-03
  2.3872331e-02
  2.3872331e-02
  2.3872331e-02
  2.3872331e-02
  2.3872331e-02
