nep3 3 Ga O Au 
cutoff 8 4 157 28
n_max 4 4
basis_size 12 12
l_max 4 2 0
ANN 50 0
 -2.3790732e-02
 -7.4310392e-02
 -7.9417497e-02
  1.2778642e-02
  1.0222597e-02
  1.8123452e-02
  2.1338869e-02
 -7.9960263e-01
  2.4366407e-02
 -6.9216043e-02
 -5.1682789e-02
 -2.8799474e-04
 -2.4762111e-02
 -9.5179811e-02
 -3.3903420e-02
 -8.7522022e-02
 -4.3600924e-02
 -5.2641477e-02
  5.0764505e-02
 -8.8937648e-02
  1.0654918e-01
  2.5963545e-01
  5.9512328e-02
  8.7531224e-02
  4.3590125e-02
  6.1052470e-03
 -4.5014776e-02
  4.0397245e-02
  1.4200346e-02
 -1.0546568e-01
  1.2514710e-01
  5.5595227e-02
 -1.1155362e-01
  3.6359847e-01
  2.8711060e-01
  1.0152406e-01
 -1.6563712e-01
  9.8765470e-02
  6.6229507e-02
 -5.6055106e-02
 -2.9773784e-01
 -1.7945236e-02
 -1.4368291e-01
 -1.0768869e-01
 -9.3295321e-02
  5.0795071e-02
  2.6318967e-01
  1.1018293e-01
 -7.7490970e-02
  1.7760441e-02
 -1.1795556e-01
  8.4889028e-03
 -5.6647304e-02
 -1.5847884e-01
  3.1299382e-02
  1.6355693e-02
  6.0052954e-02
 -4.6123896e-02
 -1.0952233e-01
  1.5787158e-02
  3.6227047e-02
 -3.7470669e-04
  4.2844176e-02
  7.4485771e-02
 -2.1134019e-02
 -3.5820936e-03
  4.6397582e-02
 -7.8568988e-02
  1.9959807e-02
  9.3650967e-02
 -6.1626427e-02
 -3.0513624e-02
 -9.9546919e-03
  3.4413397e-02
  1.8029395e-01
 -1.7049624e-02
  1.3885874e-01
 -2.0927886e-02
 -3.0491294e-02
 -3.2098945e-02
 -4.1043725e-02
 -6.0365520e-02
  2.7582126e-02
 -8.8065386e-02
 -1.5092583e-01
  2.7732346e-02
  5.3673204e-02
  5.1311377e-02
  1.8532345e-01
  6.5896600e-02
  2.0603949e-01
  4.8581041e-02
  2.5777051e-02
  3.2061264e-02
 -1.9579023e-01
  1.7033139e-02
  3.9713889e-02
 -4.1283205e-02
 -1.7913070e-01
 -8.4989019e-02
  6.0672298e-02
 -2.0792289e-01
 -1.2153163e-01
  1.1606246e-01
 -1.7329566e-01
  1.7397320e-02
 -1.9680202e-01
  4.0867272e-01
  4.6876714e-02
  1.1126407e-02
  2.7464062e-02
 -4.7523651e-02
  5.4364644e-02
 -1.8607751e-01
  6.7443877e-02
  1.6998513e-02
  3.2732524e-02
  1.1938572e-01
  1.0125877e-01
  9.2981249e-02
  2.4624705e-02
 -9.5481133e-01
  5.0907414e-03
  3.3725739e-02
 -6.9676958e-02
  5.4092623e-02
 -2.0299239e-01
 -4.1044351e-01
  6.6110387e-02
  1.9491518e-01
 -1.1255269e-01
 -2.1246675e-01
 -3.1844284e-02
  5.3869277e-02
 -9.4971530e-02
  2.8905465e-04
 -7.8864411e-02
 -1.1281852e+00
  1.5708948e-02
 -1.2698171e-01
 -1.9511908e-01
 -2.5550032e-01
  9.1442745e-03
 -4.7536470e-02
 -2.1745217e-01
  3.1609520e-02
 -7.6836288e-02
  3.3856028e-01
 -2.3310820e-02
 -2.9995672e-02
 -1.2680805e-01
  4.7784328e-02
 -2.7436662e-01
 -2.9222298e-02
 -2.8864350e-03
 -1.6934056e-02
 -1.3732074e-01
  1.5534484e-01
 -5.0214704e-02
  8.5391723e-02
  1.5585124e-04
 -7.8202099e-02
  4.8572518e-02
  3.3909082e-03
  6.9270156e-02
  1.8463366e-02
  2.8240962e-02
  1.1939587e-01
  6.3148230e-02
  6.7993917e-02
  8.6188585e-02
 -1.7982379e-02
 -1.0547082e-01
 -6.2074777e-02
 -2.8251316e-02
 -4.7670854e-03
 -3.6815148e-02
 -4.7865012e-03
  3.0955782e-02
 -5.1059641e-02
 -1.6858956e-02
 -2.6601726e-01
 -2.2634231e-03
 -3.8455173e-03
  1.0251512e-02
 -4.6191804e-02
  1.0320809e-01
 -1.1155814e+00
  8.1950903e-02
  8.8533580e-02
  5.1432990e-02
 -2.7013558e-01
  5.3316560e-03
  2.2349268e-01
  4.7005013e-02
  8.3080582e-02
 -3.0168477e-01
 -3.5488990e-03
  2.3519155e-01
 -2.0814057e-02
  5.9118766e-02
  5.4327957e-02
  1.3827352e-02
 -2.3050674e-03
  1.4982185e-01
  1.0711948e-01
  6.6758335e-02
  7.3465340e-02
 -8.3708100e-02
 -4.3893564e-02
  1.3397325e-02
  2.8756481e-02
  1.1136897e-01
  5.1324539e-02
  1.2563102e-01
 -1.1040941e-02
 -4.0425158e-01
  7.9094423e-03
 -1.8118979e-02
  9.9553470e-04
  9.6049786e-02
 -2.8635532e-02
 -1.5347585e-01
  2.5072692e-02
  1.3639313e-01
 -1.6772537e-02
  1.7667270e-01
 -1.6086981e-02
 -4.0316302e-02
  5.5290248e-02
  7.9473287e-02
 -5.0556518e-02
  3.5235137e-02
  5.0584290e-02
  2.0938030e-02
 -2.6941424e-02
 -6.8640433e-02
 -3.4139583e-01
 -4.7684148e-02
 -1.0314231e-02
 -7.7906316e-03
  2.7855050e-02
  1.0704017e-01
  8.0828875e-02
 -1.9569820e-02
  8.5722409e-02
 -7.9578329e-03
 -5.7650138e-02
 -2.0702735e-02
 -4.3848241e-03
 -1.3005638e-02
  4.0497825e-02
 -3.9427381e-02
  2.1290904e-01
 -2.6952127e-01
  5.6841213e-02
  8.6700350e-02
 -1.9712033e-02
 -5.5472031e-03
 -1.7141181e-01
  5.1104795e-02
  2.9215006e-02
  8.9191601e-02
  5.0204217e-02
 -6.8337627e-02
 -4.7198370e-02
  6.3679047e-02
  7.2735377e-02
 -5.5446994e-02
  2.5801597e-02
  9.3755033e-03
 -1.7713133e-02
 -4.2605117e-02
 -5.5338304e-02
  2.0331845e-02
  2.0278661e-01
 -2.1696545e-02
  1.1347996e-01
 -6.7400686e-02
  1.4957251e-01
 -5.4232702e-02
  1.0234882e-01
 -9.5012104e-03
 -4.9049214e-02
 -1.0968211e-02
 -1.0341154e-01
  1.7569748e-01
  2.4574105e-01
  1.3028809e-01
 -3.4590419e-02
 -9.5713802e-02
 -7.3877466e-03
 -1.2284746e+00
 -1.3000136e-02
  8.1597567e-02
  4.5513036e-03
 -1.4548257e-01
 -1.4601290e-02
  1.1264384e-02
 -1.1225563e-02
  3.1063234e-02
  1.3664096e-02
  9.5743816e-03
  6.8682348e-03
 -6.3516505e-02
  7.8661688e-02
  1.2171445e-01
 -2.3604404e-02
 -7.0494949e-03
  2.4772843e-02
 -4.7632366e-02
 -2.4397891e-02
 -1.4404044e-01
  6.7869760e-02
  4.5212416e-04
  8.0504723e-02
 -5.8109578e-02
  3.8667026e-01
 -8.7162249e-02
 -1.0023532e-02
  4.2213231e-02
  7.3095359e-02
 -8.3677545e-02
  3.4911465e-02
 -6.5045357e-02
 -4.9680635e-02
  1.0565521e-01
  1.5647918e-01
 -1.7871805e-01
  8.8862702e-02
  1.4393320e-02
 -9.7580049e-03
 -1.7511509e-03
  1.0551896e-01
 -8.2311645e-02
  2.6902355e-02
  1.0312381e-01
  2.4560656e-02
 -2.9148512e-02
  2.7457166e-02
  8.8075601e-02
  5.6809183e-02
  9.3118340e-02
 -3.3846784e-02
 -2.4186667e-02
  8.9890704e-02
 -3.3191860e-02
 -4.0965562e-04
  1.9077417e-03
  3.0046737e-02
 -5.6265075e-02
 -3.8525485e-02
  1.1173811e-01
 -2.9488653e-04
  2.2060027e-02
  3.0180728e-03
 -8.6262308e-02
 -8.3077580e-02
  3.3043195e-02
 -3.7926668e-03
 -3.2052647e-02
  7.4894994e-02
  3.2854144e-02
  3.1418305e-02
  3.2700524e-01
 -6.6908095e-03
  1.3232266e-02
  5.7475436e-03
 -2.1705423e-01
 -1.2043576e-01
 -4.4353567e-03
  7.1823680e-01
 -6.0607594e-02
 -2.8397509e-01
 -8.2715742e-02
 -2.2588460e-01
 -7.7410594e-02
  2.4831207e-02
 -1.5987909e-01
  1.6393295e-01
 -7.2894871e-02
 -1.4058121e-02
 -1.8322042e-01
 -1.1530768e-01
 -9.4796624e-03
 -3.1224407e-02
  3.8214426e-02
 -7.9078317e-02
 -9.6514776e-02
 -6.2250849e-02
 -1.7187977e-01
  3.2889739e-02
  3.5116218e-02
 -4.7683716e-04
 -6.4772904e-02
 -1.2864094e-02
  2.7677570e-02
 -1.3215953e-01
  1.2654873e-02
  5.8612347e-02
  3.3060536e-02
  9.7975813e-02
 -1.0415812e-03
  4.4433933e-02
  1.8025456e-02
 -2.2243608e-03
 -1.6083517e-03
 -4.2332932e-01
 -1.1952174e-01
  3.4539599e-02
 -2.1436124e-01
  6.4670920e-02
  3.5214979e-02
 -2.1061730e-02
 -3.2756176e-02
 -1.1663984e-01
 -6.0678788e-02
 -4.6030268e-02
 -6.2137842e-05
  5.5077989e-02
 -6.4860724e-02
  1.8617028e-01
  9.2562079e-02
 -3.1914003e-02
 -2.0267211e-02
 -5.5203177e-02
  8.4757909e-02
 -1.9795817e-01
 -3.7900068e-02
  8.7579966e-02
 -5.1711695e-03
 -1.0509256e-01
  2.4459176e-02
 -5.7673029e-04
 -4.4591941e-02
 -1.2566133e-01
  6.3269106e-03
  1.7386536e-01
 -4.2567711e-02
 -4.7737192e-03
 -1.2387971e-02
 -1.1036801e-01
 -4.4094205e-02
  3.6042659e-03
 -1.4448471e-01
 -5.1060215e-02
 -1.0166471e-01
 -3.4220673e-02
 -1.2403242e-01
  7.8735076e-02
 -1.6937040e-01
  2.4760199e+00
 -5.1498470e+00
 -5.4423493e-01
 -4.0279021e+00
  3.3754611e-01
  2.1313696e+00
 -1.6832235e+00
 -1.4391918e+00
  8.0885130e-01
 -1.2515610e+00
  6.0613656e-01
 -1.1913936e+00
 -6.1259810e-02
  2.7229977e-01
 -1.8247982e+00
  1.6563462e-01
 -1.5871440e+00
  6.9558102e-01
 -4.8180738e-01
 -6.6744745e-01
 -1.1491940e+00
 -1.4799416e+00
  1.3071085e+00
  2.5945246e-01
  7.7559464e-02
 -8.5851943e-01
 -2.5017001e-02
 -1.7257277e-02
 -3.4796581e-02
 -3.9754227e-02
 -8.3287150e-01
  1.4054544e-01
 -8.9331633e-01
 -4.1715676e-01
 -9.5399141e-02
 -6.4617300e-01
  2.4321572e-01
 -9.1642961e-02
  2.0490187e-01
  2.3738623e-02
 -2.2140326e-01
 -1.4666137e-01
 -4.9509745e-02
 -7.5208090e-02
  8.9297086e-02
  4.5778757e-04
  5.1878381e-01
 -2.1090566e-01
 -2.7936818e-02
  3.0838549e-01
  1.7436031e-02
  3.2472861e-01
  1.8323744e-02
 -5.3297430e-02
  7.7786252e-02
  1.0880874e-01
  8.7389000e-02
 -3.4508150e-02
 -1.2987110e-01
  1.7864402e-02
  1.0676349e-01
 -1.5021221e-01
  6.9694951e-02
 -1.2594324e-02
  4.9684796e-02
  1.8216914e-01
 -6.5295622e-02
  2.5402224e-01
  1.5190957e-01
  2.3101605e-01
  1.1910589e+00
  9.0179831e-01
  7.0651963e-02
 -3.0273218e-03
 -4.6750136e-02
 -3.0648434e-01
 -3.4345105e-02
 -5.2880552e-03
  1.3914658e-02
  3.8593445e-02
 -5.1665539e-01
  8.6910166e-02
 -1.8987034e-01
  1.4672980e-01
  1.5475443e-03
 -1.9055554e-01
 -4.3579930e-01
  1.8138246e-01
  1.3596109e-02
 -6.8515572e-03
 -1.8073801e-02
  2.3255706e-02
 -2.0389836e-02
 -1.1842305e-02
 -8.6389318e-02
  8.4116328e-01
  1.4852937e-03
 -9.6590303e-02
 -3.1129338e-02
  3.3393070e-02
  1.4650655e-01
 -2.0593340e-03
 -8.6732224e-02
 -1.6453594e-01
 -3.5839267e-02
  1.0115894e-02
 -1.1657676e-02
  8.0765247e-02
  3.3720903e-02
  4.3299548e-02
  5.5215683e-02
  6.3864909e-02
 -3.0765325e-02
 -2.1724932e-02
 -1.1919171e-01
  7.6278575e-02
 -1.2314715e-02
 -4.5874842e-02
  1.4313090e-01
 -1.3196971e-02
 -1.9450158e-02
  2.1889888e-02
  2.0531818e-01
  1.3560577e-01
  6.4039938e-02
 -2.2958681e-02
 -4.4969678e-02
  1.9585453e-01
 -1.5722919e-01
  1.2551795e-01
  1.7819557e-01
 -2.6811482e-02
 -2.1726407e-01
  6.2729083e-02
 -3.5793006e-01
  5.0042188e-01
  3.7600920e-02
 -4.0696546e-01
 -4.9499650e-02
 -4.7132969e-02
  1.0465956e-01
 -7.4328203e-03
 -2.6575549e-02
  1.3800350e-01
  5.3694874e-02
 -2.2983718e-01
  1.9976661e-02
  1.5036444e-01
 -2.9406881e-02
 -1.1766169e-02
 -1.3016421e-01
  2.9209394e-02
 -1.0528307e-02
 -2.3247941e-01
  1.7983027e-01
 -2.1235335e+00
  4.1381918e-02
 -7.6592922e-02
  1.0809108e-02
 -2.7011037e-01
 -1.3161530e-01
  3.4150898e-01
 -2.1799110e-02
  2.6397953e-02
  8.4250905e-02
  3.3084359e-02
  2.1528162e-01
 -1.3847400e-02
 -1.0295118e-01
  8.9053527e-02
  1.2161634e-01
  7.1103555e-01
  2.1580497e-02
  9.4926834e-02
  7.1442961e-03
  2.1037602e-01
 -4.6187872e-01
 -3.7496738e-02
  4.8006337e-02
 -7.8101158e-02
  1.8454880e-01
 -1.4251876e-01
  4.0977713e-02
 -8.8987373e-02
  2.5323266e-02
  5.8746152e-03
 -1.6495278e-01
  5.3701766e-02
  5.0374791e-03
 -3.3727784e-02
  4.6673324e-02
 -2.0567337e-03
  4.3839149e-02
 -2.9692881e-02
  1.9203220e-04
  2.3495632e-01
 -1.9756366e-02
 -7.6502517e-02
  1.5156691e-01
  9.5700324e-02
 -2.6725182e-01
 -7.2216682e-02
  5.4074578e-02
 -1.6238488e-01
 -1.7142251e-02
  1.1444115e-02
  6.7070471e-03
  1.2610325e-01
  1.0179077e-02
  1.8651905e-02
 -9.8517120e-01
 -4.3490812e-02
  2.8645816e-01
 -1.7471451e-01
 -6.5327771e-02
  6.8456039e-02
 -5.2800607e-02
 -4.0403932e-02
  9.6523605e-02
 -1.1494607e-01
  5.9331042e-01
  3.6466826e-02
  2.0628928e-01
 -2.7636221e-02
  4.8307739e-02
 -3.6583338e-02
 -5.1351601e-01
 -4.0928349e-03
 -1.1231459e-01
 -2.3950848e-01
  9.6939178e-03
  1.3604879e-01
 -1.2456451e-01
  2.2681537e-01
 -4.7368534e-02
 -6.4530969e-02
  2.1657322e-01
  3.9155796e-02
  1.1153286e-01
  6.0676798e-02
 -6.0865927e-01
 -2.0742698e-02
 -3.8747404e-02
 -5.6569922e-01
 -9.3161846e-03
 -1.6738016e-02
 -1.9350739e-01
 -6.4388044e-02
 -9.0825893e-03
 -1.0009766e-01
 -3.3932725e-01
 -1.0203533e-01
  2.3779094e-01
 -2.7990406e-02
  6.8498582e-02
 -1.8708119e-01
 -5.9143841e-01
 -1.2262730e-01
  2.2628788e-02
 -1.6420025e-02
  6.1723064e-03
 -6.0266060e-01
 -4.9124290e-03
 -6.3530594e-02
 -9.1223106e-02
  2.8821418e-02
  1.5383469e-01
 -2.0884259e-01
 -8.0836669e-02
 -8.4840611e-02
  6.7458160e-02
 -1.2647444e-02
  2.3386410e-01
 -8.9923501e-02
  2.4582490e-02
 -1.4677589e-02
  2.0682136e-02
  5.1583219e-02
  3.1909164e-02
 -7.3657562e-03
 -7.0986710e-02
  3.0537903e-02
  3.2491509e-02
 -4.3428894e-02
 -5.4729436e-02
 -1.5201595e-02
  6.0862456e-02
 -1.8079881e-02
  5.6738120e-02
  2.6592031e-02
  1.5781371e-02
  7.4877799e-02
  7.5393957e-01
  2.3214623e-02
 -4.1918151e-02
 -5.5998228e-02
  6.4219646e-03
  3.4932721e-01
  3.6599498e-02
  3.4883812e-01
  6.2125939e-01
  6.0976005e-01
 -1.1453403e-01
  1.9388573e-01
 -2.0470092e-01
  1.6928310e+00
  1.4313362e+00
  1.3508467e-02
 -1.0048212e-02
 -2.6145756e-01
 -1.6215457e-01
 -3.5214175e-02
 -6.7368217e-02
 -1.2815550e-03
  6.5455446e-03
 -7.0275253e-01
 -1.1637437e+00
 -2.3040576e-01
  1.0743779e-01
  5.2791443e-02
  2.7700666e-01
  8.4401369e-03
  8.8659805e-01
  1.1144416e-02
 -2.1921680e-03
 -2.7773017e-01
 -4.7705868e-01
  5.2623309e-02
  1.1642706e-02
  1.7083843e+00
 -1.9330211e+00
  1.0726465e+00
  3.0890676e-01
 -8.0899370e-01
  7.7066255e-01
  1.2128968e-02
  4.8262545e-01
  9.5559722e-01
  1.0188880e+00
  1.4752023e-01
  2.6062861e-01
 -1.4970341e-01
  9.6398896e-01
  8.5513431e-01
  1.2799425e+00
 -4.0114588e-01
  5.6413078e-01
  7.7833885e-01
  3.0974594e-01
  2.5990647e-01
  9.0809196e-02
  5.2006340e-01
  3.8874888e-01
 -4.0473513e-02
  1.8654494e-01
  5.8075500e-01
  2.1571735e-01
  4.3171942e-02
  1.4831373e-01
  1.5058035e-03
 -5.4549605e-01
  2.5407702e-02
 -1.4183339e-01
 -5.2478325e-01
 -1.4515975e-01
 -1.1961661e-01
  1.2973329e-01
 -9.1526762e-02
  1.8781097e-01
 -2.0007990e-02
 -5.3030616e-01
  3.6175746e-01
  1.5075203e-02
  1.1678654e-02
  4.5079103e-01
  2.5288245e-02
  8.3367252e-01
  2.7615404e-01
 -4.8193629e-03
 -1.1436957e-01
  5.5519637e-02
 -1.5131336e-02
 -1.8153641e-01
  5.1191594e-02
  6.4947054e-02
 -4.4613894e-02
 -9.0290926e-02
  7.9633456e-01
  1.7119825e-02
  1.5664864e-02
  2.2526046e-02
  9.9815205e-02
 -2.0436719e-03
  8.2156938e-03
 -5.9060089e-02
 -1.8484609e-02
  4.4991825e-02
  3.5102502e-02
  1.2367421e-02
 -4.5165554e-02
  1.2284133e-02
 -5.2860934e-02
 -2.2673579e-01
 -8.7039173e-03
  3.0991808e-01
  9.9110685e-02
  2.9817957e-01
 -3.6238143e-03
 -3.3600993e-02
 -3.8359053e-02
  1.4755282e-01
  3.1736660e-01
 -2.4835896e-02
  2.8254906e-02
 -1.5185634e-02
  4.3689746e-02
 -3.6171127e-02
 -2.1564540e-01
  4.1994032e-02
  3.6559785e-03
  1.2214530e-02
  3.6707651e-02
  1.8790316e-02
 -6.2823668e-04
  4.4638040e-03
 -2.3280360e-01
  1.6275259e-02
 -6.7216870e-03
  6.6836976e-02
 -9.8191299e-02
 -1.2323293e-01
 -2.7710864e-01
  8.5368650e-03
  5.7550782e-01
 -9.4358705e-02
 -2.3210358e-02
  8.9867830e-02
 -3.2363243e-02
  3.1118156e-02
  3.1349447e-02
  7.8719772e-02
 -1.0389323e-01
 -1.5758693e-03
  7.9191685e-02
 -2.6012999e-01
 -6.0297467e-02
 -5.3769541e-01
 -1.1052530e-01
 -1.7619526e-02
 -5.3502526e-02
  3.1911626e-02
  4.1534171e-02
  1.0296368e-02
 -1.2232807e-01
  4.3730918e-02
 -2.7932383e-02
 -8.2536437e-02
  5.4563053e-02
 -1.8863464e-02
 -4.7708885e-03
 -4.4514071e-02
 -9.6300920e-04
 -1.1502844e-01
 -2.9990917e-01
  2.9286783e-02
  2.4144456e-01
 -5.7281286e-02
  2.2054877e-02
 -1.4594315e-01
  1.0727335e-01
 -6.2914506e-02
 -7.1080169e-03
  4.7334760e-02
 -3.8610663e-02
 -1.8073680e-01
 -1.0917979e-01
 -1.0930935e-01
  1.0254063e-02
 -3.4360614e-02
  1.3885776e-02
 -4.5578289e-01
 -1.2532805e-01
  1.2676610e-02
 -1.4726263e-02
  2.0916255e-01
  1.4803638e-03
  4.2837250e-01
 -2.9680037e-01
  3.9842278e-02
 -9.4689421e-02
 -5.8718495e-02
  1.2140315e-01
  1.8815074e-02
  1.1906985e-01
  5.7856405e-01
  1.0088039e-01
  3.5210148e-02
 -6.1484042e-04
 -9.9620663e-02
 -1.6867836e-01
  1.7255720e-01
  1.4782915e-01
  2.1211897e-01
  1.2774915e-02
  2.7000815e-01
 -2.5642349e-03
 -1.0915869e-01
 -1.1664212e-01
  4.4245575e-02
 -5.5360876e-02
 -2.6956093e-02
  3.1128559e-02
 -1.1819474e-02
 -2.3101026e-01
  5.6255314e-02
 -1.6015705e-02
  9.2348173e-02
 -6.6724516e-02
  5.6330204e-02
 -1.8324155e-01
 -9.8262228e-02
 -1.5691182e-01
 -5.5895284e-02
  1.4989901e-01
 -1.3501027e-01
 -6.4248696e-02
  2.7265916e-02
  2.4106430e-01
 -6.3204460e-02
 -4.1238451e-03
 -2.8940427e-01
 -8.5649334e-02
 -4.6591710e-02
 -8.7248765e-02
  1.0089971e-01
  2.0426657e-02
 -1.3835920e-02
  2.0397894e-02
  8.2189351e-02
  7.0617281e-02
  2.8571928e-01
  3.7408071e-03
  2.2930667e-02
  1.1399379e-01
  1.3300972e-02
 -2.3204280e-02
  1.0881091e-02
  1.0951051e-02
 -3.7748923e-03
  1.3746803e-01
  1.6439609e-02
  2.2707026e-01
 -3.6977496e-02
 -1.3872998e-02
 -1.3774215e-01
  4.6478879e-02
 -2.2552633e-01
  8.7093383e-02
 -5.9340402e-02
  4.3024350e-02
 -1.4972045e-01
 -5.4402191e-02
 -2.4934912e-02
 -5.9604410e-02
  3.7364485e-03
 -1.3886964e-01
  7.4997358e-04
 -5.7924949e-02
 -1.0947080e-01
 -3.4705075e-03
  1.4039925e-01
 -1.1995083e-01
  5.4840047e-02
  1.2804087e-01
 -2.0813152e-02
  8.2977168e-02
  5.1084481e-02
  6.8664633e-02
  6.4065114e-02
  1.4472133e-01
  8.7372825e-02
  9.9172100e-02
 -7.5312145e-02
  3.8513534e-02
 -8.2160011e-02
 -3.5518222e-02
 -5.2384742e-02
 -3.9017774e-02
  1.0406874e-01
 -8.2064651e-02
  2.0387577e-02
 -1.0521542e-01
 -1.2375109e-01
  2.5029115e-02
  4.6562616e-02
  5.2924797e-02
  6.4674996e-02
  1.2556174e-01
  8.9548994e-03
  2.1823237e-02
  3.7353486e-01
 -8.0171347e-02
 -1.7385453e-02
  5.2711297e-02
 -3.1220911e-02
  3.4755941e-02
 -6.5379977e-02
  1.4525118e-01
 -1.8311025e-01
  2.5961742e-01
 -1.6874330e-01
 -5.9331131e-01
 -2.4957347e-01
 -8.6656272e-02
 -1.3954908e-01
  1.3417915e-01
  1.0792393e-02
  1.0246928e-01
 -4.4889618e-02
 -6.4452298e-02
  7.4596949e-02
 -4.7801659e-02
 -2.3077300e-01
  4.9563977e-03
 -1.4596067e-02
  6.8910872e-03
 -1.8169998e-01
  1.5447806e-01
 -1.3518925e-01
  3.2567069e-02
  2.5334284e-02
  1.1046355e-01
  3.0224949e-02
  3.2194532e-02
  2.7984586e-02
 -2.6690218e-01
 -7.2470948e-02
 -1.3380026e-02
 -6.5836802e-02
 -2.1299408e-01
 -1.3521752e-01
 -4.6633895e-02
  1.8202793e-02
  1.1586559e-02
  3.8387787e-01
 -2.8530424e-02
 -8.5988507e-02
 -9.7199351e-02
  1.1571722e-01
  1.0773548e-01
 -1.0676983e-01
  8.2112424e-02
  1.1783335e-02
  3.5525262e-02
 -4.4454522e-03
  9.4924994e-02
  5.6460928e-03
 -9.7279012e-02
  1.1295768e-02
  1.3205993e-01
  1.0154065e+00
 -3.6610473e-02
  5.0590354e-01
  1.4400527e-01
  1.4275558e-01
  5.2426606e-01
  1.0814928e+00
 -4.9167573e-02
 -6.3503718e-01
  8.2225189e-02
 -1.8335676e-01
  3.2921344e-02
 -1.8174697e-02
 -1.7742859e-01
 -3.1560618e-01
 -3.5579723e-01
  5.8112955e-01
 -2.6135832e-02
  7.7387288e-02
  8.7822683e-02
 -2.8230128e-01
 -3.1882741e-02
 -7.8410149e-02
 -2.5272614e-01
 -1.1063828e-01
  4.7512263e-02
  7.9994255e-01
 -3.3787910e-02
  1.2906125e-02
  2.7585596e-01
 -1.5173654e-02
  2.2190009e-01
 -1.4612862e+00
 -1.1467015e+00
  1.1332829e-02
  1.2345428e+00
 -1.2450547e-01
  3.5332412e-02
  2.2855467e-01
 -2.9713603e-02
 -4.3672037e-01
  2.8619504e-01
  7.2084588e-01
  1.9860486e-02
  2.5588550e-02
 -1.8914065e-01
 -1.3004726e+00
  1.6465348e-01
 -1.3648482e-01
  6.2878765e-02
 -1.5007986e-01
 -5.4604352e-01
  7.2327681e-02
 -5.8617748e-02
  1.5238348e-01
  3.3142263e-01
  2.9727215e-01
  3.5993319e-02
  7.9900742e-02
  1.3413112e-01
 -1.3338166e+00
  2.3145909e+00
  1.1262069e+00
 -2.4467846e-02
  6.7282736e-01
 -5.2886214e-03
  1.0583678e+00
  5.2794123e-01
 -4.9469271e-01
  2.4171405e-01
  3.3365762e-01
 -1.0320046e-01
 -2.2059695e-01
  4.7793955e-01
  8.4732950e-02
  3.2470715e-01
  9.2890596e-01
 -1.7206831e-01
  2.0767542e-02
 -6.7161456e-02
  1.7590185e-01
  7.2431290e-01
 -6.0117483e-01
 -1.1281345e-01
 -8.6245343e-02
 -9.4661936e-03
  8.1781083e-01
  2.0642108e-01
 -1.3019796e-02
 -1.0738160e-01
 -1.6913697e-01
 -4.4748530e-02
 -1.5959408e-02
  3.5563394e-02
 -3.7334815e-02
 -6.1105449e-02
 -3.2179378e-02
 -2.1334058e-03
  1.0705984e-02
 -2.8431358e-02
 -7.1559444e-02
 -6.1370514e-02
 -5.7854954e-02
 -1.8035747e-02
 -2.5529014e-02
 -8.8436775e-02
 -1.5978675e-02
  5.8925383e-02
  1.0712343e-01
 -7.7447586e-02
  1.7561775e-02
  4.5695715e-03
 -7.5983338e-02
  1.9250372e-02
  3.1521212e-02
 -2.2510905e-02
 -5.6864619e-02
 -1.4111878e-02
 -9.6636981e-02
  1.5258530e-02
  1.1570368e-02
  1.5622858e-02
 -8.9592554e-02
 -2.3053837e-01
 -8.2987826e-03
 -1.4650054e-01
  4.0696718e-02
 -1.0281835e-01
  1.9500165e-01
  5.8125979e-03
 -1.9612613e-01
 -1.5505628e-01
  2.2155320e-02
  9.7549679e-03
  1.9346458e-01
 -1.4646415e-01
 -2.5468510e-01
 -5.7758745e-03
  1.9877916e-04
  3.7871171e-02
 -2.5268104e-02
 -1.5501352e-01
  7.4298643e-02
 -2.6346155e-02
  6.3964114e-02
  5.1776099e-01
 -2.0197649e-02
 -1.6590862e-01
 -3.7918415e-02
 -7.3720030e-03
  3.1060860e-01
 -1.3688179e-03
 -7.6174825e-02
 -1.0646608e-01
 -4.4799894e-02
  1.1756183e-02
  6.2368199e-02
  4.9047463e-02
  8.2764402e-03
  1.0064636e-02
 -7.5890310e-03
 -9.0918988e-02
 -5.7236981e-02
 -7.7945814e-02
 -2.1796957e-02
 -3.6378704e-02
  1.1157355e-01
 -1.2287715e-01
  1.1315293e-02
  5.2272629e-02
  2.8027283e-02
  8.5984811e-04
  8.4182434e-03
 -6.4631037e-02
 -9.6310899e-02
 -1.7746930e-01
  3.1094898e-02
  4.5734458e-02
 -1.3890310e-01
  1.5847178e-02
  3.1787813e-02
 -1.5804090e-02
 -6.6508157e-03
 -5.2894097e-02
  1.1982049e-01
  4.5089938e-02
  8.5469827e-02
 -3.4934428e-02
  3.5836313e-02
  1.1902764e-01
 -2.8689042e-02
 -7.5671993e-02
 -6.8971589e-02
  8.8509791e-02
 -7.4450046e-02
 -6.9379918e-02
  1.7996128e-01
  2.2248352e-02
 -7.4131228e-02
 -6.4461723e-02
 -8.7734714e-02
  7.0409738e-02
 -1.4004593e-01
  1.9604312e-02
  5.7223313e-02
 -2.9512830e-02
  1.0729862e-01
 -8.0730423e-02
 -8.8390760e-02
  1.1989311e-01
  9.9886470e-02
  1.4812247e-01
 -8.7978177e-02
 -8.9638567e-01
  8.7746792e-02
 -9.5607328e-01
 -3.3452719e-01
 -1.5073897e-02
  5.3814429e-01
  1.6730213e-01
  7.5557730e-03
 -2.8919679e-01
  5.4079068e-01
  6.3697486e-03
  4.1140169e-01
  1.4853248e-02
 -1.5644903e-01
  4.9667601e-02
  4.4928899e-01
 -2.1212613e-02
  2.5396925e-01
 -9.7841732e-02
 -1.8417844e-01
  2.4374150e-02
  6.8494119e-02
  9.3925096e-02
  8.8046566e-02
 -2.5982784e-02
  8.5561514e-02
 -1.2873389e-01
  1.3122541e-01
 -1.7655234e+00
  1.4769620e+00
 -2.0109327e+00
  9.3333125e-01
  2.7162558e-01
 -1.1429608e+00
  1.9512999e+00
  1.3427355e+00
  8.0078645e-03
  6.0227048e-01
 -4.0151089e-01
  4.3868834e-01
 -3.8677040e-01
 -1.2169515e-01
  3.5649851e-02
 -2.2769618e+00
 -2.8651804e-01
  5.2349597e-02
 -6.4249086e-01
  3.7896946e-02
 -1.3054374e+00
  8.0513394e-01
 -1.1804547e+00
  5.0183725e-01
 -1.2594222e-02
 -6.9660527e-01
  2.9330340e-01
  1.9563980e-01
 -2.8565815e-01
 -7.8548425e-01
 -3.7907936e-02
 -1.1806822e+00
 -4.3893167e-01
  1.0939810e-01
  1.7045530e-02
 -1.0839047e-02
 -1.1227410e-01
  2.2179618e-01
  1.9265402e-02
 -3.0711761e-01
 -1.1356745e-01
  8.4132984e-02
  4.9172107e-02
  3.3247724e-01
  6.7473069e-02
  6.0457671e-01
  2.5890216e-01
 -4.9827829e-02
 -1.2719694e-03
  1.4883882e-01
  5.6792784e-01
  1.3874744e-01
  8.0900311e-02
  1.4315559e-01
  2.1167083e-01
  1.9751632e-01
 -1.4972687e-03
  5.9216563e-02
 -8.0229908e-02
  5.3106081e-01
 -1.2398223e-01
  5.7295254e-03
  2.2078332e-01
  1.6334269e-02
  2.5946817e-01
  1.4026321e-01
 -1.0557835e-02
 -7.9604894e-02
  1.3189998e-01
 -1.7296057e-02
  1.4684321e-01
  3.0679917e-01
 -5.4487836e-02
  7.0592202e-02
 -1.6559353e-02
  4.4220105e-01
 -1.7633848e-01
  5.5109942e-03
 -1.5629329e-01
 -3.0857360e-01
  3.4363493e-03
  9.9944966e-03
  6.2291067e-02
 -3.0478752e-01
  1.2592740e-02
 -7.2206467e-02
  9.4737075e-03
 -1.5843697e-01
  3.6388271e-02
 -7.7033471e-03
 -2.7309678e-02
  8.5139178e-02
 -1.0855617e-01
 -9.4278932e-02
 -1.1145049e-01
  7.4374102e-02
 -2.8281075e-01
  2.7443720e-02
 -8.1480637e-02
 -1.0437471e-01
  1.5180229e-01
  6.3829035e-02
 -4.4530366e-02
  1.2370158e-02
  7.0123471e-02
 -5.1122200e-01
  6.6378295e-02
  1.6152358e-01
  1.6168618e-01
  7.8992419e-02
  1.5150433e-02
 -1.9125786e-01
  1.6482428e-02
  2.2221333e-01
  2.7876282e-03
  1.6004765e-02
 -6.5290378e-03
  7.6863818e-02
  9.4310241e-04
 -2.2391045e-01
  1.2324121e-02
 -1.0731170e-01
 -3.4307480e-02
  7.9022184e-02
  2.2585690e-03
 -8.9023441e-02
  3.6682931e-03
 -1.0696559e-01
  1.9066334e-02
  4.6644390e-02
 -3.7033195e-03
 -3.9252393e-02
  6.0877576e-02
  8.0280967e-02
  9.9668637e-02
 -8.8140555e-04
  5.3572105e-03
 -6.3372113e-02
  1.4979374e-01
 -3.5087820e-02
  5.6442734e-02
  8.6324342e-02
 -7.1930021e-02
 -7.5509381e-03
 -3.8564153e-02
  2.5749281e-02
  1.8868066e-01
 -7.0003331e-02
 -6.5749418e-03
  9.2056793e-01
  2.5233183e-02
  6.4469986e-02
  1.2195631e-01
  1.7376269e-01
 -3.3842370e-02
  2.2090048e-02
 -6.4265564e-02
  6.3670380e-03
 -1.7354636e-02
  9.7677689e-03
  1.0647812e-01
  2.1459000e-02
 -3.1410407e-02
 -1.0048739e-02
  7.9459166e-03
  3.8375792e-01
 -4.9543411e-02
 -7.1385778e-03
 -3.8211885e-01
  8.0122270e-02
  2.9939595e-01
 -2.4813144e-01
  3.0137051e-02
  1.1396160e+00
  1.0521612e+00
  2.4321657e-01
 -1.2625239e-02
  6.9746204e-02
 -8.2660055e-01
  1.2632839e-01
  5.5053933e-03
 -3.3383533e-02
 -9.3081389e-03
  5.7337493e-01
 -9.0428382e-02
  2.2393854e-01
 -3.6585698e-01
 -3.9761621e-01
 -2.0801568e-02
 -3.1129181e-01
  1.1580849e-01
 -5.2804627e-02
  2.0763598e-01
 -1.4463931e-01
  4.9057674e-02
 -2.0519903e-02
  1.2086169e-02
  9.3328789e-02
 -1.5390178e-03
 -5.0557554e-01
  1.5266654e-01
  1.4390358e-01
  4.3038040e-01
  7.8528412e-02
  2.8125444e-01
 -1.7303188e-01
 -2.8615661e-03
  4.2298909e-02
  2.7474731e-01
  1.4039862e-01
 -4.3436834e-01
 -8.8393629e-02
 -2.0947388e-01
  3.6925876e+00
  5.9328526e-01
 -4.2970857e-01
  2.0024082e-02
 -4.1453969e-01
  5.4822069e-01
 -8.6567082e-02
  4.6885562e-01
  5.0682586e-01
  1.8488511e-02
 -1.0933073e+00
  1.8336107e+00
  5.7115215e-01
  2.6930147e-01
 -3.0098507e-01
 -1.3903512e-02
  4.7352305e-01
  4.4750210e-02
 -2.5626281e-01
 -1.5875331e-01
 -4.7096977e-01
 -1.6651431e-03
 -5.2506173e-01
  4.7879729e-01
 -1.0075554e+00
  1.1860538e-01
  2.5975084e-01
 -1.4758882e-01
 -1.3318869e-01
  9.5472306e-01
  1.9983301e+00
  7.2159284e-01
 -4.8265687e-01
  1.6984606e-01
  2.0426251e-01
  1.1350260e+00
  3.4044780e-02
  8.3522588e-01
  3.6442468e-01
  6.5716231e-01
  1.8929233e-01
  1.0131092e-01
 -2.7930653e-02
 -1.0344556e-01
 -2.3731047e-01
  2.3784105e-01
 -4.0391777e-02
  2.6982000e-01
  1.7518370e-01
  1.9597715e-01
  3.1146199e-02
 -8.2718462e-02
  3.8137622e-02
 -1.2323146e-01
 -9.9268481e-02
 -1.1810061e-01
 -1.7954629e-03
  5.2213617e-02
 -5.6015700e-03
  1.4665765e-01
  1.6872557e-01
  2.5248557e-01
 -1.6475838e-02
  7.7359892e-02
  1.0480473e-01
  2.5818637e-01
  1.0525602e-01
 -3.5376292e-02
  3.5835877e-03
 -4.7038533e-02
 -9.3410984e-02
  2.9526374e-01
 -5.5004548e-02
  3.1403154e-01
  2.1413732e-02
  2.1380951e-01
  1.6067323e-01
  1.6917861e-01
  9.2507219e-03
 -1.1251217e-01
  1.8834458e-01
  2.7722269e-01
 -8.0866836e-02
  2.2059967e-01
 -1.3762882e-01
  2.7854654e-01
  1.5686305e-01
  9.7367987e-03
  6.7482732e-02
  2.0257765e-01
  2.5807634e-01
  1.3857365e-01
  2.2756681e-02
  5.6608039e-01
 -1.7418148e-01
  3.2801032e-02
  6.8694890e-02
  1.8543836e-02
 -2.9667184e-01
 -1.8664426e-03
  6.8367563e-02
  5.5365391e-02
  2.0138797e-01
  8.9119929e-01
 -3.5465755e-02
  1.4557252e-03
 -6.0794815e-02
  5.9903278e-03
  6.0761355e-02
  2.4553043e-01
  1.1969189e-01
 -1.3333790e-02
  2.2043148e-02
  1.8955250e-01
  5.0956446e-01
  3.4957793e-02
  5.6405342e-01
 -4.2599134e-02
  1.1442776e-02
  4.6852708e-02
  2.2426032e-01
 -1.0484738e-02
  3.4834288e-02
 -8.5324645e-02
 -1.2471432e-01
 -2.3674116e-01
  2.3736093e-02
 -4.1361321e-03
  2.1046032e-01
  1.8048875e-01
  1.4471255e-01
  6.1906677e-02
 -5.5073053e-02
  2.6906180e-01
  1.5929671e-02
 -6.1468866e-02
  3.2021075e-01
  2.6216477e-01
  9.3231834e-03
  7.5711226e-01
 -2.7808361e-02
 -2.4781343e-02
  6.8231575e-02
  1.4987877e-01
 -3.2353077e-02
  4.6099094e-01
  7.1659803e-02
  2.9102707e-01
  2.0722191e-01
 -3.9196376e-02
  1.7595384e-02
 -1.5132900e-03
  2.6868063e-01
  1.6401221e+00
 -6.7743504e-01
 -8.0595446e-01
 -8.7695408e-01
  1.9559551e+00
 -6.5359227e-02
 -1.8069442e-02
  1.5460895e-01
 -4.1724093e-02
  6.9989198e-01
  4.7667655e-01
 -1.9055614e-01
 -6.2711203e-01
  6.5671968e-01
 -7.9729997e-02
 -2.0364344e-02
 -1.1682661e-02
 -2.7313840e-01
 -3.3405982e-02
  1.2819248e+00
  4.7454789e-01
  6.1718869e-01
 -5.6811631e-01
  2.2087505e-01
  1.0245493e-02
  5.7560257e-03
  7.4318908e-03
  6.0395229e-01
  7.2032042e-02
 -2.5505534e-01
  2.8722048e-02
 -1.7129008e-01
 -2.3955838e-01
 -1.3667006e-02
  1.4004564e-01
 -7.1349049e-01
  1.4687737e+00
 -1.7691051e+00
 -6.1622322e-01
 -2.3662667e+00
  1.4874976e+00
 -2.6345518e-01
 -8.9591019e-02
 -2.7923068e-02
 -1.0419815e+00
 -5.1776552e-01
 -5.9371811e-01
  1.1225333e-01
 -8.6020052e-01
 -6.7794985e-01
 -4.7555903e-01
  1.6460644e-01
  1.4233187e-02
 -2.6126179e-01
  4.0349495e-01
  1.2684496e-01
 -2.2513527e-01
  8.5858870e-01
  3.1180808e-01
 -9.3577698e-02
  1.7060903e-01
  4.6007913e-01
  5.6943500e-01
  4.0178147e-01
 -1.1388817e-01
 -3.6040226e-01
  4.6396393e-01
  8.3783513e-01
 -3.2611876e-03
 -1.3887556e-01
 -7.2491169e-03
 -1.5107307e-01
  6.6390729e-01
 -4.8636928e-01
 -1.5704165e-01
 -9.8545414e-01
  5.4730117e-01
 -8.4674978e-01
  1.6454180e-01
 -4.2379192e-01
 -4.5283246e-01
  5.3522462e-01
 -7.6794541e-01
 -2.9618937e-01
 -8.0910856e-01
  1.2338979e-01
  1.1525755e-01
  2.8437121e-02
  4.4011879e-01
 -4.8560554e-01
  8.7489331e-01
 -9.8893541e-01
 -9.5468573e-02
 -3.9188019e-03
  7.1337336e-01
 -3.6452568e-01
 -2.1279296e-01
 -1.0759179e-03
  4.5946962e-01
  6.2774843e-01
 -6.1929828e-01
 -2.4331751e-01
 -7.7574670e-01
  4.9748018e-01
 -1.3268942e-01
  3.3032313e-02
 -5.1411245e-02
 -2.1246511e-01
  2.5734004e-01
 -1.9419555e-01
 -1.2286946e-03
 -3.7529640e-02
  4.8725948e-01
 -1.0281935e-01
  3.5119882e-01
  1.2098893e-01
 -2.7035996e-01
 -1.6583600e+00
  2.7206061e-02
 -5.3893203e-01
  1.0835886e+00
 -2.0347338e+00
 -2.8394181e-02
  7.6925874e-02
 -4.2969874e-01
 -3.8680036e-02
 -1.8052676e-01
  1.6242484e+00
  7.8379738e-01
  2.4757719e+00
 -2.3354433e+00
  9.3798631e-01
 -1.2004396e-02
 -2.0678635e-01
 -2.9464784e-01
  4.5220280e-01
 -2.3655007e+00
 -6.6222548e-01
 -1.8732005e+00
  9.5758659e-01
 -5.9863359e-01
  2.8486028e-01
  2.6441215e-02
  1.3971927e+00
  1.3086183e+00
  1.3602065e-02
 -2.4080992e-01
 -4.3962270e-01
  8.3285475e-01
 -1.6905218e+00
  2.7292222e-01
  1.2747666e-01
 -2.0929290e-01
 -2.9983141e+00
  2.4291937e+00
  5.1331365e-01
  4.4591112e+00
 -1.8638443e+00
  8.3903795e-01
  1.7785612e-01
  7.5376451e-01
  1.3051264e+00
 -1.3143256e+00
  1.4140919e+00
  7.6015972e-02
  7.1762645e-01
 -9.1595751e-01
  4.0296787e-01
 -1.2420841e-01
 -3.9182968e-02
  3.1250167e-01
 -1.1125922e-01
 -8.5247982e-01
 -2.4391037e-01
 -1.2142894e-01
  1.1506740e+00
  3.1936359e-01
 -2.1893479e-02
  2.5270578e-01
 -5.2156359e-01
  4.2879617e-01
 -1.1554905e+00
  9.6035612e-01
  1.3919840e-02
 -3.3315625e-02
  2.4101335e-01
 -4.9034566e-01
 -3.8568738e-01
  1.2942444e+00
 -1.0078690e+00
  6.0756540e-01
  5.2483261e-01
  9.1334319e-01
 -1.7568192e+00
  1.1529933e+00
 -4.5648053e-01
 -3.1501406e-01
  3.3834606e-01
 -8.7781519e-01
  1.9132106e+00
  6.4860649e-02
  7.1827656e-01
 -5.5518091e-01
 -4.1652698e-02
  4.3038851e-01
  8.6652446e-01
 -1.8243719e+00
 -1.7757475e-01
  7.0295388e-01
 -2.2999428e-01
  1.1881075e+00
  1.4012256e-01
 -2.6212227e-01
  1.0064837e-01
  2.5668925e-01
 -9.6941835e-01
  3.9687613e-01
 -7.4443901e-01
  1.5015163e-01
  1.1148451e-01
  2.9327360e-01
 -6.6771768e-02
  6.6484046e-01
 -3.1170449e-01
  5.3580487e-01
 -2.0934011e-01
 -5.3542727e-01
 -1.8558219e-02
  3.8414650e-02
  4.9588168e-01
  9.0071321e-01
  3.9610544e-01
  3.2408929e-01
  1.1394598e+00
 -1.0699086e-01
  1.0032926e-01
  1.6655476e-01
 -2.2026153e-01
 -5.8846626e-02
  2.7772307e-01
 -1.2934525e-02
  9.6525632e-02
  1.4964134e-01
  3.4225485e-03
  6.1245359e-02
 -9.1219515e-01
 -2.5147825e-01
 -2.5437155e-01
 -1.1093068e-01
 -6.2189908e-03
 -3.1318411e-03
 -3.7838571e-02
  6.8278968e-02
 -5.0662372e-02
 -1.4949117e-03
 -2.8694999e-01
  5.4745764e-01
 -5.7797126e-02
  1.2920933e-02
  2.1538942e-01
 -7.7099456e-03
  1.0596944e-01
  2.7777303e-02
  1.5412863e-01
 -3.9623290e-01
 -2.0712730e-01
  6.7930326e-02
 -9.6231706e-02
 -4.4901672e-01
 -5.4305297e-01
 -1.2556690e-01
  7.0977740e-02
 -7.1950741e-02
 -7.6933700e-01
 -4.4391072e-01
  5.1701982e-02
  6.5632746e-02
 -4.5201376e-02
  8.4979974e-02
 -5.3365141e-02
 -1.2746516e-01
  8.6051866e-02
 -1.0402932e+00
 -2.0963162e-02
 -1.4099631e-01
 -6.9297589e-02
 -5.4745339e-03
 -4.1502997e-02
 -6.1289720e-02
 -8.0961727e-02
 -7.5807790e-03
 -3.2614949e-01
 -8.9615136e-02
  5.5377871e-02
 -9.3517028e-02
 -1.5663300e-03
 -5.4244345e-01
  2.6011007e-02
  3.8522437e-02
 -5.6887843e-02
 -1.7025304e+00
 -4.2637408e-01
  6.0667593e-02
 -2.3990817e-02
  1.4534408e-02
 -5.1349033e-02
 -2.7631411e-01
  1.5162247e-01
  1.4263093e-01
 -3.4346563e-01
  2.0278569e-01
 -1.1648832e-01
  1.6657341e-01
  7.8693554e-02
  3.0235073e-01
 -1.2716451e-01
  5.7087457e-01
  6.1693050e-02
  3.7361005e-01
 -1.4615064e+00
 -1.0933299e-03
 -9.9132732e-03
 -2.9142052e-02
 -1.1374434e-03
 -3.0652767e-02
  2.8720979e-02
 -3.1119358e-02
 -2.2483937e-01
 -8.7889634e-02
  1.3253532e-01
  1.2866186e-01
 -8.2780913e-02
 -4.9543861e-02
 -2.6165748e-01
 -2.8491449e-02
 -5.9374332e-02
 -1.0203004e+00
  1.5496495e+00
  9.6022673e-03
  2.4148844e-02
 -3.9440479e-02
  2.8099474e-01
 -4.2759024e-02
  3.4632286e-01
  6.0041100e-02
 -1.8616568e-02
  1.2882605e-01
 -1.1563743e-01
 -1.7217945e-02
 -5.0964773e-02
 -1.1501112e-02
  1.1771783e-01
 -1.1818705e-01
  3.5191217e-01
 -2.2039875e-01
 -1.6590729e-01
  6.9361436e-04
  9.9532574e-01
 -8.7579846e-01
 -6.8706787e-01
 -5.5404246e-01
  6.6307151e-01
 -1.9190712e-01
  3.0878859e+00
 -8.5698020e-01
  7.7686512e-01
  1.4904261e-01
  3.5157826e-02
 -1.0047076e+00
  2.4720788e+00
 -1.2491390e+00
 -3.1421781e-01
 -2.6058066e+00
  2.2254438e+00
 -9.7665966e-01
 -4.1584924e-02
 -1.3112539e+00
  1.2877053e+00
 -5.3078020e-01
 -5.0953478e-01
 -4.6388814e-01
 -3.2588241e-01
  5.5626625e-01
  5.4628569e-01
  4.7055015e-01
  7.3813714e-02
  5.4633486e-01
 -1.6739308e+00
  1.4614073e+00
 -7.7667288e-02
  1.3902526e+00
 -5.6030244e-01
  5.4726923e-01
  4.2208787e-02
 -4.0226552e-01
  1.1389883e-01
 -3.0127737e-01
  1.9204212e+00
 -2.3374869e-02
  1.3363988e+00
 -2.2231026e-01
 -2.7221835e-01
  4.8096105e-02
 -8.2972355e-02
 -1.0648736e+00
  3.4003627e-02
 -6.5508328e-02
 -8.4323019e-02
 -1.9875146e+00
  5.0773478e-01
 -4.0210601e-02
 -1.8517667e-01
 -4.7833979e-01
  1.5400742e+00
 -4.1238272e-01
  6.8565786e-01
  2.1234819e-01
 -1.9036888e+00
  1.0160018e+00
  4.6168008e-01
  3.4406126e-01
  7.6713555e-02
 -5.1628321e-01
 -7.1983701e-01
  7.9595810e-01
  6.6099608e-01
  1.8942201e+00
 -4.7543204e-01
  4.4300044e-01
  4.6999037e-01
  3.2266286e-01
 -6.6914409e-01
  1.1041852e-01
  4.0211985e-01
 -3.5772365e-01
  2.3481183e+00
 -1.0883594e+00
 -3.2080299e-01
  2.9294953e-02
  3.6573088e-01
 -5.3099102e-01
  8.7266013e-02
 -1.8550049e-01
 -8.0030984e-01
  4.6484616e-01
 -7.0175654e-01
  1.4770392e-01
  8.8729280e-01
 -1.3281616e-02
  5.0663650e-01
 -1.1217614e-01
  3.5502142e-01
 -1.3844211e-01
 -6.4624198e-02
 -2.8040019e-01
  1.9927439e-01
 -7.7196382e-02
  6.1470114e-02
  3.2754239e-01
  1.5710072e-01
 -3.9724219e-01
  4.7324222e-01
  3.6379543e-01
 -2.4054354e-01
 -3.0171153e-01
 -4.6539262e-01
 -6.7346960e-01
  8.0505885e-02
 -1.2563840e+00
  3.7611035e-01
  1.1010903e+00
 -2.5520024e-01
 -1.5979124e-02
 -1.5719391e-01
 -4.6928582e-01
  9.6556827e-02
 -1.4853818e+00
  9.4341300e-03
  4.0785000e-02
 -4.3378742e-03
 -1.2869032e-01
  5.4931659e-01
 -5.1775385e-02
  1.1471692e-01
 -6.7713663e-02
  3.8224168e-02
 -8.9525342e-01
  3.5294914e-01
  1.2519678e-01
  1.5335199e-01
  8.1471115e-02
  4.6809483e-02
 -3.3415053e-02
  1.3421270e-02
 -7.1807480e-01
 -1.7788736e-02
  5.4142624e-01
  1.1658734e+00
 -7.0406467e-01
  8.1737056e-02
 -5.3671427e-04
 -6.5453136e-01
  6.9272444e-03
 -1.1478084e+00
 -5.3339440e-01
  8.3056688e-01
 -3.0743495e-01
 -2.0254458e-01
 -1.0430519e-01
  1.9464950e-01
  2.4663986e-01
  2.8312686e-01
  4.3726769e-01
 -3.8143039e-01
 -2.3504496e-01
  7.8498799e-01
  6.7548883e-01
  1.9794230e-01
 -1.2240567e-01
 -1.5001741e-01
  2.6150467e-02
 -7.3614645e-01
 -7.3044203e-02
  8.1875706e-01
  2.6361249e-02
  4.5665801e-01
  5.8428049e-02
 -8.0042951e-02
 -4.2637947e-01
 -4.4800583e-02
 -2.6371555e-02
 -8.5700117e-02
  7.0428237e-02
  1.9706549e-02
 -9.8509318e-01
 -2.1076515e-01
 -2.0197339e-01
 -7.7003747e-02
  1.9265917e-01
 -4.7305852e-01
 -4.9662855e-01
 -2.3370506e-01
  1.2060207e+00
 -1.9452670e-01
  6.1305994e-01
 -1.7755419e-01
 -8.8230669e-01
 -1.2747109e-01
 -1.3243060e-01
 -4.3655857e-01
 -2.0724565e-01
  5.5045346e-03
  2.3488058e-02
 -1.0347755e-01
  3.1261601e-02
 -5.1065773e-02
 -4.1161310e-02
  4.1904533e-01
 -4.2004219e-01
  4.4546887e-01
  4.3140611e-01
 -2.6796642e-01
  1.7572048e-01
 -6.5345973e-02
 -5.1234044e-02
  3.8091943e-02
 -1.3006380e-01
 -9.0283436e-01
  3.1713334e-01
  4.5336631e-01
 -4.7186562e-01
 -2.9179959e-02
 -8.5301884e-03
 -1.1765438e+00
 -3.7550810e-01
 -6.6181433e-01
 -4.5053270e-01
  1.9410953e-01
  8.3879910e-02
  5.3842181e-01
  9.4289675e-02
  4.6663709e-02
  2.4628666e-01
  3.5577891e-03
 -1.1788505e-01
 -1.6449155e-01
 -7.3020506e-01
 -8.5456508e-01
  2.0454991e+00
  7.0622396e-01
  1.0118040e+00
 -1.4505333e-02
  3.1739973e-02
  7.0666891e-01
 -6.9478489e-03
 -1.0391699e-01
  3.1320527e-02
  1.2612060e-01
  2.4170157e-02
  3.7405595e-02
 -2.2140077e-01
 -5.9308680e-03
 -6.8788733e-03
 -3.2961026e-02
 -3.8122422e-01
 -3.8393667e-01
 -2.0414335e-01
  4.5461917e-01
  1.8662865e-01
 -1.5608329e-02
  7.7608265e-02
  3.8860731e-02
 -1.6491909e-01
 -5.9787869e-01
  1.5268144e-02
  4.4256291e-01
  7.5359531e-02
  5.6321734e-01
 -1.5030903e-01
 -5.2226167e-03
  1.9274986e-01
 -7.1559000e-01
  5.8125962e-02
  3.7704036e-03
  2.2644502e-01
  5.1541673e-03
  4.3876421e-02
 -1.6553536e-02
 -3.7045978e-02
  2.4504213e-01
 -1.5734325e-01
 -6.7173433e-01
 -1.1175618e+00
 -5.2718717e-01
  8.4699234e-03
 -6.0590841e-02
  1.8905190e-01
 -6.8991214e-02
  3.5094851e-01
 -2.0217773e-02
 -8.9603466e-01
 -3.8153461e-01
  4.2973849e-01
  1.2217060e-01
  6.9270611e-01
  6.2312942e-02
 -3.6617819e-02
  5.1368225e-01
  1.7808850e-01
  2.7811211e-01
 -4.1801018e-01
 -5.3443080e-01
 -9.0747285e-01
  1.0857263e-01
  1.3162357e-02
  7.1940687e-04
  2.2868574e-01
 -4.3960631e-02
 -1.7022774e-01
 -3.4721544e-01
 -2.0908217e-01
  1.6832407e-01
  8.4327006e-01
 -7.7296197e-02
  9.5920518e-02
  8.7053813e-03
  1.5233516e-02
 -9.8358870e-01
 -1.4744665e-01
  8.0359471e-01
  6.8652022e-01
  2.6481610e-02
  1.5233610e-02
  1.2217673e-02
  7.7407867e-01
 -6.4918011e-02
 -7.6958811e-01
 -6.1228681e-01
  7.9358822e-01
  3.9960411e-01
  1.6460620e-01
 -1.4212826e-01
  1.2212373e-01
 -1.9920532e-01
 -2.2441764e-01
  7.2757268e-01
  1.4469989e-01
  4.9509633e-02
  7.6791090e-01
  1.1829448e+00
 -1.4617142e-02
 -6.4940006e-02
  8.8606668e-01
  9.9516518e-02
  5.5613991e-02
 -6.6024375e-01
  1.0593363e-01
  3.2377580e-01
  5.7248718e-01
  9.0565711e-02
 -1.0756124e-01
 -1.8651487e-01
  2.5874683e-01
  8.4449327e-01
 -1.2939762e+00
 -1.2439466e+00
 -1.8824755e-01
 -6.8395787e-01
 -5.8340317e-01
  1.9019194e-01
 -3.3766370e-02
  6.7588642e-02
 -2.1922569e-01
 -9.7765103e-02
 -6.7657840e-01
 -2.1970467e-01
 -1.8961027e-01
 -7.0473187e-02
  3.3060122e-02
 -4.5563582e-02
  1.3727317e-02
  1.6799930e-01
 -9.8478097e-01
  3.3740203e+00
  4.8527509e-01
  3.0947399e-01
 -1.2768245e-01
  6.6660273e-01
 -5.0718501e-02
  3.4692576e-03
  7.8406572e-02
 -5.6323230e-01
 -1.8215597e+00
  7.1158785e-01
 -1.6676458e+00
 -2.0354573e-01
  6.4705867e-01
 -6.2827480e-01
  1.9185722e-01
  3.8091108e-01
  2.8753178e-02
 -4.3754435e-01
  2.6002014e-02
  6.8255848e-01
 -1.0896669e-01
  2.7003041e-01
  3.1056014e-01
 -4.0933767e-01
 -1.8436384e-01
 -1.2982199e+00
 -2.8924769e-01
  7.4095458e-01
 -5.3077257e-01
 -8.4269339e-01
  5.5558920e-01
 -4.5247841e-01
 -1.0124244e-02
 -1.9408079e+00
  6.1906897e-02
 -5.8046681e-01
 -4.6528506e-01
 -1.1396395e+00
 -1.9969665e-01
 -2.3450097e-01
 -8.6400090e-03
  7.4904889e-01
 -2.7672452e-01
 -3.7955096e-01
 -1.5436161e-01
 -4.5290491e-01
  8.9925498e-01
 -5.4674643e-01
  1.5040250e-01
  3.7989996e-02
  3.5439068e-01
  7.0267850e-01
 -9.4890767e-01
 -2.3320502e-01
  9.0342081e-01
 -2.7436554e-01
 -1.7500432e-01
  6.1671650e-01
 -1.3670953e-01
  1.4993329e+00
  7.0713973e-01
 -1.2006146e-01
 -1.3713663e+00
  5.8240509e-01
 -8.6037517e-02
 -2.6875496e-02
  5.8238244e-01
  7.4368745e-02
  2.4226426e-01
 -1.0744706e+00
 -1.1764354e+00
 -1.0249089e+00
 -3.5106143e-01
  5.7628095e-01
 -2.8475168e-01
  2.7378365e-01
 -7.9083455e-01
 -1.2443108e-01
 -8.5690504e-01
 -1.3744621e+00
 -3.7349296e-01
 -4.3383333e-01
 -6.5363073e-01
 -3.9352234e-03
  6.1700088e-01
 -3.1759247e-01
 -3.9563569e-01
 -4.5870122e-01
 -4.1583855e-02
  3.1185845e-01
 -3.1528108e-02
 -9.5253044e-01
 -1.6160651e-01
  1.4684826e-01
  4.3722525e-01
  1.4655986e-01
  5.4291326e-01
 -2.7939171e-01
  6.3650703e-01
 -1.6594599e+00
 -1.6021213e-01
 -5.5408812e-01
 -1.2314206e+00
  7.2934622e-01
 -6.7247026e-02
  3.0912986e-01
 -4.7173433e-02
  6.7905918e-02
 -1.3713432e-02
  5.2538585e-02
 -1.6090868e-01
 -7.0340261e-02
  1.8841588e-01
 -4.7743890e-01
 -1.3733828e-01
 -2.7485967e-01
  4.3278813e-02
 -1.2921554e-01
 -6.1016059e-01
 -3.3176906e-02
  1.5041029e-01
  2.9421175e-01
 -9.5266646e-01
  8.3183026e-01
 -3.8096085e-01
  2.6029649e-01
 -3.9359626e-01
 -2.3231886e-01
 -1.6339137e-01
 -7.3418725e-01
  2.4817394e-01
  8.7641753e-02
  5.0335723e-01
  2.7131554e-02
  1.7788014e+00
  6.7884833e-02
 -9.4645828e-02
 -7.3816650e-02
  2.4503198e-02
 -5.2500707e-03
 -1.2746077e+00
 -2.1630712e-01
 -3.8627473e-01
  3.3717552e-01
 -1.0024707e-01
  8.0270683e-03
  1.4449603e-02
 -1.5865993e-01
 -8.2632424e-03
 -2.0213686e-01
  5.3512019e-01
  2.3065643e-01
  6.8095791e-01
 -4.2606393e-01
  1.5003599e-01
 -2.8640547e-01
 -7.6227391e-01
  1.3645817e+00
  3.9437374e-01
  8.9346021e-01
 -8.3251514e-02
  4.6477526e-01
  7.0159268e-01
 -2.8307863e-02
  3.8678836e-02
  3.0228246e-02
 -1.2687582e+00
 -4.9848035e-01
  5.0229305e-01
 -4.0040517e-01
  6.1239034e-01
 -1.4782803e+00
 -4.2284627e-02
  2.2645090e-02
 -5.0033420e-01
  9.6789867e-01
 -1.0808557e+00
  7.1665617e-03
 -7.0550680e-02
 -4.6873298e-01
 -1.6487776e-01
 -3.5244536e-01
 -2.1541241e-01
 -4.5266351e-01
 -1.6721317e-01
 -1.2046571e+00
 -1.3995399e-01
  1.7269938e-03
 -2.7597117e-01
  1.2023095e-01
 -4.0941443e-02
 -1.1218760e-01
  3.5271734e-01
  5.5304444e-01
 -1.1953659e+00
 -1.8066554e-01
 -2.5050205e-01
  1.4121558e-01
 -7.0835674e-01
 -5.5444345e-02
 -2.5929320e-01
 -3.7675077e-01
  8.5175824e-01
  1.7966449e-01
 -1.0319547e-02
  1.4326167e-02
 -1.9151269e-01
 -1.0353490e+00
 -1.2239626e-02
 -6.7728676e-02
 -1.6537163e-01
  5.7071751e-01
 -6.2036592e-01
  7.8780884e-01
 -1.3389622e-01
 -1.8577622e-01
  2.4569429e-02
  4.1225627e-02
  1.2556037e+00
  9.5193952e-01
 -5.5322845e-02
 -1.0137565e+00
 -2.3676296e-01
 -1.2522075e-01
  4.3901447e-02
 -4.8447229e-02
  3.4879837e-02
 -1.4145202e-02
  1.4668486e-01
  8.1125259e-02
 -1.3364381e-01
  1.0384406e+00
 -8.2554091e-03
 -8.2782233e-01
  1.1881533e-01
 -1.0504904e-02
  3.7864947e-01
  5.2277178e-02
  3.4497350e-01
 -1.6028017e-01
 -3.9821899e-01
 -1.2304275e-02
  1.3722631e+00
 -1.0142085e-01
  2.6506109e-02
  1.3143092e+00
  9.6052349e-01
  2.0334145e-02
 -2.9693237e-02
 -1.1070669e-01
  2.7111579e-02
  1.0842971e-01
  5.5682439e-01
  1.3825433e-01
  4.6852916e-02
  4.6779084e-01
  1.8238549e-01
 -9.0139836e-01
 -9.5405141e-03
 -1.6692929e-01
 -1.2484431e+00
  4.6114659e-01
 -1.1049326e-01
  1.4413371e+00
  7.9933006e-01
  1.0246809e-01
 -4.0593565e-02
 -2.2913580e-01
  1.1137130e-01
  4.4009146e-01
  1.1610926e+00
  4.3506944e-01
  5.3589785e-01
  7.9140973e-01
  6.8817988e-02
  3.7066016e-01
 -1.0616951e+00
 -4.4143606e-02
  2.0747253e-01
  2.5099906e-01
 -2.1138147e-01
  9.3899295e-02
  3.5195485e-01
  3.0882031e-02
 -4.4715089e-01
  6.2183231e-01
 -1.2392321e-02
 -1.2243741e+00
  1.1176023e+00
 -7.4377455e-02
  1.1859835e+00
  8.7176460e-01
  1.1354890e-01
 -1.0871010e-01
  4.1110975e-01
 -5.8267102e-02
 -4.1377208e-01
  6.3642424e-01
  2.3163180e-01
  1.0468768e-01
 -1.2747179e-02
  7.8160323e-02
  1.0082895e-01
 -3.0388701e-01
 -5.5470639e-01
  2.8384349e-01
  1.5012982e-02
 -1.3316579e-01
  6.4005536e-01
  5.8360696e-03
  6.1124325e-02
  1.0621978e-02
 -8.4449399e-01
  1.2846017e-01
  3.1584227e-01
 -1.4188619e-01
  1.8747976e-01
  6.0093457e-01
  2.2174554e-01
  2.2829954e-01
 -2.1234635e-01
 -3.6432832e-02
 -1.4691353e-01
 -3.5992333e-01
  1.2605916e-01
 -3.7423626e-02
  1.6498730e-01
  4.9063742e-01
  9.8680921e-02
  6.6908458e-03
  6.6908458e-03
  6.6908458e-03
  6.6908458e-03
  6.6908458e-03
  4.4584941e-02
  4.4584941e-02
  4.4584941e-02
  4.4584941e-02
  4.4584941e-02
  3.9796297e-02
  3.9796297e-02
  3.9796297e-02
  3.9796297e-02
  3.9796297e-02
  1.5568715e-02
  1.5568715e-02
  1.5568715e-02
  1.5568715e-02
  1.5568715e-02
  6.2528341e-03
  6.2528341e-03
  6.2528341e-03
  6.2528341e-03
  6.2528341e-03
  2.3872331e-02
  2.3872331e-02
  2.3872331e-02
  2.3872331e-02
  2.3872331e-02
