nep3 3 Ga O Au 
cutoff 8 4 157 28
n_max 4 4
basis_size 12 12
l_max 4 2 0
ANN 50 0
 -4.5036428e-02
  2.9686594e-02
  9.9095227e-03
  9.5644116e-02
 -7.8782678e-02
  1.6196635e-01
  5.3903386e-02
 -3.5494480e-02
 -6.9494182e-03
 -9.5353182e-03
  2.3046538e-02
  5.9275134e-03
  5.8182798e-02
 -2.7675498e-03
  1.7264430e-01
 -2.3863522e-02
  6.1542500e-02
  1.9122013e-03
  3.6653861e-02
 -2.6773487e-05
  2.3864217e-02
  1.0687415e-01
  6.0332082e-03
  4.2468559e-02
  4.1912321e-02
  6.2123518e-03
  1.1657541e-02
  3.0476969e-02
  2.1588930e-03
  3.9123144e-02
 -1.2395965e-01
 -1.3921407e-01
  3.0842980e-02
  2.6272429e-02
  2.3201961e-02
 -3.2278735e-02
  8.2513697e-02
  3.9852504e-02
  7.4240245e-02
 -1.3794243e-01
 -1.5498203e-02
 -4.7178566e-02
 -3.5039619e-02
  2.6780723e-02
  1.2762812e-01
  1.1197135e-03
  2.7583402e-01
  6.0883086e-02
 -2.3095530e-02
  4.6596590e-02
  3.9373904e-02
  4.8285533e-02
 -3.9029118e-02
  9.2703504e-03
 -3.0301139e-02
  4.3597609e-02
  5.7526018e-02
  1.9324925e-02
  4.5575362e-02
 -1.2058306e-01
  9.1117164e-03
 -3.6845122e-02
  4.1350983e-02
 -2.0831428e-02
 -3.3852261e-02
  2.0943675e-02
 -1.0673256e-02
 -9.8469667e-02
  1.7492237e-02
 -2.1689104e-02
  3.8659900e-02
 -4.0025424e-02
  1.9477237e-02
 -4.4494849e-03
  5.9110750e-02
  6.6272214e-02
  7.8404117e-03
  5.7185180e-03
  1.9680688e-02
  1.0997230e-02
 -1.0025308e-02
 -6.9479011e-03
 -4.4320407e-03
 -8.0415756e-03
 -2.7117284e-02
  6.9058081e-03
  5.2502248e-02
  7.5292490e-02
  9.0776324e-02
  1.8537879e-02
  4.2734973e-02
  1.5035769e-02
 -6.0984757e-02
  6.4291731e-03
 -7.7904291e-02
  3.0015025e-03
 -9.8383110e-03
 -4.1607022e-02
 -3.7182448e-03
 -4.2312842e-02
  1.1545397e-01
  1.0183178e-02
  1.2220085e-01
  1.8177031e-02
 -3.7692720e-03
 -8.6714789e-02
 -2.6027240e-02
 -5.4546691e-02
 -2.3636999e-02
 -8.9793190e-02
  1.4830003e-02
  3.0843727e-02
 -1.6674963e-03
  1.6570073e-02
  5.7376154e-02
  2.9539660e-02
  4.3582156e-02
  1.7589208e-01
 -2.6878636e-02
 -1.5343176e-01
 -5.6586910e-02
 -4.2153740e-01
 -1.5413946e-01
 -4.2783931e-02
  1.6301012e-02
 -3.3646457e-02
 -3.8432702e-02
 -4.4643939e-01
 -1.9258009e-02
  6.0356583e-02
 -3.2718748e-02
 -1.3422792e-01
  2.6964094e-02
 -2.1160124e-02
 -1.1749698e-01
 -5.7256930e-02
  9.1948221e-04
 -9.1446370e-01
 -2.8542710e-02
 -7.7854162e-03
  6.4721912e-02
 -2.5873375e-01
  1.3839208e-01
 -1.7753512e-02
  3.0921116e-02
  2.3417855e-02
  7.1454491e-03
 -2.0949738e-02
  9.0295691e-03
 -8.0493651e-02
  9.0455271e-02
 -4.6628363e-02
  2.2048550e-02
  1.1724503e-01
 -2.4049610e-02
 -1.5005695e-03
  7.5154230e-02
  4.1049052e-02
  3.8812470e-02
  8.7639820e-03
  6.0529530e-02
  8.5302219e-03
 -4.5941774e-02
 -4.7853246e-02
  8.5343961e-03
 -1.1558635e-02
  1.4280210e-01
 -2.2208149e-02
  1.2676901e-02
 -6.0886968e-02
  8.8359259e-02
  1.2149388e-02
 -1.8203700e-02
  1.4244668e-02
  5.4482471e-02
 -3.6265962e-02
  2.8113639e-03
 -4.5114156e-02
  8.6321734e-02
 -1.8720996e-02
  1.9655074e-01
 -1.4431558e-03
  3.2774255e-02
 -4.6854425e-02
 -2.8250704e-02
 -1.8887782e-03
 -1.2200823e-01
  2.1094196e-02
 -4.0517803e-02
  3.6619041e-02
 -7.5385518e-02
  8.3732465e-03
  5.5419527e-02
  2.2082615e-01
  3.1341683e-02
  9.8155849e-02
 -5.9438214e-02
 -1.4137810e-01
  3.4857714e-01
 -2.6122039e-02
  2.2045260e-02
  4.4877134e-02
  7.2731428e-02
 -9.9562205e-02
 -1.2068168e-02
  4.8323393e-02
  1.3122591e-01
 -1.0819191e-01
 -1.3553840e-01
 -4.6671327e-02
 -1.4097339e-02
  2.8953912e-02
  6.2208340e-02
 -4.4073895e-02
  2.0132437e-02
  1.1913495e-02
  3.9260719e-02
  1.2243058e-02
 -8.9689724e-02
 -2.2702344e-02
 -5.9292927e-02
  8.0664381e-02
 -1.0135520e-02
 -2.4220854e-02
 -1.0695744e-01
 -1.4503710e-03
 -1.3452350e-02
  2.4670456e-02
 -2.5178328e-02
  8.1904978e-02
 -9.7798035e-02
  4.9614944e-02
  1.2723519e-01
  7.7115640e-02
  7.3018812e-02
  3.1658851e-02
  1.8154513e-02
  1.6351894e-01
  1.6310085e-02
 -1.0673981e-01
 -8.5466728e-02
  1.0906273e-02
  5.9152767e-02
 -6.5564699e-02
  8.1257997e-03
 -8.8860400e-02
 -4.6414662e-02
  6.0665973e-02
 -4.3198723e-02
 -2.8408995e-02
  6.5475971e-02
 -6.0643952e-02
  5.1536225e-02
  6.0169729e-03
  1.1893608e-01
  1.2360843e-03
 -4.9006924e-02
 -2.7316984e-02
  1.8201469e-02
  1.7849578e-02
  2.9555401e-03
 -4.8954980e-03
 -2.8772594e-02
  2.3456434e-02
  3.5085138e-02
 -9.0418935e-02
  1.0766400e-01
  1.8833891e-01
  2.8795861e-03
 -6.3825853e-02
  4.9450614e-02
 -1.7538410e-01
  1.2658596e-01
 -4.2796568e-03
  1.6694449e-02
  3.6486485e-03
 -4.0276796e-02
  7.8510262e-02
  5.7543418e-03
  4.8402682e-02
 -7.5316079e-02
  9.7925887e-03
  1.6308727e-02
  5.4830541e-03
 -3.1567927e-02
  2.4030885e-02
  4.9612507e-02
 -3.1791758e-02
 -4.7456041e-02
 -4.5443740e-02
 -3.7338287e-02
 -1.7344491e-03
  3.0595940e-02
 -2.0259817e-03
 -4.6164483e-02
 -6.3716136e-02
  6.8340246e-03
  8.6114600e-02
  1.5657889e-02
  8.1047369e-03
 -7.3724538e-02
 -3.3798849e-04
 -2.4534006e-02
 -1.0559574e-01
 -1.9762799e-01
 -1.8702272e-02
 -3.1135093e-02
  1.8041644e-02
 -9.7472176e-02
 -1.3058494e-02
  6.0581462e-03
  6.3974813e-02
 -9.0065181e-02
  1.0279291e-03
  1.2912374e-02
  5.1898312e-02
  7.1599171e-02
  5.0706132e-03
  1.6659226e-01
 -1.2792870e-01
  3.5069555e-02
  1.9720808e-01
 -5.8986031e-02
 -2.1358633e-02
  3.6894187e-02
 -2.8207388e-02
  8.6095832e-02
  2.1381386e-01
 -2.4047967e-02
  1.9769611e-02
 -8.5196206e-03
 -3.0078792e-03
  2.4040906e-02
 -2.4478717e-02
 -1.0222089e-02
  9.9230940e-03
 -5.5180870e-02
 -4.8399314e-02
  2.2731166e-01
 -2.4750091e-02
  1.2834607e-02
  5.7060528e-03
  2.3036975e-01
 -1.1686419e-02
  8.0574350e-03
  1.2900957e-01
 -3.1567425e-02
  4.2143181e-02
 -3.0281652e-02
 -1.0620511e-02
 -1.2434806e-01
 -8.4219478e-02
 -3.5055954e-02
 -2.1202603e-02
 -8.2077943e-03
  1.5296601e-02
  5.6359127e-02
  8.2542218e-02
  5.2000396e-05
  7.1764076e-03
 -1.0926811e-01
  1.7068695e-01
  7.8538861e-03
 -8.0949580e-03
  1.5785189e-01
  2.5600415e-02
  1.1411398e-01
 -2.4801441e-03
  7.8855297e-03
 -7.6098079e-03
  9.3366290e-03
  6.8622845e-01
 -1.1976645e-02
 -9.0403974e-02
 -5.2228399e-02
  6.7248367e-02
  3.8032029e-02
  2.1720719e-02
  2.9385783e-02
 -2.4225606e-02
 -1.3634992e-01
  3.0365132e-02
  2.5691923e-02
 -2.5888521e-02
 -4.3613920e-03
 -3.5094518e-02
 -1.0190688e-02
 -4.8887521e-02
 -9.8325890e-03
  6.0116258e-02
 -1.3093962e-01
  1.0444047e-01
 -4.0583145e-02
  4.2831607e-02
  4.4911712e-02
  4.1591441e-03
 -8.7696956e-03
 -2.0263877e-02
 -2.4763452e-02
  4.4988308e-02
 -6.0244706e-03
  9.6897610e-02
 -8.4012069e-02
 -8.5134491e-02
 -4.4214614e-02
  5.0831087e-02
 -1.2271103e-02
 -1.9777128e-02
  1.2604194e-02
 -4.8831414e-02
  1.8470885e-02
  4.1814808e-02
 -3.2135163e-02
 -4.9264941e-02
 -2.9452054e-02
  4.7204811e-02
  8.2691118e-02
  3.0703133e-02
  7.8384362e-02
 -3.3659477e-02
  2.1216320e-02
  4.3870606e-02
  1.8650157e-02
  1.0333748e-01
  2.6180808e-02
 -6.3412329e-03
  5.0641179e-02
  9.5928594e-02
 -4.1530225e-02
 -8.1276581e-02
  3.0820211e-02
  2.2999412e-01
 -3.7201297e-02
 -5.7579715e-02
 -1.3054517e-02
 -4.1562293e-02
 -1.7671678e-02
  3.1274885e-02
 -9.1945091e-03
 -2.1437692e-02
 -2.1522714e-02
  2.7372567e-02
  3.8210377e-02
 -5.1559862e-03
 -3.2231018e-02
 -8.1794836e-02
  6.0549438e-02
  3.2701328e-02
  8.4152587e-02
  2.1558775e-02
 -1.7984712e-01
  2.4846518e+00
 -5.5011325e+00
 -6.7454523e-01
 -4.3592710e+00
  1.4926847e-02
  2.0934284e+00
 -1.7959994e+00
 -1.5665637e+00
  1.4257265e+00
 -1.1095752e+00
  6.8996996e-01
 -1.1925113e+00
 -5.6724109e-02
 -3.1483423e-02
 -1.7264736e+00
  1.8693599e-01
 -1.5678136e+00
  7.2183233e-01
 -8.4604883e-01
 -5.7453835e-01
 -9.6105820e-01
 -1.4282427e+00
  1.1732992e+00
 -5.9743365e-04
  2.5701195e-01
 -6.6794312e-01
 -1.2171426e-01
  2.2013038e-01
  1.8028736e-02
 -6.7565523e-02
 -4.1055414e-01
  1.5465444e-01
 -5.0529534e-01
 -2.7049211e-01
 -5.4753955e-02
 -2.9366827e-02
  8.6457171e-02
 -2.5090916e-02
  1.8359469e-01
 -1.4057514e-01
  6.4970009e-02
 -7.3564224e-02
  2.6152748e-01
 -1.2579869e-02
  2.7852041e-01
  9.9893799e-03
  2.9255018e-01
  1.8089077e-02
 -1.4843318e-02
  7.1742505e-02
  8.0697555e-03
  3.2446209e-01
 -5.8645377e-04
 -8.6962052e-02
 -1.3642339e-02
  3.8439005e-03
 -4.6768647e-02
 -3.3466168e-02
 -4.2403322e-02
 -1.2968238e-01
  1.6318704e-01
  1.7972138e-02
  5.9441302e-02
  1.6957286e-01
  1.0315712e-01
 -6.0608308e-03
  1.5754297e-01
  1.8570809e-01
  8.6628810e-02
 -2.7371893e-02
  1.1783395e+00
  3.8776308e-01
  7.3903129e-02
 -9.2856176e-03
 -5.5226319e-02
 -3.4926936e-01
 -3.4652639e-02
  1.9222341e-02
  2.0251272e-02
  1.1217670e-03
 -3.9179254e-01
  9.9014297e-02
  4.3612398e-02
  1.2277627e-01
  1.1531679e-01
 -1.9667768e-01
 -4.3560746e-01
 -9.5651709e-03
 -3.0379599e-02
  2.3263276e-02
  6.0971519e-03
  2.1833668e-02
 -1.1192255e-02
 -5.1772870e-02
 -1.7131593e-02
  3.6525290e-02
  2.4131209e-02
 -6.1446754e-04
 -2.2271739e-03
  2.3563977e-02
  3.3740234e-02
  2.9564761e-03
 -4.3444801e-02
 -1.6950268e-01
 -2.7837414e-02
  1.2136265e-02
 -1.0150221e-01
  1.3926660e-01
  7.7146932e-02
 -4.7982700e-02
  2.2589024e-02
  1.9909089e-02
  1.3491987e-01
 -2.8506160e-02
 -1.1273317e-01
 -4.4021979e-02
 -5.9894831e-03
  1.1137128e-03
  1.5073523e-03
 -2.7275056e-02
  3.7299853e-02
  4.0915958e-03
  9.1052018e-02
 -7.8791231e-03
  5.6484360e-02
 -5.8766250e-02
 -2.5504351e-02
  1.9994546e-02
  1.8141598e-02
 -5.3001110e-02
  4.7129393e-03
  3.6663935e-03
 -1.2826087e-01
 -4.8294216e-02
  8.3701937e-03
  2.6515484e-01
 -4.4895220e-03
  3.6969103e-02
 -1.5127906e-01
  1.2461997e-02
 -1.1687371e-02
  2.9171413e-02
 -9.0278201e-02
  1.6892130e-02
 -3.7352979e-02
  3.5232656e-02
 -3.8989615e-02
 -1.3036907e-01
  9.9917836e-02
 -8.0279671e-03
 -6.9124554e-03
 -7.6984793e-02
 -5.2864317e-02
 -1.2492467e-01
  5.3930427e-03
 -1.0787681e+00
  2.9183745e-02
  6.6027232e-02
  3.9309483e-02
 -2.8567325e-02
 -1.2322235e-01
  3.3812955e-01
 -6.6621429e-03
  1.0907572e-02
  1.6096862e-02
 -4.7340911e-02
 -3.9858911e-02
  1.6698398e-03
 -1.3256907e-02
  9.8581411e-02
  2.8644294e-02
  4.2272565e-01
  2.6776597e-02
 -5.2381970e-02
  8.9669503e-02
 -1.3744798e-02
 -5.0000483e-03
  4.4380765e-02
 -1.5388614e-02
 -1.8324262e-02
  3.0645974e-02
 -4.8795983e-02
 -3.7880860e-02
 -8.3761469e-02
 -5.1404048e-02
 -5.4516057e-03
  7.0486471e-02
 -2.2190053e-02
 -1.2872081e-01
  7.7587082e-03
  9.7245714e-03
 -4.0782243e-02
  8.3362639e-02
  8.7251458e-03
 -2.4212087e-02
  5.4719444e-02
 -9.3782553e-03
  1.6203719e-01
  2.5328796e-02
 -6.9619365e-02
 -8.8943392e-02
  1.8414684e-02
  2.5336031e-02
  9.3109839e-02
 -1.4531715e-02
  8.5002864e-03
  5.2651659e-02
  3.9568629e-02
  9.1486285e-03
  1.1995630e-02
 -3.9062011e-01
  7.5050808e-02
  2.9615659e-01
 -1.3631596e-01
 -1.8183347e-03
  2.2845354e-02
  8.3159516e-03
 -2.5286427e-02
  7.9488784e-02
 -2.9587982e-02
  1.1206411e-01
  3.1737827e-02
  1.5522796e-01
 -7.0125610e-02
  3.9890584e-02
 -4.1355845e-03
 -5.1515353e-01
  3.9244156e-02
  5.8689345e-02
  4.2490836e-02
 -1.1764504e-02
  6.8598270e-02
  1.0617608e-01
 -1.3785312e-02
  1.2356734e-02
  3.4603458e-02
 -4.4094563e-02
 -1.3280016e-01
  9.8572493e-02
 -6.2913291e-02
 -6.8412095e-02
 -2.0365272e-02
  9.3070045e-03
 -4.6559837e-01
 -3.7174791e-02
 -5.4029483e-02
  1.8601266e-01
 -2.4723972e-03
  1.5527134e-02
 -2.1909164e-02
 -2.9354379e-01
 -4.1242797e-02
 -3.1195201e-03
 -1.3756685e-01
  8.4947750e-02
 -1.1330574e-01
 -3.3006117e-01
 -2.0667492e-01
 -8.9249816e-03
  1.6417976e-02
  7.5356558e-02
 -3.3184817e-01
  1.6592151e-02
  4.4196419e-02
  5.1159933e-02
  8.8432685e-02
 -1.7418388e-02
 -1.7960623e-03
  1.0286167e-01
 -7.3846877e-02
  1.9238066e-02
 -3.0822134e-02
  3.8433701e-02
 -8.5969105e-02
  1.1066278e-01
  1.1125443e-01
 -4.2235859e-02
 -7.6388158e-02
 -2.0141270e-02
  4.2822808e-03
  1.3544218e-02
 -4.3544091e-02
 -4.2433023e-02
 -5.3798310e-02
  5.6685887e-02
 -2.1912332e-03
 -1.0398313e-01
 -2.1310954e-03
 -2.9964494e-02
 -4.3024179e-02
 -2.5326954e-02
  5.0357338e-02
  7.2606885e-01
 -8.7432846e-02
 -6.7763710e-03
 -3.4069441e-02
 -5.8159541e-02
 -5.7030480e-02
  1.6951818e-02
  3.3213496e-01
  7.6805741e-01
  8.4163374e-01
 -3.2788020e-01
  4.1463196e-02
  3.0313123e-02
  1.6747764e+00
  1.4741827e+00
  4.4714231e-02
 -5.6783251e-02
 -2.6435003e-01
 -3.0431980e-01
  7.1794949e-02
  1.4167421e-02
 -2.0973533e-02
 -9.4752826e-02
 -7.7194226e-01
 -7.9673409e-01
 -4.8699388e-01
  3.4345791e-02
 -2.1074240e-03
  2.8573030e-01
 -2.1415096e-02
  3.0423337e-01
  2.9191459e-03
 -4.9558919e-02
 -4.1455824e-02
 -5.0690919e-01
 -5.5338577e-03
 -2.7145315e-02
  1.8487408e+00
 -1.9685788e+00
  1.0978016e+00
  3.0138263e-02
 -1.1392989e+00
  1.5273492e-01
 -4.1093286e-02
  6.7371243e-01
  1.0939264e+00
  1.0568001e+00
  1.4689209e-01
  2.6635796e-01
 -1.8054819e-01
  8.9386487e-01
  9.2276508e-01
  1.1758500e+00
 -4.0664184e-01
  6.7460942e-01
  8.4435970e-01
  4.2035741e-01
  2.7111238e-01
  1.1857915e-01
  2.4995849e-01
  6.7089611e-01
  6.5296195e-02
  1.0709060e-01
  6.6268742e-01
  2.4672110e-01
 -2.6431033e-02
 -1.8385189e-02
 -1.1227747e-01
 -4.8097074e-01
  5.9838356e-03
 -2.9486439e-01
 -6.8812534e-02
  1.1826618e-01
 -1.8893518e-01
 -3.6744274e-02
 -6.8563935e-03
  1.3132608e-01
 -1.6954383e-01
 -2.0461723e-01
  1.3768424e-01
  4.5344006e-02
  1.9783126e-02
  5.1248538e-01
  3.1455096e-02
  6.7112309e-01
  2.0263335e-01
 -3.1957809e-02
 -2.8910111e-03
  9.3723945e-03
 -2.5078169e-01
  2.4155075e-02
 -3.1545054e-02
  9.9689260e-02
 -8.9461850e-03
  1.5852353e-02
 -3.2122213e-02
  6.1232604e-02
 -2.4789688e-03
  5.3726053e-03
 -1.6707197e-02
 -6.0312089e-04
  3.4557011e-02
  8.8840341e-03
  1.9484411e-01
  2.7735112e-03
 -1.4384103e-02
 -1.1213243e-03
 -1.5883189e-01
 -2.0629371e-02
  1.5283426e-02
  6.5909936e-03
  1.5434738e-02
  2.0290072e-01
  7.8009106e-02
  7.5679034e-02
 -2.8867776e-02
 -1.4586641e-02
  2.0014087e-02
  1.9562504e-01
  3.1801161e-01
 -2.1960624e-02
 -6.0902812e-02
  2.2990654e-01
  1.2844362e-02
  3.3346447e-03
 -5.9142984e-02
  2.0556683e-02
 -1.3848222e-03
  6.1794594e-03
 -1.6064957e-02
  3.1872425e-02
  1.0964508e-01
 -5.8486834e-02
  3.4831967e-02
 -2.2507476e-02
  2.3681257e-02
 -7.3258713e-02
  3.2713402e-02
  7.1719252e-02
 -7.0653060e-03
 -1.4724129e-02
  1.2443788e-02
 -6.5673806e-02
 -1.2253315e-01
  6.9129832e-02
 -6.2476262e-02
 -2.0289935e-02
  2.5764799e-02
  8.4198244e-02
  2.6299691e-02
 -2.4855856e-02
 -4.7928463e-03
 -5.6655314e-03
 -4.6302006e-02
  3.6343098e-02
  4.4632800e-02
  3.5499196e-02
 -3.8356055e-04
  8.0981702e-02
  1.0538623e-01
 -5.6781460e-02
 -1.0076768e-02
  1.8295726e-03
 -4.5554414e-03
  1.8845726e-02
 -1.8658018e-02
  1.3228148e-02
 -3.9298069e-03
 -1.0934830e-02
  1.2075596e-02
  1.0353637e-02
  2.0189840e-02
  7.9995304e-02
  4.7924453e-03
 -3.1386282e-02
  5.5424519e-02
  2.4511894e-02
 -1.0688361e-01
  8.6477650e-03
  1.5203737e-02
  8.4224030e-02
 -2.9327177e-02
  8.0796331e-02
  1.6711036e-02
 -5.0080881e-02
 -1.7850077e-02
 -2.1598091e-02
 -6.4821750e-02
 -9.1267520e-01
  1.6342251e-01
 -4.7625315e-01
 -5.0394285e-01
 -3.0289084e-02
 -1.3067867e-01
  1.8200414e-01
  2.8098863e-02
  2.3272686e-01
 -1.5809622e-01
 -3.4210395e-02
  1.3225679e-01
  8.8964380e-02
  1.0339016e-02
  3.3529356e-01
  2.1071101e-02
 -2.0208988e-02
 -2.6249802e-02
 -5.4487098e-02
  1.6626884e-03
  3.6271971e-02
 -3.4855925e-02
  9.9857680e-02
 -9.1645300e-02
 -1.8231068e-02
  1.2280112e-01
  1.1205154e-01
 -2.5371671e-01
  2.0044155e-02
 -6.1811861e-03
  1.6555613e-01
  6.4709936e-03
 -2.5135409e-02
 -8.2030073e-02
  7.7376276e-02
 -4.8656646e-02
  3.0133935e-02
  7.0141286e-02
 -8.3582595e-02
 -6.1816219e-03
  7.3645927e-02
  3.6032572e-02
 -9.1593241e-04
 -1.3060593e-02
  3.2411220e-03
  2.6513156e-02
  1.5382171e-02
  2.2952381e-01
 -9.8515628e-03
 -1.1781917e-02
 -9.1545247e-02
  4.0608507e-02
 -4.3738175e-02
  3.0997288e-03
  1.7014395e-02
  4.6754505e-02
  2.6606349e-02
 -9.2131056e-02
 -2.2155160e-02
 -1.2713822e-03
  3.9580472e-02
  4.9199812e-02
  2.7091673e-02
 -3.4201767e-02
 -1.0963213e-01
  2.0524811e-02
  1.7840832e-02
  1.7262385e-03
 -2.0615081e-03
 -4.6323288e-02
 -2.3623811e-02
  1.1037176e-02
  1.4271263e-02
 -1.6271964e-02
  3.0566365e-02
 -2.8996378e-02
  1.6109105e-02
 -9.2775442e-02
  4.9025775e-03
  6.9002919e-02
 -5.2403234e-02
 -5.5494264e-02
  8.7766521e-02
 -7.6692872e-02
 -6.3210912e-03
 -1.1011434e-01
  3.8135666e-03
 -1.4495957e-01
 -4.8377853e-02
  5.2506201e-02
  3.9597150e-02
 -3.1104283e-02
 -5.3528128e-03
 -7.4860542e-03
 -4.2079620e-02
 -3.1699255e-02
  2.1730492e-02
  1.3875484e-01
  8.4065549e-02
  3.2577369e-02
  8.9012153e-02
  8.7158613e-02
 -3.4934938e-02
  8.6603826e-03
  3.1689834e-02
  4.0782750e-02
 -2.5929151e-02
 -1.3776404e-01
  4.0225215e-02
 -4.7127854e-02
 -1.7442305e-02
 -6.3723703e-03
 -1.5190102e-03
  1.0684060e-01
  3.5237644e-02
  4.3063357e-02
  8.7096012e-04
  2.4365436e-02
  2.4740774e-02
  4.3939378e-02
  3.4400821e-01
  1.0141571e-01
  2.5835225e-02
  5.3935599e-02
 -9.0963267e-02
 -2.3932711e-03
  5.4270658e-03
  1.8315295e-03
 -4.3165028e-02
  1.5811380e-02
 -4.4719987e-02
 -1.6423149e-01
 -6.1247736e-02
 -7.3929317e-02
 -1.4474168e-01
  1.9939227e-01
  1.5291838e-02
  2.6966719e-02
 -8.3856232e-02
 -8.7598938e-04
  5.4704495e-02
  6.8087932e-03
 -3.7549488e-02
  2.0510344e-02
 -1.0300489e-02
  4.3537300e-02
 -2.0773178e-02
 -2.7626572e-02
  2.5786467e-02
  5.6732442e-02
  9.4333678e-02
  8.1490360e-02
 -7.3392570e-02
  3.8848508e-02
 -1.4420076e-02
  1.6707331e-03
  1.8274585e-02
 -5.5552283e-03
 -2.0287719e-02
 -1.8791875e-02
 -2.5354216e-02
  3.8791090e-02
 -1.5911183e-03
 -3.3253615e-03
 -3.2619538e-03
 -2.9360933e-02
 -6.5771587e-02
 -2.0905936e-02
 -6.6266082e-02
 -4.2226609e-02
  1.7010175e-01
 -3.7255199e-03
 -1.4069478e-01
 -2.4968199e-03
 -2.9046888e-02
 -5.7348233e-02
  1.3962615e-02
 -2.2847136e-02
  3.9637584e-02
  9.4536349e-02
  4.1125906e-01
  7.6398314e-03
  7.4104569e-03
 -3.0240159e-02
  4.3603081e-02
  1.7798565e-02
  2.7926201e-01
 -9.8944843e-02
 -1.7659733e-02
  4.9550336e-02
  1.3139175e-01
 -1.9771496e-02
 -7.1531087e-02
 -1.6886185e-01
 -4.9072910e-02
 -1.6526532e-01
  5.2068239e-01
 -9.3165733e-02
 -5.2125245e-02
 -4.7778346e-02
  2.4230157e-03
  4.1499123e-02
 -6.0475912e-02
 -9.1278754e-02
  1.5352477e-02
  6.3256145e-02
  7.0286959e-01
  2.1256387e-02
 -2.4633477e-03
  2.6868483e-01
 -1.4071721e-01
  6.7887202e-02
 -2.6845121e-01
 -1.0493598e+00
 -1.2878051e-01
  1.1968734e+00
  6.5677874e-02
  2.4020217e-02
 -2.4761610e-02
 -1.0903060e-01
 -2.3526311e-01
  1.2380164e-01
  6.2565720e-01
  3.9329586e-04
  1.1549003e-01
 -1.8158866e-02
 -7.0784426e-01
 -6.7515066e-03
  4.1130884e-03
  5.7025533e-02
  3.1491679e-03
  1.3017124e-02
  7.3409028e-04
 -5.6352321e-02
 -5.7801116e-02
  8.0746479e-02
 -2.3355242e-02
 -4.9615208e-02
  2.6410921e-03
  1.0961674e-01
 -5.4377776e-01
  7.9030663e-01
  1.1629931e+00
  2.0150641e-02
 -1.1426944e-02
  1.6567384e-01
  1.1808442e+00
  3.6448228e-01
 -4.6310225e-01
  1.1893240e-01
  3.8155919e-01
 -9.0318702e-02
 -3.9701086e-01
  2.0674815e-02
  7.7159107e-02
  2.4736632e-01
  9.2373288e-01
 -1.5533090e-01
 -6.8018753e-03
 -5.9105079e-03
  2.9538037e-02
  5.6866950e-01
 -6.0327703e-01
 -3.1757589e-02
 -8.4181823e-02
 -4.5880161e-02
  3.8406298e-01
  1.0686719e-02
 -1.8102889e-01
 -2.3326329e-03
 -1.5069301e-01
 -1.1450429e-01
  1.2148524e-02
  2.7889179e-02
  2.3595065e-02
  8.6614378e-02
 -1.0166412e-02
 -1.0729315e-03
 -1.9730344e-02
 -7.7032126e-02
 -5.2439954e-02
 -6.1847931e-03
 -4.5222826e-02
 -1.7952047e-02
  2.1274245e-01
 -6.9706356e-03
 -3.2843534e-02
  8.0062218e-02
  8.6152861e-03
 -7.0883609e-02
  4.2067789e-02
 -2.1806329e-02
  4.7207322e-02
 -6.4493254e-02
  4.2782597e-02
  1.4818142e-01
 -2.2007082e-02
 -3.4203504e-03
  4.7765415e-02
 -4.8131164e-02
 -3.0607423e-02
 -8.3122186e-02
  5.3639198e-03
  1.2966102e-02
  3.6065415e-02
 -1.4525399e-01
 -1.6763998e-02
 -5.4133367e-03
  3.2985471e-02
  1.2298368e-03
  6.1830141e-02
  1.4792430e-01
  2.9921409e-02
 -8.0465581e-03
  2.3236593e-02
 -2.6462160e-02
 -4.5777224e-03
  9.6374951e-02
 -1.5609860e-02
  3.8081845e-03
  1.4806354e-01
 -9.3115143e-02
 -9.6833497e-02
 -9.8900478e-03
  1.6933735e-02
  1.1008001e-02
  8.1168607e-02
 -7.0318971e-03
 -4.9039677e-02
  6.4042551e-03
  1.1304460e-02
  1.5331191e-02
  1.4785277e-02
  4.0694393e-02
 -2.5236109e-02
  1.2348968e-01
 -1.2348279e-02
  1.1188331e-01
 -4.3075509e-02
 -6.7882910e-03
  2.5375679e-02
  2.4065450e-02
 -8.6197471e-03
  9.1532581e-03
 -9.6796870e-02
 -2.3925170e-02
  9.2933187e-03
  2.7440345e-02
 -1.0823269e-01
 -6.8234280e-05
 -1.2726474e-02
 -1.0797189e-01
 -1.3065740e-02
  1.2218678e-02
 -4.0990498e-02
 -2.0394543e-02
  2.5864076e-02
 -8.9944355e-02
 -6.4226061e-02
 -1.0123236e-01
 -8.7705459e-03
  5.5468477e-02
  9.4841368e-02
 -2.2214169e-03
  4.3118376e-02
  1.2360509e-01
  1.1539541e-01
  2.2386139e-02
 -5.2251734e-02
  5.5202739e-03
 -1.0470483e-02
 -1.1293882e-02
 -1.0279270e-01
 -3.8733900e-02
 -1.7014464e-02
 -5.7959417e-03
  4.7753517e-02
 -4.7226899e-04
  1.1759254e-01
  4.0566817e-02
 -5.4928672e-02
 -1.1693452e-01
  1.1977350e-01
  3.9825201e-02
 -2.6850224e-02
  1.1817776e-02
  2.2704573e-02
  4.1346055e-02
  2.1485148e-02
  2.4663582e-01
 -6.8955898e-01
  8.9793392e-02
 -3.5052451e-01
 -6.4897621e-01
 -5.4491400e-03
 -8.4263551e-01
 -1.6918069e-01
 -2.5990866e-02
  4.7417870e-01
 -1.2684177e-01
 -1.7347060e-02
 -2.6323739e-01
  4.3046781e-01
  9.3403161e-03
  3.6838916e-01
 -4.8177898e-02
 -1.3234229e-01
  1.5668435e-01
  2.1589163e-03
 -6.3639149e-02
  1.8527414e-01
 -1.1527301e-01
 -1.6111809e-01
  1.0000347e-01
  1.9469668e-01
  2.0849647e-01
  1.2514295e-01
  4.9496029e-02
  5.7408982e-03
 -2.3283046e-01
 -6.3744128e-01
 -1.3015904e+00
  1.5133179e+00
 -1.7281412e+00
  1.3808190e+00
  3.1296492e-02
 -9.5897925e-01
  1.5772818e+00
  1.4651569e+00
  3.4881555e-02
  5.1009989e-01
 -4.1053024e-01
  5.4268825e-01
 -9.5951535e-02
 -3.0947369e-02
 -3.2063968e-02
 -1.8950071e+00
 -2.7747431e-01
  5.7858948e-02
 -5.9385651e-01
  5.4187952e-03
 -7.0067203e-01
  3.8665691e-01
 -1.1490270e+00
  1.7332907e-01
 -1.6614363e-02
 -6.8521947e-01
  2.7627721e-01
  1.8340619e-02
 -5.3233031e-02
 -4.2618501e-01
  6.2991723e-02
 -7.2005942e-02
 -1.4680141e-01
  3.3192359e-02
 -4.5072187e-02
 -5.1279608e-02
 -9.2465850e-03
  1.4214860e-01
 -1.0322408e-01
 -2.9061216e-01
 -2.0265135e-01
  1.3245489e-01
 -7.0411243e-02
  6.4193201e-01
  4.8274223e-02
  5.1425010e-01
  1.8460555e-01
 -8.5871369e-02
 -8.4068224e-02
  2.8568268e-01
  5.3005040e-01
 -5.2636802e-02
 -4.8647109e-02
  3.5089932e-02
  4.5371553e-04
  2.5793698e-01
 -9.8923825e-02
  9.0097003e-02
  5.5892733e-03
  1.1094322e-01
  3.8863318e-03
 -4.8254803e-02
  9.5827542e-02
 -3.9499991e-02
  1.7275419e-02
  3.6598649e-02
  1.1740875e-02
  3.4871362e-02
 -1.3128965e-02
  6.5901794e-02
  1.2774403e-01
 -4.3155130e-02
 -1.6733656e-03
 -1.1518453e-01
  2.0194761e-02
  4.7999913e-01
 -1.6284004e-04
 -5.3575430e-02
 -6.0630258e-02
 -4.0973607e-02
 -4.9164444e-02
 -1.0281586e-01
 -2.8224742e-02
 -3.8521141e-01
 -5.8493864e-02
 -1.3808923e-02
 -1.7482350e-02
  3.7460256e-02
 -1.0479704e-01
 -1.1005438e-02
  2.8358318e-02
  3.5032440e-02
 -5.4000854e-02
 -7.2297513e-02
 -8.6499620e-03
 -3.0567398e-02
 -1.0668380e-02
  6.9277190e-02
 -3.4080844e-02
 -1.0296489e-01
  7.3454343e-02
 -4.1160367e-02
  3.0354135e-02
  1.7765738e-02
  5.9212618e-02
 -4.5168577e-03
  6.0480349e-03
  5.3985408e-03
 -3.8452405e-02
 -8.9938961e-02
 -1.1760980e-02
 -8.5535869e-03
 -5.3078029e-02
  1.0703682e-02
  1.4600527e-01
  9.6288519e-03
  6.3704640e-02
  1.9705277e-02
  3.4964442e-02
  6.5779217e-02
  7.7977985e-02
  8.2771897e-02
 -3.3442453e-02
  1.4201280e-02
 -8.6949982e-02
 -2.9960219e-02
  9.7444080e-02
  5.3647985e-03
 -4.7735803e-02
  1.9479206e-02
  1.6987057e-01
  2.2302510e-01
 -7.8106612e-02
 -4.8359051e-02
  3.3205695e-02
  6.0451847e-02
  1.6048631e-02
 -4.5402817e-02
  2.8053887e-02
  1.2882063e-01
  3.8871065e-02
 -3.8281269e-02
  3.1149921e-03
  9.3853906e-02
  1.6586243e-03
  4.1989338e-02
  6.7558229e-02
 -7.0985761e-03
 -7.9866149e-02
 -5.9084624e-02
 -4.3155927e-02
 -7.0650421e-02
  4.4658758e-02
  2.1389700e-02
  3.4119390e-02
  7.3539559e-03
  2.5398863e-02
 -1.4944485e-03
 -2.9139807e-03
  2.6871715e-02
  9.8243870e-02
  4.8726436e-02
  3.6326215e-02
 -2.0441575e-02
  2.5506334e-02
  4.2508805e-01
 -2.4048712e-02
 -3.7363090e-02
 -2.9682609e-01
 -7.5558268e-02
 -5.6310864e-03
 -1.0729837e-01
  7.4459165e-02
  1.1317213e+00
  1.0413105e+00
  1.5764609e-02
  5.5836767e-02
  4.1194431e-02
 -8.2510090e-01
 -1.4242183e-01
  3.5710346e-02
  3.1167144e-02
 -6.8085849e-02
  2.5531259e-01
  1.0977089e-01
  2.7748009e-02
 -4.2468238e-01
 -3.2115930e-01
 -2.4442436e-02
 -1.9411214e-01
 -3.1316400e-02
  3.9938394e-02
  2.8025361e-02
 -1.0677993e-01
  5.5747498e-02
 -1.7851925e-02
  6.2187921e-02
 -4.8003364e-02
  5.3770781e-02
 -1.0845574e-03
  1.2989651e-03
 -6.9460332e-02
  4.4744459e-01
  9.5320374e-02
  2.6569867e-01
  8.3042800e-02
 -3.6444862e-03
  9.6445493e-02
  1.8582989e-01
  2.1535553e-02
 -4.3902302e-01
  1.3854590e-02
 -2.0839821e-01
  4.2197156e+00
  6.6413802e-01
 -4.8953316e-01
  5.0214581e-02
 -8.1979558e-02
  5.2593285e-01
 -1.4592800e-01
  4.6616694e-01
  6.6112393e-01
  6.6628106e-02
 -1.2719257e+00
  1.9764400e+00
  5.8530390e-01
  2.4228080e-01
 -1.1097380e-01
 -9.8958667e-03
  1.3137367e+00
 -3.7075162e-02
  4.0002186e-02
  8.5224882e-03
 -5.3744298e-01
 -2.1481447e-02
 -5.2672988e-01
  5.6587797e-01
 -1.2914190e+00
  3.2843882e-01
  1.4903720e-01
 -4.6052236e-02
 -1.7083503e-01
  1.7680326e+00
  2.2444689e+00
  8.8284916e-01
 -4.1458234e-01
  3.8170096e-02
  1.7197105e-01
  1.0412394e+00
  1.1147711e-01
  8.0885637e-01
  4.8312688e-01
  4.0217668e-01
  1.6529123e-01
  1.4858197e-01
  1.9097993e-02
  1.7194031e-01
  1.5806274e-01
  3.3350324e-03
  6.5470211e-02
 -7.6868266e-02
  1.3050196e-01
  9.6333884e-02
 -1.9298739e-03
 -1.0308944e-02
 -2.9464139e-02
 -2.4691900e-02
 -8.1448272e-02
 -1.1500868e-02
  2.5190002e-01
  1.4813517e-02
  2.3491025e-02
  1.1857245e-02
 -8.0322430e-02
  4.7461662e-02
 -1.0993162e-01
 -6.1791610e-02
  3.3033628e-02
  4.7113478e-02
 -6.5876730e-03
 -3.4373838e-02
  2.1061487e-02
  6.8312660e-02
 -2.3272557e-03
 -1.3406224e-02
  4.2969845e-03
  1.7986478e-01
 -3.6298400e-03
  3.3319148e-01
  4.0427008e-01
  3.1462405e-02
 -1.2613361e-02
  3.6124103e-02
  1.4160448e-01
 -1.1197682e-01
 -9.8024741e-02
  2.5575828e-02
  7.8608640e-02
  4.7806978e-01
  1.2703840e-01
  4.2834603e-03
 -1.4044907e-02
 -1.4487552e-03
 -1.6655949e-01
 -1.1292402e-01
  8.7558523e-02
  5.6845021e-01
 -3.3419648e-01
  3.1098919e-02
 -6.9189258e-02
 -4.5196656e-03
 -4.6070164e-01
 -5.1401742e-03
 -5.5669103e-02
  5.0363179e-02
  7.9562478e-02
  8.2527578e-01
 -1.7362747e-02
  7.1540557e-02
  2.3222987e-02
  3.5262525e-01
 -2.8031619e-02
  1.8313377e-01
  1.1441544e-01
 -5.1474199e-02
  3.2091728e-01
 -2.1710353e-02
  1.9988456e-01
  2.0284510e-01
  4.5142421e-01
  1.1341823e-01
 -9.2356712e-02
  1.5979391e-01
  2.0708856e-01
  3.1427283e-02
 -1.6156631e-02
  4.3981370e-02
 -2.3379808e-02
 -2.0881085e-01
 -4.1002918e-02
 -2.9938361e-02
  2.0649056e-03
  4.7601283e-01
  8.6930268e-02
  2.3598101e-02
  3.2087956e-02
  6.6924036e-02
  5.9727237e-02
 -7.9882160e-02
  3.1341240e-01
  1.8694204e-01
 -2.1618776e-02
  7.4278378e-01
  1.2475989e-01
 -1.8025559e-04
  6.7315385e-02
  4.9409562e-01
  1.5732016e-02
  2.5190642e-01
  2.4149081e-01
  3.4707969e-01
  8.8489875e-03
  1.1392415e-01
  8.5134253e-02
 -1.6023053e-02
  4.3575745e-02
  1.4156324e+00
 -6.3506263e-01
 -4.2455673e-01
 -7.7149105e-01
  1.8644651e+00
  6.6102758e-02
 -2.0372026e-02
  2.7357899e-02
 -7.2349034e-02
  5.8570921e-01
  4.7101212e-01
 -5.5636065e-03
 -8.2085776e-01
  2.4741432e-01
 -8.0827862e-02
 -1.7085100e-02
  3.4805834e-02
 -2.2893383e-01
  1.8243719e-02
  3.0820623e-01
  1.6111016e-01
  4.9935868e-01
  1.1279362e-01
  1.8784125e-01
 -7.1954466e-02
  1.2351833e-01
 -2.6810322e-02
  4.5134580e-01
  6.4309783e-02
 -2.6697707e-01
 -6.2129077e-02
 -1.8092090e-01
 -2.0273797e-01
  1.2264133e-01
  2.7124590e-01
 -6.6689265e-01
  1.1450859e+00
 -1.5822585e+00
 -1.0807208e-01
 -1.8342007e+00
  1.3546584e+00
 -1.1619446e-01
 -4.7712401e-02
  6.4681351e-02
 -1.1615753e+00
 -4.4868979e-01
  1.1721756e-01
  1.4777691e-03
 -5.8805305e-01
 -6.1084580e-01
 -4.5557049e-01
  1.1359889e-02
 -9.7901128e-02
 -2.6298699e-01
  4.2404568e-01
  9.3315348e-02
 -4.1961879e-03
  5.4947156e-01
  4.1346592e-01
 -1.3264462e-02
 -7.1143638e-04
  5.5592185e-01
  1.1792939e+00
  7.5210780e-01
 -3.6727419e-01
 -2.8261700e-01
  2.6198843e-01
  2.7102065e-01
  4.8808705e-02
 -1.6682425e-01
  1.4252879e-02
 -1.4653441e-01
  3.5455208e-02
 -4.6563116e-01
 -1.3712950e-02
 -7.7924615e-01
  5.6360322e-01
 -4.6023328e-02
  1.0423431e-01
 -2.0376360e-01
 -4.2290193e-01
  2.7025841e-02
 -7.7381796e-01
 -4.0628631e-02
 -7.0374179e-01
  2.5366667e-01
  1.8463109e-01
 -2.4708740e-02
  3.3210272e-01
 -4.6303326e-01
  4.4766772e-01
 -8.9207906e-01
 -1.9737753e-01
 -3.7131436e-02
  7.2067899e-01
 -7.3634036e-02
  1.2424467e-02
 -8.7898638e-04
  2.8206137e-01
  4.9068284e-01
 -7.8960848e-01
 -3.4877980e-01
 -7.4128890e-01
  4.9825215e-01
 -1.3038805e-02
 -8.6510908e-03
 -8.6673787e-03
 -8.5217610e-02
  3.3757922e-01
 -4.0479323e-01
 -9.0960953e-03
  1.5078318e-01
  2.7045301e-01
  1.4631316e-01
  1.7211001e-02
  1.4288215e-01
 -5.9689395e-02
 -1.6608351e+00
  3.1056035e-02
 -3.6805826e-01
  1.0888755e+00
 -2.0145469e+00
 -5.1082950e-02
  1.0375819e-01
 -4.1491958e-01
  6.0758393e-02
 -1.6169786e-01
  1.3289794e+00
  3.3107199e-02
  2.3690650e+00
 -2.3128929e+00
  5.8473265e-01
 -8.5451286e-03
 -2.8085614e-02
 -7.4068636e-02
  4.9015936e-01
 -2.3149133e+00
 -5.9451932e-01
 -1.8752327e+00
  1.0602744e+00
 -6.5366292e-01
  2.9405284e-01
 -9.1930084e-02
  1.0656379e+00
  1.2438445e+00
 -3.0617656e-02
  1.8412988e-01
 -4.4156608e-01
  8.5401314e-01
 -6.9238764e-01
  2.3683363e-01
 -3.3656854e-02
 -4.5852834e-01
 -2.8824418e+00
  2.3599064e+00
  3.6140010e-01
  4.2694225e+00
 -1.8676951e+00
  8.2454145e-01
  7.2093450e-02
  4.7868502e-01
  1.3397368e+00
 -1.2788504e+00
  1.1660095e+00
 -8.4607057e-02
  7.3440421e-01
 -8.3250856e-01
  3.6705792e-01
 -2.0199673e-02
  8.3707348e-02
  4.4014373e-01
 -7.3484764e-02
 -8.3069718e-01
 -4.5583747e-02
 -8.9992449e-02
  1.1570811e+00
  2.8662086e-01
 -9.0581857e-02
  1.5465470e-01
 -5.4569620e-01
  3.1941143e-01
 -1.1685184e+00
  4.7356904e-01
  8.8917167e-04
 -3.8072206e-02
  2.4125977e-01
  1.2868128e-02
 -1.1792997e-01
  1.3353231e+00
 -1.0126641e+00
  5.9083861e-01
  4.5482004e-01
  7.4928910e-01
 -1.6819004e+00
  1.1927032e+00
 -2.4869433e-02
 -1.6414388e-01
  4.5826104e-01
 -1.0403824e+00
  1.8536395e+00
 -4.7513168e-02
  7.5601459e-01
 -6.5649366e-01
  3.3017691e-02
  4.2035055e-01
  5.6190002e-01
 -1.7926823e+00
 -1.9330381e-01
  7.2965086e-01
  4.2561084e-02
  1.2130740e+00
  1.0200648e-01
 -1.7673603e-01
  7.6286331e-02
  1.3574098e-01
 -1.0193899e+00
  4.0379524e-01
 -7.3903894e-01
  7.2210550e-02
  1.1702423e-01
  3.5333332e-01
  2.1945165e-01
  6.0808682e-01
 -2.2857502e-01
  5.1027912e-01
 -1.9461912e-01
 -4.2345759e-01
  1.3958381e-01
  7.1106769e-02
  4.8274010e-01
  5.1332998e-01
  3.7746769e-01
  1.8916619e-01
  9.5991802e-01
 -2.9909726e-02
  1.1835235e-02
  8.2959458e-03
 -4.8499981e-01
  1.1569498e-02
 -9.3614891e-02
  1.3844952e-01
 -1.2199193e-02
 -9.7883996e-03
 -1.2078700e-02
  4.5553099e-02
 -9.3378597e-01
 -1.2306590e-01
 -2.1217555e-01
  7.8682182e-03
  2.9785756e-03
  9.9237718e-02
  5.5451579e-02
  1.1126760e-01
  1.5100569e-02
  6.5000176e-02
 -7.1935594e-02
  2.8049999e-01
 -1.9563319e-02
 -1.4861532e-02
 -1.2414190e-01
 -5.4876180e-03
 -3.2153826e-02
 -1.1543307e-01
  3.6201630e-02
 -4.2426637e-01
 -2.3637354e-01
 -3.2294109e-03
 -1.6241542e-01
 -5.0092620e-01
 -2.8792724e-01
 -9.2871293e-02
  2.8335633e-02
  3.0560451e-02
 -7.4398357e-01
 -4.7910026e-01
  8.7931436e-03
 -7.3846109e-02
  5.4030612e-02
  7.5876586e-02
  1.7990196e-02
  8.0756813e-02
  4.5073899e-03
 -1.0611504e+00
  6.9093548e-02
 -2.6206740e-03
 -5.0984103e-02
 -2.4894709e-02
 -2.5991732e-02
  8.1486039e-02
  4.4067256e-02
  9.4678756e-03
 -2.9616901e-01
 -3.3267137e-02
  8.8582812e-03
  5.6890048e-02
 -3.2796331e-03
 -1.8995579e-02
 -1.4961638e-02
 -3.5516046e-02
  3.6730185e-02
 -1.2173988e+00
 -4.9905711e-01
 -2.1940749e-02
  3.2657020e-02
  5.5128209e-02
  3.4982365e-02
  2.9277999e-02
  7.2990298e-02
 -6.2274206e-02
  2.9202918e-02
  1.6795787e-01
 -5.5935390e-02
  3.6409866e-02
 -9.0063699e-02
 -1.3149825e-01
 -7.8807592e-02
  1.4252963e-02
 -3.3017103e-02
 -7.3923415e-04
 -1.3327802e+00
  8.6081726e-03
  9.4406819e-03
 -9.8754913e-02
  1.7997887e-02
 -1.0128711e-02
  4.7510736e-02
 -7.4119836e-02
 -2.2042584e-01
 -9.3183622e-02
  1.7263594e-01
 -4.1535765e-02
  4.2874582e-02
 -1.2118882e-02
 -2.1777179e-02
  1.9087415e-02
  6.3061975e-02
 -7.6174682e-01
  1.2854199e+00
  7.4942589e-02
 -6.4439110e-02
  6.1543640e-02
 -1.9325522e-01
 -3.9906126e-02
  1.7211832e-01
  1.1372598e-01
 -1.0457876e-01
 -1.9285890e-01
 -9.5661871e-02
  6.1173372e-02
 -5.8090091e-03
 -6.1609481e-02
  1.2436165e-01
 -1.4900076e-01
  3.7366182e-03
 -2.0907761e-01
 -1.5994751e-01
  2.3717463e-01
  6.4457113e-01
 -8.0169940e-01
 -2.3096032e-01
 -4.6383658e-01
  6.9326812e-01
 -1.4778313e-01
  2.2539425e+00
 -1.0164350e+00
  9.6019261e-02
 -5.1950213e-02
  3.7526596e-02
 -9.4771171e-01
  2.3996167e+00
 -1.2968082e+00
 -4.2908344e-01
 -2.5918708e+00
  2.2718878e+00
 -1.0347912e+00
 -1.7945316e-02
 -8.5255444e-01
  1.0484396e+00
 -4.4668651e-01
 -5.2274418e-01
 -7.2575763e-02
 -2.9300621e-01
  5.6423843e-01
  8.3398476e-04
  4.2001542e-01
  7.5759828e-02
  9.5003679e-02
 -1.6405547e+00
  1.5346894e+00
  3.0075976e-01
  1.3595324e+00
 -5.4071140e-01
  5.6887108e-01
  2.1414159e-02
 -3.3981118e-01
  2.0896886e-01
 -3.8260886e-01
  1.9134431e+00
 -4.8322484e-02
  1.2863718e+00
 -1.0866019e-01
 -1.5701762e-01
  1.4675185e-01
  1.8774788e-03
 -7.8804600e-01
  1.6500302e-01
 -1.1502174e-01
 -1.0552074e-01
 -1.8841587e+00
  5.2820230e-01
 -2.5310957e-01
 -7.4490421e-02
 -1.4719757e-01
  1.4911950e+00
 -4.4242972e-01
  7.2531122e-01
  1.8492204e-01
 -1.8459949e+00
  9.9548697e-01
  2.5715661e-01
  4.0678743e-01
 -4.1480247e-02
 -5.4046434e-01
 -6.9723058e-01
  6.0960168e-01
  5.2029860e-01
  1.7255269e+00
 -4.3012476e-01
  1.3727462e-01
  1.1460212e-01
  9.2836618e-03
 -5.7261688e-01
  8.6436987e-02
  3.6273339e-01
 -4.1981474e-01
  2.3355703e+00
 -1.0189637e+00
 -1.2243285e-01
 -3.7541147e-02
  1.9640091e-01
 -2.7573380e-01
  1.0179605e-01
 -1.5672895e-01
 -6.8603575e-01
  4.9709550e-01
 -7.3173535e-01
  1.4610235e-01
  4.7944003e-01
  2.7093418e-02
  4.4084308e-01
 -7.1545959e-02
  3.5825089e-01
 -4.3170419e-02
  3.9430596e-02
 -2.8261966e-01
 -6.2465896e-03
 -6.1184775e-02
  1.0731899e-01
  1.6035654e-01
  1.9242510e-01
 -3.8854608e-01
  3.9160794e-01
  2.6829696e-01
 -1.7444551e-01
  4.3439705e-02
 -4.1150358e-01
 -5.4502994e-01
  1.5041407e-02
 -1.0873116e+00
  5.3253317e-01
  3.7183300e-01
 -2.0509166e-01
  4.6451312e-02
 -2.3212452e-01
 -3.4399039e-01
  3.7752088e-02
 -1.4858201e+00
  2.7018746e-02
  8.2345884e-03
 -4.9733732e-02
 -2.0524581e-01
  2.8161760e-03
  5.5845045e-03
 -1.0158115e-01
  1.1171375e-02
 -5.9991915e-02
 -8.3772355e-01
  6.6240944e-02
  1.1123680e-01
  2.3329882e-02
 -5.7845943e-02
 -7.8893481e-03
 -1.0067672e-03
  1.7506889e-01
 -6.3653845e-01
 -3.4820729e-01
  4.4540149e-01
  8.1456256e-01
 -6.3649672e-01
  9.7446598e-02
 -1.9145261e-01
 -5.8314371e-01
 -2.4063418e-02
 -9.9016804e-01
 -2.9384196e-01
  7.5688201e-01
 -4.2883420e-01
 -3.5874957e-01
 -1.4845181e-01
 -8.2350008e-02
  5.2627113e-02
  7.3387973e-02
  4.2611468e-01
 -6.1929011e-01
 -2.8280291e-01
  5.3977406e-01
  6.3940859e-01
  3.2097220e-01
 -1.4743139e-01
 -9.1180734e-02
 -4.6428428e-03
 -7.5221896e-01
 -4.6529728e-01
  8.6997801e-01
  9.6083514e-02
  2.1714847e-01
 -3.1444192e-02
 -4.0418934e-04
 -3.4580803e-01
 -1.1623244e-02
 -2.5589234e-01
 -1.9893128e-01
  8.9898773e-02
 -4.3956786e-02
 -9.6480632e-01
 -2.3486198e-01
 -3.4151163e-02
  9.7970292e-02
 -6.8127736e-02
 -1.8502063e-01
 -4.6761394e-01
 -1.3923408e-01
  1.0423310e+00
 -1.2896921e-01
  7.4343413e-01
 -1.2848029e-01
 -7.7887869e-01
 -4.0619221e-02
 -5.0526434e-01
 -4.6551853e-01
 -1.2074668e-01
  3.5964005e-02
  1.0003936e-01
 -2.5634025e-03
  6.9077030e-02
  2.3624327e-02
 -2.7020637e-02
  1.3134085e-01
 -3.4356296e-01
  4.3186501e-01
  1.9233000e-01
 -7.2090782e-02
  1.2350638e-01
 -8.1344150e-02
  2.3071030e-03
  1.8541658e-01
 -2.1159989e-01
 -9.4143957e-01
  3.5882097e-01
  3.3839923e-01
 -5.7003134e-01
  5.1682204e-02
 -5.6142319e-04
 -9.7268891e-01
  3.5605274e-02
 -7.9684055e-01
 -4.4237384e-01
  1.9489413e-01
 -7.4319534e-02
  4.6428490e-01
 -2.6928365e-02
  2.4999669e-02
  1.3468923e-01
  4.0334398e-01
 -2.8419092e-01
 -9.0519421e-02
 -9.0127856e-01
 -9.6456653e-01
  1.8937589e+00
  4.2248043e-01
  8.3481777e-01
 -4.4828482e-02
 -5.4765888e-03
  7.3574841e-01
 -1.9478958e-02
 -1.2515731e-01
  3.0407699e-02
  1.2494285e-01
  5.3670807e-03
 -1.9366141e-02
  5.6118175e-02
  2.4979739e-02
  2.3626387e-02
 -4.5396308e-03
 -1.2652309e-01
 -6.4488195e-02
  1.9521592e-02
  2.8885515e-02
  2.6686212e-01
 -1.4597798e-02
 -2.6257792e-02
  4.3059173e-01
 -7.0212975e-02
 -6.3347667e-01
  3.4761818e-03
  4.2660096e-01
  3.0160370e-01
  5.3498447e-01
 -1.1596684e-01
 -2.4207470e-03
  1.6284862e-01
 -6.8609172e-01
  2.2025514e-02
 -1.0169605e-01
  2.1894905e-01
 -6.8738125e-02
  1.1004658e-01
 -5.7494044e-02
 -2.3905693e-02
  2.8344831e-01
 -4.7300663e-02
 -4.5533013e-01
 -1.1712985e+00
 -4.4477674e-01
 -2.5304370e-02
  4.7183231e-01
  3.7773073e-02
 -8.1477486e-02
  9.5429912e-02
 -2.5350487e-01
 -8.5568279e-01
  2.5485888e-02
  7.8746951e-01
  2.1518793e-02
  2.0340176e-01
 -4.7458997e-03
 -6.5219380e-02
  2.9716614e-01
  1.2706041e-01
  1.8535641e-01
 -5.9555274e-01
 -2.0249385e-01
 -1.0832992e-01
  7.0380777e-02
  1.2364939e-02
 -2.3925120e-02
  1.1593976e-01
 -9.9393055e-02
 -4.0854649e-03
 -1.7256276e-01
 -1.7504199e-01
  2.8952692e-02
  8.7161767e-01
 -5.8431242e-02
  3.6473297e-02
  1.3137834e-01
  1.3814992e-03
 -8.7433422e-01
 -1.7520972e-02
  7.7926600e-01
  4.7329064e-02
  1.2073284e-01
  4.6521854e-02
 -2.0777408e-02
  5.2618074e-01
  3.0906735e-02
 -6.0409325e-01
 -9.2355704e-01
  7.3579669e-01
 -2.0510878e-02
  4.7061422e-01
 -2.8997941e-02
  3.3347983e-02
 -3.4123350e-02
 -5.0067443e-01
  6.7335504e-01
 -1.2612590e-01
  4.1491900e-02
  5.9724492e-01
  1.0877485e+00
 -5.6655150e-02
 -1.7259826e-01
  7.8898257e-01
  4.8854802e-02
  6.2089670e-02
 -7.6485795e-01
  6.1984427e-02
  2.3951102e-02
  1.7737079e-01
 -1.7634304e-02
  7.4342601e-02
 -1.5179384e-02
  1.8383889e-01
  8.0456460e-01
 -1.2944399e+00
 -1.2414980e+00
 -1.5474571e-01
 -6.4206690e-01
 -6.4680195e-01
  7.2153318e-01
 -1.3720411e-01
 -2.0363897e-01
 -7.4032024e-02
 -3.1240605e-02
 -6.5540177e-01
 -8.0263153e-02
 -1.3971628e-01
 -3.5717487e-02
  3.4005594e-02
 -4.9038563e-02
  2.5976264e-01
  2.6726693e-01
 -5.9581167e-01
  2.8195357e+00
  3.7337568e-01
  2.3083140e-01
 -3.9285773e-01
  3.5392514e-01
  1.1689954e-02
 -1.5252553e-01
  4.1369662e-02
 -6.7318773e-01
 -1.8284721e+00
  6.2019277e-01
 -1.4970300e+00
 -2.5500327e-01
  1.7874695e-02
 -6.1239159e-01
  9.3617663e-02
  3.1591764e-01
  2.0558471e-02
 -4.3384230e-01
  2.4281254e-02
  6.6311127e-01
 -8.9243799e-02
  3.1982788e-01
  4.2250443e-01
 -4.5515824e-02
 -5.0209824e-02
 -1.2464268e+00
 -9.7339980e-02
  8.4053129e-01
 -3.4008512e-01
 -2.9477319e-01
  5.9847999e-01
 -4.4806531e-01
  1.8586390e-02
 -1.9471650e+00
 -3.4200197e-01
 -5.1448292e-01
 -3.4574997e-01
 -1.2737831e+00
 -1.9465569e-01
  1.0561408e-02
  2.9887515e-03
  5.7332629e-01
 -2.8783897e-01
 -5.2025801e-01
 -1.4923923e-01
 -3.7391445e-01
  4.3870643e-01
 -3.6644799e-01
  3.3675295e-01
  5.4934736e-02
  4.0754125e-01
  5.4389393e-01
 -1.2371050e+00
 -3.0277720e-01
  9.1129631e-01
 -4.6121886e-01
 -1.4865099e-01
  2.1475068e-01
 -4.1046470e-01
  1.2516483e+00
  7.0675391e-01
  1.7452199e-02
 -1.2907254e+00
  5.4535973e-01
 -1.8694600e-01
 -6.7236461e-02
  5.1790871e-02
  1.1842826e-01
  2.0728731e-01
 -1.0435375e+00
 -1.1275209e+00
 -1.0008131e+00
 -3.0316976e-01
  4.7884119e-01
 -3.8038343e-01
  4.5378426e-01
 -4.7311240e-01
  8.1562296e-02
 -8.5868865e-01
 -1.2706014e+00
 -3.0084619e-01
 -3.5869402e-01
 -7.4457657e-01
 -1.2294589e-02
  7.0400524e-01
 -3.1714019e-01
 -2.3410247e-01
 -4.6014571e-01
 -1.1866943e-02
  2.8449222e-01
  8.0635631e-03
 -8.9918882e-01
 -3.3351719e-01
  9.8772168e-02
  2.3511723e-01
 -1.8085800e-01
  5.2082342e-01
 -7.0858204e-01
  6.7890328e-01
 -1.3711846e+00
 -2.7350292e-01
 -1.6567601e-01
 -1.0411508e+00
  9.0832746e-01
 -6.0992181e-02
  2.4857046e-01
  4.8169721e-02
  2.2806607e-01
 -1.0136829e-01
 -4.1459026e-03
 -2.8592378e-02
 -1.2843406e-01
  1.0315456e-01
 -1.7476241e-01
 -2.3432146e-01
 -4.4169515e-02
 -5.5498604e-02
  6.4191312e-02
 -2.9350141e-01
 -2.1159720e-02
  2.8417274e-01
  1.2342900e-01
 -8.9469510e-01
  9.5179987e-01
 -7.1252924e-01
  3.7928155e-01
 -4.0022966e-01
 -5.2277045e-04
 -7.1966685e-02
 -9.4193202e-01
  5.9183246e-01
  1.1308139e-02
  4.8058334e-01
  6.5550908e-02
  1.4915762e+00
  1.3171917e-01
 -6.3350447e-02
 -6.3620590e-02
  2.8758669e-01
 -1.4088020e-01
 -1.0515393e+00
 -3.5751697e-01
 -7.7318496e-01
  4.8700669e-01
 -9.4794314e-03
 -8.4031895e-03
 -1.3516513e-02
 -7.0439123e-02
  3.3575496e-01
 -4.4345638e-01
  7.2642076e-01
 -1.2980030e-01
  6.7879552e-01
 -3.4583008e-01
 -5.0608804e-03
 -5.3659249e-02
 -6.1240065e-01
  1.0998175e+00
 -2.1842489e-02
  5.9627271e-01
 -9.9793017e-02
  5.0480765e-01
  5.3080755e-01
 -1.3279670e-01
 -5.5789046e-02
  9.5717520e-02
 -1.0555468e+00
 -4.9394986e-01
  4.3596190e-01
 -5.5677611e-01
  5.9559119e-01
 -1.4835545e+00
 -2.8881265e-02
 -1.8994069e-01
 -1.4713113e-01
  9.9326134e-01
 -9.8429143e-01
  1.7650496e-02
 -7.2217360e-02
 -1.8202950e-01
 -3.1581590e-01
 -1.5083478e-01
 -3.3451978e-02
 -1.8794294e-01
  3.5111207e-01
 -9.7802901e-01
  3.9328625e-03
 -1.6570970e-01
 -2.3492771e-01
  1.1398202e-03
 -1.0800485e-01
  6.2805697e-02
  6.7980951e-03
  5.9337425e-01
 -1.1951538e+00
 -1.7701302e-01
 -3.7347716e-01
  1.3455242e-01
 -6.6253495e-01
 -4.3484703e-02
 -2.1102089e-01
 -3.4044299e-01
  7.7526802e-01
  6.5999150e-02
 -1.1053114e-01
 -3.3923000e-02
 -1.6092311e-01
 -8.9907569e-01
  6.5202683e-02
 -1.4660032e-02
 -1.8263674e-01
  4.7361454e-01
 -2.1235602e-01
  2.3764826e-01
 -7.7712148e-02
 -3.0027587e-02
  5.2591022e-02
 -5.6765851e-02
  1.4845892e+00
  6.9707936e-01
  2.2829333e-02
  8.3195744e-03
 -4.0401971e-01
  4.4878934e-02
 -2.2265481e-02
  2.0101199e-02
  1.6283101e-03
 -1.1753088e-02
  4.4285141e-02
 -2.8977042e-02
 -1.2437045e-02
  1.3660760e+00
  5.1373132e-03
 -3.4669587e-01
  2.2277693e-01
 -3.4990150e-02
  4.0188399e-01
  5.7610666e-04
  3.7568432e-01
 -1.5232255e-01
 -4.0552759e-01
 -3.0509552e-01
  7.6589370e-01
 -2.1131955e-02
 -1.6632769e-02
  9.5761979e-01
  9.7060329e-01
  4.9757272e-02
 -6.7000665e-02
  4.0883396e-02
 -1.1431858e-01
  2.3030005e-01
  8.5327274e-01
 -9.3402211e-03
  6.6918425e-02
  6.9524057e-02
  1.8371443e-01
 -8.8258833e-01
  1.6869560e-01
 -1.2828699e-01
 -1.2369784e+00
  4.3314928e-01
 -2.4896938e-01
  1.1505991e+00
  6.1825448e-01
  1.1143724e-02
 -6.3249707e-02
 -1.4367729e-01
 -2.7327802e-02
  3.6970270e-01
  6.9631791e-01
  3.3767039e-01
  3.0478680e-01
  8.0429161e-01
 -1.6391424e-02
  3.4633055e-01
 -1.0026951e+00
 -1.4120740e-01
  1.4855111e-01
 -1.5906464e-02
 -8.6066052e-03
  2.4080926e-01
  2.4736663e-02
  7.1748085e-02
 -1.6337518e-01
  3.5304189e-01
  1.5771236e-02
 -8.0059582e-01
  7.9078794e-01
  3.0355645e-02
  1.1358389e+00
  5.9056658e-01
  8.9397289e-02
 -5.8438301e-02
  4.2465439e-01
  4.8870638e-02
 -5.1698756e-01
  3.6231521e-01
  4.3665435e-02
  5.1304549e-02
  2.9750770e-01
  6.0762532e-02
  3.2350824e-03
 -2.0659661e-01
 -3.6157751e-01
  3.2630280e-01
 -3.0976549e-02
 -5.1794946e-01
  3.8443813e-01
  1.4867462e-01
  6.6610962e-02
  1.2645896e-03
 -6.9395572e-01
  8.8935820e-03
  2.4702819e-01
 -5.1904190e-02
  2.7510604e-01
  6.6311616e-01
  2.0000054e-01
  2.9295731e-01
 -1.8627572e-01
 -3.7925906e-02
 -4.1803575e-01
 -1.7548956e-01
  1.5503848e-01
  6.4834714e-02
  6.9494858e-02
  4.1839230e-01
  1.1540954e-01
  6.6908458e-03
  6.6908458e-03
  6.6908458e-03
  6.6908458e-03
  6.6908458e-03
  4.4584941e-02
  4.4584941e-02
  4.4584941e-02
  4.4584941e-02
  4.4584941e-02
  3.9796297e-02
  3.9796297e-02
  3.9796297e-02
  3.9796297e-02
  3.9796297e-02
  1.5568715e-02
  1.5568715e-02
  1.5568715e-02
  1.5568715e-02
  1.5568715e-02
  6.2528341e-03
  6.2528341e-03
  6.2528341e-03
  6.2528341e-03
  6.2528341e-03
  2.3872331e-02
  2.3872331e-02
  2.3872331e-02
  2.3872331e-02
  2.3872331e-02
