nep3 3 Ga O Au 
cutoff 8 4 157 28
n_max 4 4
basis_size 12 12
l_max 4 2 0
ANN 50 0
 -3.9958306e-02
  7.5181248e-03
  5.6047756e-02
 -5.6316279e-02
  9.5006367e-03
 -8.1235478e-03
  7.5444944e-02
 -7.4615598e-01
 -3.6414430e-02
  4.7759447e-02
  7.4336119e-03
 -1.1505132e-01
 -2.9225815e-02
 -9.9354265e-03
 -3.4986127e-02
  4.8095029e-02
 -1.2585618e-02
 -3.2992426e-02
  6.5390229e-02
 -9.0125106e-02
 -1.4373390e-02
  7.4500985e-02
  4.7567934e-02
 -3.1902876e-02
  1.2805130e-01
  5.8620878e-02
  6.8408735e-02
 -5.2736886e-02
  8.9556776e-02
  8.9479901e-02
  1.4641341e-03
  2.7908616e-02
  8.2406402e-03
 -6.9700941e-02
  6.5567382e-03
 -2.3558628e-02
  3.9744042e-02
 -4.5299560e-02
  3.5045180e-02
 -1.3435912e-01
 -2.9096896e-02
 -4.7027435e-02
  4.8798945e-02
 -2.5111524e-02
 -1.4667837e-02
  4.9843039e-02
  2.7773178e-01
  4.8850048e-03
 -1.6441515e-01
 -5.4768201e-02
 -1.1040775e-02
  4.4515651e-02
 -3.2589652e-02
 -3.2193724e-02
 -1.2533444e-01
 -3.8627986e-02
 -4.9006734e-02
 -2.2722265e-02
 -6.0869891e-02
 -1.0710470e-01
  1.3725975e-02
 -8.3439305e-02
 -1.3060053e-01
 -2.2704381e-02
 -5.9875514e-02
  7.0437498e-02
 -7.7257819e-02
 -3.3073325e-02
 -7.1773566e-02
 -1.2783103e-02
  1.2982604e-02
 -4.4364311e-02
  8.4458075e-02
 -4.3638116e-03
 -1.5414744e-02
  4.3251202e-02
 -4.2973142e-02
 -9.5910970e-03
 -3.4870643e-03
 -3.7662470e-04
 -5.3647667e-02
 -1.3777975e-02
 -7.8536458e-02
  6.3104178e-03
  6.7578219e-02
  9.4544627e-03
  1.8900963e-02
 -6.9831640e-02
  2.7098253e-01
  2.0458676e-02
  3.2710046e-02
  1.6382212e-02
  2.4717653e-02
 -9.1825817e-03
 -9.6076876e-02
 -7.3823005e-02
 -9.3948066e-02
 -1.8704275e-02
 -9.0402667e-05
  2.9241420e-02
 -2.8645661e-02
 -2.3390236e-01
  1.2361339e-01
 -1.5920771e-02
 -2.5318529e-02
  2.2301676e-02
 -1.3206078e-01
  2.5345879e-02
 -1.5040704e-02
 -3.5058975e-02
  4.6158634e-02
  3.0717131e-02
 -1.3070715e-02
  1.5876323e-02
  7.8087889e-02
  6.7566857e-02
  1.4179365e-03
 -2.8074313e-02
  2.4780871e-02
 -1.7354161e-01
 -3.3331245e-02
 -8.2876615e-02
  1.1222776e-01
  5.2165154e-02
 -4.1943055e-02
  1.8230356e-02
 -5.4540601e-02
 -4.4051757e-01
 -3.7931602e-02
  5.3417075e-02
  3.4940857e-02
 -1.3421746e-01
 -3.5996333e-02
  8.9675225e-02
 -1.1706798e-01
  2.2845216e-02
 -1.8082149e-02
 -9.1610879e-01
  1.6214690e-01
  2.5469055e-03
  5.8910243e-02
 -2.6905116e-01
  3.4395345e-02
 -8.8642634e-02
  3.0821685e-02
  1.9966921e-01
  5.0423671e-03
  6.2103784e-03
 -3.9949782e-02
  2.0248972e-02
  1.4417717e-02
 -6.2395360e-02
  8.4391266e-02
  2.0194261e-01
 -2.6806515e-02
  7.7499188e-02
  7.1098246e-02
  2.0578433e-02
  6.4782025e-03
  3.6648586e-02
  7.1668210e-03
 -2.6131958e-02
 -5.4016978e-02
  7.4570817e-03
  7.1693957e-02
 -1.1325813e-02
  9.8315710e-03
  1.4513931e-01
  1.4553708e-01
 -1.4938897e-02
  1.8621150e-02
  2.2603530e-02
  1.3045445e-03
  2.3888733e-02
  3.9077211e-02
 -1.9865748e-02
 -1.8279098e-02
  3.8418893e-02
 -5.1760584e-02
  1.7213951e-01
  3.1337671e-02
 -1.4836556e-01
 -6.1829090e-03
 -9.3009450e-02
 -1.1774312e-01
  1.1949258e-02
 -6.6757388e-02
 -6.8908399e-01
 -4.7159776e-02
  1.9929484e-02
 -5.9834562e-02
  3.4638986e-02
  3.9931320e-02
  2.1310833e-01
  2.8480178e-02
 -2.4109406e-02
 -2.0973991e-01
  6.1128329e-02
  2.3568571e-01
 -3.3598296e-02
  3.3884026e-02
 -2.7323289e-02
 -3.0540788e-01
 -5.5574715e-02
 -1.9098192e-01
  5.9439316e-02
  1.7352989e-02
  2.5568470e-01
  4.1451869e-03
 -4.8501618e-02
 -3.0265566e-02
  6.3800462e-02
  6.9215544e-02
  8.3432600e-02
 -9.0855546e-03
  4.1590831e-03
  3.6720604e-02
  8.5386403e-02
 -1.1957552e-01
 -1.0649628e-02
 -1.1797617e-01
 -1.6524097e-02
 -6.9857957e-03
 -6.3958891e-02
  9.2555098e-02
 -5.7545319e-02
 -9.3783643e-03
  3.4098156e-02
 -6.2209070e-02
 -4.7267675e-03
  2.9353548e-02
  4.6913803e-02
  3.8865238e-02
  6.6813990e-02
  4.3561932e-02
  4.7171280e-02
 -7.9816513e-02
 -8.9433424e-02
  2.0285901e-02
 -2.8293710e-02
 -8.7133333e-02
 -6.2852837e-02
  5.6804288e-02
  2.9000040e-02
  6.8727951e-03
  1.2566985e-01
  1.4596093e-02
  8.5852757e-02
 -6.1202310e-02
  5.6140050e-03
 -3.1529538e-02
 -5.6622691e-02
  1.3895355e-02
 -1.1829357e-02
  8.6527817e-02
 -7.8120552e-02
 -6.7190617e-02
 -2.7886910e-02
 -4.9422693e-02
 -7.2903894e-02
 -4.6272118e-02
  5.0612044e-02
 -4.5936059e-02
 -7.7301048e-02
 -6.5641077e-03
 -2.5829513e-02
  1.7059680e-02
 -6.3610725e-02
  2.1802174e-02
 -7.5537488e-03
  7.1873263e-02
  4.8731852e-02
 -1.8015721e-01
 -1.2657938e-02
 -7.4014701e-02
  2.6462907e-02
  3.9937100e-03
  3.4830756e-03
  7.3727578e-02
  3.6538988e-02
  2.0347554e-03
 -2.6439589e-02
  1.8262299e-02
 -2.7105585e-03
 -3.5155378e-02
 -6.5786481e-02
  7.0378929e-03
  3.1483982e-02
 -3.8732238e-02
 -4.7022901e-02
 -6.6344582e-02
 -1.7987527e-02
 -1.0667003e-01
 -4.2265244e-03
 -1.3843529e-02
  1.7454449e-02
 -4.2319771e-02
  4.1779485e-02
 -2.7369014e-03
  1.8334663e-02
 -3.5193954e-02
 -1.6797377e-01
 -1.0161190e-01
 -9.6591502e-02
 -1.8603534e-01
 -3.0247545e-02
  3.5850899e-03
  5.9176322e-02
  1.4913210e-01
  9.5607512e-02
 -1.0477306e-01
 -1.1760052e-01
 -9.9302240e-02
  1.7678495e-02
  1.7644718e-02
  4.9009442e-02
  7.8591511e-02
 -3.6706500e-02
  7.1271453e-03
  3.6224373e-02
  2.4324574e-02
  2.0107566e-01
 -9.2209674e-02
 -9.1419145e-03
  2.4254512e-02
  8.3535284e-02
  8.6678505e-02
  2.1956567e-01
 -5.6771208e-02
  1.2086372e-01
  3.6296938e-02
 -4.8845746e-02
 -7.8754425e-02
  9.5819198e-03
 -7.0878323e-03
 -5.2582864e-02
 -1.9554268e-03
 -1.5719466e-02
 -1.2376762e-02
 -1.0981352e-01
  4.5112424e-02
 -3.0303625e-02
  2.3724496e-01
  1.1006463e-01
 -1.0255688e-01
  1.2825184e-01
 -3.8211618e-02
  4.5399491e-02
 -3.5390265e-02
  2.3752028e-02
  3.3587776e-02
  8.3578723e-03
 -1.9867124e-02
 -2.3284117e-02
  1.3400430e-02
  3.0083206e-02
  5.2026760e-02
  1.7522275e-02
  1.9852605e-02
  3.4545541e-02
 -5.8035930e-03
  2.1883683e-01
  2.1615922e-02
 -2.0373918e-02
  7.9016358e-02
 -1.4408366e-01
  1.1400297e-01
 -4.3310922e-02
  6.6566332e-03
 -3.4269970e-03
  9.2595585e-02
  6.8588233e-01
  1.7324744e-02
 -9.3269348e-02
 -4.7195110e-02
 -1.4601639e-02
 -8.0501162e-02
 -2.6230415e-02
 -1.0754314e-01
 -2.4483247e-02
 -1.4107856e-01
  5.4091876e-03
 -4.6992274e-03
 -5.7113208e-02
 -5.5637029e-03
 -8.2675472e-02
 -3.1558260e-02
 -2.5191045e-01
 -2.1909866e-03
 -2.7603847e-01
  1.3330094e-02
  1.2118536e-01
 -1.7272567e-02
 -3.5152391e-02
  6.8324037e-02
  4.0034048e-02
 -6.9444843e-02
 -5.5118632e-02
 -3.7090570e-02
  2.6745012e-02
  1.9948488e-02
  1.7281212e-01
 -1.1816671e-02
 -1.0311065e-02
 -8.6927481e-02
 -7.2538823e-02
 -8.5462026e-02
 -9.4146349e-02
 -1.0652679e-02
 -8.4334493e-02
  5.7985135e-03
  5.8820877e-02
 -2.7082268e-02
  4.4792756e-02
 -4.2844671e-03
  3.3611901e-02
  1.8693997e-02
 -5.5136103e-03
 -8.7016402e-03
  5.8399145e-03
  2.1788150e-02
 -2.7095748e-02
 -7.8587741e-02
  1.0169590e-01
  3.2055937e-02
  9.0956435e-02
 -5.8808648e-03
 -1.8797344e-01
  1.0021398e-02
 -9.7535010e-03
  3.5016719e-02
  2.4032815e-01
 -1.3715723e-01
  3.9680045e-02
  3.3701003e-02
 -5.1352110e-02
 -1.8019747e-02
  1.1072975e-01
 -1.7411051e-02
 -2.9066436e-02
 -1.6075281e-02
 -3.9592911e-02
  7.9805367e-03
  4.1811116e-02
  5.9714280e-02
  2.1860568e-02
 -4.2892780e-02
 -6.6350237e-02
 -1.0277342e-01
 -1.9361556e-02
 -1.8074568e-01
  2.4824488e+00
 -5.3343644e+00
 -6.7147410e-01
 -4.3636880e+00
  1.0612228e-01
  2.0923421e+00
 -1.7824197e+00
 -1.5600916e+00
  1.4296931e+00
 -1.1098900e+00
  6.9103581e-01
 -1.1932712e+00
 -6.1352201e-02
 -9.3652206e-03
 -1.8006257e+00
  2.0172049e-01
 -1.5715790e+00
  7.0702302e-01
 -7.8988481e-01
 -5.6296843e-01
 -9.6324241e-01
 -1.4747330e+00
  1.2498342e+00
 -1.3029160e-02
  9.2344351e-02
 -8.4052211e-01
 -1.2003283e-01
  2.5387071e-02
  1.5395349e-01
 -4.1704714e-02
 -5.4288989e-01
  1.5259185e-01
 -4.7352731e-01
 -1.7605451e-01
 -2.4479236e-02
 -1.0631192e-01
  7.0706874e-02
 -3.0896202e-02
  1.6095543e-02
 -6.6205628e-02
 -2.5028253e-01
 -8.3029680e-02
  2.4759164e-01
  8.4340023e-03
  2.7561742e-01
  2.5485908e-03
  4.2642650e-01
  1.1519615e-02
  9.8044630e-03
  1.3750279e-01
  1.5100375e-01
  3.2696453e-01
  6.2979176e-04
 -1.2569655e-02
  5.3138170e-02
  9.2706494e-02
 -2.6089801e-03
 -3.3462796e-02
  5.7710274e-03
 -2.1036126e-01
  3.1936929e-02
 -2.0192032e-01
  3.6844704e-02
  2.6318550e-01
  1.7466198e-01
  1.7149639e-01
 -7.5282961e-02
  2.0759690e-01
  8.4108122e-02
  1.7604915e-02
  1.1783832e+00
  7.6750124e-01
  1.1512032e-02
  1.0726541e-02
  2.5495375e-02
 -3.6235434e-01
 -3.8138084e-02
  1.8536257e-02
  2.1634631e-02
 -1.3226648e-02
 -3.8343924e-01
  1.9163786e-01
 -1.5986633e-03
 -1.2657721e-01
  9.1773897e-02
 -1.9644238e-01
 -4.3492949e-01
  3.3485781e-02
  3.0243697e-02
  1.0518720e-02
 -2.6709413e-02
 -5.8577608e-02
 -1.4523081e-02
 -8.0840454e-02
 -1.2100682e-01
  8.1110942e-01
 -2.6555806e-02
 -2.4914570e-02
 -6.6977472e-04
  2.1742430e-02
 -4.6577621e-03
  1.3160096e-01
 -1.1970029e-01
 -1.6915944e-01
  2.9920752e-03
 -7.7673271e-02
  3.1255940e-03
  1.2550429e-01
  2.8303634e-02
  7.3973179e-02
 -3.0705130e-02
  4.4502690e-02
  4.0412433e-03
  1.4176638e-02
 -8.4300220e-02
 -5.2936185e-02
 -8.5734939e-03
 -7.4134409e-02
 -4.6700068e-02
  4.5907222e-02
  4.6375625e-02
 -2.9203365e-02
  2.8124254e-02
  1.8796705e-02
  3.6604849e-03
  7.0125714e-02
 -1.1794794e-02
  7.2651766e-02
 -2.1597366e-01
  1.0808719e-02
  2.9525734e-02
 -5.7169590e-02
 -1.1965582e-01
  2.6993765e-02
 -2.4519908e-01
  2.5893036e-01
 -1.5498934e-03
 -1.9673821e-02
 -1.2067410e-01
 -3.4090091e-02
 -2.6393905e-02
  4.0999468e-02
  2.0470450e-02
  1.8605921e-02
 -1.5366217e-01
  4.2145181e-02
 -3.4545377e-02
  4.7563937e-02
  5.1072903e-02
 -8.0237806e-02
 -2.0302483e-01
 -7.7233426e-02
 -4.7614399e-02
 -9.5099339e-04
 -5.2526832e-02
 -1.0678111e+00
  3.8274132e-02
  5.7914052e-02
  1.4431521e-01
  2.2284515e-02
 -1.7171966e-02
  3.9664936e-01
 -3.9354088e-03
 -1.7363269e-02
  3.5542343e-02
 -6.1940040e-02
  2.0493843e-02
  2.0998200e-02
  2.8868955e-02
  1.3756347e-02
  3.8413342e-02
  6.4301372e-01
  2.7263368e-02
  2.4406908e-02
  1.4150099e-02
  4.5761004e-02
 -2.1586043e-01
 -3.1849161e-02
 -3.5577174e-02
  7.1463905e-02
  5.2854908e-04
 -5.1106062e-02
 -3.7866525e-02
  6.1557923e-02
  2.2888551e-02
 -1.2385398e-02
 -4.8326649e-02
 -4.7014885e-02
 -4.1798778e-02
  4.8681949e-03
  1.2300069e-01
 -1.5718829e-02
  1.0815050e-02
 -1.4209357e-02
 -3.1409081e-02
  2.0387730e-02
  4.5826067e-03
  6.8891123e-02
  2.6019491e-02
 -2.5630726e-02
  1.3560878e-02
  4.9244668e-02
 -4.8472095e-02
  1.0379596e-02
 -1.3941354e-01
 -3.2808326e-02
  5.1123813e-02
 -2.3462978e-04
 -1.9314147e-03
 -1.1864363e-01
 -3.8963521e-01
 -1.8242422e-02
  2.9926544e-01
  1.0232792e-01
  8.6558402e-02
 -2.1220123e-02
 -1.6030295e-01
 -4.7874518e-02
  9.4787274e-03
 -6.2671512e-02
  1.0664151e-01
 -5.0120916e-02
  1.7239580e-01
  3.5661902e-02
 -5.3720195e-03
 -1.0247859e-01
 -5.1525283e-01
  1.1489947e-02
  1.0179254e-02
  7.4422029e-03
  2.4551053e-03
  8.2023486e-02
  7.1595237e-02
 -3.2050759e-03
  6.6108756e-02
  1.2565355e-01
 -3.6017045e-02
 -1.1020243e-01
  1.4200716e-01
  5.1378077e-03
 -1.0070317e-01
  5.8729365e-02
 -1.4913562e-01
 -1.0149651e-01
 -2.8666293e-02
 -4.1669533e-02
  2.8503891e-02
  3.7314560e-02
 -3.7407754e-03
 -7.7532776e-02
 -2.4633831e-01
 -8.9014962e-02
 -1.9373420e-04
 -1.4883132e-01
  1.5800221e-01
 -1.0297649e-01
 -3.8275191e-01
 -2.5574890e-01
 -2.9281531e-02
  2.0904969e-02
  2.3274010e-02
 -3.8683429e-01
  1.9450013e-02
  2.7361155e-02
  5.5487316e-02
  4.5331731e-02
 -1.6071564e-02
 -6.7483202e-02
 -2.8974900e-02
 -5.8169913e-02
  1.7642187e-02
 -3.6617439e-02
 -1.3361197e-02
  4.2723373e-02
  1.1077726e-02
  1.1359153e-01
 -7.2383303e-03
  6.4833455e-02
  8.8893007e-03
 -4.9222942e-02
  4.6110813e-02
 -1.4520764e-01
  1.1728607e-01
 -4.6043899e-02
  5.4447155e-02
  1.8335562e-02
  1.0837091e-02
 -6.4500794e-02
 -2.2620771e-02
  4.9452230e-02
 -3.6561037e-03
  6.7211330e-02
  7.2602385e-01
  1.3181798e-02
  2.6924672e-02
 -8.5001148e-02
  8.0070132e-03
  2.7208120e-01
 -1.0072393e-02
  3.3237350e-01
  6.7581409e-01
  8.3257478e-01
 -3.4940097e-01
  2.1428311e-01
 -8.2310690e-03
  1.6739177e+00
  1.4727443e+00
 -1.8570229e-02
  1.6289720e-02
 -2.6126164e-01
 -2.9380405e-01
  2.3611058e-02
  2.8265033e-02
  4.3750167e-02
 -2.2544236e-01
 -7.7045828e-01
 -9.1792256e-01
 -2.5626016e-01
  4.5140687e-02
 -1.5091643e-03
  2.6739758e-01
 -2.0645151e-02
  4.9167404e-01
  2.3070299e-03
 -3.2804798e-02
 -4.4816021e-02
 -6.0012215e-01
 -3.3894470e-03
  1.5567232e-02
  1.8487341e+00
 -1.9440935e+00
  1.0983682e+00
  2.8858125e-02
 -1.1222342e+00
  4.1622958e-01
 -4.1954294e-02
  4.8903847e-01
  1.0088559e+00
  1.0253358e+00
  1.6175184e-01
  2.6150173e-01
 -2.0499502e-01
  1.0058022e+00
  9.3818152e-01
  1.1740639e+00
 -4.0821952e-01
  6.1721385e-01
  8.4541047e-01
  4.2034417e-01
  1.6912511e-01
  1.1793740e-01
  3.8651735e-01
  5.6030393e-01
  1.4036497e-01
 -5.3332370e-02
  6.3031816e-01
  2.4501999e-01
 -1.0753987e-01
 -4.2028166e-02
  2.7824910e-02
 -6.2008131e-01
  6.9370769e-02
 -3.2292515e-01
 -5.5471146e-01
  6.8920471e-02
 -1.7619269e-01
 -2.3756765e-02
 -1.1693152e-02
  9.8283567e-02
 -1.6002326e-01
 -2.2702409e-01
  1.9112623e-01
  1.2257542e-02
  1.7458335e-02
  4.2207950e-01
  3.1767633e-02
  7.2474164e-01
  2.0263387e-01
 -9.2421407e-03
 -1.5843809e-02
  9.6944142e-03
 -2.4064115e-01
  7.1105412e-03
 -1.5138797e-01
  1.7131615e-01
  1.7308575e-01
  1.5843170e-02
  4.9534589e-01
  5.3171147e-02
  1.0723032e-01
 -5.7028858e-03
 -4.7889881e-02
  6.5386011e-03
 -3.5467021e-02
  9.3249269e-03
  1.9727148e-01
 -1.2407562e-01
  2.0447271e-02
 -2.7798049e-02
  2.3913514e-03
 -1.9970857e-02
  6.2006921e-02
 -1.8125816e-01
  1.1918687e-01
  1.2944397e-01
  7.3080212e-02
  1.3673077e-02
 -6.4004296e-03
 -2.3699528e-02
 -2.9930821e-02
  1.9566670e-01
  3.1802180e-01
  5.2692778e-02
 -4.9816076e-02
  1.2958005e-01
 -9.8706782e-03
 -5.0501816e-02
 -5.5466359e-03
  9.2438780e-02
  8.9745242e-03
  1.9200790e-01
 -1.4715380e-02
 -7.8696750e-02
  1.1007731e-01
  3.8853116e-02
  5.1698357e-02
 -1.2842686e-02
  2.2424082e-03
  3.2958309e-03
  1.0123719e-02
  5.6786325e-02
 -1.5898293e-02
 -2.3926343e-03
  6.8598114e-02
 -1.8764904e-01
 -6.1346669e-02
 -4.6177227e-03
  4.8826416e-03
 -1.7613960e-02
 -1.0919197e-02
  8.5380636e-02
  2.5755947e-02
 -2.2371158e-04
 -5.4929636e-02
  5.1374175e-02
 -6.7859575e-02
 -1.8123168e-02
  1.7852044e-02
  5.3692315e-02
 -1.3425015e-03
 -7.1405128e-02
  5.0880726e-02
 -4.5631438e-02
 -2.9782731e-02
 -3.1923687e-03
 -1.0091133e-01
  1.1641366e-02
  7.0675112e-02
 -1.3350127e-02
  4.3093868e-02
 -3.6724791e-02
  2.7674627e-03
 -3.2806944e-02
 -1.4319520e-01
 -2.4117266e-03
 -1.4324686e-02
  1.0484253e-02
  8.0625035e-02
  8.2231387e-02
 -8.3710242e-04
  2.2683803e-02
  1.3800102e-02
  1.7034747e-01
  2.9659639e-03
  3.7256158e-03
  4.9748357e-02
 -5.7229452e-02
 -6.0688917e-02
  1.9307164e-02
  6.2221304e-02
 -5.7982796e-01
  6.0443841e-03
 -6.9819534e-01
 -3.2074147e-01
 -1.1408939e-02
 -9.0421975e-02
  2.2332563e-01
 -1.3604515e-02
  1.7045638e-01
 -1.5489981e-02
  9.1278488e-03
  1.2670405e-01
  8.5043982e-02
 -1.6702892e-02
  3.3519778e-01
 -9.1437297e-03
 -1.6012815e-03
 -7.6384179e-02
 -4.2833075e-02
  5.4791281e-03
  3.7428770e-02
 -3.8138758e-02
  7.0479751e-02
  2.8583771e-02
  2.4356920e-01
  1.2077084e-02
  4.1173954e-02
 -2.5524901e-02
  1.0984561e-01
  1.1392322e-02
 -2.6951550e-02
  1.1281818e-01
 -3.4448329e-02
 -7.1449079e-02
 -1.1978028e-01
  1.4022123e-02
 -1.0909256e-01
  1.6727211e-02
 -9.1806382e-02
 -2.7263794e-02
  7.0018038e-02
  2.5559327e-02
 -3.6246240e-02
  2.3258543e-02
  6.2789884e-03
  2.4552703e-02
 -1.3737189e-02
  2.8636226e-01
  1.9803962e-02
 -2.0867474e-02
 -1.9748046e-01
  2.8793069e-02
 -4.4016067e-02
 -1.4377627e-01
  7.4210338e-02
  5.7600919e-02
  8.0051494e-04
 -4.5298886e-02
 -2.1953005e-02
 -1.6255524e-02
  1.7057490e-01
  7.0260286e-02
  2.2986850e-02
  4.1091926e-02
 -1.5367834e-02
  1.7021995e-02
  2.6722752e-02
  8.8882163e-02
 -7.6927744e-02
 -2.5447795e-02
  3.7559319e-02
 -1.5863266e-02
 -1.3796774e-01
  1.3260950e-01
  4.5772187e-02
  6.6233978e-02
 -9.5971562e-02
 -8.5755289e-02
 -5.0787166e-02
  6.7266054e-02
  2.1571185e-02
 -9.2856755e-04
  3.4523256e-02
 -8.2666129e-02
 -4.2345435e-03
 -1.0777916e-01
 -5.6797668e-02
 -3.6310129e-02
 -2.3813738e-02
  5.4481342e-02
  3.1018091e-02
 -3.5754267e-02
 -1.0542591e-02
 -1.0176564e-02
 -1.8252894e-02
 -3.8187791e-02
  2.2056077e-02
  1.2903827e-01
  9.8833211e-02
  4.0051740e-02
  8.8166639e-02
  8.7207638e-02
 -1.0578942e-01
  1.6578432e-02
  6.8432301e-02
 -2.1522807e-02
 -7.6537900e-02
 -1.5110503e-01
  7.9942942e-02
 -1.4171763e-01
  4.5536481e-02
  2.6502598e-02
  1.7049719e-02
  1.0308126e-01
 -8.1483871e-02
 -1.0417828e-02
 -6.3753486e-02
  4.9410325e-02
 -4.9160320e-02
  3.3478823e-02
  3.4444469e-01
  9.8714158e-02
 -5.8451079e-02
  3.2723626e-01
  5.9805457e-03
 -1.3843141e-02
  4.3327168e-02
 -1.6912265e-02
  4.2485744e-02
  6.8962485e-02
 -6.0215928e-02
 -1.4555225e-01
 -7.2512485e-02
 -3.8376646e-03
 -1.4122808e-01
  1.2212240e-01
  1.0016419e-02
 -2.8180052e-02
  2.0841474e-02
 -1.3755384e-02
  5.3790927e-02
 -3.1072164e-02
 -9.4597429e-02
 -4.7649935e-02
  7.9420567e-02
 -5.4660868e-02
 -2.8982101e-02
 -3.8249262e-02
  1.3186242e-01
 -5.2056190e-02
  9.7280271e-02
 -3.0037997e-02
 -1.2425632e-02
 -2.1993328e-02
  1.9644959e-02
 -1.9931260e-01
 -3.2915305e-02
 -3.7421133e-02
 -5.1322901e-03
 -6.3905805e-02
 -4.4762596e-02
  8.4075145e-03
 -2.5849752e-03
 -1.2963789e-02
  1.2482332e-01
  8.5547110e-03
  1.4354229e-02
 -2.2640642e-02
  4.7730964e-02
 -5.4422807e-02
  3.9906874e-03
  2.6918218e-02
 -1.3923807e-01
 -6.1685048e-02
 -2.6448498e-02
 -4.9014468e-02
  3.7090998e-02
 -6.3922204e-02
  4.9868647e-02
  1.1183891e-02
  7.0763826e-01
 -1.0958368e-02
  4.8044249e-02
  2.5381067e-01
  1.0861211e-01
  9.7294092e-02
  8.1016207e-01
  6.4997859e-02
 -2.2361879e-03
  9.5233209e-02
 -8.7390698e-02
 -1.3232380e-01
 -9.9793971e-02
 -1.4281994e-01
 -3.9118469e-02
 -3.4876308e-01
  5.8711690e-01
 -5.3264685e-02
  2.0965572e-02
  2.1625182e-02
 -1.0735069e-01
 -2.0944430e-02
  8.6055160e-02
  1.0796246e-03
 -4.3456577e-02
  1.2449691e-02
  7.4499029e-01
 -1.2219097e-02
 -6.3485481e-02
  3.0133584e-01
 -1.8073315e-02
 -4.7124948e-02
 -1.4686744e-01
 -1.0788063e+00
 -3.4054711e-02
  1.2237340e+00
  5.6505227e-03
 -3.7782028e-02
  2.8080631e-02
 -5.5545807e-02
 -2.4407344e-01
  2.7472603e-01
  6.7660707e-01
 -1.0562382e-02
  1.5969051e-01
 -6.6105258e-03
 -1.1021636e+00
  1.8025678e-02
 -8.2296461e-02
  1.7397758e-01
 -1.1720213e-01
 -1.3768274e-01
  5.1311545e-02
 -5.6920484e-02
  1.4276332e-01
  4.9344324e-02
  5.1895198e-03
  2.7504979e-02
 -9.8934002e-02
  1.6696724e-01
 -5.4695868e-01
  1.0831023e+00
  1.1717335e+00
  2.3138168e-04
  1.6139733e-02
  1.6238283e-01
  9.5421827e-01
  6.7749935e-01
 -4.6023086e-01
  2.2787614e-01
  3.8003564e-01
 -9.1528505e-02
 -1.3259318e-01
  1.8202738e-01
  7.6475307e-02
  2.4800557e-01
  9.0226918e-01
 -1.5552992e-01
  2.5463726e-02
 -1.8306850e-02
  4.1496016e-02
  5.7274187e-01
 -6.3854939e-01
 -1.3782637e-01
 -2.2999903e-02
 -4.6945147e-02
  4.8022243e-01
  1.7124671e-01
 -1.9031125e-01
 -3.6989007e-02
 -1.2112538e-02
 -1.4642166e-01
  4.5136947e-02
  1.0982768e-02
 -1.3393470e-02
  1.4572901e-02
 -2.1168543e-02
  3.7300722e-03
 -2.8633695e-02
  5.7784595e-02
  2.0532453e-02
  5.0557896e-02
  7.0171654e-02
 -8.8861898e-02
  6.3294992e-02
 -1.1669472e-03
 -6.2359236e-02
  1.2410621e-01
 -1.7905480e-01
  1.5480852e-02
 -4.9010152e-05
  3.9817944e-02
  4.0967062e-02
  2.5925497e-03
  1.0473597e-01
  3.8653455e-04
 -3.3747159e-02
 -8.5524589e-02
  3.5549828e-03
  5.2396930e-03
 -3.0693181e-02
  9.6827909e-02
  1.5413425e-02
  2.1597547e-02
  8.8031970e-02
 -1.0455385e-01
 -7.3265936e-03
 -4.2824266e-03
  7.8968845e-02
  3.0396180e-02
  7.4812323e-02
  8.5275240e-02
  3.4531817e-02
 -3.5397928e-02
 -1.3042761e-02
 -5.7720266e-02
 -1.7705166e-01
 -4.3206308e-02
  1.4491759e-02
 -4.3868698e-05
 -3.6574458e-03
  1.2933412e-02
 -7.7333723e-05
 -9.8969061e-03
  1.0889845e-01
  5.4716510e-01
  9.8221377e-02
  2.7969304e-02
 -1.1121244e-01
 -1.3120902e-02
  8.4798783e-02
  4.7066864e-03
  7.6144007e-03
 -1.1079746e-02
  1.6421947e-01
  1.2447926e-01
  1.6206048e-02
  2.1997400e-02
 -4.3295741e-02
  4.8038892e-02
  2.7453411e-02
  3.8351890e-02
  3.0297034e-03
  2.5905481e-02
 -6.5523401e-02
  3.9306995e-02
  1.3045087e-01
  2.9180666e-02
 -3.1796850e-02
 -7.3506334e-03
  3.9947022e-02
 -1.9840304e-02
 -2.0642705e-02
 -1.6592931e-02
 -1.7109463e-01
  3.2885382e-03
  2.3662195e-02
 -5.7708193e-02
  9.6268831e-03
 -2.3597978e-02
  1.0432786e-01
  1.7947838e-02
  4.7137640e-02
  9.0561332e-03
  8.7271146e-02
  3.9796559e-03
  1.1174659e-01
  1.1024795e-02
 -2.6217310e-02
 -1.7884150e-02
 -6.6313103e-02
 -2.6841015e-02
 -1.0938387e-01
  6.2708631e-02
 -3.8596990e-03
  1.2469741e-01
  5.3021517e-02
  4.4648387e-02
  1.6038533e-01
  3.9983805e-02
  4.0956654e-02
 -9.1827862e-02
 -6.1129764e-02
  1.5267605e-01
 -8.9477096e-03
 -1.3149929e-01
 -1.5860969e-02
 -1.3335401e-01
  1.3572381e-01
  2.2253156e-01
 -6.6818744e-01
  4.2372487e-02
 -3.7049076e-01
 -6.6009212e-01
 -1.6082233e-02
 -8.5526288e-01
 -1.6408862e-01
 -2.4688315e-02
  4.8493657e-01
 -1.0250277e-01
 -4.7581375e-02
 -2.7722669e-01
  3.9354894e-01
 -4.7695655e-03
  3.9991140e-01
 -4.7206856e-02
 -1.3201544e-01
  8.2221895e-02
 -5.8498993e-03
 -6.8907812e-02
  1.8367878e-01
 -7.7082604e-02
 -1.6095261e-01
  8.1362069e-02
 -6.9838231e-03
  2.6047048e-01
  8.8737674e-02
 -4.4791773e-02
  3.3744413e-02
 -2.2643526e-01
 -4.1764017e-02
 -1.4119858e+00
  1.5148760e+00
 -1.7896373e+00
  1.3199725e+00
  9.8801501e-02
 -9.9114239e-01
  1.7310387e+00
  1.4656799e+00
  3.5406541e-02
  5.4307747e-01
 -4.2974880e-01
  5.4291916e-01
 -7.2184660e-02
  4.6389583e-03
 -1.1017629e-02
 -2.0927165e+00
 -2.7651438e-01
 -4.3364946e-02
 -5.9422612e-01
  2.7136980e-02
 -1.0498432e+00
  4.7412208e-01
 -1.1485968e+00
  2.9278895e-01
 -9.3214521e-03
 -6.8569648e-01
  3.7753615e-01
 -4.8379574e-02
  3.7648078e-02
 -7.6657915e-01
 -1.5653210e-02
 -4.5291722e-01
 -5.1486656e-02
  2.0493859e-02
 -1.8713621e-02
 -2.3385096e-02
  6.4610444e-02
  7.9175666e-02
 -1.4111958e-01
 -2.9844525e-01
 -2.0249604e-01
  1.8262865e-01
 -7.0285387e-02
  6.1578453e-01
  5.1471572e-02
  6.2166280e-01
  2.2592542e-01
 -7.1994536e-02
 -8.8346519e-02
  3.1777820e-01
  5.5593479e-01
  8.0787472e-02
 -3.3330522e-02
  3.4510437e-02
 -8.5509615e-03
  2.6601598e-01
 -3.2125119e-02
  3.7029359e-02
 -8.2234837e-02
  2.0061319e-01
 -8.4045688e-03
 -4.6567176e-02
  3.6774629e-03
  2.4468772e-02
  2.8211901e-01
  6.5919966e-02
 -2.8858544e-02
 -1.1384682e-01
  1.9587072e-02
  8.6070709e-03
  1.3429974e-01
  2.6284534e-01
 -9.0258569e-03
 -1.4219421e-01
  2.3288842e-02
  5.0747973e-01
 -2.0190468e-02
 -1.5588472e-02
 -1.4593141e-01
 -2.7309370e-03
 -4.6857093e-02
  1.1045253e-02
 -1.2289188e-02
 -3.8537106e-01
 -2.9252561e-02
 -1.1330748e-01
  2.4541194e-02
 -1.8797444e-02
  1.4807280e-02
 -1.0661223e-02
  4.8542880e-02
 -1.7724568e-02
 -2.8402422e-02
 -4.1003156e-02
  3.1123420e-02
  2.1397425e-02
  4.6079431e-02
  2.7391143e-02
 -2.2913689e-02
 -1.0357524e-01
  4.9745057e-02
  3.1472974e-02
  1.6793620e-02
 -1.7320504e-04
  3.2047149e-02
 -5.3377017e-02
  2.4188150e-02
 -8.9674145e-03
 -3.4235597e-02
  8.5999966e-03
 -1.9358464e-02
 -2.6425329e-01
  1.2682848e-02
  1.8037386e-02
  1.2812138e-01
 -1.1325446e-02
 -6.4809754e-02
  4.8358098e-02
  6.4431600e-02
 -1.1147574e-01
  4.2838518e-02
 -2.5638989e-01
 -1.7323803e-02
  4.1529253e-02
  7.6997012e-02
 -3.9986633e-02
  5.1384332e-04
  8.0835313e-02
  4.3424983e-02
  3.0934343e-02
  1.2089035e-01
 -1.2025176e-02
 -3.9908074e-02
 -4.8840959e-03
 -4.8189901e-02
 -3.1933229e-02
  6.1325873e-03
  3.8045589e-02
  1.2475862e-01
  1.4210643e-01
  3.0210955e-02
 -2.0684607e-02
 -2.7446430e-02
  5.1141262e-02
  7.3605584e-04
  2.9385189e-02
 -4.2446889e-02
  1.0594507e-01
  1.1133891e-02
  9.5260432e-03
 -3.4389250e-02
  1.9404158e-02
 -9.2814835e-03
  2.3972614e-02
 -4.0400971e-02
 -1.1239819e-02
 -1.0739142e-01
  2.8967569e-03
 -1.5553053e-02
 -5.9504658e-03
  1.0581897e-01
  4.1833678e-03
 -2.9037753e-02
 -1.5835075e-02
  3.9870635e-02
  4.3046761e-01
 -6.3497625e-02
  2.1141173e-02
 -3.0847549e-01
  8.0342107e-02
  5.1734913e-02
 -1.0565673e-01
  7.0343507e-03
  1.1317208e+00
  1.0514371e+00
  5.0063327e-02
 -4.4046380e-02
 -4.4401925e-02
 -8.2554990e-01
  6.3834614e-03
  3.2328274e-03
 -1.4032944e-01
  9.0103567e-02
  3.2819897e-01
 -6.1734930e-02
 -5.4056894e-02
 -4.6119681e-01
 -3.5739383e-01
 -4.8592333e-02
 -2.0825961e-01
 -3.4919982e-03
  8.8581834e-03
  5.9534269e-03
 -1.2165124e-01
  8.0468386e-02
 -9.3576133e-02
  9.0789869e-03
  2.9253531e-02
 -3.3504143e-02
 -2.5015797e-02
  1.2563044e-01
  1.4685063e-01
  4.4721445e-01
  1.7442046e-02
  2.6746374e-01
 -1.6812396e-01
 -3.5441022e-03
  1.0352667e-01
  3.2639062e-01
  1.0899076e-01
 -4.5403397e-01
 -9.1227353e-02
 -2.0839386e-01
  4.1862493e+00
  7.5975412e-01
 -4.5026794e-01
  3.1879187e-02
 -3.8741121e-01
  5.6529808e-01
 -1.4337415e-01
  4.7177434e-01
  5.4894984e-01
 -1.1068616e-02
 -1.1520340e+00
  1.9602072e+00
  5.8525461e-01
  1.7948009e-01
 -1.9912870e-01
  1.7551575e-02
  1.1696458e+00
 -1.3530903e-02
  6.1378391e-03
 -1.2657583e-01
 -4.9842614e-01
 -1.0061657e-01
 -5.3977156e-01
  4.7773522e-01
 -1.2544812e+00
  1.4140715e-01
  2.5119019e-01
 -1.7214096e-01
 -1.7484522e-01
  1.4166962e+00
  2.1401525e+00
  8.6519915e-01
 -4.0860295e-01
  2.3277387e-01
  1.6690099e-01
  7.3964202e-01
  5.7148837e-02
  8.1593275e-01
  5.0822389e-01
  5.3643817e-01
  1.8450743e-01
  1.9332272e-01
 -3.5088114e-02
 -1.1310468e-02
  1.4271143e-02
 -2.2731489e-02
  5.6898087e-02
 -1.7520459e-04
  6.3354447e-02
  1.0218152e-01
 -3.8028859e-02
  2.4937266e-02
  3.6302932e-02
 -4.0168703e-02
 -1.8628478e-01
  1.0281008e-02
  3.4302038e-01
 -1.4550240e-02
 -1.1527468e-01
  2.7961537e-01
  5.6376443e-03
  1.1686309e-01
 -1.2744643e-01
 -1.1425574e-02
  8.8922329e-02
  2.2348829e-01
 -9.0954173e-03
 -7.7011347e-02
  6.0833752e-02
  5.8911119e-02
  2.3204904e-02
  1.4711973e-01
  1.1811124e-03
  1.8294002e-01
  1.1500877e-01
  2.7244619e-01
  2.3499160e-01
  2.9281832e-02
  3.8400922e-02
  1.5481392e-02
  4.1041809e-01
  5.1375423e-02
 -7.1999162e-02
  2.6688743e-02
 -1.9133629e-02
  4.7794738e-01
  1.5605855e-01
 -1.1845652e-01
  7.5266406e-02
  1.2894666e-01
 -6.8863630e-02
  9.3062721e-02
  1.4765389e-01
  6.3306016e-01
 -3.2844496e-01
  1.8133704e-02
 -5.6155853e-02
 -5.2220877e-03
 -4.6114564e-01
 -3.2813717e-03
  5.9635568e-02
  9.0218727e-03
  8.1613354e-02
  8.1750900e-01
 -5.9498153e-03
  9.5537398e-03
 -1.0017296e-02
  1.4169145e-01
  7.6585539e-02
  5.4159737e-01
  4.9363203e-02
  7.9371184e-03
  1.4573510e-01
  1.6698597e-01
  3.1163055e-01
  3.8781118e-01
  6.3962364e-01
  8.8438675e-02
 -1.8571693e-02
  5.7882149e-02
  2.7134436e-01
  6.0246710e-02
 -7.6451547e-02
  6.7661121e-02
  5.0794552e-03
 -2.3094399e-01
 -4.3164518e-02
  9.4350874e-03
  9.8519720e-02
  4.3852365e-01
  1.0191163e-01
  1.3398260e-01
 -2.0668167e-03
 -1.5963165e-02
  3.3968892e-02
 -8.5934617e-02
  2.9488197e-01
  3.1977177e-02
  2.2991765e-02
  7.4614036e-01
  1.3067858e-01
 -1.1788033e-03
  9.0043448e-02
  3.6097687e-01
  1.6348947e-02
  2.4654785e-01
  1.8044160e-01
  3.6456677e-01
  2.6437724e-01
  8.7498855e-03
 -1.1417650e-01
 -2.2096779e-02
  2.7594721e-02
  1.4633248e+00
 -5.7338303e-01
 -4.1777259e-01
 -8.1861931e-01
  1.9517963e+00
  6.0739856e-02
 -4.4150919e-02
  2.2797102e-02
 -7.1596019e-02
  5.8610278e-01
  4.7119796e-01
 -8.2991928e-02
 -8.1683820e-01
  5.8909231e-01
 -5.0791871e-02
  6.2693879e-02
  4.0090244e-02
 -1.8480198e-01
  1.3272051e-02
  6.1386508e-01
  8.1665494e-02
  4.1002986e-01
 -4.1986096e-01
  1.5016808e-01
  1.3994439e-01
 -3.1199774e-02
 -1.8683730e-02
  6.3638896e-01
  6.4294420e-02
 -3.1348079e-01
 -5.1027805e-02
 -1.7454930e-01
 -2.1992141e-01
 -1.0653686e-03
  2.2503154e-01
 -6.6896600e-01
  1.3191493e+00
 -1.7450261e+00
 -5.9029496e-01
 -1.9433632e+00
  1.3660537e+00
 -2.3821171e-01
 -7.9391077e-02
 -8.1627354e-02
 -1.1523666e+00
 -4.5593309e-01
  1.1231731e-02
 -1.9588758e-01
 -6.0442442e-01
 -6.9893098e-01
 -4.6278271e-01
  1.3707778e-01
 -1.1715139e-01
 -2.7214715e-01
  4.2228317e-01
  1.0007261e-01
 -4.1334336e-03
  7.9962152e-01
  3.9897901e-01
 -1.5422016e-02
  1.3044521e-01
  5.4676318e-01
  7.4008334e-01
  6.9941783e-01
 -2.6990443e-01
 -2.3619621e-01
  2.7232549e-01
  4.6628681e-01
 -1.5511573e-02
 -4.2176461e-01
 -1.7907316e-02
 -6.9943622e-02
  4.7554460e-01
 -4.6564177e-01
 -1.7163971e-01
 -7.9257917e-01
  5.4986668e-01
 -6.1111265e-01
  1.1965310e-01
 -2.5105971e-01
 -4.6384498e-01
  1.7992473e-01
 -7.7381784e-01
 -1.4242530e-01
 -8.4498453e-01
  1.4734796e-01
  1.9269258e-01
  1.1766767e-01
  5.2679700e-01
 -4.6704069e-01
  5.2947932e-01
 -8.9209437e-01
 -1.1911979e-01
 -1.4123359e-01
  6.9673800e-01
  1.3502267e-02
  1.2576805e-01
  2.6825739e-02
  4.4443950e-01
  4.8971140e-01
 -6.0660869e-01
 -4.0372211e-01
 -7.7205849e-01
  4.9863815e-01
  1.4803086e-02
 -4.6006374e-02
  8.4926710e-02
 -1.6681321e-01
  3.3420387e-01
 -4.1687328e-01
 -1.1364667e-02
  6.1525516e-02
  4.0432841e-01
 -4.1896198e-02
  4.1336246e-02
  2.7508178e-01
 -9.9749371e-02
 -1.6552545e+00
  3.5589859e-02
 -4.8224097e-01
  1.0863775e+00
 -2.0165336e+00
 -5.1145338e-02
  7.1452104e-02
 -4.0902698e-01
  3.5440102e-02
 -1.8145421e-01
  1.3291421e+00
  2.5721103e-01
  2.4216001e+00
 -2.3052130e+00
  8.9236051e-01
  2.0197157e-02
  1.4383169e-02
 -7.5767525e-02
  4.9543330e-01
 -2.3419695e+00
 -6.0003918e-01
 -1.8754514e+00
  1.0357888e+00
 -5.6807244e-01
  2.8589118e-01
  5.2382648e-03
  1.0180231e+00
  1.2796366e+00
 -2.6529856e-02
 -2.1968171e-02
 -4.4132027e-01
  8.5458028e-01
 -1.4681904e+00
  2.4543627e-01
 -1.6609071e-02
 -4.1545388e-01
 -2.9675066e+00
  2.3521121e+00
  3.4491214e-01
  4.2940516e+00
 -1.8526174e+00
  8.0131346e-01
  2.2014054e-02
  6.5097564e-01
  1.3369548e+00
 -1.2825773e+00
  1.3885729e+00
 -6.5047346e-02
  7.2951531e-01
 -8.4943646e-01
  3.5955787e-01
  6.9789188e-03
  8.3865784e-02
  4.0050516e-01
 -1.2075017e-01
 -8.2242727e-01
 -2.3081946e-01
 -7.9629816e-02
  1.1181254e+00
  3.0542490e-01
 -1.7232614e-02
  1.7150706e-01
 -5.4522663e-01
  4.1922316e-01
 -1.1592169e+00
  8.5646403e-01
  2.0801989e-02
 -4.1924044e-02
  2.1417907e-01
 -2.1863024e-01
 -3.2997093e-01
  1.3035208e+00
 -1.0223187e+00
  6.0188192e-01
  4.4801030e-01
  8.6696410e-01
 -1.6858016e+00
  1.1926526e+00
 -4.4708181e-02
 -3.1534919e-01
  4.4829127e-01
 -9.2138404e-01
  1.8528526e+00
  1.9135108e-02
  7.0640951e-01
 -6.3137084e-01
 -7.5306767e-03
  4.1904953e-01
  5.7372153e-01
 -1.7626880e+00
 -1.7889127e-01
  7.2428560e-01
  5.1056504e-02
  1.1987876e+00
  1.1002780e-01
 -2.0368887e-01
  2.2926830e-01
  1.4207932e-01
 -1.0195626e+00
  4.2370209e-01
 -7.3864555e-01
  1.2468579e-01
  1.2119738e-01
  3.1225333e-01
  7.1778931e-02
  6.0274738e-01
 -2.2808155e-01
  5.0919837e-01
 -2.0303258e-01
 -4.7961134e-01
  1.3876493e-01
  6.3210063e-02
  4.8228571e-01
  5.7409686e-01
  3.8126558e-01
  2.9167432e-01
  9.5501190e-01
  1.8007079e-03
 -2.3127519e-02
 -5.3800736e-02
 -3.7924033e-01
 -1.0055926e-01
  4.3439545e-02
  1.2508175e-01
  1.2592006e-01
 -1.6014995e-02
 -1.5060167e-01
  9.2484597e-03
 -9.2443979e-01
 -1.2158909e-01
 -2.6624286e-01
 -3.7615798e-02
 -4.2002589e-02
  1.0302485e-01
  3.4863684e-02
 -4.4886157e-02
  2.0963995e-02
  1.3076026e-03
 -6.1292760e-02
  4.3010631e-01
 -3.3347665e-03
  1.8147444e-02
  3.0297678e-02
 -1.6032778e-04
 -3.3488475e-02
  3.7646550e-03
  5.4925449e-02
 -4.3866873e-01
 -2.2394183e-01
 -1.1720590e-02
 -9.4122522e-02
 -4.9649146e-01
 -2.5049143e-02
 -5.2615646e-02
  1.5363091e-01
  1.0960518e-02
 -7.1730119e-01
 -4.8104429e-01
 -1.6757758e-02
 -2.0729283e-02
  7.2917384e-03
  2.8592693e-02
 -7.0160992e-02
  1.9648131e-02
 -1.5496995e-01
 -1.0610899e+00
  3.4836080e-02
  2.7060378e-02
 -2.9505203e-02
  4.1251358e-02
 -2.6195731e-02
  5.2200474e-02
  4.3412298e-02
  6.8545543e-02
 -2.9589951e-01
 -5.5688202e-02
 -1.2706198e-01
  6.6729292e-02
  1.1617512e-02
 -1.4361532e-01
 -9.4015740e-02
 -3.8058180e-02
  1.8691164e-02
 -1.3223370e+00
 -4.9820367e-01
  9.8537982e-02
  1.4597997e-01
  7.2914638e-02
  2.2864642e-03
  6.7704812e-02
  1.9965684e-01
  1.1308674e-01
 -1.0878904e-01
  1.5728588e-01
 -5.5415779e-02
 -6.0850740e-03
 -4.5772497e-02
 -1.2224428e-02
 -5.2038534e-04
  1.6214731e-01
  1.3677438e-01
  2.4540225e-01
 -1.3387022e+00
 -1.6926665e-02
  5.7148367e-02
 -3.5200355e-04
  3.4487102e-04
 -5.3656325e-02
  4.9429789e-02
 -6.5472566e-02
 -2.2055839e-01
 -7.5973712e-02
  1.7366582e-01
 -4.4372167e-02
  6.5098621e-02
  8.5516390e-04
 -7.6993287e-02
  1.7150335e-01
  1.5647960e-01
 -7.5856155e-01
  1.3315057e+00
  7.5531021e-02
 -2.7462278e-02
  6.3775152e-02
  3.4981161e-02
 -4.0386375e-02
  3.3500826e-01
  9.7217128e-02
  2.2496473e-02
  6.1858706e-02
 -1.4058833e-01
 -3.2959826e-02
  2.9609047e-02
  6.8924174e-02
  1.2339199e-01
 -1.4092718e-01
  1.6985866e-01
 -2.0985094e-01
 -1.6150159e-01
  1.9975536e-01
  6.5013736e-01
 -8.0109298e-01
 -6.3835245e-01
 -4.7166318e-01
  6.8537045e-01
 -1.4855950e-01
  2.4371049e+00
 -9.4574338e-01
  3.3454725e-01
  3.8127258e-02
 -1.2119920e-01
 -9.5487893e-01
  2.3996856e+00
 -1.2914894e+00
 -4.1695130e-01
 -2.5915174e+00
  2.2372534e+00
 -1.0314655e+00
  5.9515871e-02
 -8.7277317e-01
  1.4768487e+00
 -4.8734754e-01
 -5.2536094e-01
 -2.0340692e-01
 -2.9881379e-01
  5.4709840e-01
  4.6158177e-01
  4.4443873e-01
  1.2676638e-01
  5.2469277e-01
 -1.6453682e+00
  1.5250450e+00
  3.3148006e-01
  1.3836637e+00
 -5.5196011e-01
  5.6234336e-01
 -6.4093918e-02
 -3.2623932e-01
  1.8053277e-01
 -3.2718825e-01
  1.9171131e+00
 -6.3177571e-02
  1.3029567e+00
 -2.2242932e-01
 -2.4709825e-01
  1.4753470e-01
 -2.4458028e-02
 -8.7305337e-01
  1.6480367e-01
 -6.9402061e-02
 -1.2723808e-01
 -1.8838247e+00
  5.2882999e-01
 -2.1483470e-02
  9.1912895e-03
 -4.1321865e-01
  1.5000777e+00
 -4.2970464e-01
  7.2838861e-01
  1.4054887e-02
 -1.8449969e+00
  9.9636215e-01
  3.7086770e-01
  3.8256642e-01
 -5.6842021e-03
 -5.4306519e-01
 -7.0526767e-01
  6.4089221e-01
  4.5563760e-01
  1.7402960e+00
 -4.2904934e-01
  2.4084087e-01
  1.7558838e-01
  2.2314140e-01
 -6.1301094e-01
  8.7991349e-02
  3.8909623e-01
 -4.2861977e-01
  2.3370869e+00
 -1.0158750e+00
 -8.2965031e-02
  1.4217361e-04
  2.6659068e-01
 -3.7047374e-01
  1.0274959e-01
 -1.5267305e-01
 -6.8604124e-01
  4.9065262e-01
 -7.2517419e-01
  1.4713943e-01
  4.7329384e-01
  4.9075883e-02
  4.4743240e-01
 -9.2859551e-02
  3.3699164e-01
 -9.1791213e-02
  5.5454820e-03
 -2.7914870e-01
  6.2620081e-02
 -3.0477175e-02
  1.2117232e-01
  1.8448478e-01
  1.7739555e-01
 -3.9622343e-01
  3.9193404e-01
  2.6854602e-01
 -2.0742093e-01
 -9.0038367e-02
 -4.6070564e-01
 -5.4486823e-01
  3.6714360e-02
 -1.1246257e+00
  5.4708004e-01
  4.9566862e-01
 -2.4577141e-01
  3.3186447e-02
 -3.7048683e-02
 -7.9760641e-01
  1.4119491e-01
 -1.4524651e+00
 -9.0941213e-02
 -3.7228588e-02
 -3.7562825e-02
 -2.0481129e-01
 -1.3417819e-01
  2.4095627e-02
  1.5401414e-01
 -4.3318521e-02
 -5.7935987e-02
 -8.3844048e-01
 -8.2583409e-03
  3.7806727e-02
  2.9370193e-03
  6.1908983e-02
 -2.9975045e-02
  1.9377735e-02
 -3.1313100e-03
 -6.6101849e-01
 -3.6786431e-01
  4.2706683e-01
  7.5735956e-01
 -6.2427723e-01
  7.9173416e-02
 -1.9102713e-01
 -5.7750189e-01
 -9.4080850e-02
 -1.1863087e+00
 -5.2565581e-01
  8.2256669e-01
 -4.9423859e-02
 -3.7495697e-01
 -1.4852418e-01
 -1.2129593e-01
  1.1340515e-01
  2.9848232e-03
  4.2487442e-01
 -6.1375940e-01
 -2.5704637e-01
  9.0131187e-01
  6.2897116e-01
  4.3984169e-01
 -6.0268089e-02
 -1.8006358e-01
 -3.0683972e-02
 -7.5253963e-01
 -3.9508739e-01
  8.3656847e-01
 -1.7297195e-02
  3.0192140e-01
  1.1810701e-01
  2.9385841e-02
 -2.3684704e-01
 -3.4838703e-02
 -2.8740671e-01
 -1.4311573e-01
  8.9670919e-02
  5.5691727e-02
 -9.9005646e-01
 -1.1920919e-01
  6.3680317e-03
  8.2190543e-02
  3.7118185e-03
 -1.2388937e-01
 -5.7901764e-01
 -1.9337615e-01
  1.2230780e+00
 -1.5533066e-01
  6.8824232e-01
 -1.5841179e-01
 -7.8813660e-01
 -1.3147946e-01
 -2.1525617e-01
 -5.1409757e-01
 -1.4143682e-01
  4.1434122e-03
  9.9727377e-02
 -2.5110107e-02
  1.2174584e-02
 -6.2431943e-02
 -6.0350157e-02
  2.1946751e-01
 -2.8975612e-01
  4.3105942e-01
  1.3491101e-02
 -1.5333040e-01
  9.7521804e-02
  5.6515908e-04
  6.2737815e-02
  1.1773354e-01
 -2.1224889e-01
 -8.3925211e-01
  3.6419037e-01
  3.4740168e-01
 -5.5992830e-01
  8.6622991e-02
 -2.4611589e-02
 -9.5218092e-01
 -3.4130186e-02
 -7.9632473e-01
 -4.4217300e-01
  2.0148878e-01
 -7.5634770e-02
  4.9413168e-01
  2.7064618e-02
 -9.1930822e-02
  1.3657235e-01
  3.4163660e-01
 -2.9798806e-01
 -1.1738666e-01
 -8.6539477e-01
 -1.0130099e+00
  1.9266567e+00
  6.2175417e-01
  9.0899843e-01
 -3.1871971e-02
  1.5906045e-02
  6.0016876e-01
  5.6408970e-03
 -9.5183834e-02
 -1.1430928e-02
  5.3739447e-02
  8.2779415e-03
  5.1426619e-02
 -2.2100959e-02
  6.0321964e-02
 -3.9456602e-02
 -3.8760476e-02
 -4.4224602e-01
 -4.6142723e-02
  1.8867223e-02
  1.7582314e-01
  4.9276027e-01
 -1.7474099e-03
 -7.7594668e-02
  5.0547189e-01
 -6.7135438e-02
 -5.2260488e-01
  1.1159639e-02
  4.4009882e-01
 -3.1307891e-02
  5.3437448e-01
  3.9790384e-02
  1.3968492e-02
  1.6780066e-01
 -7.2604477e-01
  8.6547807e-02
  4.2092506e-02
  2.1216182e-01
  5.5237994e-02
  6.6619059e-03
 -5.8968943e-03
 -9.5967622e-03
  2.7718803e-01
 -2.8401911e-02
 -5.5979931e-01
 -1.0465503e+00
 -3.9360413e-01
  1.0815236e-01
  3.8726869e-01
 -9.0000629e-02
 -5.0401058e-02
 -2.1930939e-02
 -2.5122097e-01
 -9.4846368e-01
 -3.9693117e-02
  4.6476650e-01
  2.9513283e-02
  2.9456061e-01
 -3.3601488e-03
 -1.5099014e-01
  1.6153447e-01
  2.4055663e-01
  1.7964531e-01
 -6.2641680e-01
 -2.3964131e-01
 -7.5965333e-01
  3.8850818e-02
  1.2795115e-02
  7.8060910e-02
  1.0941744e-01
 -3.8488537e-02
 -6.9118524e-03
 -2.8167424e-01
 -1.0791270e-01
 -1.1954625e-03
  6.6540885e-01
 -2.6265264e-02
  1.6994128e-02
  1.2328227e-01
 -3.8550157e-02
 -8.8804466e-01
 -1.6923635e-01
  7.7669084e-01
  2.4138702e-01
  3.6142636e-02
 -4.3436453e-02
  8.9559760e-03
  4.7386828e-01
  5.3863350e-02
 -6.4338720e-01
 -8.5935020e-01
  7.9633045e-01
  1.3956030e-01
  5.7023686e-01
  3.9870691e-02
  1.6289003e-02
  6.7655317e-02
 -3.3682099e-01
  6.7495441e-01
 -4.5909978e-02
  2.2148313e-02
  7.5820708e-01
  1.1861265e+00
  2.4289947e-02
 -1.2325618e-01
  8.3785874e-01
  4.8691262e-02
  5.8093034e-02
 -5.4772824e-01
  1.0392319e-01
  2.8443646e-01
  2.5456247e-01
 -1.7599462e-02
  8.7865531e-02
 -1.0880160e-01
  1.9673528e-01
  8.2060832e-01
 -1.0843191e+00
 -1.2522697e+00
 -1.8371122e-01
 -5.0277561e-01
 -7.4504107e-01
  2.4671929e-01
 -5.8265071e-02
  6.2222194e-02
 -1.4351147e-01
 -5.6059182e-02
 -6.2468934e-01
 -2.1846341e-01
 -4.9835153e-02
 -2.5164319e-02
  4.5491237e-04
 -1.4214589e-01
  2.5817409e-01
  2.8006950e-01
 -9.5619702e-01
  2.9247749e+00
  4.6588391e-01
  4.0300828e-01
 -4.8573890e-01
  5.5138731e-01
 -4.1474476e-02
 -1.5987775e-01
  4.0468723e-02
 -5.5606377e-01
 -1.7800846e+00
  6.3775182e-01
 -1.4966836e+00
 -1.9855529e-01
 -6.7118272e-02
 -5.8992177e-01
  9.3562990e-02
  3.1646985e-01
  4.2127045e-03
 -4.3358326e-01
  2.2255769e-02
  6.4633095e-01
 -2.1967528e-02
  1.0442819e-01
  4.2266166e-01
 -1.5416236e-01
 -1.0019507e-01
 -1.2587256e+00
 -1.2265805e-01
  8.1842542e-01
 -3.8308069e-01
 -5.8172375e-01
  5.3246659e-01
 -4.4818830e-01
  8.2189932e-02
 -1.9472717e+00
 -2.0928104e-01
 -5.3342181e-01
 -4.3051505e-01
 -1.2468592e+00
 -1.9579436e-01
 -2.8761230e-02
  5.5232993e-03
  6.0510671e-01
 -2.7090096e-01
 -2.5079748e-01
 -1.4695820e-01
 -3.7669608e-01
  7.4249810e-01
 -4.4512621e-01
  4.0808377e-01
  1.6332079e-02
  4.0787730e-01
  6.4260125e-01
 -1.2799408e+00
 -2.9486915e-01
  9.0839702e-01
 -4.7051784e-01
 -1.4737631e-01
  5.6867856e-01
 -2.4666996e-01
  1.4378245e+00
  7.0656377e-01
  4.7947699e-04
 -1.2947587e+00
  5.4880852e-01
 -3.2106552e-01
 -6.9559179e-02
  2.4819455e-01
  6.2579751e-02
  2.5960323e-01
 -1.0281298e+00
 -1.1471276e+00
 -1.0058945e+00
 -3.2413986e-01
  5.0169694e-01
 -3.7162593e-01
  4.9241415e-01
 -5.6415462e-01
 -8.4146366e-02
 -8.5800058e-01
 -1.2705758e+00
 -3.1226563e-01
 -4.1620094e-01
 -7.7255046e-01
 -4.0574171e-02
  7.1107376e-01
 -3.6392695e-01
 -2.5498685e-01
 -4.6016255e-01
 -6.6103831e-02
  2.8479394e-01
 -5.9123263e-02
 -9.1864544e-01
 -4.6420881e-01
 -3.1523664e-02
  2.7710250e-01
 -1.8291089e-01
  5.1400429e-01
 -7.2180378e-01
  6.8318999e-01
 -1.4037589e+00
 -1.0726508e-01
 -5.2458353e-02
 -1.0303150e+00
  8.1546921e-01
 -3.0132946e-02
  4.0499043e-01
  5.1117156e-02
  1.9343868e-01
 -9.5601022e-02
 -9.6780816e-03
 -5.3583276e-02
 -1.2904634e-01
 -1.5922925e-02
 -1.8109633e-01
 -2.4150319e-01
 -1.0503004e-01
 -4.6432458e-02
 -1.0738260e-02
 -9.8249421e-02
  2.4109740e-02
  9.3023874e-02
  2.4260832e-01
 -8.7845862e-01
  9.2841309e-01
 -7.0968354e-01
  3.4954789e-01
 -4.7820172e-01
 -1.4632507e-01
 -2.1548569e-02
 -7.8125161e-01
  4.6899503e-01
  3.9803714e-02
  5.5635870e-01
  7.3412649e-02
  1.4921210e+00
  2.0922545e-02
 -3.2940775e-02
  6.3358480e-03
  2.8158084e-01
 -1.2487889e-01
 -1.1426054e+00
 -3.9526165e-01
 -6.1979234e-01
  4.9090171e-01
 -1.6187523e-02
 -1.3999282e-01
 -4.2475104e-02
  3.5460871e-02
  1.4201847e-01
 -4.0064278e-01
  6.6594499e-01
 -1.4170024e-01
  6.7402142e-01
 -3.4736419e-01
  2.4090512e-02
 -1.8101390e-02
 -6.9004339e-01
  1.3269984e+00
  2.8317431e-02
  6.9169545e-01
 -3.8625998e-04
  5.3492153e-01
  5.2353495e-01
 -2.0759907e-01
 -6.8388283e-02
  3.6693584e-02
 -1.2644885e+00
 -4.9261057e-01
  4.6339035e-01
 -6.5828210e-01
  5.2686107e-01
 -1.4756593e+00
 -8.5108891e-02
 -3.7474867e-02
 -2.7758864e-01
  9.9737316e-01
 -9.8738158e-01
  2.6443999e-02
 -3.4125559e-03
 -3.0338553e-01
 -3.1450087e-01
 -3.4941179e-01
 -3.0510959e-01
 -1.6159762e-01
  3.1983387e-01
 -9.9778879e-01
 -7.5295858e-02
 -7.4195899e-02
 -2.3377885e-01
  1.3262845e-03
  6.3643791e-04
 -1.0437904e-02
  8.0583282e-02
  5.9263957e-01
 -1.1959126e+00
 -1.7794323e-01
 -1.6598660e-01
  1.6657104e-01
 -6.6333002e-01
  1.3623355e-02
  9.6628666e-03
 -3.6758429e-01
  7.6438230e-01
  6.4244010e-02
 -1.0777026e-01
 -6.1259441e-02
 -1.6080977e-01
 -9.0237957e-01
  1.6804452e-03
 -1.2832861e-02
 -1.8265119e-01
  5.4504931e-01
 -2.0992461e-01
  2.8165591e-01
 -2.3261073e-01
 -2.6824640e-02
  1.3810589e-02
 -1.5774731e-02
  1.3202521e+00
  6.9114596e-01
  2.4977081e-02
 -9.5182663e-01
 -3.3000335e-01
  6.5474287e-02
 -1.4335851e-03
  6.4742905e-03
 -1.0763349e-03
  5.3937469e-02
 -1.5030277e-02
  1.6276725e-02
  1.8864263e-02
  1.2808353e+00
 -4.0720548e-03
 -6.1045289e-01
  2.0466706e-01
  9.4205528e-02
  4.6994695e-01
  7.5445161e-03
  3.7433907e-01
 -1.6949245e-01
 -4.7226921e-01
 -2.3651650e-02
  1.1649047e+00
 -2.8197367e-02
  6.3163042e-02
  1.0368145e+00
  9.8847526e-01
  5.2610249e-03
 -8.7231277e-03
  3.0220211e-02
 -8.1223562e-02
  1.0534301e-01
  7.1623504e-01
  1.0902122e-01
  1.2321323e-02
  2.1416629e-02
  1.8376285e-01
 -8.8275802e-01
  2.2676983e-01
 -1.9266514e-01
 -1.2450958e+00
  4.2807898e-01
 -1.4668591e-01
  1.2739308e+00
  6.0212559e-01
  4.1857839e-02
 -1.3151473e-01
 -1.1225183e-01
  1.7606722e-02
  3.6112905e-01
  7.0663577e-01
  3.4973750e-01
  5.5976319e-01
  8.3058721e-01
 -1.6643897e-02
  3.4455845e-01
 -9.9559784e-01
  2.6396230e-02
  1.9392346e-01
 -4.3428481e-02
 -2.9790619e-01
  1.1002030e-03
  2.7619824e-01
  7.2401807e-02
 -2.1571806e-01
  3.5563129e-01
 -1.7194374e-01
 -9.4244981e-01
  9.0423357e-01
  3.8279667e-02
  1.3065054e+00
  7.0600915e-01
  5.4551315e-02
 -5.8055781e-02
  4.2476755e-01
  5.6736015e-02
 -4.0931490e-01
  5.1569986e-01
  2.1734932e-02
  2.8897597e-02
  2.3986214e-01
 -4.3849599e-02
  3.3545368e-03
 -2.0534866e-01
 -3.3026323e-01
  2.6027435e-01
  8.7570921e-03
 -5.5002594e-01
  4.7754988e-01
  1.5866803e-01
 -1.7317133e-02
 -7.9821154e-02
 -6.9664592e-01
 -3.9161310e-02
  2.3273861e-01
 -8.8270895e-02
  1.0350436e-01
  4.8584306e-01
  3.6560178e-01
  3.0865574e-01
 -2.1878055e-01
 -6.0802791e-02
 -4.1842595e-01
 -2.9554287e-01
  1.5521351e-01
  9.4780728e-02
  1.2567919e-01
  4.2037198e-01
  1.4239824e-01
  6.6908458e-03
  6.6908458e-03
  6.6908458e-03
  6.6908458e-03
  6.6908458e-03
  4.4584941e-02
  4.4584941e-02
  4.4584941e-02
  4.4584941e-02
  4.4584941e-02
  3.9796297e-02
  3.9796297e-02
  3.9796297e-02
  3.9796297e-02
  3.9796297e-02
  1.5568715e-02
  1.5568715e-02
  1.5568715e-02
  1.5568715e-02
  1.5568715e-02
  6.2528341e-03
  6.2528341e-03
  6.2528341e-03
  6.2528341e-03
  6.2528341e-03
  2.3872331e-02
  2.3872331e-02
  2.3872331e-02
  2.3872331e-02
  2.3872331e-02
