nep3 3 Ga O Au 
cutoff 8 4 157 28
n_max 4 4
basis_size 12 12
l_max 4 2 0
ANN 50 0
  1.9735698e-02
 -1.9348016e-02
 -6.1306944e-03
  1.2346935e-01
  4.1676968e-02
  1.5320644e-01
 -5.0916642e-02
  6.7898948e-03
 -7.3120198e-03
  3.2967966e-02
 -6.1115272e-02
 -3.1286735e-02
 -7.9816803e-03
  4.8520800e-02
  1.7307900e-01
 -4.7605854e-02
  3.5575140e-02
  1.0545022e-02
  3.6471121e-02
 -8.4088378e-02
  1.6802816e-02
  9.2127629e-02
 -4.1387349e-02
  4.6136785e-02
  7.9037115e-02
 -2.3355931e-02
 -2.6632730e-02
  1.1958634e-01
 -3.4240671e-02
  4.3244861e-02
 -9.9988975e-02
 -1.0318320e-01
 -3.7417531e-02
  2.6550012e-02
  1.2478460e-02
 -3.7078310e-02
  8.1905574e-02
  4.6035655e-02
  7.3854297e-02
 -1.3791855e-01
 -2.8227864e-02
 -4.7199856e-02
  8.0284439e-03
 -6.3743263e-02
  5.2701049e-02
  1.3276590e-02
  2.7583477e-01
  6.3224174e-02
 -1.0947222e-01
  7.6942658e-04
  1.1833088e-02
  4.8500996e-02
 -3.8646840e-02
 -1.0321984e-02
 -1.0246944e-01
 -3.5546534e-02
  6.0025282e-02
  1.9759711e-02
  9.8159583e-03
 -1.1299443e-01
 -5.5953965e-02
 -1.2070242e-02
 -5.6220073e-02
 -2.1186300e-02
  1.3763869e-02
  2.1009449e-02
  3.1095011e-02
 -2.5175804e-02
 -6.4915799e-02
  6.0678288e-02
  3.1470366e-02
 -4.0025450e-02
  1.8708281e-02
 -4.4064661e-03
  6.9435351e-02
  9.0718821e-02
  8.0514094e-03
  2.9582661e-03
  1.5942520e-02
 -1.1657270e-02
 -5.9567997e-03
 -5.8911280e-03
 -2.7649930e-02
 -1.0664421e-01
 -2.4757521e-02
  7.9145338e-03
  8.7344758e-02
  4.2940326e-02
  9.0112120e-02
  2.3886604e-02
  4.2384803e-02
  1.6935855e-02
 -5.4371990e-02
 -3.2997351e-02
 -7.7976197e-02
 -1.8335064e-03
  3.1007085e-02
 -4.1848004e-02
 -3.6578814e-03
  2.9985350e-02
  1.2514576e-01
  1.0791702e-02
  1.2122536e-01
  2.4965934e-02
 -3.6318649e-02
 -7.0066084e-03
 -8.1069335e-02
 -5.4060239e-02
 -2.4079092e-02
 -1.2688546e-02
 -3.8046655e-03
  3.0973360e-02
  5.3816017e-02
  1.7834527e-02
 -2.6654057e-02
  2.9460754e-02
  4.9363881e-02
  1.7529674e-01
 -2.7047191e-02
  7.9378441e-02
  2.9516872e-02
 -4.3617553e-01
 -1.5531811e-01
 -4.4166531e-02
 -2.4352171e-02
  3.5714891e-02
 -7.1095467e-02
 -4.5452276e-01
 -1.8968355e-02
  6.0406242e-02
 -3.7516955e-02
 -1.3422678e-01
  2.7071159e-02
 -5.7231942e-03
 -1.1818301e-01
  3.4412246e-02
 -8.5730007e-04
 -9.1262174e-01
  1.5501193e-02
 -1.6216230e-02
  9.8789856e-02
 -2.5734487e-01
  1.4774667e-01
 -5.2425675e-03
  2.7945065e-03
  2.3340108e-02
  6.2258812e-03
  6.6903797e-03
  2.4369765e-02
 -8.2888111e-02
 -2.3267917e-02
  5.2487828e-02
  1.9472295e-02
  1.1691000e-01
 -2.3204694e-02
  2.5018821e-02
  7.5150140e-02
 -1.6294261e-02
  4.5260046e-02
 -4.3964321e-03
  6.0539640e-02
 -1.1844405e-02
  3.1007536e-02
  1.5487009e-02
 -2.9698497e-02
 -1.1398776e-02
  8.2955122e-02
 -1.9803949e-02
  5.8356907e-02
  4.0776797e-02
  8.8186696e-02
  4.1221417e-02
 -1.8205566e-02
  1.4271352e-02
  5.9560765e-02
  2.9149244e-03
  2.6249643e-02
  9.1050286e-03
  1.3383241e-01
  7.9883356e-03
  1.9672525e-01
  2.6286652e-02
  2.3103286e-02
 -1.2641232e-01
  6.5550115e-03
 -3.4911656e-03
 -1.2225923e-01
 -1.0695084e-01
 -3.9082222e-02
  2.7715230e-02
  4.9327582e-02
  2.1720344e-02
 -5.7016434e-03
  2.1594557e-01
  3.1347517e-02
  1.2279804e-02
 -5.9487488e-02
 -1.4345762e-01
  3.4098110e-01
 -2.6834110e-02
  2.5077902e-02
  1.0031717e-02
  1.2308647e-01
  1.1190418e-02
 -1.1724305e-02
  6.0350757e-02
  1.3682708e-01
 -1.3252321e-01
 -1.3582428e-01
  2.7274288e-02
 -1.4835700e-02
 -2.5933890e-02
  9.3661018e-02
 -4.3803072e-03
  1.1292941e-02
  4.5308560e-02
  3.9410662e-02
  7.6308427e-03
 -8.8888682e-02
 -7.7075668e-02
 -1.2597318e-01
  7.8221932e-02
 -1.0246525e-02
  3.3067759e-02
  1.1900974e-03
  2.1934710e-02
 -1.3473174e-02
  2.4561290e-02
 -2.4219719e-04
  2.2967283e-02
  9.8080626e-03
  5.0413042e-02
  1.2712824e-01
  7.7829935e-02
 -6.7468368e-02
  3.1614665e-02
  9.6741192e-02
  1.5549995e-01
 -3.3210076e-02
 -4.8227580e-03
 -8.5515656e-02
  1.4277437e-02
  5.9098843e-02
  3.8127496e-03
  8.0639431e-03
 -8.7177247e-02
 -4.6034455e-02
 -5.0952043e-02
 -4.3123536e-02
  3.7825011e-02
 -4.0755510e-02
 -6.0909249e-02
  5.1577955e-02
 -4.5627173e-02
  1.1869667e-01
 -8.2280859e-04
 -4.0605754e-02
 -4.8208605e-03
 -6.3444953e-03
  2.5795057e-02
  8.6185679e-02
 -4.4043958e-03
 -2.8840190e-02
  1.0006264e-02
  6.7268595e-02
 -8.9067243e-02
 -5.4481510e-02
  6.0363103e-02
  2.0458573e-02
 -5.7009511e-02
  5.5679828e-02
  3.8616506e-03
  1.2915280e-01
  1.3125223e-02
  1.6642522e-02
  3.4856454e-03
 -4.1749652e-02
  7.8005224e-02
  8.0836102e-02
  4.4351887e-02
 -5.6017477e-02
  1.0597163e-02
  1.6306009e-02
  6.9075491e-04
 -3.1875879e-02
 -4.7268528e-02
  3.5754934e-02
 -3.1798195e-02
 -4.5578763e-02
 -2.1641649e-02
 -4.5190811e-02
  2.3956327e-03
  8.6655328e-03
 -4.7622225e-03
 -4.6641257e-02
 -1.9580079e-02
  1.2191141e-02
  5.6686405e-02
  1.4017705e-02
  5.7168175e-03
 -7.9093851e-02
 -2.9623015e-02
  5.9683230e-02
 -1.0559710e-01
 -1.9165823e-01
  7.7683955e-02
  2.1801682e-02
  1.8368205e-02
 -2.1404254e-01
  9.7189918e-02
 -7.7385403e-02
  6.9807418e-02
 -8.9794062e-02
 -2.5163038e-02
  1.3022313e-02
  5.1905524e-02
  7.8759998e-02
 -7.3074661e-02
  1.4899167e-01
 -2.9570358e-03
 -3.7711371e-02
  1.9736485e-01
 -4.1070592e-02
 -2.8575493e-02
  4.1022953e-02
  5.2878164e-02
  8.6095832e-02
  1.9771393e-01
 -8.5936440e-03
  1.9769324e-02
 -8.8414392e-03
  2.6872797e-02
  2.4183396e-02
 -3.5527363e-02
 -1.0298775e-02
  9.6183019e-03
 -5.8824986e-02
 -3.7440144e-02
 -3.0475834e-02
  4.8097849e-02
  3.1623617e-04
  1.2508452e-01
  2.2591315e-01
 -1.1341636e-02
 -1.8413977e-01
  1.2916759e-01
 -1.7576650e-02
  4.5836478e-02
  6.7297935e-02
 -7.2172120e-02
 -1.1959141e-01
 -1.1253139e-01
 -2.7928337e-02
  6.3974246e-02
 -9.5648589e-03
  1.3661495e-02
  3.3512574e-02
  9.0582810e-02
 -7.4436083e-02
  1.3350327e-02
 -1.1481712e-01
  1.7092304e-01
  7.8695649e-03
 -1.9007150e-02
  6.9047116e-02
  3.9085571e-02
  1.1411318e-01
 -1.2146377e-02
 -4.6953429e-02
  1.8518462e-03
 -3.0036846e-02
  6.8622845e-01
 -8.3871931e-03
 -1.4897494e-01
  2.9299464e-02
  5.4570187e-02
  1.5336584e-02
 -3.0750746e-02
  2.9293522e-02
 -2.4132032e-02
 -1.3781814e-01
 -6.8560220e-02
  2.5332494e-02
 -3.1970453e-02
 -4.4195568e-03
 -3.5793688e-02
 -1.0321775e-02
 -2.5361853e-02
 -7.0268534e-02
 -4.2305686e-02
 -1.3349721e-01
  1.3352615e-01
 -5.7591598e-02
  1.1375862e-02
  1.6373785e-02
  1.6828321e-02
 -3.9346870e-03
  7.9796296e-03
  6.6789374e-02
  4.5396335e-02
 -2.1828633e-02
  1.0041486e-01
 -6.1082274e-02
 -8.0545641e-02
  1.7772112e-02
 -1.2229905e-03
 -5.6551266e-02
  3.0301671e-02
 -1.7532216e-02
 -7.3778607e-02
  1.7823748e-02
  3.0436352e-02
 -3.1802729e-02
  1.1532988e-02
 -6.6014077e-03
  5.5627916e-02
  1.0174049e-01
  4.8190411e-03
  2.3220619e-02
  7.0317440e-02
  2.1216745e-02
  7.9364069e-03
 -4.4689175e-02
  1.0336639e-01
  2.3867374e-02
  5.9679117e-02
  2.2099055e-02
  9.7190395e-02
  2.6609909e-02
 -8.1987001e-02
  3.0751090e-02
  2.6137999e-01
 -5.8530434e-03
 -6.1815988e-02
 -8.1418771e-03
 -4.1702744e-02
 -1.7732630e-02
  2.8433200e-02
 -3.1695371e-03
 -1.7011555e-02
 -9.2728566e-03
  1.9215481e-02
  3.8302835e-02
 -5.6488436e-02
 -1.4262754e-02
 -8.2253285e-02
 -5.4360095e-02
 -5.0056949e-02
 -9.7138472e-03
  1.4002009e-02
 -1.7982137e-01
  2.4834883e+00
 -5.5012112e+00
 -6.7435658e-01
 -4.3592901e+00
  3.7272438e-02
  2.1047590e+00
 -1.8016483e+00
 -1.5634943e+00
  1.4236026e+00
 -1.1095822e+00
  6.8983370e-01
 -1.1942950e+00
 -5.6747571e-02
 -3.1563405e-02
 -1.7259967e+00
  1.9015257e-01
 -1.5675284e+00
  7.2143120e-01
 -8.4109217e-01
 -5.6501132e-01
 -9.6105504e-01
 -1.4386404e+00
  1.1908640e+00
  8.1341296e-02
  1.6364151e-01
 -6.9129848e-01
 -1.2192263e-01
  2.3296677e-01
  7.4783728e-02
 -4.4844534e-02
 -3.6820447e-01
  1.5225762e-01
 -5.0529224e-01
 -2.6799887e-01
 -4.9504288e-02
 -8.5877426e-02
  7.1963355e-02
 -4.1014474e-02
  1.1299560e-01
 -1.6832648e-01
 -5.7619799e-02
 -7.3363222e-02
  2.6152390e-01
 -1.6395526e-03
  2.7770934e-01
  1.0087643e-02
  2.9256377e-01
  1.8167101e-02
 -1.2323526e-03
  1.1127532e-01
  8.0670016e-03
  3.2695258e-01
 -5.8646209e-04
 -1.5934965e-02
 -3.3521928e-02
 -3.2858152e-02
 -9.9726260e-02
 -3.3458333e-02
 -1.0925804e-02
 -1.3508838e-01
  1.6334358e-01
 -2.3188330e-02
  7.0940495e-02
  1.6979554e-01
  9.1901787e-02
 -1.0126621e-02
  3.0415135e-02
  1.8372321e-01
  8.6627051e-02
  3.6313981e-02
  1.1783438e+00
  4.2045137e-01
 -1.1537503e-04
  1.4946896e-01
  4.8240367e-02
 -3.4931147e-01
 -3.4607485e-02
  1.9273782e-02
  2.0088855e-02
 -3.0134898e-03
 -3.9107612e-01
  1.2587956e-01
  4.3510314e-02
  1.8371977e-02
  9.4944343e-02
 -1.9667564e-01
 -4.3559545e-01
 -1.1983524e-03
  6.2453058e-03
  2.3777807e-02
 -4.9839910e-02
 -1.1687582e-02
 -1.6917208e-01
  7.0777098e-03
  1.7839251e-01
  6.4063591e-01
  2.8343892e-02
 -7.8965604e-02
 -2.2875175e-03
  2.3220373e-02
  3.6294688e-02
  1.6571376e-02
 -4.3387201e-02
 -1.6989273e-01
 -3.1188335e-02
  1.1780394e-02
 -9.2288092e-02
  1.4470468e-01
  5.9333809e-02
  4.7488209e-02
  2.3816405e-02
 -2.3257211e-02
  3.4819916e-04
  4.9806077e-02
 -1.1214714e-01
  1.4531716e-02
 -1.8163532e-02
  1.5956005e-02
 -8.0748215e-02
 -2.0655494e-02
  3.7298001e-02
  2.0644324e-02
  1.4383608e-02
  6.0293418e-03
 -9.4411094e-03
 -5.5833526e-02
 -2.7300429e-02
 -6.7377272e-03
 -6.8470322e-02
 -5.2406121e-02
 -1.3355953e-01
 -5.0762431e-03
 -1.2865521e-01
 -5.0519329e-02
 -3.2004151e-03
  2.6511517e-01
  2.8268220e-02
 -4.5252182e-02
 -1.4988227e-01
  5.2738343e-03
 -2.1604409e-02
  2.9238852e-02
 -4.6889387e-02
  1.6869429e-02
  9.0012690e-03
  4.1272528e-02
 -7.4418247e-02
 -1.4494003e-01
  4.1533532e-03
  3.3511046e-02
 -4.4316050e-02
 -7.7045001e-02
 -5.3804617e-02
 -3.4662653e-02
 -1.8090697e-02
 -1.0784516e+00
 -5.0525591e-02
  6.6276319e-02
  3.2651097e-02
 -1.3131342e-02
 -1.2281595e-01
  3.3535844e-01
 -8.8696304e-04
 -1.0294450e-02
  1.6500898e-02
 -4.7129836e-02
 -3.2267876e-02
  2.4988831e-03
  4.7404356e-03
  7.1535534e-03
  2.8948894e-02
  4.2286170e-01
  2.6779182e-02
 -8.0179453e-02
  9.5970538e-03
 -2.2621721e-03
 -2.4115629e-03
  3.9907742e-02
 -4.9961535e-03
 -3.5199482e-02
  3.0421326e-02
 -2.3122970e-02
 -3.7886620e-02
  4.2167857e-02
 -5.0226979e-02
 -4.2973731e-02
  6.8366118e-02
 -5.3456530e-02
 -8.1293387e-03
  7.1619921e-03
  2.3826052e-02
 -3.9551672e-02
  8.3379783e-02
  8.9059826e-03
 -2.0836946e-02
 -4.8248786e-03
  7.0058852e-02
  1.6204076e-01
 -3.3838216e-02
 -8.7418459e-02
  5.5227783e-03
  1.7698178e-02
 -5.6414209e-02
  9.2940927e-02
 -1.2415318e-02
  1.0414623e-02
  3.0895276e-02
  8.8444032e-02
  9.0838866e-03
 -1.9351609e-01
 -3.9050370e-01
  7.6586857e-02
  2.9644465e-01
  9.0313062e-02
  8.4741861e-03
  2.1271033e-02
 -2.5667490e-02
 -5.0902874e-03
  1.4608619e-02
 -6.7200236e-02
  1.1214632e-01
  1.5655007e-02
  1.0987855e-01
 -6.6495575e-02
  5.3651705e-02
 -1.2361739e-01
 -5.1529604e-01
  8.8385958e-03
  5.8776904e-02
  4.3104436e-02
 -1.1914983e-02
  6.8351649e-02
  1.1180945e-01
  4.1859476e-03
 -1.5102567e-02
 -2.5164971e-02
 -4.3998044e-02
 -1.5309837e-01
  1.1957307e-01
 -9.7083505e-03
 -1.0535569e-01
 -1.9100668e-02
 -1.3344212e-01
 -3.1246656e-01
 -3.5852022e-02
  3.7912507e-02
  1.7986855e-01
 -3.2179314e-03
  4.9943354e-02
 -6.8986602e-02
 -2.8523070e-01
 -4.4024203e-02
 -3.2545843e-03
 -1.3755296e-01
  8.5330047e-02
 -1.1299226e-01
 -3.6321482e-01
 -2.1732511e-01
 -2.5264211e-02
  1.0988663e-02
  8.4756032e-02
 -3.3164486e-01
  4.5403946e-02
  3.3017348e-02
 -9.8898038e-03
  8.7994479e-02
  5.4466300e-02
 -5.0488152e-03
  1.0649868e-01
  9.5512047e-02
  1.9753514e-02
 -3.1021610e-02
  1.0833079e-01
 -8.6100005e-02
  1.1208542e-01
  1.1148663e-01
 -4.6796929e-02
 -4.1022658e-02
 -5.4280031e-02
 -6.6702333e-03
 -1.0248850e-01
 -4.4618960e-02
 -4.3062687e-02
 -5.3809546e-02
  5.6668211e-02
  3.6938465e-04
 -9.0735972e-02
  1.5106550e-02
 -3.0047478e-02
  2.9478107e-02
 -9.8467106e-03
  8.2088532e-03
  7.2607005e-01
  3.4996790e-03
 -4.2052935e-03
  2.2443775e-02
 -6.3774660e-02
  4.3025821e-02
  3.4151092e-02
  3.3230421e-01
  5.5875641e-01
  8.4493572e-01
 -3.2763344e-01
  4.0267508e-02
  1.3179510e-02
  1.6747816e+00
  1.4731909e+00
  5.3938728e-02
 -2.1672649e-03
 -2.5985005e-01
 -3.0027997e-01
  8.0382541e-02
  3.3702437e-02
  4.7158692e-03
 -1.0571388e-01
 -7.7040386e-01
 -7.9417461e-01
 -4.5291466e-01
  3.2108936e-02
 -2.1047457e-03
  2.8439477e-01
 -1.9318419e-02
  3.7917522e-01
  2.9198953e-03
 -1.9826261e-02
 -1.3986191e-02
 -5.0660139e-01
  6.9785244e-03
 -8.8715270e-02
  1.8487550e+00
 -1.9334052e+00
  1.0978380e+00
  3.0138826e-02
 -1.1389471e+00
  2.1170479e-01
 -4.0373031e-02
  6.3713330e-01
  1.0900800e+00
  1.0468283e+00
  1.4692865e-01
  2.6636234e-01
 -1.6091681e-01
  9.0165895e-01
  9.2276436e-01
  1.1758507e+00
 -4.0785363e-01
  6.6385436e-01
  8.4379321e-01
  4.2035741e-01
  2.3017295e-01
  1.1856456e-01
  2.6212126e-01
  6.7911786e-01
  1.5017003e-02
  1.3023815e-01
  6.7848992e-01
  2.4671873e-01
 -1.1238750e-02
 -2.4596152e-03
 -1.2985617e-01
 -4.8086491e-01
 -5.4443702e-03
 -2.8995979e-01
 -1.2680319e-01
  3.3929851e-04
 -1.8695147e-01
 -3.1267684e-02
 -5.1095220e-03
  1.3690458e-01
 -1.7143266e-01
 -1.9390927e-01
  1.2837119e-01
  4.5835223e-02
  1.9854557e-02
  5.7627797e-01
  3.1168967e-02
  6.7110711e-01
  2.0263335e-01
 -3.1637911e-02
  5.0974907e-03
  9.3513308e-03
 -2.5080076e-01
  2.4429446e-02
  1.1147257e-02
  1.1868036e-01
 -9.7147794e-03
  1.5851252e-02
 -3.2141969e-02
  4.2359993e-02
 -2.3805723e-03
 -2.5354862e-02
 -1.7548420e-02
 -5.6943641e-04
  5.4557353e-02
  8.9008249e-03
  1.9379863e-01
  2.6462047e-04
 -1.4487524e-02
 -1.2079418e-04
 -1.5990913e-01
 -2.1182531e-02
  1.5569923e-02
  4.9860822e-03
  6.1870296e-03
  2.0262863e-01
  5.3037733e-02
  7.5524941e-02
 -1.1588711e-01
  3.8305784e-03
  2.9634349e-02
  1.9563322e-01
  3.1801164e-01
 -2.1960769e-02
 -2.7788335e-02
  4.8520491e-03
  5.6272978e-04
 -9.9618873e-03
  6.6699609e-02
  1.3253141e-02
 -1.3758435e-03
  6.2482804e-03
  7.3759244e-03
  6.0896952e-02
  1.0973783e-01
 -8.6589113e-02
  3.4820955e-02
 -2.5578653e-02
 -1.5756477e-02
 -7.3956341e-02
  1.7665535e-02
  7.1719185e-02
 -8.2314331e-03
  1.1160487e-01
  5.5212647e-02
 -1.8373293e-01
 -1.1022107e-01
  5.3919975e-02
 -6.6752397e-02
 -2.0308329e-02
  7.6752272e-03
  8.4469080e-02
  2.6299573e-02
 -2.1731796e-02
  2.1258375e-02
 -4.4756845e-02
 -5.3018797e-02
  3.5265960e-02
 -3.9043441e-02
  3.9395820e-02
  2.4097357e-02
 -1.0014050e-01
  1.0609240e-01
 -5.8542132e-02
 -9.2488220e-03
  1.2539972e-03
 -1.2919312e-02
  1.3777387e-02
  4.2679468e-03
 -2.5971757e-02
  1.6240042e-02
 -2.1138381e-02
  1.2061195e-02
  1.0123204e-02
 -5.6379782e-03
  5.1081277e-02
 -2.6670460e-02
 -7.0819646e-02
  1.2108886e-02
  2.7878752e-02
  3.5597866e-03
 -8.4320039e-02
  1.6647851e-02
  9.4701871e-02
 -5.4630794e-02
  7.8750066e-02
  2.1874771e-02
 -7.1807146e-02
  6.7708910e-02
  7.0214779e-03
 -7.7238515e-02
 -8.7204039e-01
  1.6324161e-01
 -4.7560355e-01
 -5.1061034e-01
  3.1096835e-02
 -1.3088039e-01
  1.7448829e-01
  2.8386300e-02
  2.2472037e-01
 -1.4860183e-01
  1.0148782e-02
  1.3192092e-01
  8.9854538e-02
  1.4111256e-02
  3.3528939e-01
  1.9770842e-02
 -1.7618608e-02
 -1.8460564e-02
 -5.3354606e-02
  1.6558740e-03
  3.6308914e-02
 -3.1705543e-02
  6.7980453e-02
 -9.2708029e-02
  1.2067273e-01
  8.6925417e-02
  8.7960653e-02
 -2.2194058e-01
  3.5128731e-02
 -4.9937099e-02
 -2.1782385e-02
 -2.1279776e-03
  6.4729303e-03
  1.3157094e-02
  8.9751827e-03
 -3.5310920e-02
  2.6746141e-02
  7.2094187e-02
  1.0225655e-01
  2.3706302e-02
  7.1993761e-02
  2.5139580e-02
 -2.1893056e-03
 -8.2025593e-03
  2.8496850e-02
  6.3132164e-03
  2.6061777e-02
  2.2282784e-01
  1.0657046e-02
 -1.1613475e-02
 -7.2716318e-02
 -3.6417205e-02
 -4.3468662e-02
  1.2676153e-02
  2.2941407e-02
  4.9028702e-02
  1.3069685e-02
 -3.2339033e-02
  1.8083469e-03
  8.0101024e-03
  3.9587926e-02
  2.7409233e-02
  3.2677978e-02
 -6.9124162e-02
 -1.1052280e-01
  2.0523140e-02
  2.6256418e-02
 -1.8615639e-02
 -8.4582539e-03
 -5.5886079e-02
  6.7757089e-03
  1.7588617e-02
  5.9973337e-03
 -6.0017712e-02
  5.4719087e-02
 -1.3266909e-02
  3.3965845e-02
 -8.9640260e-02
 -7.4470222e-02
  6.7781009e-02
  8.2614504e-02
 -5.5538516e-02
  3.0670080e-02
 -7.6692209e-02
 -3.8310131e-03
 -1.1003287e-01
 -4.3324116e-03
 -7.4930973e-02
 -1.0537953e-01
  5.2506197e-02
  2.4702061e-02
 -3.3966843e-02
  7.6014962e-04
 -5.3908313e-03
 -3.6803987e-02
 -4.3656465e-02
  2.1742087e-02
  1.4798309e-01
  8.3822355e-02
  3.1465206e-02
  8.9015551e-02
  8.6955681e-02
 -7.3873937e-02
  1.0140361e-02
 -1.2301632e-01
  3.4671791e-02
  2.6023928e-02
 -1.3555320e-01
 -6.4405777e-02
 -1.0436609e-01
 -4.9963098e-02
  5.3472340e-02
  4.3652110e-02
  1.0691763e-01
 -1.9764293e-02
 -8.8883040e-04
  1.5778226e-03
  1.3137086e-02
  2.5787219e-02
  4.5457684e-02
  3.4433761e-01
  1.0164948e-01
 -3.5205018e-03
  1.0202248e-01
 -9.6584566e-02
 -4.6958989e-03
  5.4214941e-03
  1.9129670e-03
 -1.7106289e-02
  1.3465017e-01
 -4.4651303e-02
 -1.6425657e-01
 -6.1455138e-02
 -3.2836478e-02
 -1.4647107e-01
  2.0035745e-01
  1.5281610e-02
  2.6961435e-02
 -9.1527635e-03
 -7.5574755e-04
  5.4704424e-02
  1.4442819e-02
 -5.6813389e-02
 -5.0610699e-02
 -1.1155749e-02
 -4.1145019e-02
 -2.1402584e-02
  1.3761234e-02
  5.9021030e-02
  5.8498506e-02
  9.8680973e-02
  8.3800815e-02
  8.6219519e-02
  3.9048046e-02
  6.6281704e-05
  1.8649910e-01
  1.0763507e-02
 -3.1305112e-02
  1.5762389e-02
 -1.4877323e-02
 -4.0596962e-02
  2.4054058e-02
 -3.4530535e-03
 -3.3221010e-03
 -3.2376186e-03
  4.0950090e-02
  6.6552810e-02
 -2.0904647e-02
 -6.6814318e-02
 -4.2189475e-02
  1.2747771e-02
 -5.7755574e-03
 -1.3933904e-01
  8.1596106e-02
 -3.0704072e-02
  7.6622792e-02
  8.9378860e-03
  1.1793025e-01
  4.1624848e-02
  5.6547031e-02
  4.0332124e-01
 -1.9937932e-02
  5.1353457e-03
  7.4188255e-02
  4.3711577e-02
  1.9268395e-02
  2.9811984e-01
 -1.0018535e-01
 -4.7625698e-02
 -1.3336608e-01
  1.3754901e-01
 -4.1740857e-02
 -7.1571186e-02
 -1.6764127e-01
 -4.9105279e-02
 -2.8849331e-01
  5.4962385e-01
 -9.8043084e-02
 -5.6762103e-02
  1.1711463e-02
 -3.0005757e-02
  3.5075694e-02
 -6.2923796e-02
 -1.5878296e-02
  1.2640900e-02
  7.2314397e-02
  7.0277536e-01
  2.2954803e-02
 -1.5687324e-02
  2.7359870e-01
 -1.4580923e-01
  6.2169313e-02
 -2.6339859e-01
 -1.0498439e+00
 -1.2447113e-01
  1.1973455e+00
  6.4222060e-02
 -4.7956738e-03
  6.7675621e-03
 -1.8523332e-02
 -2.1599673e-01
  1.1779781e-01
  6.2803358e-01
  1.8023224e-04
  2.2705483e-01
 -2.3166789e-03
 -7.0605993e-01
 -2.1666463e-02
 -1.0239340e-01
  5.7370860e-02
  4.3361452e-03
  6.3535105e-03
  1.0772790e-03
 -5.6358036e-02
 -1.6659692e-02
  8.0743551e-02
 -3.7127234e-02
 -5.5666845e-02
  9.0631712e-03
  1.4075103e-01
 -5.4375285e-01
  8.1444049e-01
  1.1629969e+00
  9.4754599e-02
  7.2279215e-02
  1.6550593e-01
  1.1807497e+00
  3.7570673e-01
 -4.6274677e-01
  1.6270445e-01
  3.8156605e-01
 -9.0357356e-02
 -3.9455721e-01
 -2.3162883e-02
  7.7159107e-02
  2.4735427e-01
  9.2489630e-01
 -1.5536846e-01
 -5.6264140e-02
  6.3294545e-04
  2.5254080e-02
  5.5789685e-01
 -6.0268688e-01
 -3.1258058e-02
 -8.6567014e-02
 -4.5880381e-02
  3.7532753e-01
  1.8020835e-02
 -1.8166377e-01
 -2.1388823e-02
 -1.6001786e-01
  6.8917617e-02
 -1.4583123e-04
 -3.5903655e-02
  2.8844343e-02
  8.6969085e-02
 -1.1619926e-02
 -1.0806693e-03
 -1.9746287e-02
 -7.5146779e-02
 -2.7451102e-02
 -1.7990116e-02
 -4.2924482e-02
  3.3031620e-02
  2.2434191e-01
 -6.5848841e-03
  2.2825073e-02
  8.0484159e-02
  3.3048359e-03
 -7.5213060e-02
  1.0283533e-01
  5.7550058e-02
  1.3339595e-01
 -2.8986674e-02
  6.8015762e-02
  5.0370442e-04
 -1.4524205e-02
 -1.7991569e-02
  1.3239456e-03
 -4.5937855e-02
 -3.0660514e-02
  3.5639271e-02
 -6.0000475e-03
  1.7852278e-02
  3.7555918e-02
 -1.5372635e-01
  9.5659696e-02
 -5.0907722e-03
 -6.1787171e-03
  1.8070803e-03
  6.2178236e-02
  1.4790951e-01
  9.5835805e-02
 -6.2967287e-03
  6.3963123e-02
 -5.7596728e-02
  3.6966349e-03
  1.6264133e-01
 -3.2716382e-02
  2.2853263e-02
  8.0424763e-02
 -8.4834024e-02
 -8.8969402e-02
 -9.7275898e-03
  4.6441238e-02
  9.3555916e-03
  8.1109583e-02
 -7.0614689e-03
 -5.0649513e-02
  1.0631976e-03
 -8.6319475e-03
  1.4870964e-02
  8.2700975e-02
  3.5311125e-02
 -2.1655632e-02
  1.2348916e-01
 -1.2352875e-02
  1.1393815e-01
 -2.8458813e-02
 -1.6210698e-01
  3.7946001e-02
  4.2798348e-02
  3.1130681e-02
  9.0070469e-03
 -7.4301817e-02
  7.7484450e-03
  1.6458778e-02
  2.7441621e-02
 -1.4974616e-01
  5.3213041e-02
 -1.1601493e-02
 -9.7239777e-02
  3.1538117e-03
 -1.1824650e-02
 -3.6962479e-02
 -2.2217538e-02
 -6.5236995e-03
 -8.9937612e-02
 -6.3889489e-02
 -2.2656156e-02
 -2.3291470e-02
  3.1246331e-02
 -1.6117273e-02
  3.8334897e-03
  4.3938179e-02
  1.2727132e-01
  1.1628368e-01
  2.1906300e-02
 -3.4096386e-02
  1.6166496e-01
 -2.2761572e-02
 -1.3162658e-02
 -1.0300765e-01
 -1.8439695e-02
 -1.7076092e-02
 -4.5916992e-03
  5.8366999e-02
  2.9440634e-02
 -1.4117315e-03
  4.0563326e-02
 -6.5154478e-02
 -2.7090434e-02
 -6.1089154e-02
  5.1957760e-02
 -2.6853899e-02
  1.3719585e-02
 -3.3757710e-03
  5.0366107e-02
 -1.4980083e-03
  2.2554375e-01
 -6.8955898e-01
  7.1458936e-02
 -3.4973326e-01
 -6.4622355e-01
 -5.6686555e-03
 -8.4284568e-01
 -1.7286710e-01
 -2.6140751e-02
  4.7417605e-01
 -1.2415398e-01
 -1.6921239e-02
 -2.6771736e-01
  4.3033078e-01
  2.9540569e-02
  3.6735901e-01
 -4.6840522e-02
 -1.3151960e-01
  1.5135765e-01
  2.1186622e-02
 -6.3800044e-02
  1.8781024e-01
 -1.1519431e-01
 -1.6112375e-01
  1.9313642e-03
  1.6049151e-01
  2.0925643e-01
  1.2514095e-01
  4.9563758e-02
  8.4957425e-03
 -2.3313111e-01
 -6.2362945e-01
 -1.3041805e+00
  1.5133977e+00
 -1.7545033e+00
  1.3840756e+00
 -5.7544922e-03
 -9.5755947e-01
  1.6090680e+00
  1.4653497e+00
  3.6691610e-02
  5.0295025e-01
 -4.1083425e-01
  5.4269016e-01
 -9.5967501e-02
 -3.0590104e-02
 -1.5201434e-02
 -1.8239863e+00
 -2.7756536e-01
  3.7609134e-02
 -5.9385693e-01
  5.8027770e-04
 -6.9908780e-01
  3.8835797e-01
 -1.1488954e+00
  1.7249036e-01
 -8.8140694e-03
 -6.8524593e-01
  2.0269789e-01
 -1.2757737e-03
  3.1346995e-02
 -7.1834570e-01
 -3.1269513e-02
 -1.1502469e-01
 -1.4671175e-01
 -2.4386495e-02
  2.4772933e-02
 -5.4988656e-02
 -8.1557803e-02
  1.4216776e-01
 -1.0074155e-01
 -2.9061440e-01
 -2.0266303e-01
  2.4488468e-01
 -7.0436388e-02
  6.3846833e-01
  4.8403554e-02
  5.1689464e-01
  1.7534959e-01
 -1.0889634e-01
 -8.9642793e-02
  2.8570148e-01
  5.2217001e-01
  2.8698791e-02
 -5.5225268e-02
  1.6966572e-02
  5.4154620e-02
  1.9639108e-01
 -8.1988730e-02
 -2.8031852e-02
 -3.8637113e-02
  4.2791170e-01
  2.3998778e-02
 -4.6785049e-02
  1.6457438e-01
 -1.1410196e-02
 -6.8646714e-02
  4.4588700e-02
 -6.8132333e-03
  3.3636324e-02
 -1.3225016e-02
  3.9008182e-02
  1.2867837e-01
  3.9435167e-02
  2.8893149e-02
 -1.1537698e-01
  2.0208672e-02
  4.8738840e-01
 -2.8378936e-03
 -4.8417062e-02
 -7.9732478e-02
 -4.5645218e-02
 -4.9160451e-02
 -1.0610034e-01
  1.6263856e-02
 -3.8518253e-01
 -1.1986148e-01
 -1.1554169e-01
 -1.7078917e-02
 -7.3367946e-02
  3.7978202e-02
 -1.1009420e-02
  5.9686117e-03
  3.2856274e-02
 -5.1242281e-02
 -3.3650167e-02
 -8.6543458e-03
  3.6746949e-02
  1.4563679e-02
 -9.1278180e-02
 -3.4104895e-02
 -1.0296933e-01
 -2.5161829e-02
  4.4226889e-02
 -8.3590932e-03
 -2.6751001e-04
 -7.6941596e-03
 -5.7742180e-04
 -1.4915583e-01
  5.5448511e-03
 -4.0990960e-02
  3.4956828e-02
  1.0930401e-01
 -3.1192100e-02
  3.1876218e-02
  9.8082712e-03
  1.4643742e-01
  1.0202315e-02
 -6.2028095e-03
  1.8453369e-02
  2.9664261e-02
 -1.3073023e-01
  1.2954361e-02
  6.6746876e-02
 -3.3294022e-02
 -2.6437676e-02
 -7.4814387e-02
 -3.1456549e-02
  2.7029717e-04
  3.7854806e-02
 -5.3310964e-02
 -2.5912713e-02
  1.7029865e-01
  1.6772841e-01
 -7.8656405e-02
 -8.7722160e-02
  8.3999727e-03
  5.9605453e-02
 -2.5386544e-02
 -4.1377492e-02
  1.6463893e-02
  1.3037637e-01
  3.5908137e-02
 -2.8734693e-02
 -4.0538404e-03
  9.3971685e-02
 -1.2438389e-03
  4.1474130e-02
 -3.7745502e-02
  1.1479869e-02
 -6.2416546e-02
 -5.9082143e-02
 -4.3048363e-02
 -3.0993516e-02
  4.4159926e-02
  2.1389302e-02
  3.1937379e-02
  7.3532299e-03
 -3.9643673e-03
 -2.9359125e-03
 -8.1703523e-03
  4.3232653e-02
  8.2726344e-02
 -1.0885515e-03
  3.7175857e-02
 -2.0421108e-02
  3.2724254e-02
  4.2509001e-01
 -2.3077542e-02
 -1.7417385e-03
 -2.9682609e-01
 -2.6851399e-02
  5.6992546e-02
 -1.0209399e-01
  8.5208073e-02
  1.1317213e+00
  1.0411810e+00
  1.5538215e-02
  5.6774326e-02
  4.3118704e-02
 -8.2575667e-01
 -4.4453401e-02
  1.9252740e-02
  6.5868772e-03
 -6.8578996e-02
  2.5356629e-01
  7.0589662e-02
 -7.2415493e-02
 -4.6373251e-01
 -3.2116264e-01
  1.0503159e-02
 -1.9392143e-01
 -2.5010275e-02
  3.8385931e-02
 -3.8718972e-02
 -1.0706963e-01
  5.5747963e-02
 -3.1799577e-02
  4.5556393e-02
 -9.2769518e-02
 -1.7470576e-02
 -2.0634623e-03
 -2.7499510e-02
  1.1379927e-01
  4.4717979e-01
  9.3784027e-02
  2.6612771e-01
  8.3337404e-02
 -3.6420373e-03
  9.6027285e-02
  1.5224670e-01
  1.9580306e-02
 -4.5364606e-01
 -1.4186417e-01
 -2.0839816e-01
  4.2197595e+00
  6.2626779e-01
 -4.8990744e-01
  4.0122278e-02
 -9.2901416e-02
  4.9724957e-01
 -1.4718084e-01
  4.6784717e-01
  6.6064435e-01
  5.8104109e-02
 -1.2714876e+00
  1.9692415e+00
  5.8530366e-01
  1.5074953e-01
 -2.4127941e-01
 -9.8891333e-03
  1.3137672e+00
 -3.7028942e-02
  5.8982890e-02
 -3.3616178e-02
 -5.4079324e-01
  6.8251183e-03
 -5.2502108e-01
  4.8761392e-01
 -1.2937344e+00
  3.7282306e-01
  2.4007964e-01
 -1.0925992e-02
 -1.7059487e-01
  1.7031492e+00
  2.2439146e+00
  8.5734767e-01
 -4.1458416e-01
  2.7236622e-02
  1.6385663e-01
  9.6119809e-01
  1.1142109e-01
  8.0311227e-01
  4.8036805e-01
  4.7498894e-01
  1.6451159e-01
  1.6041102e-01
 -1.4986924e-02
  9.3586836e-03
  1.1705209e-01
  1.5595500e-02
  6.5217264e-02
 -3.6786508e-02
  5.9876949e-02
  9.6431620e-02
 -1.2899019e-03
 -1.5121188e-02
  2.3112338e-02
 -2.1578804e-02
 -6.7456566e-02
 -1.4604189e-02
  3.2036391e-01
  1.6330022e-02
 -1.3254420e-01
  9.8741259e-03
 -5.9421036e-02
 -2.7878676e-02
 -1.1014443e-01
 -1.2425513e-02
  3.6994398e-02
  1.2589361e-01
 -6.5891379e-03
 -3.2873567e-02
  2.3272062e-02
  6.8032816e-02
 -6.7537040e-02
 -9.1831265e-03
  4.3992186e-03
  1.8007660e-01
 -3.6373923e-03
  3.3343014e-01
  4.0427259e-01
  3.0936936e-02
 -1.7167615e-02
  4.1633457e-02
  3.9271168e-02
 -1.1235074e-01
 -4.4289675e-02
  2.9161131e-02
  9.0438701e-02
  4.7829443e-01
  1.2705512e-01
  1.2235732e-02
  5.4286428e-02
  1.1518466e-03
 -1.6782928e-01
 -1.8526904e-02
  1.1929875e-01
  6.9308227e-01
 -3.3401325e-01
  1.7926229e-02
 -6.9988340e-02
 -3.1922363e-02
 -4.6078989e-01
  3.8864464e-03
 -5.6532044e-02
  4.9888976e-02
  7.9022340e-02
  8.2527900e-01
 -1.7885750e-02
  6.8126857e-02
  3.2850772e-02
  4.0613690e-01
  1.1906227e-02
  1.9119352e-01
 -1.9995207e-02
  1.8297676e-02
  2.4914436e-01
 -6.7129716e-02
  2.0051646e-01
  2.0006116e-01
  5.6778246e-01
  1.2221316e-01
 -9.1031983e-02
  6.3428856e-02
  2.8250021e-01
  7.4411228e-02
  4.1643307e-03
  4.4003069e-02
 -1.4205499e-01
 -2.0908448e-01
 -4.0998556e-02
 -1.3901088e-03
 -9.7712048e-04
  4.7676778e-01
  6.9351606e-02
  4.1146502e-02
  1.3207698e-02
  6.6923805e-02
  5.9577640e-02
 -7.8949422e-02
  8.5315295e-02
  9.4782881e-02
 -1.2158151e-02
  7.4276531e-01
  1.2680773e-01
 -3.4936957e-04
  6.9769911e-02
  3.5377440e-01
  1.5727360e-02
  2.5196916e-01
  2.4140765e-01
  3.4752449e-01
  1.1417902e-01
  1.0997678e-01
  8.1618942e-02
 -2.6923060e-02
  4.1846756e-02
  1.4027694e+00
 -6.2638235e-01
 -4.1725594e-01
 -7.8760332e-01
  1.8649389e+00
  6.6128425e-02
  3.4227364e-02
  2.9267561e-02
 -6.9756240e-02
  5.8570957e-01
  4.7100282e-01
 -4.9447924e-02
 -8.1387860e-01
  3.9449316e-01
  1.0903080e-01
  5.5039627e-03
 -5.0606381e-02
 -2.2621973e-01
  1.8356057e-02
  5.0023919e-01
 -1.4037001e-02
  5.5854076e-01
  1.3273540e-01
  1.8686201e-01
  4.0711228e-02
  1.2359361e-01
 -2.2528203e-02
  4.3607536e-01
  6.4298928e-02
 -2.6691982e-01
 -6.2002778e-02
 -1.7401944e-01
 -2.0273778e-01
  1.1987536e-01
  2.6147085e-01
 -6.6849601e-01
  1.1308299e+00
 -1.6931992e+00
 -1.9282417e-01
 -1.8341826e+00
  1.3543919e+00
 -2.6406547e-01
 -3.6494777e-02
  7.4075520e-02
 -1.1606649e+00
 -4.5130926e-01
  8.2411908e-02
 -2.2644261e-02
 -5.8760524e-01
 -6.0994190e-01
 -4.5544305e-01
 -1.6731836e-02
 -9.0103433e-02
 -2.6297265e-01
  4.2404723e-01
  9.3381219e-02
 -4.1961917e-03
  5.5414003e-01
  4.0452415e-01
 -1.3299457e-02
  9.5107041e-02
  4.3221077e-01
  1.1669724e+00
  6.9560117e-01
 -3.6732507e-01
 -2.8356183e-01
  2.8071263e-01
  2.6380360e-01
 -2.4227230e-02
 -1.6956854e-01
 -2.3141375e-02
 -1.6269282e-01
  1.2705387e-01
 -4.6561307e-01
  2.5215156e-02
 -7.7920651e-01
  5.6361443e-01
  2.7061084e-02
  5.2948482e-04
 -1.8064980e-01
 -4.2507344e-01
  4.0335856e-02
 -7.7381176e-01
 -1.8523617e-01
 -7.0045257e-01
  2.5348338e-01
  1.8506740e-01
  1.9673340e-02
  3.7567255e-01
 -4.6212259e-01
  4.7631148e-01
 -8.9217418e-01
 -2.5007924e-01
 -3.8808737e-02
  7.0471340e-01
 -7.3685147e-02
  3.0483399e-02
  2.2547649e-02
  4.2561743e-01
  4.9077547e-01
 -7.1348202e-01
 -3.7619996e-01
 -7.4216634e-01
  4.9846298e-01
 -2.3716405e-02
 -9.3323682e-03
 -6.1090407e-03
 -8.5311726e-02
  2.5799522e-01
 -4.0883160e-01
 -4.5152023e-03
  1.2053814e-01
  2.7032167e-01
  6.9215134e-02
  1.6535027e-01
  1.5448630e-01
 -5.9688888e-02
 -1.6533835e+00
  3.1056205e-02
 -4.4701785e-01
  1.0888864e+00
 -2.0145583e+00
 -5.1082958e-02
  7.0860200e-02
 -4.1495398e-01
  6.1965667e-02
 -1.9999425e-01
  1.3289382e+00
  2.2109802e-01
  2.4327772e+00
 -2.3123276e+00
  5.1535767e-01
 -2.1102687e-02
 -2.9479669e-02
 -7.4058607e-02
  4.1143599e-01
 -2.3149302e+00
 -5.9451109e-01
 -1.8752114e+00
  1.0604078e+00
 -5.8865482e-01
  2.9576913e-01
 -1.1087924e-01
  1.0650029e+00
  1.2435713e+00
 -3.0433580e-02
  1.1485113e-01
 -4.4132817e-01
  8.5404444e-01
 -6.8717080e-01
  2.4900608e-01
 -2.0751556e-02
 -4.2953330e-01
 -2.8790691e+00
  2.3590097e+00
  3.3108318e-01
  4.2689867e+00
 -1.8676054e+00
  7.2909415e-01
  7.2945699e-02
  4.7733283e-01
  1.3373076e+00
 -1.2788943e+00
  1.1994820e+00
 -7.6771108e-03
  7.3444831e-01
 -8.3720911e-01
  3.6387441e-01
 -1.9896807e-02
  8.3779640e-02
  4.4847757e-01
 -7.2933346e-02
 -8.3071071e-01
 -8.3207406e-02
 -9.0032198e-02
  1.1575137e+00
  2.8755620e-01
 -1.8600876e-02
  1.5612301e-01
 -5.4544485e-01
  3.1939858e-01
 -1.1594017e+00
  5.6461102e-01
  2.1196238e-03
 -3.8034085e-02
  2.4133828e-01
  3.0258065e-02
 -1.1819204e-01
  1.3574426e+00
 -1.0094413e+00
  5.9077752e-01
  3.7669247e-01
  7.6151025e-01
 -1.6818987e+00
  1.1926636e+00
 -2.4878187e-02
 -1.4973326e-01
  4.5819706e-01
 -1.0222733e+00
  1.8537440e+00
 -5.9744000e-02
  7.3808819e-01
 -6.5596050e-01
 -2.8388867e-02
  4.1876465e-01
  5.4764652e-01
 -1.7624345e+00
 -1.8384700e-01
  7.2597390e-01
  4.2552933e-02
  1.1980369e+00
  1.0165497e-01
 -1.8523903e-01
  1.2053070e-01
  1.3677597e-01
 -1.0193899e+00
  4.0384451e-01
 -7.3904049e-01
  1.3704447e-01
  1.1900533e-01
  3.4271502e-01
  1.6640918e-01
  6.0788172e-01
 -2.2827034e-01
  5.1011497e-01
 -1.9466615e-01
 -4.4875851e-01
  1.2771425e-01
  7.1129195e-02
  4.8255444e-01
  5.1333618e-01
  3.7748805e-01
  2.7686283e-01
  9.5991993e-01
  5.7541806e-02
  5.2727945e-02
  6.4586191e-03
 -4.9050245e-01
  1.6270174e-02
 -5.5050338e-03
  1.3823004e-01
 -9.2156203e-03
 -4.8941104e-03
  1.5781196e-02
  5.8959901e-02
 -9.3001872e-01
 -1.2306171e-01
 -3.3252820e-01
  1.4244586e-03
 -1.5331770e-03
  9.7985171e-02
  5.5482410e-02
  1.1416462e-01
 -2.7067862e-02
 -7.6204608e-03
 -7.1860895e-02
  2.7474663e-01
 -1.8513585e-02
 -1.5924795e-02
 -4.5374285e-02
 -5.6069503e-03
 -3.3446427e-02
 -1.1569842e-01
  2.8069735e-02
 -4.2727339e-01
 -2.3919700e-01
 -3.2612383e-03
 -1.4854741e-01
 -5.0091505e-01
 -1.1557946e-01
 -9.6738100e-02
  1.0011883e-02
  2.8747164e-02
 -6.9577831e-01
 -4.7956187e-01
  1.0764103e-02
 -7.1354866e-02
  5.4029953e-02
  5.1333316e-02
  3.1094799e-02
  8.5003190e-02
 -1.3063168e-02
 -1.0611608e+00
  3.9801102e-02
 -2.1145274e-03
  9.2496686e-02
 -2.4967272e-02
 -2.5616542e-02
  7.0879906e-02
  4.4071775e-02
  9.4179213e-03
 -2.9616901e-01
 -3.0646114e-02
  6.5413048e-03
  5.6946527e-02
 -1.7877106e-01
 -2.2173444e-02
 -2.6668521e-04
 -1.3717538e-02
  7.4913353e-03
 -1.2174338e+00
 -4.9872005e-01
 -4.4541885e-03
 -1.0057375e-02
  5.4935738e-02
  1.7786454e-02
  4.0296368e-02
  2.4839574e-02
 -1.0088170e-01
  1.9673452e-02
  1.6497833e-01
 -5.5992350e-02
 -4.3288387e-02
 -1.0736275e-01
 -1.3365483e-01
 -8.0582999e-02
  8.2042767e-03
 -3.3285920e-02
  1.0210646e-01
 -1.3331287e+00
 -2.0448120e-02
  1.2314256e-01
  7.1302354e-02
  1.8634113e-02
  3.6078740e-02
  4.7385897e-02
 -7.1400493e-02
 -2.2042614e-01
 -6.8314053e-02
  1.7294669e-01
 -2.8289763e-02
  7.0620187e-02
 -1.1099629e-02
 -4.8267759e-02
  1.1446896e-01
  1.4103052e-01
 -7.6178437e-01
  1.2854143e+00
  7.4943848e-02
 -4.6554215e-02
  6.1545137e-02
 -2.0914492e-01
 -4.0052041e-02
  1.9290145e-01
  1.1451080e-01
 -8.7328851e-02
 -1.2112293e-01
 -9.2324756e-02
 -7.8984454e-02
 -3.9093588e-02
 -5.8707930e-02
  1.2480559e-01
 -1.5767634e-01
  1.4293086e-03
 -2.0907825e-01
 -1.5999244e-01
  2.4825399e-01
  6.4458942e-01
 -7.8897208e-01
 -3.1280622e-01
 -4.5960167e-01
  6.9339257e-01
 -1.4865234e-01
  2.2542999e+00
 -9.6874052e-01
  4.3448585e-01
 -5.0917700e-02
  4.5801710e-02
 -9.4786596e-01
  2.3996484e+00
 -1.2847939e+00
 -4.2688325e-01
 -2.5918720e+00
  2.2585421e+00
 -1.0350347e+00
 -1.8021980e-02
 -8.5089475e-01
  1.0809302e+00
 -4.5758930e-01
 -5.2333128e-01
 -7.7261895e-02
 -2.7233988e-01
  5.5668831e-01
 -1.3175546e-03
  4.1441119e-01
  7.6333441e-02
  1.2806720e-01
 -1.6441607e+00
  1.5346764e+00
  3.0162048e-01
  1.3594518e+00
 -5.5205005e-01
  5.6988317e-01
 -5.0445390e-03
 -3.4043837e-01
  1.7494066e-01
 -3.8561210e-01
  1.9134252e+00
 -4.7053453e-02
  1.3150990e+00
 -1.1552832e-01
 -1.6375312e-01
  1.4676559e-01
  2.0072968e-03
 -7.9144949e-01
  1.6500306e-01
 -8.7808214e-02
 -1.0544653e-01
 -1.8841779e+00
  5.2819437e-01
 -2.5335032e-01
 -7.5035214e-02
 -1.9854163e-01
  1.4911942e+00
 -4.4127306e-01
  7.2537464e-01
  1.6791439e-01
 -1.8459734e+00
  9.9614573e-01
  2.8370953e-01
  4.0791118e-01
 -3.7089329e-02
 -5.4046410e-01
 -6.9693977e-01
  6.0294551e-01
  5.0166631e-01
  1.7121214e+00
 -4.3012476e-01
  1.3839793e-01
  1.1459961e-01
  9.2692329e-03
 -5.8449882e-01
  8.6556293e-02
  3.6268714e-01
 -4.1985884e-01
  2.3366816e+00
 -1.0165040e+00
 -1.2278944e-01
 -3.5379279e-02
  2.1828416e-01
 -2.7732506e-01
  8.5385203e-02
 -1.5720221e-01
 -6.8603575e-01
  4.9714807e-01
 -7.3167121e-01
  1.4610235e-01
  4.8578525e-01
  5.7028118e-03
  4.4150904e-01
 -7.8173406e-02
  3.5821629e-01
 -4.3872658e-02
  1.1176659e-02
 -2.8354779e-01
 -6.0816878e-03
 -6.2346064e-02
  1.0731716e-01
  1.6035357e-01
  2.0196471e-01
 -3.7595874e-01
  3.9172477e-01
  2.6837233e-01
 -1.7649952e-01
 -3.7402153e-02
 -4.1827789e-01
 -5.4506201e-01
  1.5094173e-02
 -1.1010990e+00
  5.3366631e-01
  3.5318172e-01
 -2.5292328e-01
  4.4666503e-02
 -1.1919502e-01
 -3.4399101e-01
  1.2130442e-01
 -1.4529195e+00
 -3.2227293e-02
  3.9338984e-02
  2.4739314e-02
 -2.0524581e-01
  1.1853524e-02
 -5.9652399e-02
 -1.7314492e-02
  7.2188256e-03
 -6.5001428e-02
 -8.3816034e-01
  6.8066724e-02
  1.1545648e-01
  7.8381328e-03
  3.9591491e-02
 -9.7303046e-03
 -6.5297581e-02
  1.7882271e-01
 -6.6162187e-01
 -3.6564571e-01
  4.4573379e-01
  4.9090055e-01
 -6.3650626e-01
  1.1258974e-01
 -1.9143344e-01
 -5.7968301e-01
 -1.6827665e-02
 -9.3757081e-01
 -4.5727429e-01
  7.2901094e-01
 -1.6347964e-01
 -3.5012805e-01
 -1.4849323e-01
 -8.2992822e-02
  5.4431401e-02
  1.1269879e-02
  4.2566964e-01
 -6.1946934e-01
 -2.2618973e-01
  5.6410623e-01
  6.3951063e-01
  2.3192158e-01
 -9.0091251e-02
 -1.0243981e-01
  2.1280445e-02
 -7.5221896e-01
 -3.4114987e-01
  8.7580574e-01
  7.8325674e-02
  2.1234097e-01
  1.3014904e-01
 -1.0330386e-03
 -3.4832695e-01
  3.8984015e-03
 -2.5473890e-01
 -1.7084716e-01
  8.9775391e-02
 -6.4907476e-02
 -9.6430564e-01
 -2.3421580e-01
 -7.1723193e-02
  2.4219106e-03
  1.9103676e-01
 -2.1651798e-01
 -4.5288002e-01
 -1.8793900e-01
  1.0264572e+00
 -1.7311971e-01
  7.7328002e-01
 -1.1246764e-01
 -7.7874780e-01
 -1.3955773e-01
 -5.0236142e-01
 -4.3956971e-01
 -1.2101070e-01
 -2.4273925e-02
  1.0026217e-01
 -3.8066681e-03
  1.2541899e-01
  2.4246091e-02
 -2.6003269e-03
  1.2767032e-01
 -3.3640000e-01
  4.3208641e-01
  5.0402492e-02
 -9.1948509e-02
  8.2860105e-02
 -8.5027918e-02
  1.8562334e-02
  3.0686042e-01
 -2.3505239e-01
 -9.9660724e-01
  3.5886306e-01
  3.3786222e-01
 -5.7025331e-01
  1.3923915e-02
 -3.6404657e-03
 -9.7271788e-01
 -9.2119433e-02
 -7.9702008e-01
 -4.4237193e-01
  1.9489388e-01
 -7.4998192e-02
  4.6996197e-01
  3.4757711e-02
  2.5362123e-02
  1.3474618e-01
  7.0693374e-02
 -2.9105562e-01
 -6.1071966e-02
 -8.8710254e-01
 -1.0887606e+00
  1.8921895e+00
  4.0606290e-01
  9.9102598e-01
 -4.5308486e-02
 -2.2635302e-02
  6.9756579e-01
 -2.1449659e-02
 -1.2925555e-01
 -7.1363918e-02
  1.2734546e-01
  6.1162505e-03
  1.4381501e-01
  4.5442421e-02
  8.5336212e-03
 -2.2539608e-02
 -3.9719306e-03
 -3.0947256e-01
 -6.5449804e-02
  1.9238193e-02
  2.6729256e-02
  2.2488061e-01
  3.7794278e-03
 -2.4998747e-02
  3.8708866e-01
 -7.0233099e-02
 -5.1988685e-01
  3.5511113e-03
  4.3040043e-01
  3.0507645e-01
  5.2887392e-01
 -3.6576852e-02
  2.8105408e-02
  1.6285384e-01
 -6.8716526e-01
 -9.3333246e-03
 -9.3299270e-02
  2.1751297e-01
 -5.6316357e-02
  5.1811889e-02
 -5.7694193e-02
  7.9809077e-02
  1.5800713e-01
 -4.2284247e-02
 -4.4588870e-01
 -1.0623891e+00
 -4.5894736e-01
  3.7012320e-02
  3.1191632e-01
  3.5707440e-02
 -8.1565738e-02
  8.2690716e-02
 -2.1150495e-01
 -9.6228534e-01
 -7.5561326e-04
  6.5915030e-01
  2.7832963e-02
  2.0327404e-01
 -2.4527855e-02
 -6.0322743e-02
  3.3091915e-01
  1.8980771e-01
  1.8539046e-01
 -4.8024604e-01
 -2.0246059e-01
 -1.8716630e-01
  7.6077335e-02
  1.2406867e-02
 -9.3130665e-03
  9.5075421e-02
 -1.0465570e-01
 -9.1779623e-03
 -1.7252661e-01
 -1.7291214e-01
  1.9386524e-02
  8.7184352e-01
 -5.8565222e-02
  7.5083755e-02
  1.3348857e-01
 -1.3789427e-03
 -9.0775496e-01
 -5.7731982e-02
  7.7929324e-01
  1.3162084e-01
  9.9982493e-02
  4.6506770e-02
 -2.0035839e-02
  5.5776817e-01
  3.3801913e-02
 -6.0398328e-01
 -1.0304857e+00
  7.7542531e-01
 -5.4511777e-03
  4.8985666e-01
 -3.2018501e-02
  1.6437558e-02
 -3.4596719e-02
 -4.8781615e-01
  6.7307568e-01
 -1.7423621e-01
  4.0369373e-02
  5.6766111e-01
  1.1446395e+00
 -1.7500848e-02
 -1.0267133e-01
  8.1145895e-01
  4.8851326e-02
  6.2171377e-02
 -7.2962868e-01
  8.0018945e-02
  6.0066681e-02
  2.6158056e-01
 -4.7825895e-02
  7.2466418e-02
 -3.1502061e-02
  1.8421800e-01
  8.0458474e-01
 -1.1458963e+00
 -1.2280949e+00
 -1.5498996e-01
 -5.8908337e-01
 -6.8861419e-01
  7.3587346e-01
 -1.2519281e-01
 -8.7976904e-04
 -7.3823191e-02
 -3.1305227e-02
 -6.5561950e-01
 -6.0466699e-02
 -3.3653450e-01
 -7.2461359e-02
 -1.7953089e-02
 -4.5788303e-02
  2.6128179e-01
  2.3988153e-01
 -7.7618307e-01
  2.8536966e+00
  3.5134843e-01
  1.2872194e-01
 -3.9278606e-01
  3.4347010e-01
 -3.6299482e-02
 -1.5613109e-01
  4.1370299e-02
 -8.6025894e-01
 -1.8263234e+00
  6.2579119e-01
 -1.4971310e+00
 -1.9318129e-01
  6.6353194e-02
 -5.4654121e-01
  9.1485932e-02
  3.2465497e-01
  5.7099294e-02
 -4.3383750e-01
  1.8223148e-02
  6.6353416e-01
 -5.7506438e-02
  3.1992617e-01
  4.2250443e-01
 -1.0967609e-01
 -9.0848982e-02
 -1.2462773e+00
 -9.7234465e-02
  8.4075618e-01
 -2.9434198e-01
 -2.8228864e-01
  6.0012430e-01
 -4.4885483e-01
  7.4071899e-02
 -1.9471669e+00
 -3.3263326e-01
 -5.2982777e-01
 -3.5082000e-01
 -1.2736050e+00
 -1.9340837e-01
  1.0370292e-02
  3.4600610e-03
  5.8670229e-01
 -2.8782424e-01
 -3.3461982e-01
 -1.4923765e-01
 -3.9290619e-01
  4.4056588e-01
 -3.5180661e-01
  3.3647722e-01
  1.4653035e-02
  4.0745470e-01
  6.0241932e-01
 -1.2619103e+00
 -3.0241987e-01
  9.1122371e-01
 -4.5906067e-01
 -2.4141648e-01
  1.0074104e-01
 -3.7181035e-01
  1.3625196e+00
  7.0670265e-01
  1.0651965e-01
 -1.2906493e+00
  5.5163759e-01
 -1.7639481e-01
 -6.8895303e-02
  1.9946646e-02
  1.5161367e-01
  2.8121093e-01
 -1.0438051e+00
 -1.0534655e+00
 -1.0055176e+00
 -3.0299044e-01
  4.8951688e-01
 -3.7854001e-01
  4.5791915e-01
 -4.7971511e-01
  6.5487184e-02
 -8.5871923e-01
 -1.2705985e+00
 -2.9983714e-01
 -3.6698186e-01
 -7.2754920e-01
 -6.9840014e-02
  6.8602818e-01
 -3.1714246e-01
 -2.4296018e-01
 -4.6014553e-01
 -7.1443096e-02
  2.8448364e-01
  1.0059219e-02
 -9.0308446e-01
 -3.2048473e-01
  5.7344470e-02
  2.1564460e-01
 -1.8085812e-01
  5.2082276e-01
 -7.0865107e-01
  6.7783976e-01
 -1.3730341e+00
 -2.7439222e-01
 -1.4225338e-01
 -1.0411532e+00
  9.0722162e-01
  2.1575079e-03
  2.4851498e-01
  8.9393742e-02
  1.9965515e-01
 -1.0305590e-01
  4.9197949e-03
 -1.0794988e-02
 -1.2906124e-01
  3.8076408e-02
 -1.7391548e-01
 -2.3432104e-01
 -3.5355132e-02
 -5.5526938e-02
  6.4191267e-02
  9.4689876e-03
  3.8971151e-03
  3.9056110e-01
  1.2631182e-01
 -8.9120924e-01
  9.5039964e-01
 -7.1202403e-01
  3.7361500e-01
 -3.5780126e-01
 -1.3360711e-02
 -7.1068361e-02
 -9.2832953e-01
  5.0125039e-01
 -8.4812352e-03
  4.8030838e-01
  8.5821725e-02
  1.4914931e+00
  1.5660483e-01
 -1.0573511e-01
 -5.9894904e-02
  1.5488598e-01
 -1.4503898e-01
 -1.0608037e+00
 -3.5829359e-01
 -7.7438009e-01
  4.8727828e-01
 -4.9655749e-03
 -1.0043977e-01
 -2.3522829e-03
 -2.8045994e-01
  3.1774443e-01
 -4.5939261e-01
  7.2292286e-01
 -1.3265640e-01
  6.7875785e-01
 -3.4585944e-01
  2.9363444e-02
 -1.8735869e-01
 -6.1455876e-01
  1.1250079e+00
 -2.7391128e-02
  6.3974303e-01
  6.5345783e-05
  5.0647807e-01
  5.3027982e-01
 -1.3681118e-01
 -5.1955804e-02
  8.5303634e-02
 -1.0788904e+00
 -4.9394566e-01
  4.3588972e-01
 -7.2573602e-01
  5.7692128e-01
 -1.4828746e+00
 -1.6821982e-02
 -1.8991368e-01
 -2.0782213e-01
  9.9340844e-01
 -1.0016526e+00
  2.0338425e-02
 -2.2880505e-01
 -2.1040568e-01
 -3.1581560e-01
 -3.6188138e-01
 -1.0083064e-01
 -2.7920020e-01
  3.5130757e-01
 -9.7803003e-01
 -3.2650091e-02
 -2.5212079e-01
 -2.4202114e-01
 -1.2622521e-03
 -8.4032983e-02
  5.8032170e-02
 -4.9551479e-03
  5.9349734e-01
 -1.1964647e+00
 -1.7657486e-01
 -3.4906825e-01
  1.3467990e-01
 -6.6248804e-01
 -4.2681586e-02
 -2.1110804e-01
 -2.9782933e-01
  7.7832156e-01
  6.5973252e-02
 -1.1044598e-01
 -1.3773705e-02
 -1.6092631e-01
 -9.0298957e-01
  5.7739541e-02
 -5.1036801e-02
 -1.8264012e-01
  5.4337692e-01
 -2.0721024e-01
  2.8368104e-01
 -2.7958414e-02
 -3.0059978e-02
  4.3107733e-02
 -5.7700813e-02
  1.4681002e+00
  6.9707936e-01
  2.2939567e-02
 -7.2717473e-02
 -3.0693787e-01
  4.3659724e-02
  3.4164239e-02
  2.0171145e-02
  1.5046062e-03
  9.2110792e-03
  4.3510728e-02
 -1.8975671e-02
 -1.3079524e-02
  1.3583512e+00
 -1.9205706e-02
 -4.8143610e-01
  2.2112724e-01
 -6.4741038e-03
  3.6468202e-01
  5.5466063e-04
  3.7568432e-01
 -1.5992261e-01
 -4.7484303e-01
 -3.0692583e-01
  7.6628649e-01
 -2.1105262e-02
 -3.8752310e-02
  9.7495586e-01
  9.7782910e-01
  7.6088525e-02
 -6.0553517e-02
  3.4405190e-02
 -6.2080927e-02
  2.3113286e-01
  8.4488988e-01
 -8.5858814e-03
  5.8790036e-02
  1.1441340e-01
  1.8371443e-01
 -8.8258582e-01
  1.8781634e-01
 -2.8650996e-01
 -1.2403269e+00
  4.3427131e-01
 -2.4830867e-01
  1.2399472e+00
  6.1835396e-01
  6.2271878e-02
 -8.3631188e-02
 -1.4498724e-01
 -2.7327651e-02
  3.7056980e-01
  6.9031012e-01
  3.3826277e-01
  4.8356101e-01
  8.0428332e-01
 -1.6392196e-02
  3.4630665e-01
 -1.0026382e+00
  3.8946826e-02
  1.7019637e-01
 -3.6949939e-03
  2.7342182e-02
  1.7109141e-01
  2.8055208e-02
  6.8586946e-02
 -1.3771829e-01
  3.5619110e-01
 -7.0528318e-03
 -8.0015707e-01
  7.8440219e-01
  3.1102832e-02
  1.0443728e+00
  6.0152137e-01
  4.3913573e-02
 -5.8448892e-02
  4.2465439e-01
  2.8982716e-02
 -4.7537413e-01
  3.6746413e-01
  8.4037781e-02
  4.1622944e-02
  3.5360822e-01
  6.0297951e-02
  3.2345431e-03
 -2.0657982e-01
 -2.9370108e-01
  3.2647431e-01
 -2.8272154e-02
 -5.1915187e-01
  3.8422170e-01
  1.6525501e-01
  1.6968749e-02
 -1.3715273e-02
 -6.9415551e-01
 -4.9056340e-02
  2.3892570e-01
 -1.9857725e-02
  2.6177388e-01
  6.2378824e-01
  2.0278315e-01
  3.1142035e-01
 -2.0344718e-01
 -3.7923474e-02
 -4.1808587e-01
 -1.8912376e-01
  1.5502228e-01
  5.9708457e-02
  6.9448560e-02
  4.1839129e-01
  1.1494774e-01
  6.6908458e-03
  6.6908458e-03
  6.6908458e-03
  6.6908458e-03
  6.6908458e-03
  4.4584941e-02
  4.4584941e-02
  4.4584941e-02
  4.4584941e-02
  4.4584941e-02
  3.9796297e-02
  3.9796297e-02
  3.9796297e-02
  3.9796297e-02
  3.9796297e-02
  1.5568715e-02
  1.5568715e-02
  1.5568715e-02
  1.5568715e-02
  1.5568715e-02
  6.2528341e-03
  6.2528341e-03
  6.2528341e-03
  6.2528341e-03
  6.2528341e-03
  2.3872331e-02
  2.3872331e-02
  2.3872331e-02
  2.3872331e-02
  2.3872331e-02
