nep3 3 Ga O Au 
cutoff 8 4 157 28
n_max 4 4
basis_size 12 12
l_max 4 2 0
ANN 50 0
 -7.6476067e-02
 -6.1041612e-02
 -3.4778665e-03
 -1.8516883e-02
  1.5900147e-01
 -1.6333995e-02
  5.7694954e-03
 -7.5279617e-01
  8.3956152e-02
  2.1655949e-02
  1.0363721e-01
 -3.2095846e-02
  2.8469861e-02
  2.8962081e-02
  1.2339455e-01
  2.1839684e-02
  1.7254613e-02
  9.6283844e-03
  6.8403438e-02
 -6.4530797e-02
 -1.3038157e-02
  6.5934271e-02
  1.0746069e-01
 -1.0697388e-01
  1.2924552e-01
  2.9127244e-02
 -4.4453867e-02
  3.8244195e-02
  6.4445592e-02
  3.3334382e-02
  6.6250421e-02
  1.9186931e-02
 -2.0636629e-02
 -7.6396521e-03
  3.2218572e-02
 -9.0510622e-02
  8.4349141e-02
  3.9239757e-02
 -1.4428134e-01
  5.6496938e-03
 -3.8591411e-02
 -4.4953745e-02
 -2.3542779e-02
 -2.5547961e-02
 -8.6149015e-02
  6.3219018e-02
  2.2191259e-01
  1.6879104e-04
 -1.4664248e-01
 -2.4650961e-03
 -1.9031813e-02
 -1.1281136e-01
 -4.9177285e-02
  1.1812674e-02
 -2.4163814e-02
 -9.7910918e-02
 -5.0687060e-02
  1.0249075e-02
  7.5593829e-02
  2.4276266e-02
  1.0448613e-01
  4.2483617e-02
 -2.0950887e-01
  1.5482618e-02
  7.8803644e-02
 -1.2960128e-01
 -5.9826475e-02
  4.2714298e-02
 -1.2978165e-02
  9.0632718e-03
 -9.3063451e-03
 -2.6840523e-02
 -1.1670079e-02
 -6.1889556e-03
 -1.2998085e-01
  6.4608702e-03
 -3.3382148e-02
 -3.5806052e-02
  4.8493922e-02
  1.2646224e-03
 -1.0658673e-02
  8.9364469e-02
 -1.0453818e-01
 -1.8620783e-03
  1.4243144e-01
  2.9361064e-02
 -1.4757499e-02
 -4.1016750e-03
  1.3314258e-01
 -8.5992515e-02
  1.5349610e-02
  2.8921122e-02
  2.5669703e-02
 -2.7708763e-02
 -1.1661796e-01
  7.1313307e-02
  5.3968955e-02
 -8.9978918e-02
 -5.7202131e-02
 -2.6096962e-03
 -1.1579859e-02
 -2.4574292e-01
 -4.6317909e-02
  5.5218175e-02
  3.0546589e-02
 -2.4827704e-02
 -1.2983100e-01
  2.3759896e-01
 -3.9453588e-02
  8.6900629e-02
  1.8008975e-02
  2.9390095e-02
  1.2479391e-02
 -1.7943589e-02
 -3.0017065e-02
 -7.5264880e-04
  1.8266687e-02
 -2.5735688e-01
 -8.9197271e-02
 -1.6466878e-01
 -4.6757523e-02
 -2.6243851e-01
  3.8247076e-03
  5.3686909e-02
 -4.0564314e-02
 -3.1318869e-02
 -5.7996884e-02
 -4.3335858e-01
 -1.3875698e-01
  6.4889602e-02
 -1.9322217e-01
 -1.3405760e-01
 -1.7801832e-02
  9.6879981e-02
 -9.6250735e-03
  7.0879750e-02
 -6.1688136e-02
 -9.1823083e-01
  8.7581091e-02
 -6.4104214e-02
 -2.0861711e-02
 -2.7745301e-01
  6.0136274e-02
 -9.7282425e-02
  2.8558653e-02
  6.6516563e-02
  9.1484003e-02
  1.9888520e-02
  1.4989276e-02
  6.9510207e-02
 -8.1701307e-03
  3.1836629e-02
 -4.2615585e-02
  1.9096850e-01
  7.5025097e-02
  5.5860627e-02
  2.8224694e-02
  9.0099581e-02
  5.5369668e-02
  3.2849923e-02
  1.3062461e-02
 -3.7411589e-02
  4.2176258e-02
  1.4356190e-02
  3.5208464e-02
 -2.5473330e-02
 -7.1864136e-02
  1.4390737e-01
 -8.9603975e-02
 -1.3253624e-02
  2.2244133e-02
 -1.2833409e-02
  1.7285796e-02
 -9.4873989e-03
  8.7281212e-02
 -1.1930200e-01
 -3.4802422e-02
  2.4121357e-02
 -1.3325806e-02
  3.9387945e-02
 -4.8246644e-02
  3.5130017e-04
  4.0335529e-02
 -7.6330833e-02
 -1.8741846e-02
 -7.7858545e-02
  6.9002613e-02
 -1.0096275e+00
 -6.7494567e-03
  2.1758592e-02
 -1.3976295e-01
 -6.4188860e-02
  4.8111649e-03
  1.9475110e-01
  9.7831637e-03
 -6.8089915e-03
 -1.4656687e-01
 -1.1918189e-01
  2.3950915e-01
  6.2107004e-02
  8.5992999e-02
  1.3237477e-03
 -2.1739040e-02
 -3.3026095e-02
 -2.4642596e-02
  1.3788782e-01
  9.7954199e-03
  2.3912163e-01
 -3.1947978e-02
 -2.2682631e-02
  5.1385723e-07
  6.0293864e-02
  9.7601302e-02
  5.6631804e-02
 -7.2876222e-02
  9.4635878e-03
 -2.0510995e-01
 -3.0131475e-03
 -5.6015059e-02
  3.6012925e-02
 -9.7692735e-02
  7.8561559e-02
 -2.0952882e-01
 -6.1824103e-03
  7.0197962e-02
 -1.5736846e-02
  6.8045288e-02
  9.8310262e-03
 -3.5393387e-02
 -3.8502228e-02
 -2.4928179e-02
 -7.2137065e-02
  7.9843149e-02
 -2.0449834e-01
  2.7038647e-02
  8.7010963e-03
 -1.0131008e-01
 -1.8481389e-03
  6.0504436e-02
 -8.8506609e-02
  1.8372808e-02
  5.6416109e-02
  5.9240654e-02
  9.3183234e-02
  6.4014662e-03
  4.3048736e-02
 -6.2095962e-02
 -1.4019328e-01
 -2.4446851e-02
  1.0624950e-02
 -2.7475685e-02
 -4.9651563e-02
 -4.6742884e-03
 -1.9650487e-02
  1.4064282e-01
 -1.7060865e-02
 -6.2052600e-02
 -2.7735557e-02
 -1.3373293e-01
 -7.3267013e-02
  3.5923120e-02
 -5.2714143e-02
 -1.2929188e-02
 -6.9253556e-02
  3.7272315e-02
 -2.0695753e-02
  1.9308234e-02
 -2.8034516e-02
 -1.2008630e-01
 -2.2104574e-02
  1.4033990e-01
  2.1218277e-04
 -1.3087037e-01
 -4.4705391e-02
 -1.9173583e-02
  1.4884511e-02
  2.7593620e-02
 -2.3390667e-03
  9.5719613e-02
  1.2020126e-01
  5.3972140e-02
 -4.7018584e-02
  2.4160545e-02
 -1.3019055e-02
  5.2116219e-02
 -6.6778813e-03
  5.5193800e-02
  1.5857795e-02
 -4.4041578e-02
  1.9413410e-02
 -6.1580911e-02
  5.1719411e-03
 -6.1743192e-02
 -6.9328360e-02
  1.0401767e-01
  7.7388864e-03
 -4.3435950e-02
 -4.6293042e-03
 -3.6184311e-02
  8.4396135e-03
  8.5422089e-03
 -2.1195012e-01
 -1.0488518e-01
  6.1992075e-02
 -1.3447200e-01
  3.5101190e-02
  4.4076610e-02
  9.8489419e-02
  8.8963583e-02
 -2.5957251e-02
 -8.5848875e-02
 -2.9121418e-02
 -8.9105479e-02
 -1.0108516e-01
  2.0539124e-02
 -5.6984697e-02
  6.4588398e-02
 -4.1685808e-02
  9.8775337e-03
 -3.5741583e-02
  5.6736204e-03
  2.1097772e-01
  4.7265213e-02
 -1.1422955e-02
  3.0949882e-01
  1.9797059e-03
  7.6475203e-02
  2.1859765e-01
 -2.8172333e-02
 -2.9895009e-02
  6.6685671e-04
 -2.8432755e-02
 -4.4343155e-02
  3.1147553e-03
 -5.0983939e-02
  2.9252995e-02
 -6.6581718e-04
 -2.0175045e-03
  6.8330564e-02
  2.6781810e-02
  4.6046514e-02
  3.3096775e-02
  1.7623773e-01
  1.4366667e-01
 -4.2820759e-03
  1.2814587e-01
  4.3784481e-02
 -1.5640153e-02
 -3.9885800e-02
 -1.4049257e-02
 -6.4246945e-02
  7.4445503e-04
 -1.7313862e-02
 -4.8995994e-02
  7.6227978e-02
 -1.0660667e-02
 -1.4291129e-02
  3.5744403e-02
 -1.0057152e-01
 -3.2012083e-02
  6.2289864e-02
  2.1247752e-01
  1.0711680e-01
  4.9385782e-02
  3.8193397e-02
 -1.4862382e-01
  1.1425651e-01
 -9.8534077e-02
  1.6490845e-02
 -6.6370077e-02
  1.2351136e-02
  6.8766516e-01
 -8.8315897e-02
  8.4468409e-02
  2.2075653e-02
  5.4981052e-03
  8.4282653e-03
 -6.3424088e-02
 -2.4583897e-02
 -2.3420822e-02
 -3.3314973e-02
 -6.3801184e-02
  3.0942995e-02
  6.7067400e-02
  3.2016084e-02
 -4.1257303e-02
 -1.0118045e-02
 -3.8458753e-01
  4.4145726e-02
  4.0764932e-02
 -1.3678406e-01
 -3.6156103e-02
  2.2444971e-02
  2.6471753e-02
  2.4773777e-02
  2.2309562e-02
  3.3235289e-03
 -8.0618657e-02
  1.1445134e-02
 -1.4977275e-02
  3.5083573e-02
 -8.8680238e-03
  9.1202006e-02
  1.0662477e-01
  1.0493270e-01
  3.5962339e-02
  4.0288080e-02
 -5.2073542e-02
  2.3999396e-03
 -1.1476101e-01
 -4.6399448e-02
 -6.8984348e-03
 -1.4421773e-01
 -2.7261546e-02
  2.9669339e-02
 -1.3806935e-02
 -6.6465572e-02
 -1.9753844e-01
  1.7265201e-02
 -1.2206153e-02
  5.5192035e-02
  2.4168515e-01
 -1.9843578e-02
  8.6688772e-02
  7.8343742e-02
  6.0587946e-02
 -7.2241142e-02
 -1.7985417e-01
 -1.9935356e-01
 -1.8035227e-02
  6.9271168e-03
  2.1344100e-01
 -1.5649505e-01
 -3.3561833e-02
  6.3872308e-02
 -4.7980044e-02
 -1.9115964e-02
  1.1444609e-01
 -6.1475113e-02
  8.9969061e-02
  3.3565976e-03
  1.1282390e-01
  4.5415014e-02
 -8.2665376e-02
 -1.8219841e-01
  3.9071769e-02
 -3.5722535e-02
  3.7822116e-02
 -3.2661490e-02
 -6.5095961e-02
 -1.6170266e-01
  2.4804943e+00
 -5.2416706e+00
 -6.6649801e-01
 -4.3319921e+00
  2.5169045e-01
  2.0969386e+00
 -1.7896153e+00
 -1.4848279e+00
  1.2571878e+00
 -1.1476389e+00
  6.0781181e-01
 -1.1937546e+00
 -6.5772295e-02
  1.8624626e-01
 -1.8040824e+00
  2.1101078e-01
 -1.5749719e+00
  7.0352894e-01
 -7.4463016e-01
 -5.7677042e-01
 -9.7825170e-01
 -1.4565306e+00
  1.2466933e+00
  2.1518557e-01
  1.0529730e-01
 -8.4049886e-01
 -9.2701800e-02
  2.8546309e-02
  8.0026770e-03
 -4.2305361e-02
 -5.3979909e-01
  1.5263015e-01
 -5.0838214e-01
 -2.5127934e-02
 -8.0539651e-02
 -3.9618096e-01
  5.4415286e-02
 -5.3705648e-02
  1.5206423e-01
 -1.0657109e-02
 -2.4889371e-01
 -7.8105956e-02
  1.7911955e-03
 -3.5988018e-02
  2.7723086e-01
  9.7903172e-03
  5.0761646e-01
 -1.2262844e-01
 -9.9448077e-02
  2.9244512e-01
  6.0189713e-04
  3.2508981e-01
  9.4691757e-05
  5.7175018e-02
  9.6071668e-02
  1.0173951e-01
 -1.3560920e-02
 -3.1836592e-02
 -7.1245201e-02
 -1.7696011e-01
  2.6925844e-01
  6.6517003e-02
  5.9116490e-02
  3.1432733e-02
  3.4261469e-02
  1.6003396e-01
 -7.3904745e-02
  2.0126089e-01
  8.3528325e-02
  1.4965004e-01
  1.1702700e+00
  8.6590129e-01
  1.8174861e-02
  1.9286564e-02
  1.3801803e-02
 -4.1627330e-01
 -3.1068489e-02
  7.4945465e-03
  2.2440312e-02
 -8.3340488e-02
 -4.8589924e-01
  7.6746434e-02
 -4.4887807e-02
 -5.4386235e-03
 -6.4219803e-02
 -1.9728938e-01
 -4.2941645e-01
  2.2434571e-01
  2.7286042e-02
  9.5671481e-03
 -9.5156074e-02
  1.5264258e-01
  1.3168706e-01
  6.2536567e-02
  3.7340492e-02
  8.0954331e-01
 -3.7397880e-02
  4.8229139e-02
  4.9660906e-02
 -8.2290554e-03
  4.2731650e-02
  2.4931848e-02
 -8.3159246e-03
 -1.3670419e-01
  1.7556240e-01
  2.0190911e-02
  3.0790688e-03
  1.3209084e-01
 -2.3136085e-02
  4.7783751e-02
 -9.8380353e-03
  4.6637427e-02
 -8.8102333e-03
  1.2054788e-02
 -8.1153467e-02
  5.9460994e-02
 -6.6506378e-02
 -3.5410136e-02
 -3.7461340e-02
  3.7326429e-02
  6.8485089e-02
 -5.8290999e-02
  2.8112596e-02
  1.0362698e-04
  3.0906416e-02
 -4.2410081e-04
 -5.1375218e-02
  1.1219395e-01
 -6.4863935e-02
  1.4332283e-01
  8.6347744e-02
 -2.3078322e-02
 -1.2792322e-01
  2.0492604e-02
 -2.6053914e-01
  2.6132539e-01
  4.6036169e-02
 -9.4654121e-02
  1.7554877e-02
 -2.1291388e-02
  4.8626149e-03
 -2.1848409e-02
  2.3321094e-02
  1.7582929e-02
 -9.2688724e-03
  1.8697964e-02
  1.1518078e-01
  4.2628519e-02
 -3.6064386e-02
 -1.0912397e-01
 -1.5263394e-01
 -8.2949281e-02
 -3.2268725e-02
 -7.6654322e-02
 -1.5756631e-01
 -1.6984459e+00
  1.2772927e-01
  2.7148385e-02
  2.5159895e-02
  1.9052578e-02
 -8.7324701e-02
  3.9324179e-01
  1.6212963e-02
 -5.2661933e-02
  3.9052308e-02
 -5.9356108e-02
  2.7753966e-02
  3.6195253e-03
 -8.7294713e-02
  7.1541660e-02
  3.5809927e-02
  7.0791441e-01
 -1.8312387e-02
 -1.0884599e-01
  1.1250170e-01
  6.0535036e-02
 -2.1580654e-01
 -3.8320605e-02
 -5.9483457e-02
 -3.5754789e-02
  3.7351851e-03
 -4.8381079e-02
  8.3739884e-02
 -5.7185985e-02
 -4.2575285e-02
  1.0653856e-01
 -4.9150176e-03
 -1.3686769e-01
 -7.7202138e-03
 -1.9280142e-03
 -3.0375700e-03
  7.7628724e-02
 -4.6101909e-02
 -1.0859297e-01
 -2.9730596e-02
  7.6918721e-02
  5.1795349e-02
 -9.2679456e-02
  2.1808151e-02
  2.9470811e-02
  4.8411839e-02
  2.5565360e-02
  7.2737530e-02
  5.6621205e-02
  6.6009103e-03
 -1.7080540e-02
 -6.6773281e-02
  2.2720255e-02
 -2.9556928e-02
 -1.0766505e-01
 -3.2647598e-01
 -4.3436844e-02
  2.9919198e-01
  3.2764614e-02
  2.5715394e-02
 -4.9890012e-02
 -1.9497329e-01
  5.7761651e-02
  1.5081604e-02
 -5.0922725e-02
  1.7495342e-01
 -2.2533635e-02
  1.4885628e-01
  2.4854040e-02
  6.5841608e-02
 -1.2413087e-01
 -5.1982552e-01
  2.0910397e-02
  5.3980313e-02
  5.3172946e-02
  4.1628163e-02
  8.1986383e-02
 -5.1034279e-02
 -1.4718098e-02
  1.7600271e-01
  2.2477034e-02
  4.1719735e-02
 -4.7075741e-02
  1.0946820e-01
  3.0301660e-03
 -3.0675131e-01
  3.2109980e-02
 -2.8327823e-01
 -1.6918793e-02
 -2.5776813e-02
 -5.3327329e-02
  1.9731494e-02
  2.2767188e-02
  1.0597827e-01
 -8.4685445e-02
 -3.6444640e-01
 -9.3164809e-02
  9.8493800e-02
 -6.0583822e-02
  1.7387906e-01
 -2.5088225e-02
 -4.1836146e-01
 -2.3310032e-01
  1.5954796e-02
  3.1931050e-02
  1.0602551e-02
 -4.8758942e-01
  2.7160438e-02
  3.1024512e-02
 -1.6353287e-02
  4.7390822e-02
 -7.6577193e-03
  6.8300933e-02
 -2.4461934e-02
  2.3459844e-02
 -3.2048160e-03
 -3.5277624e-02
  7.9204151e-03
  3.8883150e-02
 -2.4049761e-02
  9.9317081e-02
  2.5412204e-02
 -5.1280461e-02
  4.2900424e-02
 -4.1749505e-03
  1.0050634e-01
 -1.0597908e-01
  5.1653188e-02
 -1.1473813e-03
  5.9165355e-02
  4.0058676e-02
 -5.1977508e-02
  2.2542767e-02
  9.5713064e-03
  5.0055787e-02
 -3.4654226e-02
  2.6113322e-02
  7.3067415e-01
 -1.4047140e-01
  6.2908784e-02
 -9.7865313e-02
  2.4136959e-04
  2.7054283e-01
  2.7849577e-02
  3.3240858e-01
  6.7505085e-01
  7.4601871e-01
 -3.6495650e-01
  1.6944118e-01
 -1.2260275e-01
  1.6899072e+00
  1.4333885e+00
  8.5396618e-02
  1.1040884e-01
 -2.6258278e-01
 -2.9520306e-01
  1.1149948e-02
 -2.6188737e-02
 -3.2619692e-02
 -2.6399520e-01
 -6.7073148e-01
 -9.6445107e-01
 -2.4307878e-01
  3.7778802e-02
 -1.3595044e-03
  2.4252243e-01
 -1.1858894e-02
  5.6817651e-01
  2.2861445e-03
 -3.1140249e-02
  3.7222516e-02
 -5.2466947e-01
  7.3264368e-02
  1.9228121e-02
  1.8444972e+00
 -1.9376333e+00
  1.1338142e+00
  2.8862011e-02
 -1.0740477e+00
  4.3716261e-01
 -7.1174607e-02
  4.9723989e-01
  9.9924904e-01
  1.0094944e+00
  1.5756932e-01
  2.5920144e-01
 -2.0266201e-01
  9.3296802e-01
  1.0535460e+00
  1.1761570e+00
 -4.0798840e-01
  5.7853782e-01
  8.5856479e-01
  4.2018536e-01
  1.9664045e-01
  1.2187479e-01
  4.7311020e-01
  5.6530607e-01
 -3.6993578e-02
 -3.6981650e-02
  5.7085657e-01
  2.4633943e-01
 -7.5895101e-02
  7.2238497e-02
  1.1968874e-02
 -5.8257782e-01
 -9.5110610e-03
 -2.9575163e-01
 -6.8548703e-01
 -1.8982224e-01
 -1.6725424e-01
  3.3415477e-03
  1.8619686e-02
  1.7427747e-01
 -5.0734591e-02
 -3.6899498e-01
  2.1612824e-01
  2.5060762e-02
 -1.6334271e-01
  4.6904165e-01
  3.2205056e-02
  7.5200403e-01
  2.0266277e-01
  9.4537400e-03
 -1.6875601e-01
  4.7682010e-02
 -3.3976596e-02
  3.2748751e-02
 -1.8323433e-01
  1.4912550e-01
  8.9794584e-02
  1.5577333e-02
  7.9743403e-01
  7.7887446e-02
 -3.5258967e-02
 -7.7818342e-02
  3.7721440e-02
 -8.3846346e-02
 -1.2494680e-03
  3.1420093e-02
  1.8375310e-01
 -1.2766877e-02
  5.3027188e-03
  1.4346388e-01
  5.2627929e-02
 -6.0570367e-02
 -2.6185268e-01
 -2.5045055e-01
 -1.4592752e-02
  1.8267101e-01
  7.4768923e-02
  2.4800973e-01
 -5.1392570e-02
 -6.1837748e-02
 -1.2812119e-03
  1.9853598e-01
  3.1515542e-01
  5.5302367e-02
 -1.5540635e-02
  1.7376162e-02
  1.3450418e-01
  2.1758802e-02
 -5.3873014e-02
  1.8561396e-01
 -6.3247517e-02
 -2.2259235e-02
 -7.8189932e-02
  9.1172960e-03
  1.0130679e-01
  1.8154627e-02
 -1.4732341e-01
 -1.2184192e-01
 -7.4300289e-02
 -1.1304824e-01
  1.1486120e-02
 -9.7906128e-02
 -3.2427076e-01
  1.6023008e-02
  7.4783124e-02
 -1.8775713e-01
 -5.9128553e-02
 -1.4701192e-02
  1.3704469e-02
 -4.3600079e-02
  3.4564383e-02
  8.4878497e-02
  2.3589494e-02
  1.3614702e-02
  3.0477054e-02
  1.0157698e-01
 -3.1005114e-02
 -1.2457576e-01
 -1.7757058e-02
  1.2159834e-02
 -5.5858996e-03
 -5.8174636e-02
  1.4012083e-02
  1.0595378e-01
  2.5122184e-03
  4.6754428e-03
 -1.0471544e-02
  1.9038737e-02
 -3.9433528e-02
  3.3661000e-02
  1.1028860e-01
 -4.7528613e-02
  6.2708601e-02
  6.4934045e-02
 -1.9050169e-01
  1.4663628e-02
 -1.9728802e-02
 -3.2029014e-02
 -4.0890094e-02
 -8.8375956e-03
 -1.0787642e-02
  8.9903519e-02
 -1.9439677e-02
 -3.8563751e-02
  4.2103697e-02
 -1.2798895e-01
 -9.4906032e-02
 -6.6815712e-02
 -7.3829211e-02
  4.2194907e-02
  5.2603106e-03
 -6.0341007e-01
 -2.0060459e-02
 -4.0273932e-01
 -2.9719785e-01
  2.3063435e-01
 -5.1359318e-02
  3.3122614e-01
 -1.3524887e-01
  1.7208746e-01
 -1.3285384e-03
  1.1103144e-02
  1.2606357e-01
  1.5567958e-01
  1.1687506e-01
  3.2646760e-01
  7.3857605e-03
  6.3171862e-03
 -2.0797295e-02
  2.7445354e-02
 -1.9820586e-02
  4.0544085e-02
  8.6140018e-03
  6.8330839e-02
  6.9415398e-02
 -1.4695942e-02
  3.2371071e-03
 -9.5730170e-04
  2.0938631e-02
  7.3774038e-03
  6.7746651e-04
 -1.9339759e-02
 -6.4536226e-03
  3.5877101e-02
  7.0703037e-02
  1.7254244e-01
  2.0999607e-02
 -8.9170881e-02
  4.3936959e-03
 -9.8176319e-03
  6.6339653e-03
  8.9555532e-02
  8.3865253e-03
  3.0874008e-02
  6.2460486e-02
  1.3280740e-02
  4.1610543e-02
 -8.6271703e-02
  2.8466913e-01
 -5.9899788e-02
 -1.8163519e-02
 -2.9704207e-01
  7.8457128e-03
 -5.8084134e-02
  1.7740790e-02
 -5.2125994e-02
  6.3380338e-02
  4.9799953e-02
 -3.0260989e-02
 -1.6032942e-03
  8.3303794e-02
  1.7899218e-01
  2.4314542e-01
 -1.0860002e-01
  1.3962215e-02
  1.3571770e-02
  1.4547335e-02
  2.2671925e-02
 -6.3583076e-02
 -9.0749208e-03
  4.2512022e-02
 -2.5417296e-02
 -4.1793190e-02
 -1.1492935e-03
  1.2840892e-01
  2.4916921e-02
 -1.9263953e-02
  5.9997551e-03
 -8.1615664e-02
 -2.7656252e-02
  6.5860778e-02
  2.2547420e-02
  1.6137466e-02
  1.6424581e-02
 -8.6624481e-02
  7.3190476e-04
 -1.2267806e-01
 -5.7562333e-02
 -2.4640956e-03
  1.3251753e-01
 -2.8584678e-02
 -1.2880683e-01
 -3.5519369e-02
  5.7554874e-03
  2.2480930e-03
 -5.2681178e-02
 -5.5678528e-02
 -2.9966454e-03
 -3.3749908e-02
  8.5620217e-02
 -8.8504605e-02
  9.2286684e-02
  1.0039889e-01
 -1.3497289e-01
  5.8093797e-03
  3.6730401e-02
 -2.5628526e-02
 -6.0349260e-03
 -1.5075269e-01
  1.9713238e-02
 -2.7218059e-02
  5.6415763e-02
  2.1638570e-02
 -5.8499187e-02
  1.0811717e-01
  5.4283433e-02
  1.3530452e-02
 -2.6012015e-02
 -2.6271243e-02
 -6.8863958e-02
  9.9255539e-02
  3.4453791e-01
  1.3604580e-01
  1.9082852e-02
  2.9701009e-01
 -9.6217263e-05
  1.3905570e-02
 -4.4394474e-02
 -4.1979998e-02
 -7.6008309e-03
 -2.6346181e-02
 -9.8935701e-02
 -2.2332391e-01
 -7.4528754e-02
  2.1687821e-02
 -1.4125304e-01
  1.1281963e-01
 -1.1255378e-03
 -4.4176493e-02
  4.9875356e-02
  7.9353442e-03
  6.7704618e-02
 -2.6961375e-02
 -1.0713304e-01
  4.3786880e-02
 -3.0733743e-03
 -2.7058609e-02
 -1.1520056e-01
 -7.8385942e-02
  1.2747753e-02
  1.7636577e-02
  7.8759529e-02
 -8.3260022e-02
  8.6831890e-02
 -1.0630933e-02
  2.2234442e-02
 -1.8814769e-01
  1.1386154e-01
 -3.0328417e-02
 -8.0313250e-02
 -9.4406880e-02
 -5.4546453e-02
 -3.1890665e-04
 -6.1571393e-03
  1.4000303e-01
  1.7194284e-02
 -6.1117880e-02
  7.4062839e-02
 -2.2291290e-02
 -8.7828049e-04
  3.4422491e-02
  4.8379102e-03
  2.5355466e-02
 -1.4557213e-01
 -3.1613592e-02
 -1.4867064e-02
 -5.6725450e-02
  3.1456236e-02
  1.4407205e-02
  5.5927884e-02
 -3.6840152e-04
  1.0246514e+00
 -6.1313521e-02
  2.2919951e-01
  2.9202390e-01
  3.9862521e-02
  5.1461114e-04
  1.1083851e+00
  4.5106009e-02
  7.9369200e-03
  1.1568803e-01
 -9.3339339e-02
 -5.7765111e-02
 -8.6589068e-02
 -1.7915824e-01
 -1.3808036e-01
 -3.5670388e-01
  5.6707340e-01
 -7.3415294e-02
 -8.6920438e-03
  8.2503773e-02
 -6.7602232e-02
  7.1970023e-02
  3.0115647e-02
 -1.3008544e-01
 -5.8568757e-02
  3.0641589e-02
  7.7282029e-01
 -9.0901563e-03
 -4.7653809e-02
  2.6795888e-01
 -6.0141832e-02
  9.2085920e-02
 -7.2236443e-01
 -1.1163408e+00
 -6.0820237e-02
  1.2333708e+00
 -9.4132703e-03
  5.4238066e-02
 -4.6268702e-03
 -4.2614803e-02
 -4.2542270e-01
  2.6651925e-01
  6.7388880e-01
  3.2312423e-04
  1.3460708e-01
 -1.0426668e-01
 -1.1281521e+00
  1.1925734e-02
 -1.1943644e-01
  1.2826748e-01
 -1.1885209e-01
 -3.5098088e-01
  9.7635403e-02
 -5.5018049e-02
  1.6905636e-01
  2.3855886e-01
  1.0818726e-02
  1.2692937e-02
 -9.4297275e-02
  1.2013762e-01
 -5.5491835e-01
  1.1058812e+00
  1.1759390e+00
 -3.2530557e-03
  4.3742743e-01
  1.5186721e-01
  1.0155736e+00
  6.1279970e-01
 -4.9735531e-01
  2.1128039e-01
  3.9218330e-01
 -8.4807843e-02
 -9.1123313e-02
  5.3737605e-01
  7.5600706e-02
  2.7877006e-01
  9.0970701e-01
 -1.4946796e-01
  5.3269468e-02
 -2.3551550e-02
  4.0538073e-02
  6.9750082e-01
 -5.8280921e-01
 -1.1056635e-01
  1.9780874e-02
  1.6695999e-02
  6.4119971e-01
  6.4740153e-03
 -5.6290474e-02
 -1.1510709e-02
 -5.0563216e-02
 -9.1848979e-03
  1.0048284e-01
 -2.9229967e-02
 -6.6410550e-03
 -2.1772671e-02
 -2.8315390e-02
 -3.6909342e-02
 -6.3167751e-02
  4.6297669e-02
  6.8850778e-03
  4.9655236e-02
  8.1446553e-03
  9.9781086e-04
 -2.0253342e-02
  2.2557087e-02
 -6.6152513e-02
  2.1561876e-02
  6.4074872e-03
  4.3537453e-02
 -4.0673576e-02
  5.5235652e-03
  3.8189936e-02
  1.1824630e-02
 -6.2251620e-02
  3.7129268e-02
 -6.4078830e-03
 -9.8412357e-02
 -1.6608891e-01
 -8.5880995e-02
 -1.5496017e-01
  9.3117870e-02
 -7.0758186e-02
 -2.6649974e-02
 -6.6260241e-02
 -1.7335389e-02
  6.4605759e-03
 -3.1764954e-02
  1.4044884e-01
 -1.8035617e-02
  1.9768132e-02
  9.0795010e-02
  2.5567725e-02
 -2.1909108e-02
 -7.9287561e-03
 -1.4376214e-01
 -1.9128764e-01
 -3.5718016e-02
  2.2497455e-02
  3.3698589e-02
 -1.6566737e-02
 -1.6835481e-01
 -5.3481366e-02
  7.9700584e-03
  6.6282578e-02
  5.0465572e-01
  1.4732920e-01
  2.2509411e-02
 -4.2618215e-02
 -7.3684186e-02
 -3.9078481e-02
  3.4764893e-02
  3.4548774e-02
  3.2285236e-02
  3.3472765e-02
  9.2323229e-02
 -1.6250157e-01
  5.1926922e-02
  7.1578972e-02
  7.1962103e-02
  3.8348142e-02
  4.6129208e-02
  1.0229737e-01
 -1.2119815e-01
 -3.2977019e-02
  2.9532650e-02
  1.4578356e-01
 -6.6200897e-02
 -7.9938956e-03
 -2.0788386e-02
  5.6577150e-02
 -3.3095047e-02
 -1.6285818e-03
 -5.7102838e-03
 -7.9092659e-02
 -2.5032723e-02
 -3.8356077e-02
  5.4411497e-03
 -6.6677488e-02
 -7.3974789e-04
  1.2418146e-02
  3.0834453e-02
  3.3740658e-02
 -1.5627090e-02
  7.9503946e-02
 -2.5281352e-03
  1.0563476e-01
  1.3539514e-03
 -5.8934681e-02
 -5.5731218e-02
 -2.8484549e-02
 -3.3046424e-02
 -3.3121508e-02
  2.8966205e-02
  3.5126400e-03
  1.0737538e-01
  6.7531444e-02
  4.5399379e-02
 -1.0923864e-01
  1.0456593e-01
  2.7783945e-02
  6.0442585e-02
 -1.5684777e-01
  2.2203129e-02
 -2.5109988e-02
 -4.7513139e-02
 -1.8882724e-02
  4.2853910e-02
  1.5587054e-01
  2.2408541e-01
 -6.2228882e-01
 -2.5906207e-02
 -1.6715237e-01
 -8.4395820e-01
 -8.4726524e-04
 -8.5759175e-01
 -1.6550364e-01
 -2.4650099e-02
  3.8672483e-01
  6.8712302e-02
 -1.5589919e-02
 -2.8444085e-01
  5.5386823e-01
 -1.2384392e-02
  3.7878361e-01
 -4.8226126e-02
 -1.3263008e-01
  9.0060860e-02
 -5.5866069e-03
  2.1207798e-03
  1.7157236e-01
 -7.0886523e-02
 -1.6311973e-01
  6.0716663e-02
  7.3818439e-03
  2.7718192e-01
  1.0386774e-01
  1.5300211e-02
  6.3884497e-02
 -2.0759134e-01
  8.5905083e-02
 -1.6803454e+00
  1.5098586e+00
 -1.8940551e+00
  1.2778877e+00
  2.2438043e-01
 -1.0990872e+00
  1.7915474e+00
  1.5669889e+00
  2.3506882e-02
  6.3808644e-01
 -4.1078103e-01
  5.4171020e-01
 -3.3060470e-01
 -1.0665059e-01
  2.9656453e-02
 -2.1872246e+00
 -2.7666479e-01
  2.0065521e-01
 -5.9150326e-01
  4.3756817e-02
 -1.2002164e+00
  4.4103143e-01
 -1.1481929e+00
  4.6644273e-01
  2.7084600e-02
 -6.9095838e-01
  2.0815742e-01
  4.1214243e-01
 -1.9607715e-02
 -7.5575775e-01
  1.5100976e-02
 -4.1599536e-01
 -4.1517302e-01
  4.6808027e-02
 -2.4303172e-02
 -3.8749442e-02
  5.3798724e-02
  2.2313555e-01
 -1.9957681e-01
 -3.0438158e-01
 -1.9160125e-01
  1.4139117e-01
 -2.5762253e-02
  5.1888841e-01
  5.8006298e-02
  6.2223846e-01
  2.1965881e-01
  2.4587819e-02
 -1.4653388e-01
  3.1174871e-01
  5.6353551e-01
  8.5895918e-02
  1.1966692e-01
  3.5676949e-02
  8.3595172e-02
  2.5955084e-01
  6.1893384e-03
 -4.5215100e-02
 -8.8794768e-02
  2.1129592e-01
 -1.4517406e-01
  3.8520156e-03
  8.7967865e-02
 -2.7413834e-02
  2.7215078e-01
  8.2948186e-02
 -2.1747558e-03
 -2.3806974e-01
  9.0583034e-02
  7.2284220e-03
  1.4391083e-01
  3.5404065e-01
  8.2764346e-03
 -1.4751929e-01
  1.9923469e-02
  5.0885898e-01
 -1.4716285e-01
  8.7694660e-02
 -1.4380972e-01
 -1.9849110e-03
 -6.0508847e-02
  1.4195332e-02
  2.0106275e-02
 -3.8213244e-01
 -2.0835023e-02
 -2.2222966e-01
 -1.0387675e-02
 -7.3260151e-02
  7.5484939e-02
 -1.1484688e-02
  1.3485111e-02
  2.4490156e-03
 -6.1311126e-02
 -8.1479877e-02
 -1.1348973e-01
 -4.1322425e-02
 -9.7380355e-03
  1.7494082e-02
 -4.2743940e-02
 -1.0357899e-01
  2.0389775e-02
 -6.5802950e-03
  5.1958464e-02
  1.3551719e-02
 -2.5799226e-02
 -3.8637940e-02
  1.8820154e-02
 -1.4561792e-02
 -3.8346086e-02
 -2.1372182e-02
 -9.8088257e-02
 -1.4537336e-01
 -2.9224448e-02
  1.0711369e-01
  6.0206085e-02
  1.1609198e-01
 -5.0880741e-02
 -8.8533491e-02
  1.6344376e-02
 -6.2048875e-02
 -8.7398089e-02
 -2.4856150e-01
 -8.5229851e-02
 -4.4005483e-02
  4.9184538e-02
  4.8771348e-02
 -3.0791208e-02
  3.0748932e-02
 -2.3787507e-01
  7.4460305e-02
  5.1458959e-02
 -4.7231257e-02
 -1.9476542e-02
  7.3783197e-02
  1.0361213e-01
 -4.5029975e-02
 -4.7936425e-02
  1.9395344e-02
 -8.5288048e-02
 -4.4810795e-03
  2.8126962e-02
  9.0735152e-02
 -6.3954964e-02
 -4.6175322e-05
  2.8806513e-02
 -3.0221913e-03
 -1.9665928e-01
 -1.0937598e-02
  6.3140869e-02
 -1.3954401e-01
  4.1183803e-02
  1.5434255e-02
 -3.2983564e-03
  2.3336763e-02
  1.3074371e-02
 -3.4832224e-02
 -1.1467055e-01
 -1.4178272e-01
  5.4069966e-02
 -1.2282400e-01
 -3.0082721e-02
  3.1336583e-02
 -6.5055867e-03
 -1.3186810e-02
  3.3800144e-02
  4.6356636e-01
  4.9425098e-03
 -4.3198066e-03
 -2.9861706e-01
 -8.5647672e-02
 -2.6524922e-02
 -1.0437226e-01
  5.5003215e-02
  1.1324259e+00
  1.0512508e+00
  1.1794308e-01
 -2.8187914e-02
 -2.1042647e-02
 -8.2579899e-01
 -5.3571496e-02
 -5.4575946e-02
 -7.3573398e-03
 -4.6176959e-02
  2.9849213e-01
  1.7269049e-02
  6.5820828e-02
 -3.7966168e-01
 -3.2961202e-01
  5.6948114e-02
 -3.4098485e-01
 -3.7321255e-02
  8.2060039e-02
  1.1768427e-01
 -1.2514442e-01
  6.2835716e-02
 -9.4767205e-02
 -3.3185311e-02
 -2.5996119e-02
 -3.5278462e-02
 -1.1543321e-01
  7.8085534e-02
  1.4017566e-01
  4.4615075e-01
  2.4364195e-03
  3.1508937e-01
 -1.6891412e-01
 -3.5814079e-03
  1.0763741e-01
  3.5354859e-01
  1.0568018e-01
 -4.4584155e-01
 -1.1933474e-01
 -2.0652853e-01
  3.9956806e+00
  6.4976186e-01
 -4.1329569e-01
  2.6662836e-02
 -4.1797361e-01
  5.6519151e-01
 -1.4843801e-01
  4.7230208e-01
  5.4525381e-01
 -2.7779261e-02
 -1.1522347e+00
  1.9604137e+00
  5.8559477e-01
  2.2261481e-01
 -2.4928346e-01
  9.5081711e-03
  9.6721196e-01
 -3.5694256e-02
 -2.7082089e-02
 -1.1437926e-01
 -5.0877726e-01
 -9.4833001e-02
 -5.3060955e-01
  4.7774369e-01
 -1.2529206e+00
  1.3062596e-01
  2.5712687e-01
 -1.7416345e-01
 -1.7429791e-01
  1.3223819e+00
  2.0419450e+00
  7.7821207e-01
 -4.4775748e-01
  1.6251470e-01
  2.0465825e-01
  6.5702403e-01
  7.4042469e-02
  8.2297504e-01
  4.8240361e-01
  6.1856490e-01
  1.6248754e-01
  4.6305959e-03
 -1.4284605e-01
 -1.0448106e-01
  2.4568696e-02
  3.9700791e-02
  4.9469817e-02
  1.7143230e-01
  4.2895037e-03
  9.8117046e-02
 -1.0411429e-02
  2.1910751e-02
  3.6362842e-02
  2.6071165e-03
 -4.6033334e-02
  2.3727957e-03
  3.0718574e-01
  3.8940184e-02
 -1.4619380e-01
  9.6613891e-02
 -1.5284838e-02
  8.5057110e-02
 -9.1479234e-02
  1.1960009e-01
  2.9879697e-03
  2.2269729e-01
 -1.8919626e-02
 -4.5555193e-02
  6.1256584e-02
  1.0380358e-01
  2.4442066e-02
  2.2971155e-01
  9.3410965e-03
  1.9043672e-01
  5.9040252e-02
  2.8245112e-01
  1.6243069e-01
 -2.2957260e-02
  7.8088932e-02
 -6.5467237e-03
  3.1638128e-01
  1.4003895e-01
 -4.7848690e-02
  3.3499917e-01
  1.0166233e-02
  4.0714997e-01
  2.2770563e-01
 -1.2109660e-01
  3.9966989e-02
  1.6257039e-01
  2.5399015e-03
  1.4533369e-01
  2.5185341e-01
  9.6902776e-01
 -3.1649336e-01
  2.2245474e-02
 -5.1521946e-02
  5.4121548e-03
 -4.5573559e-01
 -4.8064895e-02
  1.3599551e-01
  1.7140405e-03
  2.0313761e-01
  9.0158749e-01
  9.9874601e-02
  4.6388112e-02
 -5.0539300e-02
  1.5593812e-01
  7.7913992e-02
  7.6373845e-01
  2.1775140e-01
 -7.4490234e-02
  1.0413373e-01
  1.7658174e-01
  5.0297713e-01
  1.5847456e-01
  6.4641976e-01
  1.2844197e-01
  3.2759719e-02
  5.6582104e-02
  2.8732041e-01
  1.8581167e-02
  2.3827270e-02
 -2.9105142e-02
 -1.5040929e-02
 -1.5036400e-01
 -5.3188406e-02
 -1.0425421e-01
  1.3698421e-01
  2.7700916e-01
  1.0602961e-01
  2.0379624e-01
  1.2028543e-02
  5.3088660e-03
 -3.7388850e-02
 -7.4573413e-02
  2.8341639e-01
  1.7167251e-01
 -5.5737324e-02
  7.5388765e-01
  1.4666696e-01
  7.3354617e-02
  6.7350380e-02
  3.8402763e-01
  2.1644402e-04
  1.9359840e-01
  1.1341199e-01
  3.5892957e-01
  2.0685951e-01
  1.6413581e-02
 -7.1489379e-02
 -4.3706265e-03
  4.9671237e-03
  1.4598597e+00
 -5.8006716e-01
 -3.8771707e-01
 -8.1889164e-01
  1.9569619e+00
  1.2140300e-01
 -8.3828345e-02
  1.3287795e-01
 -7.7380270e-02
  5.8957773e-01
  4.7423959e-01
 -1.3224015e-01
 -5.4984379e-01
  5.8742160e-01
  1.4280576e-02
 -1.3179514e-02
 -2.9062282e-02
 -2.5500897e-01
  5.3733718e-02
  7.3742068e-01
  2.4675805e-02
  4.4063529e-01
 -4.8816600e-01
  8.6175255e-02
  1.2473380e-01
 -2.3099396e-02
  1.8643007e-02
  6.2169558e-01
  6.4195126e-02
 -4.1269284e-01
 -2.9369034e-02
 -1.7472890e-01
 -2.3904456e-01
 -1.0388082e-01
  2.7161700e-01
 -6.6831523e-01
  1.4059824e+00
 -1.7457566e+00
 -6.0852808e-01
 -1.9941839e+00
  1.3470428e+00
 -2.4271622e-01
  8.2922364e-03
 -5.4813303e-02
 -1.1480116e+00
 -5.3100157e-01
 -1.2360516e-01
 -2.2277337e-02
 -7.1180385e-01
 -6.9734401e-01
 -4.7254848e-01
  1.4914778e-01
 -9.0492249e-02
 -2.6830199e-01
  4.2152140e-01
  8.7850392e-02
 -1.1188732e-02
  8.3561593e-01
  3.6873308e-01
 -1.7821660e-02
  1.4217494e-01
  4.9045452e-01
  7.4737966e-01
  6.3388926e-01
 -2.6480782e-01
 -9.4133496e-02
  2.8708443e-01
  5.7941842e-01
  4.9567195e-03
 -3.8393706e-01
  2.4782607e-02
 -7.6643482e-02
  5.8931100e-01
 -4.8960060e-01
 -5.6176838e-02
 -8.6220592e-01
  5.4950434e-01
 -6.0450011e-01
  1.4776745e-01
 -3.4690470e-01
 -4.5047957e-01
  3.0396312e-01
 -7.7387345e-01
  1.9431094e-03
 -8.8562012e-01
  1.2498418e-01
  1.6225959e-01
 -3.7775090e-04
  2.0233123e-01
 -4.6703285e-01
  5.7567662e-01
 -8.9972579e-01
 -1.9586326e-01
 -1.1308078e-01
  6.9485855e-01
 -4.3898795e-02
  3.3851150e-02
  2.8220187e-03
  4.4727197e-01
  4.9722600e-01
 -5.4942417e-01
 -5.2655977e-01
 -7.4052358e-01
  4.9881166e-01
  2.6548730e-02
 -1.2936221e-02
 -5.3947099e-02
 -1.8179305e-01
  3.2944259e-01
 -3.1471530e-01
  3.4372509e-02
  6.3555121e-02
  4.0974739e-01
 -9.3253218e-02
 -1.3518917e-02
  4.3226027e-01
 -1.1527963e-01
 -1.6515759e+00
  3.0676898e-02
 -4.9954453e-01
  1.0832057e+00
 -2.0118511e+00
 -5.1335238e-02
  7.0890114e-02
 -4.0958077e-01
 -2.3039326e-02
 -1.7911223e-01
  1.4742072e+00
  5.1056165e-01
  2.4800005e+00
 -2.3426499e+00
  8.9703447e-01
  8.5639680e-04
 -1.0234328e-02
 -9.8262779e-02
  5.2475488e-01
 -2.3534205e+00
 -5.9958333e-01
 -1.8787278e+00
  1.0236988e+00
 -6.1960572e-01
  2.8581423e-01
  6.7177597e-03
  9.4402713e-01
  1.2615081e+00
 -1.8825214e-02
 -2.3156755e-02
 -4.4140515e-01
  8.4066105e-01
 -1.6400404e+00
  2.3141576e-01
  3.4624986e-02
 -2.9230261e-01
 -2.9939365e+00
  2.3706849e+00
  1.9590768e-01
  4.3987856e+00
 -1.8857751e+00
  9.0309912e-01
  4.3258853e-02
  6.7244494e-01
  1.3130908e+00
 -1.3062009e+00
  1.3800495e+00
 -6.9745779e-02
  7.2893316e-01
 -8.4181887e-01
  4.6084183e-01
 -1.5542746e-02
  1.8601099e-02
  3.7863192e-01
 -1.1810465e-01
 -8.3696276e-01
 -2.4149732e-01
 -8.2688637e-02
  1.1349759e+00
  3.0535105e-01
 -2.4339769e-02
  1.8357420e-01
 -5.4585397e-01
  3.9616087e-01
 -1.1582413e+00
  8.7171829e-01
  1.3564940e-02
 -5.3520009e-02
  2.3833615e-01
 -2.5433731e-01
 -3.3103096e-01
  1.2898715e+00
 -1.0211586e+00
  6.0021704e-01
  4.8378688e-01
  8.5998750e-01
 -1.6956426e+00
  1.1990414e+00
 -9.5356032e-02
 -3.2064438e-01
  4.6320304e-01
 -8.9313966e-01
  1.8699713e+00
  2.7331159e-02
  7.2572595e-01
 -6.2511539e-01
 -2.1539109e-02
  4.1900033e-01
  7.5325966e-01
 -1.7702042e+00
 -1.7814346e-01
  7.2271711e-01
  5.6185308e-03
  1.1992936e+00
  1.2207548e-01
 -1.5717405e-01
  2.0992072e-01
  1.4997602e-01
 -1.0179424e+00
  4.0989307e-01
 -7.4099284e-01
  1.0961473e-01
  1.4322907e-01
  2.9629055e-01
  4.9812276e-02
  6.1419094e-01
 -2.2837676e-01
  5.0212133e-01
 -1.8517993e-01
 -4.7726160e-01
  1.3340756e-01
  7.5749643e-02
  4.8144245e-01
  6.0616720e-01
  3.9585704e-01
  3.2368636e-01
  1.0362847e+00
  1.6412711e-01
 -1.3344668e-02
 -5.9272293e-03
 -3.6625960e-01
 -4.4456586e-02
  1.1196585e-01
  1.2788829e-01
  1.2424788e-01
  6.2163093e-04
  2.0466406e-02
  3.4459617e-02
 -9.2081112e-01
 -1.3763286e-01
 -2.2312008e-01
  2.0360930e-02
 -3.6584225e-02
  2.0765075e-02
  5.8800578e-02
  4.5900182e-03
 -2.2421412e-02
 -8.9426860e-02
 -1.3536738e-01
  5.8021569e-01
 -1.5514128e-01
  3.1530944e-04
  1.0028519e-02
  4.0696714e-02
  4.4223522e-03
 -4.5849133e-02
  5.0836217e-02
 -4.1072845e-01
 -1.7452973e-01
 -3.9984833e-02
 -1.0894523e-01
 -4.8658323e-01
 -2.3855782e-01
 -1.5611612e-03
  1.5966146e-01
 -6.0427148e-02
 -7.1509194e-01
 -4.7497407e-01
  7.4659683e-02
 -1.0126317e-02
 -2.7834233e-02
  9.2720747e-02
  1.3770318e-02
 -8.0981836e-02
 -6.3129537e-02
 -1.0608732e+00
 -6.5020197e-03
 -6.0391031e-02
 -1.1720018e-02
 -1.5586654e-02
  8.6230440e-03
  7.1906918e-03
  4.0738691e-02
 -1.0618708e-01
 -2.9914808e-01
 -5.4218415e-02
 -1.5354495e-02
  2.1108482e-02
 -2.2316804e-02
 -1.7058630e-01
 -6.5304101e-02
  4.9734108e-02
 -5.1176623e-03
 -1.5896630e+00
 -5.0504804e-01
  8.4600657e-02
 -1.3352042e-01
  1.1403313e-01
  4.0181752e-02
 -1.4786790e-01
  3.7943739e-01
  7.4329451e-02
 -2.3173374e-01
  1.5393609e-01
 -4.1294686e-02
  1.0478748e-01
 -1.8438887e-02
 -3.1341545e-02
 -1.0069078e-02
  9.2759885e-02
  1.1339161e-01
  2.4983370e-01
 -1.4576046e+00
 -1.6584769e-01
  4.7716461e-02
 -5.1252034e-02
  3.1182829e-02
 -4.7926404e-02
  4.3637557e-03
  9.0320945e-02
 -2.2045720e-01
 -8.4764779e-02
  2.0183416e-01
 -2.9198673e-02
  1.0071776e-02
 -1.9040655e-02
 -3.8041595e-02
  8.6978592e-02
  1.2602961e-01
 -7.6946878e-01
  1.3341722e+00
  8.1419118e-02
 -3.2692369e-02
  8.3304450e-02
  2.6108136e-02
 -4.0439162e-02
  3.3030936e-01
  2.2294623e-01
  2.3988118e-02
  8.8307008e-02
 -5.3788081e-02
 -9.4883524e-02
  7.4360318e-02
 -4.0792269e-03
  1.1157979e-01
 -1.4111955e-01
  2.2573482e-01
 -2.1029364e-01
 -1.6673672e-01
  1.3820885e-01
  6.5411389e-01
 -8.0179489e-01
 -6.3971299e-01
 -4.7682157e-01
  6.9963884e-01
 -1.4974742e-01
  2.6455235e+00
 -1.0022951e+00
  7.2329062e-01
 -3.9255384e-02
 -8.1060100e-03
 -1.0016176e+00
  2.4017253e+00
 -1.2919400e+00
 -3.0733564e-01
 -2.5916998e+00
  2.2539542e+00
 -1.0058980e+00
  2.9368332e-02
 -1.1395340e+00
  1.3547500e+00
 -4.7100252e-01
 -5.2763420e-01
 -4.1213298e-01
 -3.4024355e-01
  5.4000175e-01
  4.5814815e-01
  4.4822946e-01
  8.1578515e-02
  5.4770213e-01
 -1.6452285e+00
  1.5353703e+00
  3.3511317e-01
  1.3886566e+00
 -5.4657882e-01
  5.5524033e-01
  3.9599653e-02
 -3.5794848e-01
  1.2015517e-01
 -3.2981038e-01
  1.9181147e+00
 -1.1408243e-01
  1.3112661e+00
 -2.2138473e-01
 -2.3140578e-01
  1.7595248e-01
 -1.1035674e-01
 -9.4364655e-01
  1.6166620e-01
 -8.5002176e-02
 -8.7111413e-02
 -1.9547625e+00
  5.2658683e-01
 -1.4027880e-02
 -2.8168892e-03
 -4.6654782e-01
  1.4957538e+00
 -4.2593145e-01
  6.8665224e-01
  1.0457053e-01
 -1.8456491e+00
  9.9999744e-01
  3.7725356e-01
  3.6632967e-01
 -1.5361667e-02
 -5.2612007e-01
 -6.9062984e-01
  7.2346300e-01
  4.6435621e-01
  1.7324114e+00
 -4.2666906e-01
  3.8857991e-01
  4.6247968e-01
  2.9248890e-01
 -6.6735858e-01
  8.8491365e-02
  3.9806864e-01
 -3.3048731e-01
  2.3374848e+00
 -1.0097636e+00
 -5.2451164e-02
  1.6463783e-02
  2.8156075e-01
 -4.1318542e-01
  8.6726315e-02
 -1.6341271e-01
 -6.8396938e-01
  4.8231435e-01
 -7.3069960e-01
  1.4754836e-01
  5.2752554e-01
  3.8067956e-02
  4.9357972e-01
 -9.6857198e-02
  3.3169147e-01
 -9.2617191e-02
 -4.6952758e-03
 -2.8059727e-01
  9.5577814e-02
 -4.9732395e-02
  5.2279036e-02
  2.5336000e-01
  1.5123376e-01
 -3.9398924e-01
  3.7790436e-01
  2.6941785e-01
 -2.2820117e-01
 -1.3217197e-01
 -4.5532936e-01
 -6.0772735e-01
  2.7215293e-02
 -1.1331182e+00
  4.3836504e-01
  6.8049586e-01
 -2.5332612e-01
  3.3065047e-02
 -1.5266664e-01
 -6.4692527e-01
  7.0342958e-02
 -1.4492651e+00
  3.8679596e-02
  7.3495977e-02
  8.7019578e-02
 -2.1880259e-01
  4.3193083e-02
  9.3852747e-03
  1.6210026e-01
 -3.8243882e-02
 -1.0283283e-01
 -8.3612245e-01
  4.4117216e-02
  7.8002200e-02
  1.8633637e-01
  6.8159543e-02
 -2.2605894e-02
  4.8865974e-03
  4.1592005e-03
 -5.7973754e-01
 -2.4732198e-01
  4.5022458e-01
  1.3127652e+00
 -6.2740618e-01
 -1.0556065e-02
 -3.1030592e-02
 -5.5169547e-01
  3.2709759e-02
 -1.1709301e+00
 -4.8780802e-01
  7.9846823e-01
 -2.1689776e-01
 -4.3452835e-01
 -1.6577674e-01
  4.6698595e-03
 -5.9522083e-03
  1.9438452e-01
  4.2481199e-01
 -6.1284566e-01
 -9.4536558e-02
  9.3788654e-01
  6.4690042e-01
  2.5180084e-01
  2.1556467e-02
 -2.9466584e-01
 -1.1992764e-01
 -7.5017095e-01
 -2.3405516e-01
  8.2713479e-01
  1.0506802e-02
  2.9927853e-01
  4.2388327e-02
  1.7462950e-02
 -4.6106523e-01
  5.6069378e-02
 -1.5991451e-01
 -1.4034803e-01
  8.1648178e-02
  3.2324772e-02
 -9.6367455e-01
 -2.4841817e-01
 -1.8286145e-01
  6.4801626e-02
  8.6672269e-02
 -3.2754925e-01
 -5.4711252e-01
 -2.0690744e-01
  1.2521167e+00
 -1.9086467e-01
  7.1380198e-01
  1.4171747e-02
 -9.6647525e-01
 -1.3078031e-01
 -2.2448558e-01
 -5.1073432e-01
 -1.4790483e-01
 -2.8156634e-02
  5.9057906e-02
 -8.6252851e-04
  3.2231282e-02
 -1.0341974e-02
  3.1301692e-02
  2.5152281e-01
 -3.0224687e-01
  4.4446605e-01
  1.6823586e-02
 -1.4980862e-01
  1.1825345e-01
 -7.5185031e-02
  2.2278057e-02
  1.1357611e-01
 -2.1531796e-01
 -8.5036641e-01
  3.8145992e-01
  5.3442705e-01
 -4.3152395e-01
  7.1503133e-02
  1.5419500e-01
 -7.9629505e-01
 -1.9619784e-01
 -7.7697164e-01
 -4.4263390e-01
  2.1994290e-01
  1.2520085e-02
  5.2832997e-01
  4.7095232e-02
 -2.5459069e-01
  1.2798363e-01
  2.1856208e-01
 -1.9255973e-01
 -5.3800248e-02
 -8.3869493e-01
 -1.1627666e+00
  1.9439672e+00
  6.4603847e-01
  9.4569129e-01
 -7.3984772e-02
  3.5304401e-02
  6.3522160e-01
  1.5347212e-02
 -3.6117934e-02
 -4.1180085e-03
 -1.1765450e-02
 -4.8756115e-03
 -2.5249574e-02
  2.8977334e-04
  3.8509436e-02
 -3.1665690e-02
 -6.1517879e-03
 -5.0876105e-01
 -1.0480976e-01
 -6.5046982e-03
  1.5544769e-01
  3.3821231e-01
 -2.5305098e-02
 -1.5214020e-02
  4.8699519e-01
  3.8912722e-03
 -5.2507824e-01
  9.3952902e-03
  4.6688592e-01
 -4.5953505e-03
  4.5284149e-01
 -4.0568657e-02
  5.0045591e-02
  1.5950026e-01
 -6.8745935e-01
  7.1393862e-02
  1.0065030e-01
  2.3481838e-01
 -9.1926288e-03
  1.4049490e-02
  6.2127069e-02
 -5.8553550e-02
  2.0148578e-01
 -1.7328158e-01
 -4.9884340e-01
 -1.0427200e+00
 -5.1237863e-01
 -6.7196693e-03
  5.9298307e-01
  2.8251395e-02
  8.0435134e-02
  1.3712375e-01
 -3.8950062e-01
 -9.5540679e-01
 -2.1144798e-02
  4.4677395e-01
  1.9915866e-02
  1.4261140e-01
  8.1243664e-03
 -2.6275478e-02
  2.7608560e-02
  6.3789167e-02
  1.8847510e-01
 -6.5228838e-01
 -3.1611142e-01
 -8.0248535e-01
  5.1860199e-03
  3.0976489e-02
 -9.1399901e-02
  1.7134692e-01
 -8.2490943e-02
 -9.1487676e-02
 -2.6914823e-01
  9.7444756e-03
  9.9843904e-02
  7.3224586e-01
 -1.8994570e-02
  7.8146257e-02
  1.5888770e-01
 -3.7027467e-02
 -9.2066318e-01
 -1.4406721e-01
  7.7736104e-01
  4.1547474e-01
 -1.4797589e-02
 -2.3135686e-02
 -1.6209127e-03
  4.7707754e-01
 -1.2169597e-01
 -7.0012146e-01
 -7.4372894e-01
  7.9647857e-01
  3.2909924e-01
  1.8840522e-01
  2.5168056e-02
  2.2871549e-01
 -4.7441904e-02
 -2.9643032e-01
  7.2874492e-01
 -1.0276023e-01
  1.5192080e-02
  7.6454699e-01
  1.1860406e+00
  2.7580181e-02
  2.1492669e-02
  8.6497146e-01
  4.8554026e-02
  5.7857644e-02
 -5.5557668e-01
  1.0518812e-01
  2.8010118e-01
  2.3183963e-01
 -1.0205910e-02
  7.3930167e-02
 -3.4697638e-03
  1.9385991e-01
  8.2095063e-01
 -1.0784600e+00
 -1.2466729e+00
 -1.6320740e-01
 -6.3375193e-01
 -6.5898919e-01
  2.0997795e-01
 -3.1672601e-02
  3.0310024e-02
 -1.6499922e-01
 -5.7887733e-02
 -6.6906196e-01
 -2.1857336e-01
 -1.5223859e-01
  2.5688659e-02
 -1.5668534e-01
 -1.3028944e-01
  2.5712675e-01
  2.8355619e-01
 -9.4425976e-01
  3.1531694e+00
  4.6154958e-01
  5.1629108e-01
 -6.4030892e-01
  5.7530355e-01
 -9.5249526e-02
 -7.3015936e-02
  3.9802168e-02
 -5.5873221e-01
 -1.7826582e+00
  6.5515053e-01
 -1.4987210e+00
 -2.1372336e-01
  3.1588656e-01
 -5.8776456e-01
  2.7435622e-01
  3.3173388e-01
 -2.5631689e-02
 -4.3654436e-01
  2.3717936e-02
  6.5623403e-01
 -5.1377527e-02
  1.1916449e-01
  4.7769979e-01
 -2.9804689e-01
 -1.5918666e-01
 -1.2530931e+00
 -2.2065480e-01
  8.2309788e-01
 -3.7828961e-01
 -6.0646176e-01
  5.9881598e-01
 -4.4993961e-01
  9.5366746e-02
 -1.9463209e+00
 -2.4650173e-01
 -5.5277306e-01
 -5.0975400e-01
 -1.0011754e+00
 -2.0733757e-01
  6.3158721e-03
  6.9214478e-03
  6.0209984e-01
 -2.7476174e-01
 -2.9147863e-01
 -1.4656569e-01
 -4.3921405e-01
  7.1260637e-01
 -3.1384912e-01
  3.3838531e-01
  4.0568490e-02
  3.7718949e-01
  6.7486918e-01
 -1.1832216e+00
 -2.9376796e-01
  9.0798366e-01
 -4.1467848e-01
 -1.3907351e-01
  5.6934720e-01
 -1.9242835e-01
  1.4368519e+00
  7.0717347e-01
 -1.6713521e-02
 -1.3174518e+00
  5.6014061e-01
 -3.2088205e-01
 -9.1457935e-03
  4.2245373e-01
  6.2131677e-02
  2.5409019e-01
 -1.0535998e+00
 -1.2688433e+00
 -1.0101249e+00
 -3.4170556e-01
  5.1148790e-01
 -3.8050300e-01
  2.4200156e-01
 -6.0095537e-01
 -8.1346687e-03
 -8.5800368e-01
 -1.2648891e+00
 -3.6640012e-01
 -3.9206779e-01
 -7.3593557e-01
 -4.9059615e-02
  6.2411535e-01
 -4.0656775e-01
 -2.8794813e-01
 -4.6048865e-01
 -6.7834996e-02
  2.8397807e-01
 -5.8226787e-02
 -9.2100209e-01
 -2.2656132e-01
  6.9847354e-03
  2.8921741e-01
 -1.8675715e-01
  5.2211457e-01
 -6.8282872e-01
  6.5630472e-01
 -1.3964769e+00
 -8.7360367e-02
 -3.1409532e-02
 -1.0738245e+00
  7.9467434e-01
 -1.9873124e-02
  2.9348829e-01
 -2.7569566e-02
  2.9364198e-01
 -6.8524882e-02
 -6.2566828e-03
 -1.9531762e-02
 -1.3359824e-01
  6.5569013e-02
 -2.7865982e-01
 -1.8904074e-01
 -2.9236147e-01
 -3.4621317e-02
 -1.4241669e-02
 -2.4745747e-01
 -2.0199615e-01
  9.1831639e-02
  2.0128055e-01
 -8.9228296e-01
  9.8713297e-01
 -7.1440500e-01
  3.1975389e-01
 -4.9383634e-01
 -4.6401035e-02
 -4.5110345e-02
 -7.8996694e-01
  3.9833370e-01
  1.6566500e-01
  5.0529653e-01
  6.5225167e-03
  1.5551968e+00
  2.3799053e-01
 -1.0997470e-01
 -3.4434214e-02
  4.7629945e-02
 -9.9327825e-02
 -1.2771676e+00
 -3.1678349e-01
 -5.1949781e-01
  4.4042856e-01
 -5.0504502e-02
 -3.4479775e-02
 -3.2246493e-02
 -7.1461737e-02
  1.3952403e-01
 -3.9260155e-01
  5.8884513e-01
  2.2679180e-01
  6.4880753e-01
 -4.3357706e-01
 -9.2909839e-03
 -9.9707358e-03
 -7.3706734e-01
  1.3218313e+00
  2.5685200e-01
  7.1432173e-01
  7.8955315e-02
  5.1046038e-01
  5.2792168e-01
 -1.8066117e-01
 -3.5917334e-02
  1.4811309e-01
 -1.2633513e+00
 -4.6947229e-01
  4.8983338e-01
 -7.3173887e-01
  5.6804615e-01
 -1.4782655e+00
  4.7133572e-02
  2.5275486e-02
 -4.8279935e-01
  9.4477171e-01
 -9.8989403e-01
  3.9529335e-02
  2.7751869e-02
 -3.1524706e-01
 -3.0037108e-01
 -2.3978776e-01
 -4.1074181e-01
 -1.4635204e-01
  2.2896497e-01
 -9.7156340e-01
 -1.1117223e-01
 -7.6317474e-02
 -2.2859126e-01
  1.6141855e-03
 -8.5898325e-02
  1.6413383e-02
  3.0176261e-01
  5.9188998e-01
 -1.1980538e+00
 -1.7824209e-01
 -1.6661750e-01
  1.4678429e-01
 -6.9964826e-01
 -1.9456453e-03
 -5.1578723e-02
 -3.1553528e-01
  8.3447993e-01
  6.8509541e-02
 -1.0533752e-01
 -4.1223444e-02
 -1.6198960e-01
 -8.9754021e-01
 -5.4621425e-02
 -6.9317687e-03
 -1.8289827e-01
  4.9811667e-01
 -1.8276900e-01
  4.6660468e-01
 -2.6060396e-01
 -1.5852921e-01
 -7.4250728e-02
  3.2447639e-03
  1.3580594e+00
  7.5917655e-01
  3.1064915e-02
 -9.9647218e-01
 -3.1338599e-01
  4.3849841e-02
  9.6620695e-04
  4.2624839e-02
  3.9838441e-02
  7.8172348e-02
  4.3328930e-02
  9.3269553e-03
 -2.7724891e-03
  1.1859322e+00
 -1.8017692e-04
 -6.0212308e-01
  2.0358784e-01
 -5.1023405e-02
  4.0651587e-01
 -2.4928923e-03
  3.9041126e-01
 -1.7514353e-01
 -4.5855647e-01
 -1.6252062e-01
  1.2946953e+00
  8.5883392e-03
 -2.6260057e-02
  1.1880149e+00
  1.0369544e+00
  3.3836849e-02
 -1.3735123e-01
 -4.4197440e-02
 -7.5163573e-02
  1.2424675e-01
  4.1171220e-01
  1.2890176e-01
  1.9384144e-02
 -6.6602521e-02
  1.8377660e-01
 -8.8030362e-01
  2.5696415e-01
 -8.7339476e-02
 -1.2410610e+00
  4.5765173e-01
 -1.3393085e-01
  1.2571237e+00
  5.9779990e-01
 -2.0031076e-02
 -7.7636968e-03
 -1.6856679e-01
  4.5267440e-02
  4.6700451e-01
  8.1471348e-01
  2.8974801e-01
  5.5785328e-01
  8.1508869e-01
  1.1237152e-03
  3.4446993e-01
 -1.0520042e+00
  3.8555220e-02
  2.0079449e-01
  1.1759396e-01
 -1.8038312e-01
  8.4657274e-02
  3.9642546e-01
  7.6324023e-02
 -2.4037112e-01
  3.5154137e-01
 -5.5172637e-02
 -1.0079268e+00
  9.3803370e-01
  2.4977440e-03
  1.3045442e+00
  6.8306166e-01
  4.2713009e-02
 -8.4091403e-04
  4.0267295e-01
 -4.3767421e-03
 -4.3071902e-01
  5.5375540e-01
  2.0228140e-01
  4.0990420e-02
  1.3119102e-01
  1.5995808e-02
 -6.0490435e-03
 -2.2862995e-01
 -2.9757243e-01
  2.3332314e-01
 -1.4591957e-02
 -4.1053641e-01
  5.9544390e-01
  7.4618801e-02
 -2.5159866e-03
 -8.8062324e-02
 -7.1833897e-01
  1.1792632e-02
  2.2395276e-01
 -8.8820599e-02
 -1.2625399e-02
  4.8279575e-01
  3.5574815e-01
  2.4960844e-01
 -2.2435440e-01
 -4.0630464e-02
 -2.6341361e-01
 -3.5788512e-01
  1.8538879e-01
  2.1965522e-02
  1.3737755e-01
  4.2172304e-01
  1.4702255e-01
  6.6908458e-03
  6.6908458e-03
  6.6908458e-03
  6.6908458e-03
  6.6908458e-03
  4.4584941e-02
  4.4584941e-02
  4.4584941e-02
  4.4584941e-02
  4.4584941e-02
  3.9796297e-02
  3.9796297e-02
  3.9796297e-02
  3.9796297e-02
  3.9796297e-02
  1.5568715e-02
  1.5568715e-02
  1.5568715e-02
  1.5568715e-02
  1.5568715e-02
  6.2528341e-03
  6.2528341e-03
  6.2528341e-03
  6.2528341e-03
  6.2528341e-03
  2.3872331e-02
  2.3872331e-02
  2.3872331e-02
  2.3872331e-02
  2.3872331e-02
