nep3 3 Ga O Au 
cutoff 8 4 157 28
n_max 4 4
basis_size 12 12
l_max 4 2 0
ANN 50 0
 -4.6380308e-02
  3.4196854e-02
 -4.0636301e-02
  5.3091627e-02
  1.6260426e-01
  7.8638859e-02
 -2.4411159e-02
  6.8001854e-03
 -1.3135985e-02
 -7.4090818e-03
  5.2236198e-03
  9.7336881e-03
 -3.1148771e-02
 -1.5254414e-02
  1.7467985e-01
  3.2468367e-02
 -3.7806194e-02
 -3.9289787e-04
  3.6640994e-02
  3.1855449e-02
  1.6878005e-02
  1.5870117e-02
 -7.4949317e-02
  4.3564267e-02
  2.8734732e-02
  4.3495897e-02
 -3.1470584e-03
 -3.6617041e-02
 -3.9502420e-02
  3.9872337e-02
 -1.2383414e-01
 -1.3944726e-01
  2.4412792e-02
  2.7323205e-02
  1.7407380e-02
 -5.0974186e-03
  8.4094286e-02
  4.0509712e-02
  7.3609978e-02
 -1.3794181e-01
 -1.8970510e-02
 -4.7182553e-02
 -3.4939103e-02
 -5.4824213e-03
  3.4992464e-02
  4.4165537e-02
  2.7583408e-01
  6.0812030e-02
 -4.1130219e-02
  9.2350924e-03
  4.1739319e-02
  4.8287898e-02
 -3.9131340e-02
 -8.9686990e-02
 -1.2219261e-02
  4.4536982e-02
  7.2838239e-02
  1.3369223e-02
  1.3239603e-02
 -1.3230455e-01
  1.1589203e-01
  5.6730136e-02
  3.3159595e-02
 -2.1719253e-02
  3.3326887e-02
  2.0967957e-02
 -3.8632248e-03
 -1.2593754e-01
  3.3141438e-02
 -3.2477152e-02
 -4.7828380e-02
 -4.0032979e-02
  4.7844324e-02
 -4.5773913e-03
  7.7136137e-02
  6.0997333e-02
  6.8898327e-03
  5.7198131e-03
  1.2142153e-02
 -8.2678357e-03
 -1.0018138e-02
 -6.7795091e-03
  4.3291107e-02
 -8.8059865e-02
 -2.7562188e-02
  5.7411059e-03
  3.4601779e-03
  3.0224480e-02
  8.9895412e-02
  1.8067256e-02
  4.2773347e-02
  2.1553501e-02
 -6.1763972e-02
 -2.8046090e-02
 -7.7901930e-02
 -5.9560843e-02
  8.6151911e-03
 -4.1512728e-02
 -3.6903429e-03
 -2.9111538e-02
  8.0596410e-02
 -2.3763007e-02
  1.1176085e-01
  1.6060159e-02
 -6.0568992e-03
  1.0412259e-01
 -4.6560619e-02
 -5.4284763e-02
 -2.3547152e-02
  1.0847385e-02
 -3.2332193e-02
  3.0845178e-02
  1.0677201e-02
  1.6454810e-02
  9.0365872e-02
  2.7665971e-02
  6.7845976e-06
  1.7292342e-01
 -2.7036456e-02
  4.4282015e-02
 -4.6892695e-02
 -1.4986794e-01
 -1.4939193e-01
 -3.6829408e-02
  1.8460639e-02
  5.8197912e-02
 -2.7172834e-02
 -4.5886311e-01
 -1.9229859e-02
  6.0346454e-02
  1.8685978e-04
 -1.3422792e-01
  2.6682025e-02
 -1.0843012e-02
 -1.1748385e-01
 -1.0508902e-03
  1.2567535e-03
 -9.1487426e-01
 -3.4774326e-02
  1.8571968e-03
  5.6903072e-02
 -3.7088435e-02
  3.4520566e-02
 -1.9910699e-02
  1.6852735e-01
  2.3422591e-02
  1.5499158e-03
 -3.3071656e-02
  2.0216411e-04
 -8.0688961e-02
  9.3163364e-02
 -5.9715945e-02
  2.6211739e-02
  1.0201798e-01
 -3.0825639e-02
  6.2648371e-02
  7.5153701e-02
  6.4138614e-02
 -2.4642039e-02
 -2.2907839e-03
  5.9007812e-02
  7.2689825e-03
 -2.4051044e-02
 -2.7151849e-02
  9.8307580e-02
 -1.5964730e-02
  1.4654650e-01
 -1.9315947e-02
  1.1823782e-02
 -2.9135484e-02
  8.8397451e-02
  1.1563660e-02
 -1.8179026e-02
  1.4306425e-02
  5.3421441e-02
  1.5637957e-01
  2.3303561e-02
 -1.9205103e-02
 -6.1207935e-02
 -1.8695896e-02
  1.9884899e-01
  2.2809498e-02
  2.5578329e-02
  4.0774688e-02
  1.3219119e-02
 -1.0308928e-02
 -1.2297361e-01
 -1.9537152e-03
 -3.4212574e-02
  1.0662180e-01
 -1.7983437e-02
 -1.3526903e-01
  2.7250051e-02
  2.1335590e-01
  3.0632440e-02
  4.3861315e-02
 -5.9436519e-02
 -1.4735411e-01
  3.2787365e-01
 -2.5945133e-02
  2.6481561e-02
  5.8900319e-02
  9.9397756e-02
 -1.8295772e-02
 -1.2035872e-02
  3.7602368e-03
  1.2926018e-01
 -1.0944013e-01
 -1.3616389e-01
 -2.5549550e-03
 -1.1858059e-02
  1.6400870e-02
 -5.9565477e-02
  1.9804729e-02
 -2.1661142e-02
  6.7681540e-04
  3.9236065e-02
  1.2208485e-02
 -8.9324154e-02
 -3.2701325e-02
  1.2659743e-01
  8.0735341e-02
 -1.0127597e-02
  6.6515125e-02
  9.2064943e-03
  2.6340326e-02
 -1.3472311e-02
  2.4829747e-02
 -9.6207678e-02
 -1.0631434e-02
 -9.1206595e-02
  4.9615636e-02
  1.2721221e-01
  9.1896042e-02
 -5.6953270e-02
  2.9823877e-02
  6.6687405e-02
  1.5882443e-01
  6.3605390e-02
 -3.6024940e-03
 -8.5481867e-02
 -7.4667111e-04
  5.9291318e-02
  9.8763108e-03
  7.1425717e-03
 -8.8939190e-02
 -4.6288602e-02
 -7.2454058e-02
 -4.2549800e-02
 -5.3506207e-02
  3.8018371e-03
 -6.0616400e-02
  5.1736873e-02
  1.8342946e-02
  1.2155613e-01
  1.9915814e-03
 -3.6438998e-02
 -2.4770681e-02
 -8.9403400e-03
  2.5324486e-02
 -8.3373446e-04
 -5.1967944e-03
 -2.5472574e-02
 -5.4759927e-02
  2.2148816e-02
 -9.0842448e-02
 -5.2134981e-03
 -2.0474587e-02
 -4.5385897e-02
  1.1866887e-03
  4.9234949e-02
 -1.2990962e-01
  1.2599508e-01
  3.6190320e-02
  1.2816208e-02
  7.0255236e-03
 -2.9844996e-02
  7.8362457e-02
 -1.5593372e-02
  1.0536189e-01
  5.1057804e-03
  8.6261183e-03
  1.6309185e-02
 -8.6202985e-03
 -3.1643637e-02
  4.4719905e-02
  1.4842281e-02
 -3.1792231e-02
 -4.6436056e-02
 -2.1453269e-02
  3.2570686e-02
 -3.3048082e-02
 -2.0726724e-02
 -8.0974987e-03
 -4.5892123e-02
  1.7579651e-02
 -1.7702013e-02
  1.1034078e-01
  7.2072148e-02
 -1.3075469e-02
 -6.5544166e-02
  1.9184252e-03
  1.5003067e-02
 -1.0561434e-01
 -1.9914144e-01
 -1.1950084e-02
 -4.9539387e-02
  1.6467487e-02
  5.0582919e-02
  4.1603014e-02
 -9.0525128e-02
  5.6912243e-02
 -9.0413094e-02
 -2.0625448e-02
  1.3063976e-02
  5.1912382e-02
  1.0589492e-01
 -3.0232757e-02
  9.4630614e-02
 -9.5843570e-03
  1.9686554e-02
  1.9720103e-01
 -4.7239546e-02
  3.5314169e-02
 -6.0267214e-02
  4.5740943e-02
  8.6095832e-02
  3.6207356e-02
 -1.3120574e-02
  1.9769611e-02
 -8.8764001e-03
  1.5836526e-03
  2.3861382e-02
  6.4207792e-02
 -2.9969115e-03
  9.0535507e-03
 -5.6535989e-02
  3.3972990e-02
 -3.8708325e-02
  4.7111902e-02
  1.5277499e-02
 -4.3277733e-02
  2.1704945e-01
 -2.0176800e-02
  7.7564693e-03
  1.2915453e-01
 -2.2471193e-02
  4.3378353e-02
 -3.0273054e-02
 -1.2277372e-02
 -1.2143520e-01
 -4.3783493e-02
 -5.7752589e-03
 -6.4920112e-02
 -8.2119405e-03
  1.5302339e-02
  9.2753000e-04
 -1.4618755e-02
 -1.8251579e-02
  2.0177189e-02
 -1.0841914e-01
  1.7053570e-01
  7.8448281e-03
  1.8727060e-01
  1.0352461e-02
  2.8103892e-02
  1.1411478e-01
 -2.0661000e-03
  2.6115205e-02
  9.7940443e-03
  2.9189590e-02
  6.8622845e-01
  5.8307055e-02
 -1.0371071e-01
  1.5429681e-02
  4.5398246e-02
  3.7617005e-02
 -9.5862485e-03
  3.0828593e-02
 -2.4402052e-02
 -1.4424820e-01
  4.1685108e-02
  2.6791923e-02
 -1.7600819e-02
  1.5150794e-02
 -3.5091631e-02
 -9.6751973e-03
 -2.9299330e-02
  3.2392330e-04
 -1.3893447e-02
 -1.2388926e-01
  8.2851827e-02
 -4.0980424e-03
  5.1664226e-02
 -8.6493507e-02
 -4.9392756e-02
 -9.7083971e-03
  2.0623343e-02
  9.9576206e-04
  4.4791780e-02
  4.5294240e-05
  9.7674854e-02
  9.6028810e-03
 -1.3987795e-01
 -5.4264948e-02
  6.3256711e-02
 -7.6149791e-02
 -2.2224145e-02
  9.3798334e-04
 -4.5222316e-02
  7.1482514e-03
  4.2933404e-02
 -3.1025073e-02
 -3.1120382e-02
 -1.9541310e-02
  5.0516669e-02
  1.3071804e-01
 -2.7301593e-02
  9.9823214e-03
 -4.3346081e-03
  2.1220675e-02
 -8.3553251e-03
  6.2629133e-02
  1.0341506e-01
  2.6252702e-02
 -8.7661505e-02
 -1.3945486e-01
  9.6219771e-02
 -1.0261374e-01
 -8.1280753e-02
  3.0820761e-02
  8.5522957e-02
 -3.7313163e-02
 -5.5792551e-02
 -1.2088550e-02
 -4.1443679e-02
 -1.7601980e-02
  3.9611604e-02
 -1.2515916e-02
 -9.7135492e-03
  3.1421587e-02
  6.4772189e-02
  2.6480790e-02
  9.3972338e-03
 -2.6877189e-02
 -8.1968993e-02
 -6.7685701e-02
  3.2490585e-02
  1.8383956e-02
  1.4587056e-02
 -1.7984086e-01
  2.4845757e+00
 -5.5011015e+00
 -6.7729604e-01
 -4.3590727e+00
  2.5796415e-02
  2.0672624e+00
 -1.7964039e+00
 -1.5585015e+00
  1.4286883e+00
 -1.1095853e+00
  6.8812627e-01
 -1.1629527e+00
 -5.6724515e-02
 -2.8262809e-02
 -1.7264014e+00
  1.9981739e-01
 -1.5678648e+00
  7.2832304e-01
 -8.3947217e-01
 -5.6662351e-01
 -9.6105790e-01
 -1.4282386e+00
  1.1783484e+00
 -1.4923910e-02
  1.6837884e-01
 -6.6771197e-01
 -1.2099499e-01
  2.7657646e-01
  3.8593240e-02
  1.3216202e-01
 -4.5677584e-01
  1.5431920e-01
 -5.0529927e-01
 -2.7013287e-01
 -4.5679133e-02
 -4.5407753e-04
  7.7250160e-02
 -2.9502587e-02
  1.8567264e-01
 -1.3528866e-01
 -1.5020798e-02
 -7.2697185e-02
  2.6087123e-01
 -4.4097786e-04
  2.7852759e-01
  3.4471963e-02
  2.9251087e-01
  1.6596768e-02
  8.3803469e-03
  7.4556872e-02
  8.0696074e-03
  3.1123805e-01
 -6.0916122e-04
 -4.2488914e-02
  6.2563516e-02
  5.6559727e-02
 -3.0927829e-02
 -3.3417612e-02
 -1.0748963e-01
 -1.3791126e-01
  1.6268820e-01
  3.1134937e-02
  4.6300981e-02
  1.6953418e-01
  9.7691193e-02
 -4.7050077e-03
 -5.0652236e-02
  1.8109055e-01
  8.6628087e-02
  2.7381590e-02
  1.1783402e+00
  3.4522313e-01
  7.9650328e-02
 -6.0636736e-03
 -8.4600501e-02
 -3.4928837e-01
 -3.4723323e-02
  1.9220036e-02
  1.9461038e-02
 -1.2580185e-01
 -3.9180270e-01
  9.4151348e-02
  4.3729521e-02
  1.2338533e-01
  5.5529334e-02
 -1.9667858e-01
 -4.3558419e-01
  1.1593263e-02
 -2.3634781e-03
  2.2854589e-02
  8.3199795e-03
  4.0292345e-02
  1.4272572e-02
 -1.3662207e-01
 -1.0149362e-02
  6.0856048e-02
 -4.3449821e-03
  1.3580548e-02
 -2.2236970e-03
  2.4498601e-02
  3.3949714e-02
  1.3441194e-02
  3.1459298e-02
 -1.6901627e-01
  1.1819273e-01
  1.1952094e-02
 -1.0199597e-01
  1.3664508e-01
 -4.8113860e-02
 -5.1433058e-03
  2.0582180e-02
 -1.5539842e-02
 -4.1482709e-02
  1.0405198e-01
 -1.1367352e-01
  7.2209850e-02
 -2.1656526e-02
  4.7841731e-02
  2.7029272e-03
 -2.7188476e-02
  3.7331421e-02
 -1.2567370e-01
  7.6757371e-02
 -2.9820055e-02
 -1.3744925e-01
 -5.8717038e-02
  1.7011205e-02
 -1.1212629e-01
 -1.8079570e-02
 -8.9090332e-02
 -3.5612748e-03
  2.3063520e-02
 -1.2766498e-01
 -4.5742113e-02
  2.8061353e-02
  2.6514417e-01
 -3.4620408e-02
  8.3694411e-03
 -1.4922132e-01
  7.5371959e-03
  4.0315930e-03
  2.9060852e-02
 -1.8203977e-02
  1.6878191e-02
 -1.9810062e-02
 -4.3236282e-02
 -6.6216789e-02
 -1.2664506e-01
  5.3282972e-02
  8.1917783e-03
 -2.6497724e-02
 -4.0005475e-02
 -5.5245779e-02
 -2.6562583e-01
  1.6458729e-02
 -1.0843993e+00
  3.1783510e-02
  6.2529139e-02
  6.6720381e-02
 -7.9005435e-02
 -1.2323219e-01
  3.4460965e-01
 -8.1950380e-03
  7.7999588e-03
  1.4573812e-02
 -4.7345463e-02
 -2.3564359e-02
  1.5408697e-02
  1.1411927e-03
 -1.7732292e-02
  2.8635269e-02
  4.2123532e-01
  2.6776589e-02
 -5.3085558e-02
  4.8739184e-03
 -3.4196962e-02
  3.5416972e-02
  4.7345139e-02
 -1.0603081e-01
 -7.8373723e-02
  3.0551082e-02
 -3.5547268e-02
 -3.7991405e-02
 -2.0785229e-02
 -5.1620480e-02
 -2.4220701e-02
  7.1180783e-02
  6.1824553e-02
 -1.6725771e-03
  7.2032148e-03
 -7.0513226e-03
  1.4606915e-02
  8.3428897e-02
  2.6536672e-03
 -1.5537589e-02
  4.8784073e-02
  6.2586062e-02
  1.6184868e-01
 -3.6015682e-02
  5.0871507e-03
 -6.0337685e-02
  1.9038489e-02
 -8.2017466e-02
  9.3096614e-02
 -1.6673693e-02
  5.3859019e-04
  8.3303854e-02
 -7.3146480e-03
  9.1633545e-03
 -3.6200054e-02
 -3.9060348e-01
  7.5661637e-02
  2.9940608e-01
 -2.0918166e-02
 -2.1634747e-03
  2.3371041e-02
 -1.6272848e-02
 -3.8706888e-02
  1.4201170e-01
 -3.9860852e-02
  1.1205964e-01
 -5.5063865e-05
 -2.7425871e-03
 -7.0231527e-02
  1.5640581e-02
  1.4647819e-03
 -5.1534724e-01
 -1.7829364e-02
  5.8679502e-02
  3.4971762e-02
 -1.1821099e-02
  6.8521872e-02
  1.0535818e-01
 -3.9290443e-02
 -2.1213049e-02
  9.2599683e-02
 -4.4065505e-02
  2.4117548e-03
  9.5581897e-02
 -6.1547749e-02
 -1.2795269e-01
 -2.4339244e-02
 -3.2593708e-02
 -2.6347566e-01
 -3.6985368e-02
 -1.5667537e-02
  1.6453168e-01
 -2.1539566e-03
  8.7293454e-02
 -2.2099024e-02
 -9.6523315e-02
 -1.9993063e-02
 -2.9850232e-03
 -1.3755062e-01
  8.2868122e-02
 -1.0428255e-01
 -2.7492034e-01
 -2.1149141e-01
 -1.2002904e-02
  1.5694916e-02
  4.0812757e-02
 -3.3188927e-01
  4.8550908e-03
 -3.4801826e-02
  6.3795142e-02
  8.5531406e-02
  1.6017223e-02
  1.3307832e-02
  6.4686216e-02
  7.9556197e-02
  2.5946639e-02
 -3.0729208e-02
  6.1910223e-02
 -8.6120099e-02
  1.0976420e-01
  1.1125541e-01
 -4.1041132e-02
 -6.3024230e-02
  4.0242951e-03
  2.1227051e-02
  2.4830664e-02
 -4.4322137e-02
 -4.2854548e-02
 -5.3773969e-02
  6.0873389e-02
  1.4862324e-03
 -1.0236795e-01
 -8.8724019e-03
 -2.9933043e-02
  1.1819395e-01
 -2.2244290e-02
 -2.8496698e-02
  7.2606885e-01
 -1.9559459e-01
 -6.8927919e-03
 -1.5059641e-02
 -2.7967380e-02
 -8.6264275e-02
  5.1327432e-03
  3.3232492e-01
  7.4069613e-01
  9.6795714e-01
 -3.2755873e-01
  4.0160775e-02
 -6.6425979e-02
  1.6747756e+00
  1.4739318e+00
  4.4950072e-02
 -8.9440003e-02
 -2.6122081e-01
 -2.6664183e-01
  7.1502760e-02
  1.4149106e-02
 -1.4022680e-01
 -2.9298186e-01
 -7.7247423e-01
 -7.9451895e-01
 -5.5848008e-01
  3.3847503e-02
 -2.0614278e-03
  2.8818163e-01
 -4.7301918e-02
  3.0649844e-01
  2.9101362e-03
 -1.1698616e-01
 -5.6339214e-03
 -5.0260860e-01
  4.9281036e-03
  2.9221997e-02
  1.8487396e+00
 -2.0007241e+00
  1.0978130e+00
  3.0138198e-02
 -1.1389509e+00
  1.2549116e-01
 -4.2028837e-02
  6.2741077e-01
  1.1032101e+00
  9.8288971e-01
  1.4661238e-01
  2.6634544e-01
 -1.8839037e-01
  9.1432911e-01
  9.2276710e-01
  1.1758500e+00
 -4.1528469e-01
  6.8462926e-01
  8.4605420e-01
  4.2035741e-01
  2.7318308e-01
  1.1857975e-01
  2.4506912e-01
  6.7178309e-01
  4.7796734e-02
  3.9681140e-02
  5.1999116e-01
  2.4672034e-01
 -6.8793170e-02
 -1.4564705e-02
 -1.0918788e-01
 -4.8089284e-01
 -2.7413061e-02
 -2.9487479e-01
 -2.5744280e-03
  1.1117838e-01
 -1.9894454e-01
 -3.5326935e-02
 -1.1916353e-02
  3.6144882e-02
 -1.0409286e-01
 -1.7917500e-01
  1.4007458e-01
  2.2903541e-02
  1.9282963e-02
  4.4657338e-01
  3.1819653e-02
  6.7112160e-01
  2.0263335e-01
 -2.1064701e-02
 -5.2540177e-03
  6.3375020e-03
 -2.5078446e-01
  2.3844251e-02
 -2.7346773e-02
  7.2002403e-02
  6.2967497e-03
  1.5851969e-02
 -3.2177031e-02
  3.0249598e-02
  7.7028042e-03
  6.5373212e-02
 -1.6609740e-02
 -5.7875889e-04
 -1.0425723e-02
  8.8845715e-03
  1.9561327e-01
  3.3802700e-03
 -1.4416250e-02
 -5.7005407e-03
 -1.5797657e-01
 -2.3136385e-02
  1.5021277e-02
  6.5565030e-03
  2.7319118e-03
  2.0290461e-01
 -3.1100012e-02
  7.5666711e-02
 -2.7227376e-02
 -1.0840536e-01
  1.9164758e-02
  1.9567654e-01
  3.1800482e-01
 -1.5616721e-02
 -6.1299652e-02
 -2.0772876e-02
 -3.7223127e-02
 -1.1731927e-02
 -1.0110904e-01
 -3.9841857e-02
 -1.4363558e-03
  5.0062397e-03
 -1.7517371e-01
 -5.1718936e-03
  1.1115835e-01
  5.9789009e-02
  3.4829725e-02
 -2.2281313e-02
  7.4023925e-02
 -7.0010260e-02
  3.1676374e-02
  7.1858920e-02
 -3.6472464e-03
 -9.6386317e-03
  3.7620164e-02
  3.3152383e-02
 -1.2355287e-01
  1.6922811e-02
 -9.3628116e-02
 -2.0284723e-02
 -1.3085817e-04
  8.6697318e-02
  2.6299708e-02
  2.0429590e-03
  3.5239715e-02
 -6.9976053e-03
 -8.6468905e-03
  3.3957038e-02
 -5.5534203e-02
  2.9695254e-02
  4.0710639e-02
 -1.8444330e-02
  1.0078847e-01
 -4.5692481e-02
 -8.4416904e-03
  7.4514542e-03
  1.1092767e-02
  2.2251589e-02
  2.9573021e-03
  1.0093530e-03
  7.6309226e-02
 -3.4934562e-03
  1.2413222e-02
  1.0504749e-02
  9.1584716e-03
 -6.2525667e-02
 -7.4857190e-02
 -4.0987615e-02
  1.4569317e-02
  2.7890507e-02
 -1.1456122e-01
  1.5269881e-02
  1.5306164e-02
  8.6062871e-02
 -5.2588303e-02
  8.2896799e-02
  2.7112834e-02
 -3.8633890e-02
  4.1776553e-02
  2.7765641e-02
 -3.8216732e-02
 -8.7602007e-01
  1.6336001e-01
 -4.1932237e-01
 -6.0936397e-01
 -3.0432180e-02
 -1.3067579e-01
  1.5884522e-01
  2.8086323e-02
  2.3011880e-01
 -1.4240681e-01
 -3.8927495e-02
  1.3224860e-01
  5.6138735e-02
 -1.4427088e-02
  3.3529440e-01
  3.1398520e-02
 -2.5539115e-02
 -2.5813511e-02
 -5.4481972e-02
  1.7344354e-03
  3.6267307e-02
  7.5372914e-03
  8.3739325e-02
 -6.9635428e-02
 -2.5593879e-02
  9.3433432e-02
  6.4648233e-02
 -2.2269268e-01
  1.4242199e-02
 -1.5137177e-02
  1.0716932e-01
  1.4624520e-02
  1.8595735e-02
 -6.2860601e-02
  5.2752264e-02
 -4.9277823e-02
  2.7513014e-02
  1.5824142e-01
  6.0419522e-02
 -6.8785101e-02
  7.3922358e-02
  3.2332283e-02
  5.7286196e-03
 -1.1709115e-02
  3.5900429e-02
  3.2803029e-02
  1.3522926e-02
  2.2961950e-01
 -8.1063779e-03
 -2.3934264e-02
 -5.7861056e-02
 -3.0322831e-02
 -4.3838900e-02
 -1.3312935e-02
  1.7773874e-02
  4.4654686e-02
  6.6476293e-02
 -2.7355257e-02
 -6.6596689e-03
 -6.8325430e-02
  3.9583676e-02
  5.3539615e-02
  2.4604520e-02
 -2.8390661e-02
 -1.1136882e-01
  2.0524811e-02
  1.6833527e-02
  7.2938744e-03
  3.0548733e-03
 -5.0099801e-02
 -1.9399432e-02
  6.0305698e-03
  5.6296145e-03
  7.3850855e-02
  7.6745689e-02
 -6.9772050e-02
  6.8998344e-02
 -1.2526302e-01
  8.9379717e-03
  6.8900563e-02
 -3.4375291e-02
 -5.4967433e-02
 -1.0697187e-01
 -7.6693080e-02
 -8.7703383e-03
 -1.1069259e-01
  1.6025355e-03
  4.3230336e-02
 -5.2146547e-02
  5.2506201e-02
  6.2887795e-02
  2.1964218e-02
 -6.6332720e-02
 -1.1393455e-02
 -4.1995022e-02
 -2.3471962e-03
  2.1851309e-02
  1.4060625e-01
  8.3533861e-02
 -4.7274278e-03
  8.9012153e-02
  8.7156959e-02
  5.0046872e-02
  8.5950354e-03
  1.0732146e-01
  2.5926899e-02
  1.3546606e-02
 -1.3551891e-01
 -4.5933831e-02
 -1.9938268e-02
 -1.8937645e-02
  2.1125680e-02
 -9.3855634e-03
  1.0684519e-01
  1.8694850e-02
  9.0506300e-02
  3.5113501e-03
  3.0953759e-02
  2.5170898e-02
  4.3947324e-02
  3.4972095e-01
  9.8220266e-02
  2.7293772e-02
  7.6222546e-02
 -9.8261885e-02
 -2.5617467e-02
  5.4357657e-03
  3.1872487e-03
 -5.1537100e-02
  1.0460038e-01
 -4.4743769e-02
 -1.6392964e-01
 -6.1168648e-02
  1.8977815e-02
 -1.4455754e-01
  1.9959943e-01
  1.5288631e-02
  2.6964242e-02
  4.0531721e-02
 -8.5443095e-04
  5.4705657e-02
 -2.2685204e-02
 -2.3655828e-02
  1.0861780e-02
 -1.0270607e-02
  2.1670334e-02
 -2.0743594e-02
  1.1133250e-01
  5.9643645e-02
  5.5216681e-02
  4.3236505e-02
  8.4515184e-02
 -1.4622763e-01
  3.6864012e-02
  4.1219216e-02
 -5.0856821e-02
  1.7572919e-02
 -8.4991381e-03
 -3.5532508e-02
 -3.4315120e-02
 -2.9928271e-02
 -9.4032325e-03
 -9.4107799e-03
 -3.3036396e-03
 -3.3077914e-03
  1.3541684e-02
 -6.1269305e-03
 -2.0865006e-02
 -6.6220738e-02
 -4.2208631e-02
 -3.0338168e-02
 -3.5894185e-03
 -1.4072169e-01
 -3.2265421e-02
 -7.8291789e-02
  7.0437409e-02
  2.9871114e-02
 -1.8385731e-02
  6.8846978e-02
 -1.1624511e-02
  1.1819415e-02
  8.9077773e-03
  6.5020390e-02
  2.3914579e-01
  4.4359788e-02
  1.7749779e-02
  2.6880166e-01
 -9.9913813e-02
  5.1007890e-03
  1.4355564e-02
  1.2984946e-01
 -2.0042511e-02
 -7.1442805e-02
 -1.6778550e-01
 -4.9039137e-02
 -9.6739210e-02
  5.1741278e-01
 -9.1903493e-02
 -4.1370310e-02
 -4.0378600e-02
 -6.7152202e-02
  4.2306390e-02
 -5.8262605e-02
  2.1628529e-02
 -4.2323638e-03
  6.6018991e-02
  7.0283580e-01
  2.1566693e-02
  5.0857194e-02
  1.3882254e-01
 -1.3976109e-01
  7.5445034e-02
 -2.6834762e-01
 -1.0494970e+00
 -1.4262934e-01
  1.1964819e+00
  6.6200458e-02
 -2.0901106e-02
 -2.3384336e-02
 -9.6228309e-02
 -2.3637073e-01
  1.1174627e-01
  6.3194567e-01
  9.3545514e-04
  8.2084842e-02
  2.1467637e-02
 -6.6841358e-01
  1.6333900e-02
  6.0050927e-02
  5.6931842e-02
  3.8091149e-03
 -9.3293451e-03
  7.9451408e-04
 -5.6445692e-02
  1.4029537e-01
  8.0748327e-02
 -3.6395434e-02
 -4.1470867e-02
  9.8703541e-02
  1.1076864e-01
 -5.4377747e-01
  6.6575402e-01
  1.1629928e+00
  4.6326958e-02
  3.8072772e-02
  1.6626453e-01
  1.2262777e+00
  3.9890203e-01
 -4.6397594e-01
  6.3882694e-02
  3.8157859e-01
 -9.0350643e-02
 -3.9696681e-01
  2.0794053e-02
  7.7159107e-02
  2.4736877e-01
  9.2288858e-01
 -1.5537955e-01
 -1.1322951e-03
  2.0443625e-03
  1.8235371e-02
  5.2225137e-01
 -6.0396069e-01
 -3.9882749e-02
 -8.5722849e-02
 -4.5880161e-02
  3.3644941e-01
  6.8834908e-02
 -1.8092929e-01
 -2.4777290e-03
 -1.0839893e-01
 -1.5766215e-02
  2.5167393e-02
  2.8677473e-02
  2.1495324e-02
  8.6671330e-02
 -9.0177869e-03
 -1.0710841e-03
 -1.9752115e-02
 -8.3853453e-02
  5.9158504e-03
  4.1253556e-02
 -4.2388715e-02
 -2.0855756e-02
  2.3638460e-01
 -3.1562150e-03
 -2.8690690e-02
  1.2304603e-01
 -5.7876488e-04
  6.0546533e-03
  5.9627585e-02
 -3.8556032e-02
  1.8708793e-02
 -5.5921613e-05
  9.0372607e-02
  2.2038108e-02
 -3.8875388e-03
  6.4587155e-03
 -1.4240771e-02
 -5.8764271e-02
 -3.0790348e-02
  2.2350799e-02
  7.2221152e-02
  2.1404879e-02
  4.1158624e-02
 -1.4619774e-01
  4.5116805e-02
 -5.2973740e-03
 -2.4112039e-03
 -2.3182211e-02
  6.3164204e-02
  1.4792235e-01
  3.9549839e-02
 -9.2204167e-03
  2.0390518e-02
 -2.5339253e-02
  2.8442277e-03
  3.0235566e-02
 -1.2426252e-02
  1.4497703e-03
  1.5942101e-01
 -9.5322192e-02
 -1.7226583e-01
 -9.9135749e-03
  1.2396788e-04
  1.1636542e-02
  8.1175387e-02
 -7.0953988e-03
 -4.8895489e-02
  6.6092201e-02
  1.0243747e-02
  4.3996803e-02
 -4.7441803e-02
  3.9237686e-02
 -1.2200030e-02
  1.2348969e-01
 -1.2349030e-02
  1.1077151e-01
 -3.9856989e-02
 -6.3182935e-02
 -8.7280599e-03
  1.9000025e-02
  2.3567613e-02
  9.1205956e-03
 -5.2925102e-02
 -2.2059701e-02
  8.5806279e-03
  2.7448816e-02
  5.2969130e-03
 -1.0646208e-01
 -1.2802042e-02
 -1.0758568e-01
  4.2693432e-02
 -1.3749622e-02
 -4.6457179e-02
 -2.8591512e-02
  5.1005542e-02
 -8.9938283e-02
 -6.4220518e-02
 -1.0112837e-01
  6.6818902e-03
  6.7830130e-02
  8.6764321e-03
  1.9430006e-02
  4.2637799e-02
  1.2053657e-01
  6.0670149e-02
  2.0060614e-02
  8.8837594e-03
  4.2176139e-02
  3.5844326e-02
 -1.4460720e-02
 -1.0276560e-01
 -2.8729476e-02
 -1.6944380e-02
 -5.4564225e-03
 -1.1623159e-02
  7.3967311e-03
  1.1398737e-01
  4.0566683e-02
  3.1648809e-04
  3.8436279e-02
 -2.7535450e-02
 -2.4065843e-02
 -2.6949609e-02
 -1.8114245e-02
  4.1075177e-02
  3.1332482e-02
  3.4161828e-02
  1.7138463e-01
 -6.8955898e-01
  7.2063185e-02
 -3.4733358e-01
 -6.5220279e-01
 -5.2359169e-03
 -8.3785367e-01
 -1.7165413e-01
 -2.5702873e-02
  4.7417870e-01
 -1.2563077e-01
 -1.6995665e-02
 -2.6342833e-01
  4.3045616e-01
  2.1595955e-02
  3.6998928e-01
 -3.2829836e-02
 -1.3287500e-01
  1.5466569e-01
 -4.9066974e-04
 -8.4024094e-02
  1.8549284e-01
 -1.0517313e-01
 -1.6111997e-01
  8.7373957e-02
  1.7367183e-01
  2.1559818e-01
  1.2514272e-01
  4.9495310e-02
  2.0094051e-03
 -2.3067756e-01
 -6.2334853e-01
 -1.3014090e+00
  1.5133526e+00
 -1.7276249e+00
  1.3820248e+00
 -4.0342055e-02
 -8.9158338e-01
  1.5788213e+00
  1.4662828e+00
  3.6314502e-02
  4.7221091e-01
 -4.1025668e-01
  5.4270190e-01
 -9.6135668e-02
 -3.2688737e-02
 -4.8302718e-02
 -1.8832215e+00
 -2.7769402e-01
  8.0882624e-02
 -5.9385818e-01
 -1.3642377e-02
 -7.0100164e-01
  3.8635924e-01
 -1.1493380e+00
  1.7320845e-01
 -2.0540453e-02
 -6.8522877e-01
  2.0425491e-01
  5.8803476e-02
  4.0756185e-02
 -6.2891483e-01
  3.1121823e-03
 -4.1450143e-02
 -1.4671651e-01
  4.1778296e-02
 -1.0538453e-01
 -8.4731430e-02
  3.6107488e-02
  1.4218655e-01
 -1.0482456e-01
 -2.9055566e-01
 -2.0320389e-01
  1.3071287e-01
 -7.0517361e-02
  6.3903815e-01
  4.7741886e-02
  5.0741088e-01
  1.9715974e-01
 -9.0960838e-02
 -9.0378396e-02
  2.8572816e-01
  4.0368578e-01
 -4.4916671e-02
 -7.7740498e-02
  1.3040382e-01
  6.2853798e-02
  2.1598764e-01
 -1.7987914e-02
  3.9729863e-02
 -2.3021596e-04
 -3.7738346e-03
  6.4518643e-03
 -2.6344467e-02
  6.3558921e-02
  4.2663296e-03
  1.0702595e-02
  3.6656436e-02
  6.3618176e-02
  3.0456815e-02
 -1.3611167e-02
  1.0855787e-01
  1.2760988e-01
 -1.3214030e-02
  7.4642792e-02
 -1.1505061e-01
  2.0185404e-02
  5.4110748e-01
 -9.9104049e-04
  6.0947943e-02
 -6.7553431e-02
 -3.7729755e-02
 -4.9130432e-02
 -9.8924816e-02
 -4.2743221e-02
 -3.8521326e-01
 -7.3517404e-02
 -2.5970396e-02
 -9.6330876e-03
  2.0889662e-02
  9.4477758e-03
 -1.1002745e-02
 -1.7082423e-01
  4.3675851e-02
 -5.4017283e-02
 -4.4886034e-02
 -8.6499238e-03
 -1.7404556e-02
 -2.3303183e-02
  6.8841614e-02
 -3.3877477e-02
 -1.0296328e-01
  3.1218274e-02
 -5.5005431e-02
 -1.6546315e-02
 -2.0923577e-03
  1.1956192e-01
  4.9169490e-04
 -4.5535010e-03
  5.6291590e-03
 -3.9207995e-02
  1.0954004e-02
 -2.9550584e-02
 -2.0002777e-02
 -3.3284243e-02
  1.3374376e-02
  1.4560057e-01
  7.2458950e-03
  1.5549946e-02
  2.5512384e-02
  4.5494206e-02
  5.1149603e-02
  5.8417190e-02
  4.5393463e-02
 -3.1315859e-02
  2.0334989e-02
 -9.2621960e-02
 -3.1881377e-02
  4.3491665e-02
  6.3714948e-03
 -4.7580626e-02
 -2.0841356e-02
  1.6616134e-01
  2.1758312e-01
 -7.1551956e-02
  3.4186454e-03
  3.1364296e-02
  6.0899954e-02
  1.7859032e-02
 -4.4304200e-02
 -2.6149608e-02
  1.2872310e-01
  1.0483181e-02
 -3.7209094e-02
  4.5209695e-02
  9.3860745e-02
  1.7865046e-03
  4.3828022e-02
  2.2624664e-02
  2.2751398e-03
 -7.6156490e-02
 -5.9086934e-02
 -4.2971402e-02
  2.1089284e-02
  4.4656143e-02
  2.1389810e-02
  3.3342399e-02
  7.3540197e-03
  3.1561755e-02
  8.1881471e-03
 -2.1718966e-03
  2.7243489e-02
  2.6508957e-02
 -2.6797013e-02
  3.6183383e-02
 -2.0425359e-02
  8.5548824e-03
  4.2508802e-01
  3.6632359e-02
 -4.7529314e-02
 -2.9682609e-01
 -1.5559044e-02
  5.4205056e-02
 -1.0740239e-01
  4.9471714e-02
  1.1317213e+00
  1.0413080e+00
  1.5587277e-02
 -1.5004213e-01
  3.5460230e-02
 -8.2512498e-01
 -1.2894532e-01
 -1.9887142e-02
 -2.5269140e-02
 -6.6643752e-02
  2.5561458e-01
  1.5497734e-02
  1.7136957e-02
 -3.7103340e-01
 -3.2107869e-01
 -1.1321195e-01
 -1.9398667e-01
 -3.6654666e-02
  3.5971213e-02
  2.7577518e-02
 -1.0683248e-01
  5.5748038e-02
 -1.6700173e-02
  1.3583084e-02
 -6.9315791e-02
  9.5615638e-03
  3.1060493e-03
 -2.3383647e-02
 -1.5178151e-02
  4.4742972e-01
  9.3040481e-02
  2.6424137e-01
  8.3013803e-02
 -2.8469251e-03
  9.3255818e-02
  1.9580135e-01
 -2.4997037e-02
 -5.1214188e-01
  9.3581397e-03
 -2.0840853e-01
  4.2197151e+00
  6.7353296e-01
 -4.8915535e-01
  3.1502023e-02
 -8.3430827e-02
  5.2540833e-01
 -1.4140981e-01
  4.7055870e-01
  6.6114289e-01
  7.1593218e-02
 -1.2719049e+00
  2.0084522e+00
  5.8507657e-01
  1.0607205e-01
  3.8101599e-02
 -1.0260228e-02
  1.3137418e+00
 -3.7073631e-02
  4.0799651e-02
  4.1029312e-02
 -5.3754991e-01
 -1.4790279e-02
 -5.2648485e-01
  6.2149459e-01
 -1.3028258e+00
  3.2895371e-01
  6.5880887e-02
  4.7064155e-02
 -1.7040019e-01
  1.8693146e+00
  2.2451606e+00
  9.0390837e-01
 -4.1447395e-01
  6.4067640e-03
  1.7671604e-01
  1.0014913e+00
  1.1147003e-01
  8.1145924e-01
  4.4902053e-01
  4.2193460e-01
  1.6751853e-01
  1.4728200e-01
  1.9287296e-02
  2.2469445e-01
  1.3552111e-01
 -2.0301629e-02
  6.5335862e-02
 -7.6555751e-02
  1.2523296e-01
  9.6359141e-02
  4.9052684e-04
 -3.8933561e-03
  1.0623070e-02
 -2.5553197e-02
 -1.2136143e-01
  7.4385349e-03
 -8.5138818e-03
  3.2620698e-02
  5.8782633e-02
  1.4312994e-02
 -3.0988790e-02
  4.1580070e-03
 -1.0956994e-01
 -8.0006912e-02
  3.3880979e-02
  2.0649312e-02
 -6.5762997e-03
 -3.1667817e-02
  5.3060618e-03
  6.8128489e-02
  8.3760647e-03
 -1.2867643e-02
  4.2612245e-03
  1.7980525e-01
  7.6016456e-02
  3.3374339e-01
  4.0427005e-01
  3.1411782e-02
 -1.7709628e-02
  3.5955571e-02
  1.3329668e-01
 -1.5209304e-01
 -1.2690280e-02
  2.2999596e-02
  6.4069763e-02
  4.7793475e-01
  1.2700556e-01
  5.1796087e-03
  3.4638029e-02
 -4.2367792e-03
 -1.6662744e-01
 -4.4355758e-02
  1.3316993e-01
  5.6634283e-01
 -3.3453861e-01
 -9.5965333e-02
 -6.9275580e-02
 -4.9910173e-02
 -4.6069944e-01
 -1.6259036e-03
 -1.0377343e-01
  4.2824030e-02
  7.9352975e-02
  8.2527578e-01
 -8.8796452e-02
  9.6640112e-03
  1.1374899e-02
  1.6002089e-01
 -3.9336767e-02
  1.4158241e-01
  2.5986062e-02
 -5.2858077e-02
  3.1661844e-01
  4.6143930e-02
  2.0079787e-01
  2.0389928e-01
  4.3781117e-01
  9.0861402e-02
 -9.1926739e-02
  3.5412827e-01
  1.8241684e-01
  4.2931654e-02
 -4.2314298e-02
  4.2739812e-02
 -5.2908074e-02
 -2.0892753e-01
 -4.1001238e-02
 -3.0886086e-02
  4.4536856e-03
  4.7571087e-01
  8.9855656e-02
 -1.4978610e-03
  2.2360221e-03
  6.7432173e-02
  5.9806362e-02
 -7.9803683e-02
  2.7036807e-01
  3.0009243e-01
 -2.4329223e-02
  7.4336326e-01
  1.2490956e-01
 -2.0270301e-03
  6.7341834e-02
  4.6728092e-01
  1.5731126e-02
  2.5813809e-01
  2.4164782e-01
  3.4818286e-01
  3.3366047e-02
  1.1444997e-01
  8.6176209e-02
 -1.9584641e-02
  4.4671625e-02
  1.4146826e+00
 -6.3412619e-01
 -4.2459792e-01
 -7.6989877e-01
  1.8632371e+00
  6.6107213e-02
  4.9582962e-04
  2.7450481e-02
 -7.3447220e-02
  5.8570921e-01
  4.7102094e-01
  4.0105209e-02
 -8.2629102e-01
  2.1658504e-01
 -4.0160131e-02
 -6.2968224e-02
  1.4030269e-01
 -2.0815565e-01
  1.8242417e-02
  3.4709656e-01
  1.5734304e-02
  5.3230828e-01
  1.1324789e-01
  3.5396481e-01
  2.5768707e-02
  1.2354391e-01
 -2.4291124e-02
  4.3010178e-01
  6.4273126e-02
 -2.6757339e-01
 -6.2131811e-02
 -1.7616542e-01
 -2.0273797e-01
  1.3069902e-01
  2.5879064e-01
 -6.6559523e-01
  1.1445593e+00
 -1.5819861e+00
 -2.5680107e-01
 -1.8342130e+00
  1.3543062e+00
 -2.8985384e-01
 -1.4101838e-02
  6.5753229e-02
 -1.1625494e+00
 -4.4723964e-01
  1.2050728e-01
  1.2453758e-02
 -5.8861309e-01
 -6.2142515e-01
 -4.5557651e-01
  1.8169221e-02
 -1.0172373e-01
 -2.6294705e-01
  4.2403802e-01
  8.2542323e-02
 -4.1961879e-03
  5.1542699e-01
  4.1197798e-01
 -1.3250731e-02
 -1.0295656e-02
  4.5800203e-01
  1.1742661e+00
  9.1013551e-01
 -3.7130105e-01
 -1.9479084e-01
  2.7779719e-01
  2.0439924e-01
  3.3437271e-02
 -1.3851146e-01
 -1.6165562e-02
 -9.9803440e-02
  1.2330525e-01
 -4.6570322e-01
 -2.3887116e-02
 -7.8127414e-01
  5.6360573e-01
 -1.5874168e-01
 -1.5307328e-02
 -2.2098359e-01
 -4.2607048e-01
  2.2427052e-02
 -7.7380407e-01
 -8.1467316e-02
 -7.0650244e-01
  2.4590181e-01
  1.8459296e-01
  3.0207797e-04
  3.9837915e-01
 -4.6503815e-01
  4.4695458e-01
 -8.9232612e-01
 -1.5224046e-01
 -4.2449683e-02
  7.5433874e-01
 -7.3630519e-02
 -1.7262435e-02
  1.2544373e-02
  1.8324900e-01
  4.9067083e-01
 -8.2771283e-01
 -3.2344526e-01
 -7.3989266e-01
  4.9843824e-01
 -6.3803460e-04
 -8.6934194e-03
 -8.5496344e-03
 -8.5204296e-02
  2.8665870e-01
 -4.0215188e-01
 -1.2435568e-02
  1.4331581e-01
  2.6892731e-01
  1.9374499e-01
  3.8415905e-02
  1.4248890e-01
 -5.9682827e-02
 -1.6485626e+00
  3.1055987e-02
 -2.5590032e-01
  1.0888704e+00
 -2.0144334e+00
 -5.1082950e-02
  1.0564194e-01
 -4.1492775e-01
  6.1526846e-02
 -1.7811944e-01
  1.3289729e+00
  3.7035319e-01
  2.3964365e+00
 -2.3127465e+00
  3.8760552e-01
 -1.5071860e-01
 -2.8824313e-02
 -8.8130772e-02
  4.8222822e-01
 -2.3151526e+00
 -5.9451801e-01
 -1.8753030e+00
  1.0603528e+00
 -6.0998672e-01
  2.9403672e-01
 -7.0735767e-02
  1.0358703e+00
  1.2439336e+00
 -3.0817129e-02
  1.8593420e-01
 -4.4212571e-01
  8.5402060e-01
 -5.8221442e-01
  2.0065947e-01
 -3.6975652e-02
 -4.5735130e-01
 -2.8907263e+00
  2.3589647e+00
  2.9945099e-01
  4.2513623e+00
 -1.8675905e+00
  8.2510352e-01
  7.0684217e-02
  5.1598334e-01
  1.3343256e+00
 -1.2792854e+00
  1.1633067e+00
 -8.5794188e-02
  7.3440486e-01
 -8.2982254e-01
  3.6808395e-01
 -1.6979037e-02
  8.3631128e-02
  4.6002147e-01
 -7.3218301e-02
 -8.3069724e-01
 -3.9429054e-02
 -8.9991100e-02
  1.1451321e+00
  2.8685907e-01
 -4.5997277e-02
  1.4717692e-01
 -5.4472214e-01
  3.1839165e-01
 -1.1218714e+00
  3.7780926e-01
 -7.3301542e-04
 -3.8067121e-02
  2.3947006e-01
  5.9318142e-03
 -1.2109407e-01
  1.3371704e+00
 -1.0114555e+00
  5.9088147e-01
  2.3430926e-01
  7.5190163e-01
 -1.6819073e+00
  1.1927003e+00
 -2.4869669e-02
 -1.0341083e-01
  4.5827150e-01
 -1.0258888e+00
  1.8520080e+00
 -7.1187183e-02
  7.4546516e-01
 -6.5827221e-01
  6.5563968e-03
  3.7262231e-01
  5.5180883e-01
 -1.8232902e+00
 -1.7788373e-01
  7.3015231e-01
  4.2553470e-02
  1.2133861e+00
  1.0204000e-01
 -1.4807305e-01
  6.3594565e-02
  1.3512649e-01
 -1.0193899e+00
  4.0385926e-01
 -7.3902464e-01
  8.2518101e-02
  1.1658769e-01
  3.6663598e-01
  1.2461357e-01
  6.0762268e-01
 -2.2809322e-01
  5.1027638e-01
 -1.9425961e-01
 -4.2508036e-01
  1.4090477e-01
  6.9294684e-02
  4.8266414e-01
  5.1330417e-01
  3.7748623e-01
  1.4596666e-01
  9.5991802e-01
  5.0698265e-02
  6.7786455e-02
  9.7186901e-03
 -4.6211326e-01
  2.2548847e-03
 -7.3857732e-02
  1.3736235e-01
 -1.5352291e-02
 -3.7224121e-02
 -1.8337261e-02
 -9.6378952e-02
 -9.1923577e-01
 -1.2314141e-01
 -1.8424337e-01
 -5.2995458e-03
 -2.9926528e-03
  1.0047019e-01
  5.5227768e-02
  3.5134271e-02
 -1.5747271e-02
 -1.0264835e-02
 -7.1947575e-02
  2.7913302e-01
 -1.9004684e-02
 -1.6637206e-02
  2.0161830e-04
 -5.7247444e-03
 -8.7498398e-03
 -1.1543586e-01
  3.6937904e-02
 -4.2431572e-01
 -1.7780018e-01
 -3.3849906e-03
 -1.4637145e-01
 -5.0093144e-01
 -2.6853245e-01
 -9.2486292e-02
  1.3661210e-01
 -1.4568914e-03
 -7.2513664e-01
 -4.7880179e-01
 -7.7154115e-02
 -9.1855019e-02
  5.4030925e-02
 -4.2319961e-02
  1.4866741e-02
  7.7542894e-02
  1.7893487e-03
 -1.0611396e+00
  1.2134149e-02
 -1.1619087e-02
 -7.1600743e-02
 -2.4905596e-02
  2.1948911e-02
  8.0518395e-02
  4.4068068e-02
  9.4664842e-03
 -2.9616901e-01
 -3.3361081e-02
  1.8753257e-02
  5.6957863e-02
 -1.1724152e-01
 -1.7543837e-02
 -1.4290496e-02
  6.5244045e-03
  1.1072230e-01
 -1.2172091e+00
 -5.0025851e-01
 -6.0655311e-02
  4.1148845e-02
  5.5120587e-02
  1.9188674e-02
 -1.6263500e-03
 -1.5403946e-02
 -5.4627251e-02
  1.0299847e-02
  1.7202851e-01
 -5.5934530e-02
 -2.0579364e-02
  1.6936867e-02
 -1.3231033e-01
 -8.2982510e-02
 -1.0833793e-01
 -3.3054944e-02
  8.1180539e-03
 -1.3327200e+00
  5.4031182e-02
  5.1063057e-02
  2.9990101e-02
  1.7892770e-02
  4.1188248e-02
  4.7626983e-02
 -8.7118439e-02
 -2.2042610e-01
 -6.5395348e-02
  1.7256857e-01
 -4.1066926e-02
  1.2611009e-01
 -1.1910694e-02
 -1.3880271e-03
 -1.0975622e-02
  5.9182666e-02
 -7.6153046e-01
  1.2854116e+00
  7.4941166e-02
  4.8261862e-02
  6.1545327e-02
 -1.9886050e-01
 -3.9834984e-02
  1.4627871e-01
  1.1368532e-01
 -1.0371113e-01
 -1.3906704e-01
 -6.9025360e-02
  5.1580823e-04
  5.1646944e-02
 -6.2895603e-02
  1.2504691e-01
 -1.4899863e-01
  1.4856276e-02
 -2.0906547e-01
 -1.5944801e-01
  3.9174080e-02
  6.4514601e-01
 -7.9041803e-01
 -2.3198047e-01
 -4.1297412e-01
  6.9313580e-01
 -1.4727026e-01
  2.2514935e+00
 -1.0179754e+00
  1.3628438e-01
  1.2692447e-04
  2.5171375e-02
 -9.4772160e-01
  2.3996217e+00
 -1.3045954e+00
 -4.2270878e-01
 -2.5918708e+00
  2.3459558e+00
 -1.0348070e+00
 -1.8054305e-02
 -8.5265833e-01
  9.9974525e-01
 -4.5951512e-01
 -5.2343196e-01
 -7.7074595e-02
 -2.8994656e-01
  5.6420547e-01
  1.5786171e-01
  4.2052364e-01
  7.6056033e-02
  9.3871191e-02
 -1.6402535e+00
  1.5346986e+00
  3.0526152e-01
  1.3586034e+00
 -5.4838401e-01
  5.6889188e-01
  1.7977881e-03
 -3.3992732e-01
  1.9976936e-01
 -4.3693745e-01
  1.9134519e+00
 -4.1797042e-02
  1.2916468e+00
 -1.0883163e-01
 -1.4497100e-01
  1.4674972e-01
  1.8763121e-03
 -7.6925826e-01
  1.6500302e-01
 -8.0002435e-02
 -1.0552645e-01
 -1.8841587e+00
  5.2822649e-01
 -2.5186792e-01
 -7.4492425e-02
 -8.3501443e-02
  1.4911950e+00
 -4.5310321e-01
  7.2556317e-01
  1.8452650e-01
 -1.8461696e+00
  9.9113619e-01
  2.7076271e-01
  4.0659386e-01
 -6.3297190e-03
 -5.4046434e-01
 -6.9603509e-01
  6.1698139e-01
  5.0320727e-01
  1.6764777e+00
 -4.3012476e-01
  1.7444077e-01
  1.1460347e-01
  9.3102735e-03
 -5.7433885e-01
  8.6040705e-02
  3.6266068e-01
 -4.2004263e-01
  2.3184588e+00
 -1.0184437e+00
 -1.2244514e-01
 -3.4291938e-02
  2.0184922e-01
 -2.5956225e-01
  9.1410689e-02
 -1.4579213e-01
 -6.8603569e-01
  4.9713439e-01
 -7.3099339e-01
  1.4610235e-01
  4.6403891e-01
 -4.4561108e-03
  4.4395912e-01
 -6.9091111e-02
  3.5827786e-01
 -4.3675873e-02
  3.9978605e-02
 -2.7835646e-01
 -6.5628025e-03
 -4.9813934e-02
  1.0731807e-01
  1.6033556e-01
  1.9307166e-01
 -3.9036319e-01
  3.9261419e-01
  2.6833481e-01
 -1.7550595e-01
  4.2305630e-02
 -4.4234863e-01
 -5.4503387e-01
  1.5065705e-02
 -1.0910699e+00
  5.3226703e-01
  3.2086632e-01
 -2.4726738e-01
  4.6122953e-02
 -2.3742619e-01
 -3.4270084e-01
  3.4649566e-02
 -1.4818560e+00
 -1.8104913e-02
 -2.6813019e-02
 -5.5444200e-02
 -2.0524581e-01
 -8.3022609e-02
  3.8838267e-02
 -1.1272518e-01
  7.5433955e-02
 -5.4445423e-02
 -8.3750105e-01
  7.2910406e-02
  1.1677090e-01
 -1.1420228e-02
 -1.7002117e-02
 -1.9327931e-02
 -2.2331491e-02
  2.3908634e-01
 -6.2428844e-01
 -2.2358803e-01
  4.4314501e-01
  6.9186276e-01
 -6.3649678e-01
 -1.7407151e-02
 -1.9144771e-01
 -5.9008300e-01
 -2.4110274e-02
 -1.0200409e+00
 -3.1074107e-01
  7.7391267e-01
  1.7811993e-02
 -3.5901043e-01
 -1.4838815e-01
 -9.0611003e-02
  2.7731720e-02
  4.9100678e-02
  4.2620027e-01
 -6.2164563e-01
 -2.9582700e-01
  5.4681969e-01
  6.3938683e-01
  3.2006377e-01
 -2.4731712e-01
 -1.2538067e-01
 -1.3942317e-02
 -7.5221932e-01
 -3.9418176e-01
  8.6409670e-01
  1.8284321e-01
  2.0258345e-01
  5.1807519e-02
 -5.0389429e-04
 -3.4680510e-01
 -1.1064568e-02
 -2.5555933e-01
 -3.1718728e-01
  8.9904018e-02
 -1.2077173e-01
 -9.6273071e-01
 -1.6450576e-01
 -2.5826707e-02
 -4.8611131e-03
  7.1376048e-02
 -2.7885252e-01
 -4.6881819e-01
 -1.2859057e-01
  1.0548153e+00
 -1.2703049e-01
  7.4794906e-01
 -1.6869481e-01
 -7.9611707e-01
  4.3597709e-02
 -5.0526756e-01
 -3.2001379e-01
 -1.2077722e-01
  3.6928348e-02
  1.0003193e-01
 -3.2420305e-03
 -1.6084198e-02
  1.2213861e-02
 -4.7775339e-03
  1.3190509e-01
 -3.8245836e-01
  4.2983726e-01
  9.7713083e-02
 -9.1742568e-02
  1.0698475e-01
 -2.6123498e-02
 -2.5136609e-02
  1.9045557e-01
 -2.0969433e-01
 -1.0919750e+00
  3.5887071e-01
  3.3792630e-01
 -5.7060248e-01
  3.1005353e-02
  7.1611386e-03
 -9.7299635e-01
 -2.1991816e-03
 -7.9843259e-01
 -4.4237065e-01
  1.9489491e-01
 -7.4358113e-02
  4.6703121e-01
 -8.1256226e-02
  2.4994079e-02
  1.3468377e-01
  2.6792240e-01
 -2.3414160e-01
 -1.0240482e-01
 -8.7551284e-01
 -9.7542000e-01
  1.8937331e+00
  3.9372230e-01
  8.5696906e-01
 -4.4859212e-02
 -5.3547462e-03
  6.2593997e-01
 -1.7814882e-02
 -1.3197631e-01
  2.4597559e-02
  1.5189867e-01
  1.0482308e-02
 -4.5101095e-02
 -1.1423919e-02
  4.7109760e-02
  3.6615532e-02
 -4.9740029e-03
 -2.3178612e-01
 -6.4574905e-02
  1.9411979e-02
  2.8791972e-02
  4.7818047e-01
 -2.5395852e-02
  4.6671212e-02
  4.2481765e-01
 -7.0220202e-02
 -6.5196896e-01
  3.5014732e-03
  3.8514739e-01
  3.0235088e-01
  5.2195197e-01
 -9.7088888e-02
 -1.4029203e-03
  1.6284126e-01
 -6.8054396e-01
  1.7993953e-02
 -1.0121898e-01
  2.1887039e-01
 -6.3831404e-02
  2.1460320e-01
 -5.8931123e-02
  2.6702043e-02
  2.4119386e-01
 -1.7565854e-02
 -4.5466819e-01
 -1.2459728e+00
 -4.4638583e-01
  2.4642561e-02
  3.7192473e-01
  3.7770789e-02
 -8.1373453e-02
  5.0903656e-02
 -2.4685892e-01
 -8.4652776e-01
 -1.6595390e-02
  7.8839970e-01
  2.1925578e-02
  2.0370404e-01
  1.3827624e-02
 -6.4101301e-02
  3.0100501e-01
  9.3410894e-02
  1.8544365e-01
 -5.7692182e-01
 -2.0207429e-01
 -4.0407185e-02
  6.8716146e-02
  1.2362687e-02
  4.4524755e-02
  8.5111253e-02
 -9.3066327e-02
 -1.6645866e-02
 -1.7255113e-01
 -1.6665761e-01
  4.8622668e-02
  8.5397553e-01
 -5.7582851e-02
 -3.6922615e-02
  7.0826709e-02
  1.8540915e-02
 -9.2031926e-01
 -2.4380403e-02
  7.7926773e-01
  6.4547122e-02
 -4.9934494e-03
  4.6512663e-02
 -2.0109726e-02
  5.5745095e-01
  1.8919755e-02
 -6.0425991e-01
 -8.9892024e-01
  7.2897351e-01
  6.7678313e-03
  3.4721994e-01
 -3.5539251e-02
  5.8775268e-02
 -3.4373462e-02
 -4.9414223e-01
  6.7340851e-01
 -1.0346815e-01
  4.3267231e-02
  6.0126013e-01
  1.0587219e+00
 -3.4673098e-03
 -1.5705642e-01
  7.9035270e-01
  4.8865046e-02
  6.1875448e-02
 -7.6110166e-01
  3.7743155e-02
  1.7643949e-02
  2.3738764e-01
 -2.4087707e-02
  8.4739827e-02
 -1.1882611e-02
  1.8354952e-01
  8.0458671e-01
 -1.2852485e+00
 -1.2106175e+00
 -1.5424523e-01
 -6.4243835e-01
 -6.2785184e-01
  6.3964707e-01
 -1.3454683e-01
 -1.0028209e-01
 -7.4017137e-02
 -3.1248946e-02
 -6.5542561e-01
 -8.4559649e-02
 -1.2058448e-01
  7.5037949e-02
  4.3036390e-02
 -2.7106885e-02
  2.6015940e-01
  2.4843666e-01
 -6.0088581e-01
  2.8505862e+00
  3.4347382e-01
  2.0756267e-01
 -3.9133459e-01
  3.5856175e-01
  6.8582818e-02
 -1.3806687e-01
  4.1369662e-02
 -5.7335442e-01
 -1.8267626e+00
  6.2676764e-01
 -1.5187968e+00
 -2.2847337e-01
  7.1817741e-02
 -6.0614246e-01
  9.3137048e-02
  2.8889087e-01
 -4.2708558e-03
 -4.3384218e-01
  2.3592483e-02
  6.6290349e-01
 -4.8315428e-02
  3.1981021e-01
  4.2250443e-01
  7.2401678e-03
 -5.9568107e-02
 -1.2465093e+00
 -9.7121626e-02
  8.6007577e-01
 -3.3460620e-01
 -5.3919166e-01
  6.3884598e-01
 -4.4790545e-01
  6.9862339e-03
 -1.9471663e+00
 -3.4333447e-01
 -5.1410937e-01
 -3.4375170e-01
 -1.2746845e+00
 -1.9548997e-01
  1.0721347e-02
  2.9894395e-03
  5.4759532e-01
 -2.8783697e-01
 -5.5138785e-01
 -1.4923811e-01
 -3.7518296e-01
  4.5088333e-01
 -3.6649901e-01
  3.3962166e-01
  2.3620447e-02
  4.0518841e-01
  5.4512674e-01
 -1.2614827e+00
 -3.2227322e-01
  9.1109115e-01
 -4.6127629e-01
 -3.1761491e-01
  2.1962564e-01
 -4.7743735e-01
  1.2349604e+00
  7.0661473e-01
 -1.2462001e-02
 -1.2906121e+00
  5.4533845e-01
 -1.9604130e-01
 -6.7239478e-02
  6.4334527e-02
  6.7343697e-02
  1.8023126e-01
 -1.0425450e+00
 -1.1554476e+00
 -1.0019562e+00
 -3.0254737e-01
  4.7832724e-01
 -3.8037476e-01
  4.7687012e-01
 -5.0378817e-01
  1.1751921e-01
 -8.5871148e-01
 -1.2706014e+00
 -3.0089366e-01
 -3.4704053e-01
 -7.4373007e-01
 -4.8738282e-02
  6.0822457e-01
 -3.0763254e-01
 -1.7603838e-01
 -4.6024626e-01
 -9.9302195e-03
  2.8448924e-01
  8.1772469e-03
 -8.9300209e-01
 -3.3439794e-01
  2.0017201e-02
  2.3573153e-01
 -1.8081538e-01
  5.2084488e-01
 -7.0851803e-01
  6.7589033e-01
 -1.3680087e+00
 -2.7376366e-01
 -7.3692575e-02
 -1.0411928e+00
  9.0894133e-01
  1.7841822e-02
  2.4856958e-01
  5.1415194e-02
  2.3778243e-01
 -1.0587912e-01
 -1.0648130e-02
 -3.7643623e-02
 -1.2974311e-01
  8.7685935e-02
 -1.3737480e-01
 -2.3432949e-01
 -8.3204851e-02
 -5.5476587e-02
  6.4189412e-02
 -1.3176931e-01
  5.3311647e-03
  3.1080535e-01
  1.2338581e-01
 -9.2482448e-01
  9.5099121e-01
 -7.1246243e-01
  3.7896672e-01
 -3.9850631e-01
  3.5723276e-02
 -7.1874991e-02
 -9.4766635e-01
  6.0342407e-01
  4.3934561e-02
  4.7734576e-01
  6.7851156e-02
  1.4916434e+00
  1.1936527e-02
  3.4633204e-02
 -5.6401137e-02
  9.5511824e-02
 -1.3033493e-01
 -1.0963908e+00
 -3.5689035e-01
 -7.7316767e-01
  4.8714957e-01
 -1.9983843e-02
 -2.4305563e-03
 -5.5105530e-02
 -5.4650649e-02
  3.2679662e-01
 -4.3567419e-01
  7.2605187e-01
 -1.1887363e-01
  6.7874134e-01
 -3.4578723e-01
 -1.0973576e-02
 -2.9375346e-03
 -6.1258423e-01
  1.1039615e+00
 -4.6993475e-02
  5.9760767e-01
 -4.9923364e-02
  4.9596742e-01
  5.3026778e-01
 -2.5598601e-01
 -5.2950125e-02
  2.0365025e-01
 -9.4253111e-01
 -4.9410662e-01
  4.3610916e-01
 -6.8986017e-01
  5.8663529e-01
 -1.4829518e+00
 -3.7939042e-02
 -1.8989617e-01
 -2.4534802e-01
  9.9328655e-01
 -1.0000564e+00
  1.3077471e-03
  4.9802594e-02
 -1.8479942e-01
 -3.1581590e-01
 -6.0891178e-02
 -2.4187745e-01
 -1.4475714e-01
  3.5117036e-01
 -9.6735573e-01
  6.8875030e-03
 -1.8644272e-01
 -2.3278265e-01
  1.2922012e-04
 -1.1842995e-01
 -4.8328586e-02
  3.0451490e-02
  5.9336269e-01
 -1.1938272e+00
 -1.7752975e-01
 -3.6728266e-01
  1.3452154e-01
 -6.6301072e-01
 -4.3962285e-02
 -1.9777000e-01
 -2.2471145e-01
  7.8560728e-01
  6.5994963e-02
 -1.1052993e-01
 -3.3631902e-02
 -1.6094440e-01
 -8.9385653e-01
  6.0192324e-02
 -2.1536140e-02
 -1.8262933e-01
  3.9207861e-01
 -2.3403399e-01
  2.5614503e-01
 -1.3871950e-01
 -2.9849561e-02
  3.9816599e-02
 -5.7185698e-02
  1.4839066e+00
  6.9707936e-01
  2.2827502e-02
 -2.8059626e-02
 -4.0158558e-01
  4.3900199e-02
  4.9859034e-03
  2.0107884e-02
  1.7456827e-03
 -9.6820518e-03
  4.3743979e-02
 -2.5506156e-02
 -1.2297375e-02
  1.3514915e+00
 -4.9214888e-02
 -3.8485712e-01
  2.1859942e-01
 -2.2308523e-02
  4.7537759e-01
  5.7438645e-04
  3.7568426e-01
 -1.6047999e-01
 -4.1550553e-01
 -3.0494526e-01
  7.6405209e-01
 -2.1579277e-02
 -1.7057201e-02
  9.5567876e-01
  9.7150600e-01
  8.9066848e-02
 -6.0969871e-02
  3.5818953e-02
  3.1953137e-02
  2.2829455e-01
  8.5486597e-01
 -3.3525703e-03
  3.7922010e-02
  7.5744055e-02
  1.8371443e-01
 -8.8258892e-01
  1.4866243e-01
 -3.5297379e-01
 -1.2354314e+00
  4.1777751e-01
 -2.4962714e-01
  1.1108487e+00
  6.1662477e-01
  2.3245279e-02
 -1.0735727e-01
 -1.5827754e-01
 -2.7327966e-02
  3.6972502e-01
  7.2626519e-01
  3.3824587e-01
  3.3754066e-01
  8.0429065e-01
 -1.6393073e-02
  3.4636176e-01
 -1.0026909e+00
 -1.4562950e-02
  1.5205877e-01
 -1.5579409e-02
 -1.0482788e-01
  1.0528305e-01
 -4.8651639e-02
  8.3906829e-02
 -1.6094482e-01
  3.5315412e-01
 -1.0957541e-03
 -8.0296576e-01
  7.9169983e-01
 -6.7770202e-04
  1.0870119e+00
  6.3886327e-01
  1.1315290e-01
 -5.8442540e-02
  4.2465439e-01
  2.2294939e-02
 -5.1840544e-01
  3.6403644e-01
  3.9789718e-02
  4.9670652e-02
  4.4606686e-01
  6.1030742e-02
  3.2351518e-03
 -2.0660506e-01
 -2.1221000e-01
  3.2613647e-01
 -3.1383108e-02
 -5.1769042e-01
  3.8446435e-01
  1.4393540e-01
  5.8481634e-02
 -2.7702909e-03
 -6.9384438e-01
  2.0733362e-01
  2.4314365e-01
 -4.7977019e-02
  2.7283376e-01
  5.9946311e-01
  1.9988781e-01
  2.4099900e-01
 -1.4940678e-01
 -3.7749633e-02
 -4.1744536e-01
 -1.7103021e-01
  1.5505381e-01
  1.1269441e-01
  6.9505513e-02
  4.1838825e-01
  1.1650640e-01
  6.6908458e-03
  6.6908458e-03
  6.6908458e-03
  6.6908458e-03
  6.6908458e-03
  4.4584941e-02
  4.4584941e-02
  4.4584941e-02
  4.4584941e-02
  4.4584941e-02
  3.9796297e-02
  3.9796297e-02
  3.9796297e-02
  3.9796297e-02
  3.9796297e-02
  1.5568715e-02
  1.5568715e-02
  1.5568715e-02
  1.5568715e-02
  1.5568715e-02
  6.2528341e-03
  6.2528341e-03
  6.2528341e-03
  6.2528341e-03
  6.2528341e-03
  2.3872331e-02
  2.3872331e-02
  2.3872331e-02
  2.3872331e-02
  2.3872331e-02
